2405 128
489 0.22618195 -0.07507098 -0.20051394 0.22912233 0.16400239 -0.092401154 0.08333103 -0.026834277 0.14829946 -0.12465294 -0.38787133 0.112798154 0.119648054 -0.2926819 0.002593436 0.14119746 -0.41117167 0.07067608 -0.027235085 0.18085274 -0.01654027 0.12724979 0.19940032 0.15905063 -0.30122584 -0.07544133 0.15019335 0.08518315 0.24518414 -0.15780713 0.5718181 -0.052769385 -0.044937145 0.3892605 0.0054958737 0.022490008 -0.35674718 0.29492217 0.03331282 0.31017125 -0.40362015 -0.14219816 -0.12099063 -0.03392605 -0.15831289 0.24676947 -0.06679684 -0.17455655 0.12223339 -0.15538213 -0.20631197 0.23662592 -0.11919292 0.2165661 -0.06812496 0.033622343 -0.078891315 -0.37317216 -0.08632133 -0.33946103 -0.32979673 -0.22296734 -0.14353281 0.17955646 0.18773425 0.060718395 0.3000295 0.14958395 0.06427427 0.38687915 0.12059058 -0.17940725 0.020052265 -0.11686731 -0.1722157 0.09584737 0.060350038 -0.17434178 0.09331074 0.12765498 0.19086196 -0.0047461684 0.14920342 -0.34944987 0.22375515 -0.03180389 -0.09862987 0.049993593 0.07466966 0.30607066 0.4150223 0.16146602 -0.10257055 -0.18574569 0.154105 0.1787815 0.16803358 -0.078573585 -0.020322314 -0.1829742 -0.05301304 -0.12000197 0.5294233 0.3650905 -0.050408773 0.027734831 0.06421353 -0.07388625 -0.19787163 0.25469396 0.049748544 -0.08092791 0.04118799 -0.4345166 0.13818415 0.070096694 0.06781007 -0.023976931 0.08864496 -0.19011632 -0.49954164 -0.19201297 -0.12464576 0.38020906 0.2292378 -0.17174764 -0.015090366 0.16279018
393 0.19049829 0.021482093 -0.102934465 -0.13500012 0.287486 0.16019234 -0.103023134 -0.06520627 -0.081090145 0.21662977 0.03957115 0.08040804 -0.077200145 -0.037974447 -0.11379822 -0.10860196 -0.06450006 0.010068403 0.2867987 0.10316953 -0.24503554 -0.10440117 0.044324405 -0.030577969 -0.0905231 -0.04312123 0.10074628 -0.2587826 0.21181136 -0.09705051 0.37793988 0.19010603 0.09598845 -0.019987002 0.40149176 0.2718355 -0.19847618 0.43863443 -0.226957 0.24780127 0.30530947 -0.009141996 -0.08425126 -0.10901486 -0.2517074 -0.03910989 -0.08274183 0.24336834 0.058826525 -0.49971625 -0.3276412 -0.4175092 -0.09019835 -0.36544383 0.5408809 0.18165377 0.15974139 -0.51097995 0.21109435 -0.18441948 -0.0861874 -0.12737145 -0.092382915 -0.09047765 -0.1324053 0.18253013 0.08299445 0.12327795 -0.04787494 -0.0022029935 0.033568144 0.069279544 0.5273922 0.15048207 -0.0507687 -0.07577102 -0.06812665 0.033321045 -0.054603506 -0.24291734 -0.1238875 -0.09187271 -0.18912536 -0.11865406 -0.025752855 0.3095631 -0.042970683 0.069944076 -0.101901606 -0.1585256 0.122568436 0.14080441 0.30316767 0.394864 0.19761676 0.011407629 -0.04797432 0.27458894 -0.13970786 0.33263782 -0.2974192 -0.00028191914 -0.029751327 -0.013201411 -0.18879724 0.0037661556 -0.06893743 -0.13373204 -0.27231872 -0.41413346 -0.45200348 0.11618478 -0.12427541 0.01582627 -0.06254713 0.11898193 -0.046260126 0.19934788 0.14514834 -0.19046189 -0.03857319 0.4222945 -0.023773732 -0.010791075 -0.11400475 -0.22128059 -0.20417915 0.26658076
445 0.32883874 0.3740564 -0.0039443276 0.108185016 0.21725461 0.27095374 -0.47660828 0.1753526 -0.2887946 0.049303845 -0.111092456 -0.07443799 -0.15170784 0.039464593 0.1487008 0.25366545 -0.21246882 -0.06483729 0.026564246 0.19803917 0.050316826 -0.23529817 0.07393272 0.15099259 -0.31945607 -0.22925541 0.108343646 -0.019524854 -0.044846617 -0.01056408 0.20699956 -0.43249184 0.040939778 -0.091463864 0.00062952534 0.10936245 0.1035105 0.012321979 0.22985008 0.14985375 0.08516901 -0.017732924 0.19981833 -0.2955434 0.025494665 -0.0062326677 -0.24441016 -0.0011778321 0.17798604 -0.11734856 -0.23878102 -0.021316957 -0.1289364 0.13312522 0.15271628 -0.31464908 0.16621262 -0.13748567 -0.07449478 -0.19205286 -0.1071122 -0.2557371 0.33410978 -0.09641685 0.39573267 -0.078936644 0.05612546 0.08509346 -0.013635413 0.03256029 0.20841041 -0.05465373 0.007228321 0.23909728 -0.42296365 -0.30596748 -0.014045376 -0.11330011 0.50397074 -0.061884463 -0.13591465 0.12643355 -0.013479134 -0.46685252 0.054703955 0.13799131 -0.01747724 -0.30815893 -0.112166375 -0.022845723 -0.19166222 0.12427673 0.1691318 0.29166764 -0.068991914 0.19383149 -0.0327746 -0.029655576 0.04745391 0.26459318 -0.2297139 -0.061825935 -0.19659036 0.40368292 -0.20037457 -0.4866147 -0.26692206 -0.16876744 -0.11594145 -0.19703521 -0.041298535 0.1637121 -0.07146143 -0.14221448 -0.410877 -0.07432257 -0.18387303 -0.08852343 -0.0059186714 -0.07957364 0.027828183 -0.101061895 0.5492739 0.43774354 -0.03580982 -0.113157056 -0.23870607 -0.29909632
526 0.34783062 -0.6396717 -0.23323946 0.6964284 0.2575617 -0.13209218 -0.42934182 0.2216231 0.20520756 -0.23627084 0.21174905 -0.15254375 0.051608186 -0.08972664 -0.43786055 0.23760602 -0.40960282 0.03665586 0.18799964 0.09499712 -0.072411746 -0.045147248 -0.16193438 -0.063255765 0.31332982 0.07409566 -0.33482277 0.11434565 -0.16517314 -0.13929084 0.07417598 -0.24813196 -0.08849981 0.123350784 0.37642238 -0.4446913 0.117053114 0.06916245 -0.29383364 0.11762523 -0.19295377 -0.04226177 -0.19554307 0.28030547 -0.050700493 0.3922898 -0.42299122 0.022515835 0.027020846 -0.17953715 -0.024803435 0.08439237 0.00493801 -0.25120232 -0.008787542 0.09177838 -0.2847406 -0.13220641 -0.26593342 -0.29520875 -0.47273782 0.34918997 -0.12676892 0.034216188 0.19508031 -0.102782644 -0.06112965 0.03415506 -0.12236817 -0.0062969043 5.729126e-05 -0.19033164 -0.022594607 -0.16394082 -0.06002527 -0.25062177 -0.17411947 -0.18954158 0.11345212 0.20185387 0.09730467 0.10801406 -0.00023991775 -0.055085335 -0.45932636 -0.22115225 -0.34335014 0.4234089 -0.17060968 0.5387302 0.31465656 0.1069692 0.2983538 0.093998544 0.48059347 -0.040597916 -0.1866495 0.008310274 -0.11275181 -0.03635552 0.06549116 0.19153431 0.20927572 0.52828777 -0.034786604 0.1910367 0.18321258 0.024651038 -0.5258718 -0.06429975 -0.1072344 0.043068077 0.021110322 0.14875767 0.08593884 -0.11575539 -0.38611725 0.3369597 -0.34802523 -0.06946411 -0.010876268 -0.27291477 0.04344122 0.20623684 -0.22271232 -0.45042664 -0.3917264 -0.12449777
708 0.09729152 -0.13932718 -0.13859941 0.25242 0.039069906 -0.14949301 -0.22459252 0.15204482 -0.10118072 0.28952774 -0.081252635 0.23549376 -0.38076454 -0.22347832 0.26974344 -0.242794 0.34078518 0.30566242 0.0036494266 0.11498564 0.061619718 0.38206545 -0.19444874 -0.07188398 -0.4588219 -0.1966357 0.10440869 -0.054657612 0.10760487 0.22961833 -0.47999558 0.150474 0.046125658 0.09606569 0.22395737 0.5077604 -0.34498057 0.19775282 -0.31204715 0.317722 -0.2823609 -0.075638376 -0.0049296566 -0.14607331 -0.1760808 -0.0046888203 0.11155903 -0.0016378724 0.20550705 -0.4178143 -0.077548675 -0.064890854 0.1881026 -0.112366326 0.1719304 0.031255152 -0.036947362 -0.2959808 -0.3370674 0.15673381 -0.021529676 -0.19017243 -0.003716448 0.075505264 -0.037220377 -0.11742127 -0.254046 0.20920923 0.2283535 0.09910181 -0.15974163 -0.6222944 0.25211817 -0.06615333 0.056746844 0.0074359644 -0.1145722 0.11963142 0.18292168 -0.19806494 0.23788291 0.35316154 -0.17130962 -0.07238411 0.19766785 0.014943805 0.15308581 -0.14518619 -0.61448807 0.19709772 0.38635546 0.5773556 -0.12992737 0.14369617 0.07659257 0.14734522 -0.1050928 -0.20767754 0.21418534 -0.08576074 -0.31498286 0.33331117 0.14113724 0.4168598 -0.16239089 0.083797626 -0.029427148 0.21741517 -0.1813161 -0.33953646 -0.12860224 0.1583153 0.10138767 -0.33902833 0.025375 0.1627935 0.013837767 -0.10337764 -0.2265262 -0.1718162 0.23042649 -0.07626388 0.26651376 -0.19020051 -0.5211085 -0.18270324 -0.3865965 -0.04873531
1412 0.009047043 0.21829529 -0.3091239 0.34186587 0.002178418 0.5759971 -0.24475469 0.32220086 -0.045750786 -0.04299599 -0.18888795 0.10907139 -0.25503674 -0.46631464 0.117339656 0.21975014 -0.18479137 -0.12956806 0.10855335 -0.2727546 -0.06317911 -0.6172148 -0.4020803 0.12433275 -0.41304687 0.3837299 -0.16259319 -0.34172347 -0.21515952 -0.48448664 -0.10886602 0.082587264 0.48457035 0.19888605 0.21374339 -0.14331949 -0.24775092 0.44925582 -0.49568793 -0.03519886 0.30918452 -0.38822323 -0.64953727 -0.30207407 -0.33055127 -0.35046625 -0.21347111 0.04164414 -0.17418255 -0.1211749 0.001963582 0.25470534 -0.18713583 -0.042840526 0.07185299 0.20528321 0.04780591 0.06908257 0.38235578 0.32252783 -0.31068367 0.20556656 -0.15750837 -0.35255992 -0.012903609 -0.31300017 -0.105833314 -0.021608341 0.0036464217 -0.053278364 -0.034001786 -0.018325072 0.0689507 0.16544148 -0.13079537 -0.07985806 0.07004178 -0.15304297 0.14793742 0.0493067 -0.29416755 0.22752433 -0.08243925 -0.02188753 0.06003964 0.018688358 -0.10460877 0.055988505 0.25789675 0.3977093 0.48730394 0.08964699 -0.08013028 -0.11485216 -0.087157704 -0.36308622 0.006336018 0.54065025 0.28224722 0.10993515 0.13470395 -0.0816281 0.29954514 0.21235713 -0.05270354 -0.08376327 0.23025358 0.47588223 0.21491563 -0.32601273 0.14560582 0.09781708 -0.4034619 -0.2596539 -0.102799125 -0.08433695 -0.24737391 -0.07286728 0.23161675 -0.12792985 -0.18500778 -0.15093946 0.26914084 -0.07027775 0.32813495 -0.13117962 -0.07196441 0.061236896
43 0.16937187 -0.033834737 0.3599333 -0.019675177 -0.2011801 0.105285436 -0.4117132 -0.104286015 0.24200784 0.13785677 -0.22143355 0.019367741 0.12557228 -0.08518278 -0.15283102 0.19417638 0.04733621 -0.03498945 0.15485536 0.045729544 -0.699886 -0.06881807 -0.51619595 -0.016813124 -0.26356956 0.442125 -0.40459326 -0.51239127 0.22904325 -0.39724317 0.19169149 0.07535998 0.06560206 -0.06920877 0.43387428 0.027233118 -0.24441494 0.39612845 -0.25897253 0.20673098 0.22832055 0.040962745 -0.37195048 -0.031924766 0.14255281 0.25809094 -0.5485573 0.10978473 -0.00089957746 -0.23731108 -0.23666283 0.17636976 0.16559967 -0.10916314 0.039061386 -0.056582578 -0.34665385 0.33868432 -0.014410325 0.010999376 0.072020926 -0.10372434 -0.0941837 0.01954899 0.27559826 0.09262846 0.1907379 0.5098133 0.1470821 0.03339613 0.412063 0.30081084 -0.42672712 0.22019836 0.10885074 0.2129529 0.38571352 -0.085136816 0.095098004 -0.20711152 -0.035578318 -0.09517583 -0.024992445 -0.25617886 0.45272228 0.080288395 0.0064475723 -0.06648344 -0.12241023 0.11062461 0.0026988972 0.15470028 0.021587994 0.2128269 0.02180897 -0.36972728 -0.2736154 0.11355436 0.14212035 0.25147778 -0.45964274 0.05648404 -0.015566818 0.084827416 -0.123650834 0.050116513 0.17006114 -0.05887872 -0.37214556 -0.2853863 -0.37566656 0.11261785 -0.269407 -0.086210534 -0.05475752 -0.2683351 -0.096548684 0.053637918 0.26840234 -0.035685506 0.19326006 -0.20136568 0.0290832 0.108916394 -0.0109498575 -0.25407127 -0.05289514 -0.23094693
624 0.2636114 0.012089963 -0.08520057 0.40578794 0.27586445 0.0900422 -0.11761498 0.005344543 -0.04207946 -0.26636097 -0.15556435 -0.14653797 -0.07209778 0.04645494 0.07911339 0.11395068 -0.30413175 -0.54479086 -0.08456112 0.026458293 0.2084708 -0.004543346 -0.42827344 -0.2950876 0.4303376 0.21653408 -0.27475494 -0.061190907 -0.1437936 -0.27280724 0.25836092 -0.1580932 0.5581159 0.5025534 0.29834107 0.24526338 -0.09579362 -0.098837726 -0.33520103 0.052013073 0.21747194 -0.046019506 0.09303368 0.13462862 -0.03309875 0.20162964 -0.28463382 0.17247568 0.34449255 -0.32403606 0.022405993 0.7642111 -0.033594705 -0.105348594 0.1849858 -0.06906206 -0.4113414 -0.30141285 -0.07001661 -0.50377613 -0.16191061 0.3143381 0.13705327 0.10494362 0.12748508 -0.20168479 -0.0879293 0.030726155 -0.3786654 0.22237593 0.29200628 0.59688914 0.18780018 -0.21770711 -0.1718735 -0.37190703 -0.10176945 -0.18520042 0.052950624 0.070610315 0.16024865 0.08400488 -0.19085987 -0.5782464 -0.4182768 0.10874903 -0.08869543 0.22424313 -0.16289239 0.8420404 0.5749559 0.5481517 -0.08645607 -0.014959444 0.52328414 -0.38434803 -0.33576494 0.06837492 0.24329944 0.3039283 -0.41506842 0.033057615 0.11335227 0.21746294 -0.06571851 0.19149046 0.3315128 0.13182062 -0.52017576 0.0668368 0.18879588 0.014967084 -0.17789847 -0.043890312 0.31998527 -0.02619871 -0.1758976 -0.18196508 0.36475328 -0.067865275 0.118894294 -0.37340447 0.10769967 0.14072779 -0.4154769 -0.21413916 0.052781224 0.2078483
400 0.12352164 -0.011033796 0.14312723 -0.22793837 -0.1234593 -0.0037779168 -0.56691766 -0.029553605 -0.08890174 0.36261013 -0.018714061 -0.2890939 0.15585901 -0.5400347 0.050803673 -0.3095691 0.1945446 -0.39827442 -0.099563606 0.12095513 0.30002168 -0.16380319 0.28970945 0.2803255 -0.628912 -0.26940572 -0.008279426 -0.40628865 0.14884435 -0.015148967 0.24838968 -0.019536853 -0.027548993 0.4783671 0.0151297385 0.070347644 -0.105925046 0.07752046 -0.36460936 -0.02591186 0.053955145 -0.091193266 0.23060901 -0.15252313 -0.0031417662 0.3710101 -0.17807774 -0.21355842 0.17125645 -0.30987635 -0.099592276 -0.24755774 -0.14916131 -0.10026881 0.23302186 -0.09061892 0.011349201 -0.27888224 0.03535838 -0.23486456 0.2647245 -0.019719081 0.040848725 -0.19451533 -0.040546235 0.1412889 -0.024886504 0.19849594 -0.14939535 0.014840478 0.034481525 0.047401063 -0.1500246 0.19288987 -0.19165052 -0.29787275 -0.2568615 -0.22366333 0.26071402 -0.18848902 0.14472273 -0.007680127 0.40393388 -0.23960176 -0.15228495 -0.07152127 -0.03027858 0.03615499 -0.33914822 -0.09293343 0.35986194 0.23486702 0.041208684 0.13796254 -0.26899287 -0.23112209 -0.005865062 -0.11232621 0.40114304 0.18846816 0.05145236 0.20103864 -0.122595765 0.46135658 -0.17168567 0.28964812 0.16089672 -0.15678507 -0.26469868 -0.17138894 -0.38997346 0.2906933 0.15899716 -0.1829646 0.046273556 -0.6249051 -0.31718668 -0.24766426 -0.034216218 -0.10282057 0.17676492 -0.21325624 -0.13852629 0.18061766 -0.24234731 0.079425 -0.036291115 -0.018010546
1467 0.22114184 0.35512477 0.08881211 0.14318562 -0.32351148 0.4145279 -0.17614436 0.37450334 -0.118356325 -0.04678448 -0.26532173 -0.14656137 -0.17219937 -0.12303367 -0.28593338 0.57598925 0.058390573 -0.07857667 -0.17564501 -0.14934239 0.2538222 -0.4786549 -0.23067757 0.04384478 -0.21287508 -0.33863664 -0.25476685 -0.56039435 0.07480644 -0.33663684 -0.2181225 -0.04732611 0.3619854 0.39392024 -0.15177353 -0.044267442 -0.08491338 0.34843776 -0.725447 -0.13119267 0.16976254 -0.45853043 -0.24004216 -0.20575187 -0.035428602 -0.30315438 -0.37985116 -0.19464454 -0.21848254 -0.18393633 -0.09301286 0.11139385 -0.25929746 -0.07119995 -0.2646478 0.082369216 -0.3335022 -0.07929476 -0.05203961 -0.36676502 -0.11923279 0.1332113 -0.2951072 -0.22710966 -0.027123189 -0.26124588 -0.07596121 -0.049560945 0.11126099 -0.056801055 -0.008821386 0.38994348 0.5481629 0.129047 -0.15278122 -0.42062578 0.19514886 0.08585079 0.17531976 0.070306666 -0.10373391 0.43631083 0.17781173 -0.09605296 -0.014805578 -0.0125589585 0.0070300954 0.09101995 0.21552402 0.2965951 0.27479854 -0.12766665 -0.24111585 -0.18465173 0.036442395 -0.0022776905 -0.097850226 0.49284276 0.11098872 0.20328718 -0.19080184 0.08418472 0.033930562 -0.018748514 0.0013321072 0.1810894 0.11447598 0.25940868 0.38703635 -0.19812444 -0.30333754 0.0543144 -0.08690774 -0.06174945 -0.29743737 0.07831569 -0.2304101 0.27834734 0.30734012 -0.036770243 -0.20266537 -0.28103274 0.07374581 -0.34925953 0.29460797 -0.24096107 -0.43260956 0.22193186
525 0.20250453 0.4663253 -0.05496855 -0.3670463 -0.14024654 0.16867736 -0.17884599 0.31867737 0.004837215 -0.1585552 -0.1368617 0.023308678 -0.019724954 -0.09158969 -0.15393734 0.11006921 0.16928886 0.035585396 0.0601838 0.23082183 -0.43222803 -0.11850611 -0.067217216 -0.124149375 -0.39635774 0.27598205 -0.02842106 -0.09026868 -0.04301516 -0.17383738 0.09993161 -0.2103591 0.32339305 0.24282295 0.35362467 -0.0038824764 -0.28091875 -0.052464403 -0.3424321 0.34452206 -0.07601103 -0.041510843 0.03211692 -0.34918523 -0.10708305 0.33219957 -0.61594516 -0.048105203 -0.11103626 -0.5940461 -0.3330658 0.16821887 -0.15255186 -0.09072735 -0.008960515 -0.34043738 -0.1881085 -0.28775334 -0.013812594 0.04841362 -0.23473851 -0.38356438 0.34327838 -0.12433039 0.031636365 0.112432994 -0.11097432 -0.2355716 0.1951878 0.006122403 -0.15344207 -0.16732949 -0.16520958 0.01843251 -0.25239483 -0.31923503 -0.21399985 0.11311786 0.2747761 -0.050920907 0.22494055 -0.330467 -0.27381834 -0.19613893 -0.19699492 -0.10641041 0.19532588 -0.25094146 -0.37470075 -0.20687132 0.33821166 -0.018390207 0.2960704 -0.071213566 0.10963744 0.36647627 -0.0810484 -0.27924508 -0.20081453 0.17841054 0.20506637 0.299766 -0.13821146 0.4035178 0.35458773 0.35293186 -0.2734756 -0.052626546 0.15322182 -0.25449485 -0.034573056 0.17527185 -0.05957555 0.20959365 -0.034101862 -0.4105977 -0.36435097 -0.0989991 0.29611605 -0.07018223 0.17393614 -0.37433597 0.039705936 -0.004049486 0.056765176 0.0994418 0.17174526 -0.15294313
1647 0.17695493 -0.18078463 0.040150132 -0.08325309 0.12102179 -0.10688656 -0.038749963 0.08451214 0.2566021 -0.019604474 0.21826968 0.16599114 -0.057192825 -0.33192945 0.48391715 -0.10068263 -0.06088039 -0.008485955 0.018815804 0.20991229 -0.20885655 -0.054114215 0.1424211 0.2637347 -0.19096598 -0.032852698 -0.21477506 0.044385396 0.38787597 0.008544645 0.011370454 -0.29990736 -0.006957596 -0.02377474 0.42880285 0.12415706 -0.15649794 0.030744916 0.016329585 -0.04782621 -0.14991817 -0.13016272 -0.23022877 0.011236357 -0.03595176 0.38356337 -0.06860868 0.17826529 0.0029649807 -0.44095358 -0.14735901 -0.19095854 0.08806659 -0.0048359707 0.08283718 0.04042483 -0.11902039 -0.4134967 0.30205032 -0.124275275 -0.25801328 -0.20995195 -0.19189316 -0.10709918 0.50799966 -0.19762062 -0.25998566 0.06746128 -0.01108263 -0.14812301 -0.28231522 -0.22138016 0.09392799 -0.3362272 -0.35638398 -0.0023677042 0.117761165 0.2714383 -0.0406514 -0.33337343 -0.1009408 0.14116144 -0.51334566 -0.08743449 -0.07283001 -0.1619349 -0.21379374 0.36505932 -0.60295385 0.035999365 0.023149032 0.18784444 0.090383515 0.3276375 -0.07775991 0.44791666 -0.014518404 -0.15389438 0.45414957 0.2072293 0.0030779457 0.49380034 0.039852887 0.21864003 0.032527816 0.21385092 0.24210647 -0.22229016 -0.096792184 -0.4273637 0.3330657 0.3544702 0.3631035 -0.42388263 -0.54744375 0.22511461 -0.056790616 -0.27840608 -0.083953016 -0.3112307 -0.40804473 -0.19957744 0.38448185 -0.33850914 -0.050498333 -0.20926104 -0.46219113 0.12395546
235 0.55282694 0.011023872 0.057904158 0.41523182 -0.02968377 0.24462621 0.1635411 0.030106904 -0.040820427 -0.3108266 -0.31087655 0.052948475 -0.096353196 -0.103657454 -0.034884572 0.19331512 -0.075871594 -0.12622944 -0.33931476 0.24924934 -0.15600888 -0.099608034 -0.39346236 0.027558688 -0.23084109 -0.34295675 -0.06216833 -0.4700705 0.12061154 -0.3408475 -0.087667614 -0.014982865 0.14206311 0.00032909453 0.045236308 0.13807507 0.20441623 0.31645584 -0.34274915 -0.01712851 0.18063314 -0.4691847 -0.35732418 -0.35418004 0.051955663 -0.35196647 -0.36613122 -0.031987008 -0.374953 0.2421077 -0.3514962 0.05119393 0.15945813 0.07345104 -0.045018867 0.11068765 -0.010873728 0.11092327 0.30058858 0.008126684 -0.3659982 0.24246892 -0.3284162 0.14181527 0.12539938 -0.31211928 -0.21075894 -0.012094328 0.43801275 0.035191223 0.021879286 0.22105727 0.2306749 -0.0202338 -0.46537885 -0.23886606 0.42125562 -0.2574289 -0.039617177 -0.05524193 0.059188895 0.24693996 0.015725376 -0.3093063 0.653008 -0.18215616 0.12575486 -0.007775014 -0.15390788 0.4707632 0.33525828 0.05510262 -0.2401881 0.31623068 0.22163966 -0.19512512 -0.21152574 0.20689215 -0.20782964 -0.13234712 0.26622644 -0.11441372 0.10517031 0.18854326 0.2001879 -0.21431439 -0.2250454 -0.023949834 0.086563304 -0.32037327 -0.2682686 0.35468134 -0.25804165 0.2065378 -0.3658402 -0.16249083 -0.08237443 -0.3248684 0.1624526 -0.054314826 0.33559588 -0.107394174 0.24762315 -0.4186624 0.44447732 -0.42289475 -0.204371 0.16268887
228 0.4903783 -0.014519866 -0.0660931 0.34945795 -0.030537924 0.19690384 -0.27211702 0.10665384 -0.21047623 -0.04203979 -0.29142305 0.07272494 -0.1266171 0.06741816 -0.1572568 0.023464317 -0.2426119 -0.007299233 -0.51683915 -0.062549554 -0.06724278 -0.2543763 -0.4073926 0.108785085 -0.33037487 -0.18248679 -0.13659269 -0.3714965 0.00088802224 -0.25928345 -0.015446645 -0.28696668 0.17781694 0.15450816 0.11224089 -0.038318314 0.005978932 0.17706254 -0.387241 0.15688461 0.26777822 -0.6194908 -0.4071024 0.03557428 0.13319334 -0.36239815 -0.17562678 -0.031641576 -0.039937884 -0.23654681 0.03551073 0.3005205 -0.07717765 0.06640032 0.26691324 -0.024908207 -0.10039617 0.23386069 0.43561533 0.11976037 -0.15786305 0.27213934 -0.11018885 -0.21144977 0.00304143 -0.068094686 -0.21487515 -0.18693781 0.010898356 0.018307697 0.0714362 0.103473075 0.29973987 -0.2434744 -0.07151533 -0.3036419 0.4641859 -0.3573658 -0.11247797 0.090975665 -0.24942516 0.50299156 -0.04932235 -0.20313446 0.5392105 -0.112038836 0.054936603 0.1071952 -0.07608483 0.5370275 -0.02010771 -0.011040411 -0.42431986 0.16302115 0.18813917 0.075129256 -0.10753093 0.5358721 -0.009454257 0.06839009 0.1984563 0.06059117 0.09812674 0.31772745 0.1220951 -0.13554625 -0.060983997 0.204063 -0.1014959 -0.25608328 -0.34278345 0.273123 -0.4734679 0.16948277 -0.15631063 -0.12710693 -0.1506659 -0.2834722 0.3360052 0.26078507 0.23638673 -0.09494298 0.0451805 -0.22446904 0.36369953 -0.16917828 -0.22516832 0.44565085
509 -0.2768114 0.018685142 -0.22569323 -0.1539527 0.09712455 -0.05057788 -0.13123973 -0.14044525 0.2492085 -0.2636483 -0.16601557 0.36885887 -0.092637956 -0.014080329 -0.10745542 -0.24063574 -0.35635898 -0.16783366 0.02389509 0.010803995 0.012248948 -0.13048518 -0.24792205 0.5307701 -0.38616404 -0.21320964 -0.14726667 0.025486216 0.4189212 -0.16496608 0.1439295 -0.16032967 0.20879734 -0.11264112 -0.5320349 -0.09686884 -0.18025076 0.05894542 0.09841049 -0.20329294 -0.2275538 -0.30621395 0.17725539 -0.07619531 0.08394357 0.07914444 -0.4171913 -0.19329575 0.059184805 -0.33344698 -0.06258228 -0.012651209 0.18930022 -0.22618063 0.061456926 -0.11507644 -0.2236615 -0.23119855 -0.40472758 -0.071693316 -0.24972656 -0.24093544 -0.3223583 0.08340193 -0.16002142 0.19312428 0.13158028 -0.080699354 0.13882776 0.43421638 0.12700395 -0.4058855 -0.017525593 0.25600466 -0.29717728 -0.11408645 -0.660451 0.2332447 -0.08660065 0.043423403 -0.040773425 -0.14955755 -0.18797997 -0.13719186 0.34552038 0.05597694 0.08053863 0.20313698 -0.2598098 0.40541562 0.3786978 0.66903853 -0.09148942 -0.2814132 0.20991623 0.12838358 -0.066978835 0.17780744 0.14361134 0.3298503 -0.35098526 -0.06812345 -0.078778915 0.09932076 -0.5252188 0.14881904 0.39664996 0.02740126 -0.18574262 0.030641858 -0.10505845 -0.29008338 -0.09193267 0.2518138 -0.31558758 -0.08793535 0.15399039 -0.006490957 0.34891367 0.16486067 -0.26752898 -0.45882386 -0.17118119 0.23455098 0.15114725 -0.16869172 -0.13314362 0.16156392
1717 -0.13831007 0.22071168 0.12562588 -0.043984383 -0.0047347457 0.18419772 -0.27609164 -0.30925885 0.15748887 -0.15873285 0.1098944 -0.022432081 -0.28326792 -0.18651481 -0.005093042 0.10805899 0.2918765 -0.2585902 -0.31501642 0.014464688 -0.44213918 0.0012790221 -0.25289774 -0.1911082 -0.30360407 -0.009348653 -0.3507496 0.052398566 0.1906676 0.24993849 0.2657756 0.024165936 0.022469703 0.06691549 0.007906942 0.09407716 0.08539122 0.23615591 0.03685454 0.6093363 0.052536733 0.06478264 -0.13605678 -0.1768759 0.21085721 0.5341069 -0.20689999 0.39725155 0.3735238 -0.39886776 -0.36989063 -0.059997093 -0.17113867 -0.33676735 -0.03818794 0.28747392 -0.28038383 -0.61990815 -0.14264762 -0.32415745 0.21031323 0.02508203 -0.30274218 -0.29589623 -0.024652932 -0.03124478 0.010959305 0.016131015 -0.3411096 0.26068315 0.09032017 -0.070443474 0.1501655 -0.25476298 -0.50473017 0.31567615 -0.47690398 -0.07409623 0.26871035 -0.35626963 -0.18543202 -0.07943658 0.26087716 -0.31603423 0.20360148 0.014393593 -0.24103774 -0.1695852 -0.04182659 0.3520931 -0.6138616 -0.1433653 0.08412386 -0.029044619 -0.015073271 0.079197265 -0.052008577 -0.07997877 0.14597994 0.28457153 -0.12713131 0.26395708 0.115031354 0.7628217 0.12035733 0.26341522 -0.12366511 -0.052289132 0.27108413 -0.18958627 0.14048964 0.24168618 -0.12494783 0.053622942 0.076158285 -0.2889894 -0.49916136 -0.454636 0.13313933 -0.53979236 -0.07435726 -0.16815111 0.1110272 0.09705806 0.025168093 -0.0379152 -0.33370236 -0.016044734
1525 -0.37120858 -0.26774773 -0.15021054 0.294194 -0.009673839 -0.58951396 -0.41651282 0.2912354 0.50436 -0.18994467 -0.38351563 0.13753426 0.14617065 -0.14304955 -0.09784555 0.11473533 -0.03863054 0.058279835 -0.47570097 -0.12311799 0.1425246 -0.1495102 -0.17469724 0.11327352 -0.13040775 -0.22193542 0.03288256 -0.067228734 0.04508806 -0.46788168 0.21362485 0.17352189 -0.07778677 -0.14522903 0.10540144 -0.43870243 -0.11285643 0.58997774 0.13453701 0.020883258 -0.4814347 -0.035018936 0.23915066 0.163857 -0.39991283 0.04330481 0.000557665 0.13870215 0.010931115 -0.35140473 -0.086784355 0.43242246 -0.14525482 -0.12566075 0.20658386 0.1964034 -0.1760427 0.07197432 -0.27369308 -0.27955264 0.11346379 -0.121132776 0.032414354 -0.28402376 0.05221959 -0.09376718 0.1746403 -0.061599355 0.035142526 0.10595578 -0.14073403 -0.52329075 -0.16931121 -0.34489012 0.008305489 -0.34043336 -0.09113865 0.29038513 -0.10461956 0.3004682 -0.052749433 0.09510046 -0.19961053 -0.43669266 0.03322343 0.20947267 -0.28790548 0.021402517 -0.063228436 0.095346056 0.42005405 0.3754653 0.13729696 0.24302542 0.09376619 0.19685933 0.15617701 -0.05217971 0.12181284 0.2473835 -0.22028464 -0.118014 0.21824788 0.34889907 -0.14017154 0.1814497 -0.33761775 0.04454474 -0.17172357 -0.36048082 -0.18084787 0.41480112 -0.16171825 -0.419503 -0.44813985 -0.38693255 -0.008675921 0.266246 -0.11974041 -0.047846805 0.07868271 -0.21670938 -0.09900298 -0.09257741 0.13730055 -0.22759776 -0.16610084 0.003400764
471 -0.089910015 0.38200128 -0.33932567 -0.4383077 -0.13625795 -0.0031853677 -0.41645867 -0.16977738 0.08142825 0.46232882 -0.009593133 0.19576342 -0.048499666 -0.26380846 0.365556 0.12550597 -0.02193743 -0.057809565 0.28335485 -0.09980142 -0.3494933 -0.15474413 -0.08886473 0.15556827 -0.2935551 -0.38848954 -0.060589604 0.25609457 0.123103626 0.06626161 -0.07620594 0.14288531 0.399306 -0.088875614 0.03188346 0.43869063 0.1413493 -0.079390824 -0.24062426 0.0058051073 0.31370208 0.07538035 0.024930706 -0.19573763 -0.10964652 0.40962276 0.12343782 -0.066982165 0.23057093 -0.25192952 -0.5137534 0.2570112 -0.01583921 -0.5983026 0.08725195 0.14519659 -0.06308765 -0.4684199 0.09081174 -0.23715213 -0.13422467 0.14834358 -0.28747675 -0.0005343807 0.017133057 -0.17346449 -0.09792155 -0.35434264 -0.00028182712 0.5616706 0.23771995 -0.33548206 0.19521263 -0.22654927 -0.5936854 0.19878335 -0.009948469 0.023881191 -0.0352659 0.42279434 0.2565839 0.24768586 -0.22417746 -0.42418915 0.6376723 -0.021973765 0.18637541 -0.016431075 -0.010384251 0.22799812 -0.2662618 0.06554521 0.5699204 0.139065 -0.043394096 -0.012709613 0.06719241 -0.061660666 -0.32875353 0.44342119 0.00581113 0.1380082 0.3352833 0.5556742 0.4760721 0.108522326 0.22903264 -0.07201955 -0.35565293 -0.19157022 0.23461795 0.10780042 0.22944391 0.1588782 -0.09934275 0.064028755 -0.38403064 -0.08909729 -0.12305468 -0.048009686 -0.350959 0.21461573 0.118539646 -0.24579571 -0.12708244 -0.113933966 -0.16707753 0.118627265
1465 0.2889088 0.26663172 0.06134744 0.045439817 -0.02911003 0.5646325 -0.008494846 0.16673523 -0.21857448 -0.21452834 -0.15238935 0.032627285 -0.3462688 -0.17203444 -0.19938174 0.20689796 -0.013465745 0.0010901487 -0.2670556 -0.2071879 0.19910288 -0.5603142 -0.33042327 0.075385146 -0.21133992 0.026156643 -0.2950425 -0.42389804 -0.04900216 -0.3093671 -0.21924232 -0.08503851 0.44654715 0.21844502 0.1886273 0.013637722 -0.05945805 0.26144597 -0.6509103 -0.07403213 0.16835257 -0.39014378 -0.27096638 -0.07317219 -0.0935019 -0.16965564 -0.17162664 0.017205039 -0.2394828 -0.05869962 0.03174828 0.11915199 -0.10142659 0.11936095 -0.16558252 0.01431633 -0.32251573 0.04978609 0.29938114 -0.03775257 -0.087124124 -0.11022309 -0.33741304 -0.17215794 0.28949463 -0.2808742 -0.017988272 0.15310645 0.049789745 0.023518434 -0.027669143 0.21495834 0.5427129 0.16644798 -0.1734668 -0.51301557 0.3038444 -0.1627135 0.09611034 0.33011904 -0.20410286 0.38415954 0.08501744 0.06887119 0.3705326 0.2679147 0.35847202 0.2247265 0.19178998 0.51494026 0.26505908 0.071899384 -0.025435397 -0.14967133 0.27516732 -0.17893702 -0.26704907 0.29747212 0.1186324 0.10098422 0.0007725179 0.08712275 0.04363776 0.35350412 -0.022439994 -0.09038953 0.008670578 0.28779617 0.35711813 -0.6568997 0.177613 0.06023943 -0.5136072 0.050246075 -0.10057328 -0.0266849 -0.22560836 -0.10045127 0.43120968 0.050066173 -0.230505 -0.4230613 -0.037178174 -0.17256904 0.3455542 -0.2550923 -0.42824978 0.19079353
1466 0.109275825 0.3331278 -0.07090944 0.036395896 -0.088876955 0.4618391 0.0014330095 0.099392034 -0.052883297 -0.38892326 -0.16091709 -0.13681786 -0.2464522 -0.115158476 -0.04709331 0.5046882 -0.26946598 -0.1904617 -0.25667247 -0.028728845 0.3512165 -0.37666544 -0.15134586 0.11894997 -0.24761692 -0.13467145 -0.24224913 -0.33567363 -0.1881926 -0.31864613 -0.16593374 -0.1206263 0.35260284 0.5420203 0.13739084 -0.024923166 -0.10515454 0.3199751 -0.69626653 0.16415288 0.18854263 -0.45763418 -0.029986829 -0.48878178 -0.2585443 -0.10269487 -0.08760715 -0.009356305 -0.04549475 -0.1617252 -0.15370175 -0.00021872486 -0.11627292 -0.0040772157 -0.19099806 -0.10045786 -0.3770203 0.1310346 0.42538917 0.0075698122 -0.260049 -0.136231 -0.038214296 -0.08423337 -0.015567635 -0.12512654 -0.31887814 -0.0106016025 0.017979592 -0.11461456 0.29661918 0.15444395 0.4085621 0.2130951 0.3054499 -0.12552887 0.2738218 -0.11392181 -0.06281834 0.24527945 0.0136965215 0.18589449 0.12286599 -0.22197999 0.27437702 0.24332042 0.1012564 0.22828925 -0.048175234 0.59746194 0.16406558 0.011670103 -0.22339998 0.16346616 0.25055385 -0.030850252 -0.047891263 0.7332532 -0.048810344 0.011930954 -0.006946496 0.16960073 0.14084564 0.43566972 -0.2057795 -0.3148482 0.0043846425 0.24179292 0.19242574 -0.46803987 0.21956219 0.15701544 -0.3597972 -0.031608284 -0.49797305 -0.2186354 -0.39749163 0.11040187 0.3025565 0.16629529 0.10907944 -0.3711896 0.23250563 -0.45694587 0.58864176 -0.045038015 -0.12492381 -0.07913644
458 0.1566239 0.024167772 -0.09671766 -0.22707674 0.10084537 -0.086790666 -0.27461764 0.15518196 0.22811376 -0.44013953 0.03509547 0.29291117 0.28989825 -0.31643537 0.1455986 0.17482378 0.2441322 0.2526489 -0.2639654 0.33765888 0.041040227 -0.054964975 -0.37692136 -0.6149594 -0.034790836 -0.16126812 -0.013784458 -0.095386595 0.3068622 -0.4002935 0.117747314 0.24480218 -0.17697966 0.252705 0.19880056 0.2212848 -0.34102282 -0.04732295 -0.26053718 -0.06310064 0.400074 0.038869854 0.13315117 -0.059071913 0.1920132 0.31108248 -0.1312328 -0.08507334 0.209248 -0.2622304 -0.26566955 0.17512506 0.07568295 -0.3652068 0.3009792 0.117436275 -0.09866844 -0.10399279 -0.08863234 0.038612466 0.05983663 -0.14367135 0.12092924 -0.23381586 -0.21883129 0.2989953 0.25057793 0.27591923 0.27246532 0.14513016 0.019487778 0.06967334 -0.15744682 0.5035957 -0.14985214 -0.3656587 0.01145267 -0.3930269 0.20041159 -0.2915814 0.4033257 0.38414505 -0.5468735 -0.2989333 0.22677848 0.029650493 -0.23630148 0.18374938 -0.26907715 0.11855659 0.545302 0.026339818 0.14384355 0.18313698 -0.2263838 -0.30408946 -0.24625239 0.047129776 -0.022588154 0.13572879 0.1878345 0.31559163 -0.28281146 0.32530114 -0.120925136 0.048108343 -0.28117526 0.1607608 -0.081593946 -0.094226636 0.071457274 0.19616647 -0.39241067 0.04681594 0.048520595 0.09737186 0.08435665 0.07686153 0.42770955 0.1722647 0.06940154 -0.04837252 0.1469193 0.15382671 -0.3090837 -0.3149496 -0.17487638 -0.042676862
1445 -0.00039075388 0.107754365 0.07679305 0.2838915 -0.010921909 0.35597506 -0.24146013 0.17041811 0.02158016 -0.10668875 -0.45641866 0.0856633 -0.07145345 -0.22232889 0.06373044 0.4397649 -0.11134805 -0.2898673 -0.36889505 -0.12484904 -0.006076528 -0.16345541 -0.09352193 -0.11304941 -0.2830565 0.080767006 0.025367001 -0.53222615 -0.038954448 -0.6361309 -0.2039158 0.112340644 0.12616345 0.22541569 0.117255434 0.21819666 -0.03376324 0.3213577 -0.5433227 -0.012013708 0.22076027 -0.6409242 0.0035985792 -0.34005234 -0.08489317 -0.19190605 -0.19937515 -0.2461728 0.013311017 0.04511465 0.14481792 0.09787348 0.0338869 0.06246054 -0.12086317 -0.15029036 -0.82200414 0.0016848969 0.049327955 -0.23578772 -0.52136755 0.014003691 -0.513601 -0.0012705087 0.033009354 -0.18609232 0.10042089 -0.18296686 0.30877408 -0.11025487 -0.10689298 0.324095 0.6933746 0.03739139 0.07306337 -0.15010989 -0.10863375 -0.2752019 0.18117987 0.19745594 -0.46381623 0.23859824 -0.12558073 0.00051667815 0.166287 0.1800045 0.28480932 0.14742398 0.14626624 0.42011207 0.14252286 0.1627407 -0.17288053 -0.12274688 0.06573439 -0.12278824 -0.18043281 0.4955059 0.04936374 0.018285772 0.053348266 0.22542262 -0.056227576 0.08701072 0.16330233 -0.10404605 -0.06810712 0.24573272 0.24649803 -0.12432084 0.11686015 0.18951435 -0.30790237 0.2208957 0.01117005 0.06282223 -0.50720376 -0.00013066303 0.40016678 0.040501248 0.09102642 -0.38804042 0.2920953 -0.11423437 0.45377588 -0.25206697 -0.25248155 -0.006651458
682 -0.43166095 -0.25487605 -0.19168818 0.29157004 0.009038921 0.1519128 -0.3344569 0.084548965 0.18765244 0.19215482 0.046420347 -0.2624425 -0.119207785 -0.22525348 -0.12196839 0.22649959 0.044746064 0.13444492 0.2246182 0.17070764 -0.38454598 -0.1532848 -0.08729611 -0.51597834 -0.4156516 -0.10903641 -0.11781981 0.05096527 0.21386485 -0.3299227 0.16455498 0.078392416 -0.21984187 0.4425833 -0.48113975 0.2951804 0.21546009 0.31958422 0.18938863 -0.19663678 0.166685 0.07050094 0.2134953 0.03365405 0.09321259 0.1625595 0.06677549 0.007683327 -0.24386705 -0.019125089 0.17427741 0.07051455 -0.110817865 0.008931338 -0.18340915 -0.09310867 0.054906353 0.080517866 0.23065871 -0.24555318 -0.46958262 0.07352721 -0.3812186 -0.19717345 0.35351896 0.04589735 -0.4742124 0.28484255 0.24396054 -0.15050493 0.05111565 -0.08300578 -0.32516694 -0.30171156 -0.25263983 -0.30102432 -0.0341809 -0.16477334 0.12107075 -0.24796225 0.25781214 -0.09995007 -0.12880567 -0.16471937 0.25463066 0.19574852 0.03165895 -0.3026234 -0.14398383 0.12835278 0.46717566 0.15121056 -0.099766694 -0.42163277 0.17666206 0.19809797 0.4538475 -0.022570968 -0.13476937 0.50819147 -0.0089636035 -0.0829003 -0.0017161734 0.4160931 0.03987868 -0.24670859 -0.057886213 -0.3606132 -0.27327362 -0.6524289 -0.23221155 0.35912308 0.24483655 -0.5312783 -0.3076405 0.068343945 0.011631722 -0.07752996 0.40753403 0.027097005 0.117257304 -0.035010234 0.026389562 0.13452403 -0.15750407 -0.28871176 -0.03030611 0.5288466
2288 0.1700193 -0.20815808 -0.33267438 0.10012144 -0.025876548 0.2956503 -0.44833612 0.04476434 0.11985469 -0.22317427 -0.03335563 -0.266536 -0.64936477 0.0042690374 -0.71116644 0.12673083 0.22082615 -0.41075534 -0.2845984 0.2438306 -0.28696272 0.016495045 -0.16944951 -0.2449053 0.28720757 -0.14100598 -0.02738489 -0.062174078 0.13025728 -0.5201557 0.262455 0.10108078 0.062191356 0.29777148 0.3708289 0.013181204 -0.42980558 0.11455709 0.090748094 0.22207391 0.009229839 -0.3284479 0.272981 0.2599589 -0.21567999 0.11327295 -0.10669183 -0.11906465 0.074643694 -0.064615615 -0.0028614942 -0.107270956 -0.29528114 -0.030221617 0.3309579 -0.21902637 -0.40384614 -0.16303346 0.04247342 -0.47933912 -0.18778585 -0.49109885 -0.114923835 -0.0057729417 -0.04404756 -0.15769759 0.15601109 0.24482103 0.005831779 -0.006148662 0.05096663 -0.6528063 0.25419095 -0.29356483 0.13448867 0.1568998 -0.10718592 0.055521864 -0.013933231 -0.46088192 0.30532154 -0.30150723 -0.21309818 -0.31773356 -0.62129563 -0.33637848 -0.034958854 0.021258118 0.16771653 0.3070215 0.2577641 0.61809283 0.22940896 0.49749574 0.13851154 0.26995265 0.04814957 -0.008979944 -0.08277771 0.37678075 0.21401751 0.36720234 0.27868107 0.3407508 -0.3710248 -0.31487408 -0.00076152006 0.33303124 -0.044049084 0.16947198 -0.06882848 -0.24977028 0.13431716 -0.21881768 -0.37623668 -0.32536986 -0.26112908 0.31714323 -0.009638858 0.036144756 0.1700979 0.14336352 -0.19708179 -0.14078669 0.069070086 0.14607763 -0.14909728 0.028521454
391 0.13099208 -0.31247583 0.121306054 -0.118678 0.16172329 0.23377241 -0.20195639 -0.042719178 0.11193032 0.16170153 -0.33912346 -0.3662249 0.01078851 0.14814937 -0.04800479 0.12493971 0.4422647 0.21759494 -0.215125 0.1024928 -0.2471781 -0.28262463 -0.47492117 0.30826142 -0.05574667 0.19110169 0.16438764 -0.3544734 0.2524189 -0.016020728 -0.32551074 0.11824372 0.097652115 0.15592307 0.31934693 -0.37938133 -0.4756954 0.4538636 -0.4488547 0.27090913 0.25308293 -0.30700165 -0.20951897 -0.21428001 -0.06359741 0.14930739 -0.35769013 -0.28832236 -0.27305308 -0.053914595 0.049284708 0.13667265 -0.38054428 -0.16445147 0.11572177 0.003074793 -0.49855202 -0.49130657 -0.025458649 0.15520646 -0.026003722 -0.19252479 -0.1072591 0.11253353 -0.059497822 0.068100445 0.050832875 0.28792086 0.16174653 -0.12547079 -0.40022802 0.1097145 0.01551665 0.36722976 -0.22482634 -0.26399413 0.050235666 -0.46534932 0.11723669 0.10378827 -0.03777611 -0.1047331 0.0066423016 -0.20303147 0.20778419 -0.22640777 0.12092654 -0.13462709 0.13534862 0.089293435 0.08699597 -0.062215682 0.115871556 -0.035686877 0.28720433 -0.31541294 0.0009141399 0.08855113 0.18172126 0.28364977 -0.2769838 -0.17621258 -0.12963332 -0.0063548554 0.08957473 -6.265913e-05 0.082790576 0.025865747 -0.28386956 -0.763378 0.29347086 0.2080716 0.0794315 0.013509614 -0.26544347 0.33475634 0.14155579 -0.11877421 0.25892332 -0.13802095 -0.19745412 -0.097716875 -0.16934922 0.0692096 -0.13874626 -0.24938561 -0.6780279 0.007523626
713 0.50990564 0.18379375 -0.03228629 0.2949655 -0.013423746 -0.18828835 -0.5961011 -0.11530211 0.038233954 0.13800515 -0.5074592 0.44439498 -0.22422768 0.30959663 -0.074723005 0.28984085 0.37128398 0.11951037 0.111638166 0.22272064 -0.16494371 -0.12797274 0.28466302 -0.20534618 -0.13501057 0.19025835 0.1169388 -0.18821998 -0.23598258 -0.24609266 -0.18742654 -0.28078187 -0.037280906 0.27873808 0.366473 0.025710884 -0.35959047 -0.10628529 -0.38810933 0.0069385692 0.10824683 -0.10914517 0.36972472 -0.32871705 0.018717822 0.72970134 -0.5755019 -0.06204936 0.33740512 -0.3482283 0.1738361 -0.2851224 0.19620496 -0.12392336 -0.12590525 -0.0020257228 -0.040947028 -0.17982888 -0.19488756 0.0669321 -0.10112019 0.07492067 -0.25779012 -0.24965315 0.15420887 -0.01943183 -0.24735777 -0.19299059 0.24819264 0.22693002 0.057459816 -0.22273813 0.2530949 -0.35224402 -0.54681045 -0.12619258 0.21732195 -0.26436237 0.38438758 -0.057633307 0.16121224 -0.0276283 -0.0044525797 -0.41338187 0.2849852 0.27184778 0.24104096 -0.1490295 -0.2216561 -0.19225284 0.3296107 0.0618835 -0.16018593 -0.50351036 -0.20353335 0.3369633 0.21449448 0.29248378 0.2881272 0.052816648 -0.047773454 0.46476793 -0.07782296 0.3885153 0.24984798 0.15603086 -0.40020546 0.037009243 0.0034940874 -0.19603074 0.042985342 0.07939064 0.073532335 -0.048299715 0.11037938 0.17568888 -0.37267658 0.39928004 0.18512315 0.21198429 0.3200778 -0.18418345 0.3852655 -0.105598256 0.2602101 -0.24108526 -0.27201748 0.21846387
69 0.13852352 -0.056779258 0.13923107 -0.15396498 -0.09539964 0.110784695 -0.067010276 0.4534482 0.43280205 0.116888374 -0.39180404 0.17221247 -0.15850395 -0.20120145 0.31348428 -0.35318485 -0.5830158 0.45431617 -0.19954714 -0.085527495 -0.25983343 -0.015166896 -0.15730928 -0.023719156 -0.02688245 0.23870687 -0.15579808 -0.23388673 -0.10420861 -0.70315963 -0.26116398 -0.034838066 0.062367927 0.032169122 0.077740416 -0.1391897 -0.08334377 0.32716867 -0.20669329 -0.061199583 0.5448552 0.09380374 -0.054581065 -0.19152047 -0.2641772 0.21914405 -0.09934147 0.33374542 -0.15432882 -0.072918564 -0.08351666 0.069729395 0.07111252 -0.015656725 0.57112426 -0.2644603 -0.6992435 -0.12065042 0.17920119 -0.43141997 -0.45832118 -0.22278291 -0.17206737 0.00803307 0.07216319 0.015663 -0.24911964 0.119858995 0.21297765 -0.2376314 0.16611558 0.24063884 -0.40385023 0.05235165 -0.48581532 -0.11502659 0.42755717 0.080968626 0.24377958 -0.3640106 -0.08483579 0.22243428 0.116993085 -0.09320451 0.4236436 -0.22990073 -0.09746085 -0.3091659 -0.34370053 0.36942694 0.054744054 0.3087661 0.23792376 0.033067543 0.23576772 -0.18982664 -0.2074041 0.39421898 -0.027064776 0.03546615 -0.16143581 0.07183272 0.19141583 -0.181671 0.026951874 0.04637549 -0.22761175 -0.39368835 -0.24907465 -0.20540783 -0.37693378 0.39223891 -0.48829502 0.09132892 0.01258856 -0.06572314 -0.36261478 -0.028568195 0.12544955 -0.07194642 0.19581169 -0.08416461 -0.17321222 0.18119012 0.25041005 0.010045729 -0.122716986 0.34488222
1434 0.6647328 0.30046174 -0.06983035 0.07651165 -0.07509585 0.5900868 -0.3529137 -0.08675182 -0.038358606 -0.20501819 -0.40970343 -0.2360761 -0.32528448 -0.45725304 0.30283052 0.2957232 -0.01006909 0.28869608 -0.13401428 -0.24301161 -0.18885295 -0.3745962 -0.2258994 0.19733383 -0.09963498 -0.0044713696 -0.11118623 -0.25937468 -0.24411087 -0.43802273 -0.20457566 -0.06079593 0.3443773 0.40205994 0.17871514 -0.11572134 -0.08779684 0.26842192 -0.7287744 0.19164859 0.1636039 -0.33135444 -0.16484037 -0.281438 0.15426598 -0.029947294 0.06426558 -0.09600119 -0.1673591 -0.16418563 -0.26380795 0.25855988 -0.051554777 0.076349236 -0.075064175 -0.12680355 -0.18188757 0.18930428 0.26461136 0.058536835 -0.42897376 -0.20429629 -0.1267086 -0.16585268 0.09297556 -0.19436827 0.19702329 -0.25041878 0.28492737 0.097174585 -0.1760106 0.31628206 0.33922768 -0.025169443 0.018771745 -0.48355168 0.24221681 -0.06568413 0.1901567 0.52719027 -0.009861182 0.38539818 0.08822107 0.12021037 0.36555278 -0.04459451 0.22775437 0.1858711 0.026075821 0.6368224 0.22293356 0.2464504 -0.16957484 0.01982685 0.24409786 -0.40679172 -0.1918194 0.17606448 0.093428925 0.06679691 -0.23833899 0.07519551 0.12211315 0.028022118 0.19144425 -0.19611177 0.09445107 0.40972084 0.34595674 -0.46513095 0.1753439 0.13843217 -0.4903594 0.19453767 -0.07596135 -0.01450621 -0.38915426 0.20724073 0.1274052 0.12272404 -0.18361957 -0.3893779 0.1523168 -0.25459185 0.38656598 -0.5200429 -0.30374438 0.07796283
602 -0.53399205 0.16096398 -0.5389002 0.15501179 -0.24214095 0.18832795 -0.37130776 0.12240815 0.13931611 0.273595 -0.30902788 -0.42794085 -0.10260322 0.10045246 -0.12066204 0.037752587 -0.25143397 -0.15074754 -0.42083386 0.12539665 0.10792115 0.04198199 -0.16944341 -0.41301292 0.13203454 0.15245786 -0.35494834 -0.021718275 -0.38702667 -0.34065706 0.4879705 -0.13822667 0.43764895 -0.017777778 0.26728818 0.26710522 -0.2542924 -0.18217891 -0.10246857 -0.078680865 0.28282785 -0.12033293 0.06697389 0.15092252 0.07458481 -0.12768789 -0.28138098 0.1888061 0.24672392 -0.17305487 0.013177477 0.1892599 0.074373595 -0.07445923 0.07600032 0.40486577 -0.16151501 -0.43700626 0.09544346 -0.38364732 0.120194316 0.37574998 0.08982307 0.33383623 0.5696512 -0.08740602 0.5343454 -0.06362134 -0.5409227 -0.30098894 0.17126521 0.22378612 0.13685344 -0.04549334 -0.37120387 -0.18205631 -0.07698815 0.07272478 -0.055589512 0.049429517 -0.02257969 0.2415299 -0.23936436 -0.11691404 -0.058848556 0.09754277 0.3832051 0.13526373 0.14162701 0.45770186 0.39915174 0.7503389 -0.28254172 0.011951305 0.3071752 0.37136325 -0.1661371 0.104725786 -0.046900425 -0.03574036 0.07484841 0.02622526 0.49383456 0.580175 0.0068731396 0.03565843 0.3209027 0.025477462 -0.7477451 0.036022156 -0.13935256 -0.02798004 -0.15569638 -0.1935868 0.2051837 -0.0323517 0.10182861 -0.59789395 -0.025192073 -0.15470272 -0.0706364 -0.35126603 -0.33903554 0.13792334 -0.08478052 -0.25549024 -0.2208196 0.18393473
1637 0.3012049 -0.2465177 -0.009786148 -0.1681932 0.23763177 -0.26919255 0.12724264 -0.21752085 0.2174634 0.42675295 0.01977165 0.18052877 0.16384292 -0.24726108 0.19221714 0.15264243 0.030204836 -0.32881665 0.14235453 0.16088895 0.26078233 -0.323989 -0.011324316 0.008117671 0.06496519 -0.19126514 0.027226914 -0.023466248 0.41188765 -0.085211165 0.14064285 -0.079556905 0.070214234 0.4517743 0.16758522 0.18937719 -0.2783791 0.03526016 -0.010600763 0.1736312 -0.25403032 -0.04532519 -0.035176482 0.16403832 -0.06406833 0.5027319 -0.3437739 0.028150147 0.0786909 -0.29716703 0.23522924 -0.14455566 0.09423621 -0.1730075 0.1894029 -0.028376527 0.09537548 -0.2790638 0.009474472 -0.1836359 -0.44206524 -0.525264 -0.32773504 0.08891725 0.5512051 -0.10779214 -0.013627754 -0.0041533723 0.16354558 0.07120018 -0.20036778 -0.3500453 0.111908935 -0.004314037 -0.05556878 0.047432296 0.26794586 0.361555 0.25043064 -0.07592393 0.14685956 0.35335326 -0.42864478 -0.30434626 -0.1543246 0.06908237 -0.06727907 0.15338758 -0.4548066 0.03485258 -0.24854226 -0.18888119 -0.29033467 0.29473618 0.41619667 0.39521602 0.22604533 -0.0054634176 0.1806649 0.17833963 -0.0038613838 0.7272536 0.007998325 0.5920089 -0.13375492 0.0955418 0.20097595 -0.3435986 -0.12581389 -0.6356398 0.05272669 0.2141444 0.49053636 -0.290004 -0.3711512 0.13518696 -0.005057253 -0.44708708 -0.15201244 -0.24402769 -0.022943297 -0.23151161 0.25960952 0.05234429 -0.3273746 -0.27841085 -0.623189 0.1554456
569 0.40095928 -0.11024681 -0.049705163 0.4987152 0.20675771 0.070794195 -0.31613573 -0.04221048 0.005301943 -0.08366937 -0.31878927 -0.20492953 -0.23735909 0.010117893 0.020708 0.30566272 -0.28427476 -0.58958447 -0.16925497 -0.3287816 0.20666645 -0.09230669 -0.6435542 -0.33999422 0.3244718 0.22552465 -0.29541072 0.080235556 -0.39500433 -0.5552109 0.0058682794 -0.28109956 0.52952623 0.47994393 0.10850629 0.27105287 -0.19894299 0.24815823 -0.32137403 -0.14533614 0.23936874 0.031156976 0.024374418 0.1704163 -0.1451757 0.09689041 -0.4402152 0.07242536 0.28845996 -0.2467819 0.12166456 0.41291365 -0.19250633 -0.01327419 0.050725326 -0.28523257 -0.20556577 -0.26665506 0.13045102 -0.28839996 -0.14460886 0.34937218 0.16548741 0.32524264 0.09322387 -0.34314412 0.012266047 0.09707526 -0.43128803 0.039929666 0.31260774 0.5732853 0.29424375 -0.30812454 -0.039123364 -0.21279307 -0.34222198 -0.21269804 0.015360902 0.13606304 0.2735871 0.11387224 -0.44856337 -0.42620623 -0.2929372 0.20876125 -0.025241077 0.6419226 -0.11174279 1.1544713 0.49499914 0.51126045 0.058191508 0.22528952 0.12883718 -0.3078581 -0.1737369 0.32275206 0.4036424 0.44854578 -0.19242783 -0.008412112 0.49842247 0.3213453 -0.16483444 -0.026923181 0.2193395 0.16587335 -0.308719 0.10558407 0.3589182 0.03537797 -0.4175998 -0.19406262 0.3351683 0.12920275 -0.2780415 -0.3715131 0.1513031 -0.05679724 0.055151314 -0.37607303 -0.07655341 -0.04219691 -0.4527167 -0.29969305 -0.14847678 0.0037886351
1653 0.23493159 -0.45122325 -0.0021462904 0.5202522 0.071196236 -0.31684366 -0.11055199 -0.13915807 -0.31857684 0.22462577 0.0370366 -0.11869003 0.04330563 -0.076026306 0.3846117 -0.07927263 0.39749473 -0.20769905 0.14781499 0.044405103 -0.09067567 -0.2782398 -0.12027685 -0.24024555 0.11917172 -0.3741755 -0.08800271 -0.020309478 0.04869837 0.057256546 -0.42957842 -0.023972422 0.05278333 0.22858527 0.36885363 0.17000665 -0.2545443 0.05361417 -0.420929 0.12842266 -0.15484992 -0.13817303 -0.30309698 -0.41489676 -0.20775357 0.665595 -0.15381545 0.20014454 0.11008544 -0.24917553 0.12665379 0.05435893 0.033473462 -0.36853653 0.16555633 0.053753387 0.1925425 -0.12910093 -0.19679657 -0.37754107 -0.40247425 -0.10645911 -0.33169407 0.0026282636 0.52322775 -0.14256912 -0.04517239 -0.068771675 -0.06766057 -0.004204693 0.23717201 -0.32849246 -0.1994077 -0.13183449 -0.33738902 -0.28065082 0.19729036 -0.13720077 0.21122766 0.1739355 0.03272944 0.15819032 -0.62010485 -0.24588148 -0.1496846 0.26187405 -0.31394616 0.28851727 -0.511099 0.24196175 -0.058172986 0.13631496 0.11827157 0.04112313 -0.0128798345 0.0884769 0.15634431 -0.16061296 -0.043885127 0.26742268 0.13587695 0.4060474 -0.18864048 0.24381019 0.03301174 0.38241258 0.33852792 -0.25693074 -0.18283747 -0.44486418 -0.13884796 0.2823561 0.0747658 -0.110944524 -0.14072889 0.22423781 -0.16390648 -0.078665614 -0.11930972 -0.16361037 -0.20989765 -0.008024881 0.2631218 -0.22472861 0.09020179 -0.20508607 -0.291483 -0.014616958
405 0.18072167 -0.23165248 -0.22899924 0.31451085 0.13415197 0.0066012866 0.15436424 0.26711452 -0.04644614 0.10841458 0.06505193 -0.22600682 0.08019073 -0.021212017 -0.3302702 0.30119678 0.109663956 0.00903746 0.21098678 0.3915401 0.13324192 -0.16888417 -0.043493714 0.66727346 -0.09922534 0.045479804 -0.10235691 -0.33506042 0.12604652 -0.42084676 0.122910716 -0.43322328 0.13616987 0.06959315 -0.044363737 -0.29721278 -0.0898446 0.28426903 -0.07040688 0.14039354 0.20499355 -0.2576353 -0.08631296 -0.1850596 0.3662213 0.21717885 0.11163179 -0.41451043 0.063396804 0.12055654 -0.23367548 0.17909423 0.015351975 0.19478765 0.0926388 -0.042059038 0.09151445 -0.63168705 -0.4044667 -0.17896208 -0.024311675 0.057078935 -0.6906466 0.18175946 0.031533085 -0.0839601 0.13413048 0.09877018 -0.019322045 0.41288263 0.29291418 -0.282342 -0.15715598 -0.21764518 -0.027636476 -0.19966489 0.27650076 0.18173602 0.14072596 -0.07414522 0.08085967 -0.2447309 -0.024899673 -0.113252275 -0.15553695 0.573998 -0.18359105 -0.23490721 -0.4191846 0.49540544 0.026841534 0.02840007 -0.040220108 -0.39751998 0.09708571 0.45743638 -0.24816419 0.35501876 0.06658742 -0.19508354 -0.39425418 -0.15343806 0.15735301 0.73629147 -0.14858188 0.191342 0.09531946 0.16218352 -0.34547246 -0.113036215 0.15352613 -0.2915626 -0.11196078 -0.4535975 -0.113243856 -0.22449921 0.15463045 0.26883417 0.17985788 -0.21142754 -0.057250246 -0.2366442 0.02916138 -0.08999918 -0.40185073 0.29780373 -0.16430877 0.3462727
1648 0.17111552 -0.29257932 0.038937274 -0.115094006 -0.108023964 -0.42516893 -0.15286951 0.055646647 0.10337084 0.2865191 -0.14574459 0.1126597 0.096228756 -0.28951442 0.36988378 -0.022521568 0.37470868 -0.16955349 0.016218582 0.3054602 -0.004632963 -0.2944844 -0.018870054 -0.086336814 0.055508986 -0.044714402 0.25056675 0.36838576 0.4553688 -0.01566415 -0.2433447 -0.23567116 -0.3238436 -0.06509674 0.416468 0.24237643 -0.12987766 0.039419644 -0.30401492 -0.008269817 -0.17371002 -0.07365664 0.14817539 -0.028346207 0.23690623 0.26629812 -0.041594304 -0.032529768 -0.04877514 -0.4096052 -0.016595088 -0.22082853 0.11259719 -0.2034189 0.16193818 0.28703183 -0.33749592 -0.114092186 0.15623982 -0.14744665 -0.4000941 -0.47592464 -0.18187684 -0.16327909 0.4818468 -0.088377886 -0.2198285 -0.036470864 -0.08243837 -0.010636843 0.25592956 -0.24420768 0.07771138 -0.2522204 -0.13533412 -0.042873636 -0.024080763 0.09675938 -0.15044585 -0.12792976 0.15587968 -0.0035687098 -0.52549195 -0.2684339 -0.014990353 0.27521995 0.07281078 0.10640448 -0.4598875 0.26185885 -0.060082313 0.4147073 -0.21846557 0.27418554 0.41133264 0.48938692 0.15673253 -0.21786956 0.45447704 0.39572623 0.11631392 0.3908844 -0.019572392 0.31140283 -0.10117355 -0.07184869 0.2398348 -0.38536045 0.13229689 -0.6567872 -0.10865519 0.2953608 0.028346881 -0.0728782 -0.16288489 0.020154463 -0.17635353 -0.12256777 -0.14552538 -0.38521034 -0.17828843 -0.20542572 0.19464937 -0.32657644 -0.306105 -0.10697321 -0.2818127 0.28075695
6 0.051431105 0.10289946 -0.47196665 0.2253134 -0.035687845 -0.025699543 -0.17040628 -0.15228455 0.19971314 0.46945903 -0.14090154 -0.047954425 -0.0034373356 0.16964042 -0.12230495 -0.13515435 0.18677917 -0.14956531 0.015502056 0.09223986 -0.21440825 -0.07284761 0.3230941 -0.010922246 -0.33849418 -0.2057076 0.16954218 0.06003091 0.35877612 -0.044706486 0.17458898 -0.03029004 -0.005369201 -0.07192991 0.35108396 0.096677236 -0.28738844 -0.089390896 -0.20937428 0.32965943 -0.43014964 -0.19197309 -0.18004492 -0.36696243 -0.24883065 0.2867861 0.27407035 -0.15947084 0.50270754 -0.4239988 -0.06579547 0.00121979 0.30505845 -0.12481062 -0.11542736 0.3090375 -0.34799615 -0.0362091 0.31623098 -0.2514785 -0.085018456 -0.4069476 -0.119078726 0.012375238 -0.10442829 -0.10504881 -0.034710962 0.37937233 0.03543829 0.00033919702 0.30455172 0.059273683 0.04287958 -0.00067986 -0.06508693 -0.12310554 0.054628294 -0.22392695 -0.14215894 -0.44817293 -0.35829502 0.1852548 -0.0761774 -0.3646756 -0.2102068 0.015386583 -0.07171909 0.05276933 -0.6250545 0.050414905 0.33433998 0.07127337 0.45522344 0.20119205 0.034421925 0.113681324 -0.05349207 0.06319725 0.09867746 0.35132724 0.30205208 0.23510027 -0.16534129 0.4330272 -0.113309555 0.252788 -0.28428644 -0.3649384 -0.21157216 -0.39055833 0.11128705 0.15482464 0.010211319 -0.20553364 -0.37532672 0.23220582 -0.09313668 -0.42250025 -0.017347865 -0.18848777 -0.44251263 0.0176292 0.6054292 -0.48727438 -0.11267104 0.0727094 -0.18325098 0.08413102
496 0.26864794 0.24132445 0.04536542 -0.20812863 -0.22610411 -0.12304602 -0.15143153 0.08997437 -0.10252559 -0.01063927 -0.24914889 -0.2055486 -0.062120162 -0.4296469 -0.03778428 0.13462514 0.14456257 0.16541149 0.25731432 0.25231263 -0.39831963 -0.14517725 -0.2785844 -0.05523473 -0.014658206 -0.16314799 -0.15197718 -0.3231783 0.36254293 0.3266834 -0.14935201 0.38634965 -0.20324327 0.12651229 -0.15429527 -0.1905938 -0.2356411 0.70314735 -0.18274984 0.23893403 0.37772384 -0.2211502 0.1416094 -0.022057777 -0.30041984 0.26803958 -0.526308 -0.09290618 -0.060555078 -0.43534374 -0.09048903 0.14360638 0.14154217 -0.026729055 0.28025866 -0.15415964 -0.11411979 0.07611639 -0.028539442 0.25750536 -0.02851141 0.030998856 -0.40352118 -0.098124415 0.3608248 -0.020153657 0.09342045 0.28674647 -0.07795482 0.22398862 0.02986452 -0.1700291 0.039548997 -0.057767536 -0.023734476 -0.47886047 0.04306244 -0.16459522 0.10808226 -0.23700754 0.062036306 0.029625531 -0.11264589 -0.15981229 0.4288288 -0.21411185 -0.29450402 0.28995284 0.40410036 0.20028186 -0.018404849 0.12113962 0.08674625 -0.059083037 0.2078941 0.3128637 -0.70271456 0.4787418 0.04055692 -0.174435 -0.2470571 0.021217119 -0.14179525 0.016725589 0.014483276 0.43724447 -0.2956482 -0.23804416 -0.09669608 -0.47033077 0.12037502 0.27140886 -0.3974346 -0.46357107 -0.46987143 -0.124415934 0.016554903 -0.395795 0.4129269 0.5255238 -0.109090246 -0.21199568 -0.40092072 0.0871215 -0.39518863 -0.14169878 -0.13491328 -0.33486566
226 0.2897861 0.113529354 0.062902324 0.30190042 0.1344351 0.18106566 -0.049011715 0.10380116 -0.42329398 -0.3413485 -0.3551067 0.13042647 -0.25289628 -0.072585516 0.20950042 0.06837585 -0.17625655 -0.04233366 -0.24583186 0.074533835 -0.106412455 -0.15398717 -0.2766174 0.23216552 -0.18735722 -0.14785583 -0.1403813 0.015142765 -0.08441321 -0.7539799 -0.18082991 -0.17310163 0.33144125 0.03170654 0.3849118 0.031306077 -0.09590028 0.55253196 -0.4562007 -0.059852723 0.12964383 -0.71096486 -0.3320251 -0.21023701 0.07869807 -0.55902237 -0.2226443 -0.15183285 -0.3487777 -0.20762192 -0.118440896 0.25660107 -0.29242527 0.01685742 -0.19745858 0.3187268 -0.21529934 0.28428903 0.29919285 0.22467896 -0.2005893 0.1607773 -0.34866968 -0.13551979 0.21964556 -0.2489805 0.017964559 -0.042534605 -0.09006509 -0.14131081 -0.18813904 0.2568286 0.36101195 0.077177756 0.009419104 -0.67480093 0.33042067 -0.1709597 -0.067506075 0.16246203 0.12640864 0.21962653 -0.020765476 -0.26002026 0.36435223 0.044570018 0.2521533 0.25555614 -0.12814349 0.41023418 0.034726143 0.26977807 -0.07262475 0.19955824 0.33736208 -0.0053763743 0.065041885 0.60297304 0.044179976 -0.007187766 0.026503198 -0.054963987 0.10223648 0.500448 -0.39814726 -0.19883847 -0.061885577 0.096540615 0.061504163 -0.24132673 -0.14186934 0.2004834 -0.38032642 0.08111737 0.15147816 -0.24754135 -0.19667827 -0.07029234 0.33629227 -0.06770177 0.0855209 -0.13707323 0.06303171 -0.077519014 0.4177367 0.051729295 -0.0671152 0.24759842
476 -0.22721544 0.42488828 0.07880586 0.29042456 0.13436095 -0.38613075 -0.20196095 -0.021702891 0.31565025 0.16931644 0.06433841 -0.025705101 -0.29603547 0.10099107 -0.46897402 0.1747552 -0.30946428 -0.30092832 0.07442312 0.052819062 -0.05029796 0.08450784 -0.3167433 -0.009603444 -0.035477452 -0.24399747 -0.18227102 -0.07946552 0.43025303 -0.82498217 -0.07580517 -0.2934459 0.45449027 0.2780074 0.4118407 -0.44575328 -0.38207394 0.23313603 0.4497383 -0.08104018 -0.2037885 0.0901613 0.19562629 0.08950773 -0.11649767 -0.30704418 -0.43564954 -0.054826375 0.08166173 -0.20721571 -0.04866966 0.22656956 -0.38230288 0.14233527 -0.08109241 -0.23483676 -0.12545648 -0.35954398 -0.38154596 -0.22668913 0.026254108 0.18316692 0.009648032 -0.19071947 0.13392337 -0.44580853 0.12038578 0.07729882 0.08947106 0.3015415 0.038476504 0.012985659 0.19797847 0.042319804 0.3716232 -0.39143607 -0.10433499 -0.5580371 -0.13182943 -0.19123766 0.10057887 -0.04985692 0.13120173 -0.27412185 -0.03096411 -0.06932471 -0.24575421 0.18312857 -0.12688413 0.35667086 0.2563532 0.35130468 -0.022055784 -0.3138056 -0.07377672 0.30383354 -0.28697774 -0.01321228 -0.06329837 -0.061920546 0.0935711 -0.07574075 0.59528244 0.4124456 -0.036382373 0.17133875 0.34278637 -0.0349933 -0.5252148 0.026616776 -0.44369003 0.057225447 -0.099131316 0.15198036 -0.1287731 0.098545805 -0.0953229 0.17454475 0.19970566 -0.1741137 0.3093318 -0.16110827 0.12274302 -0.031291947 0.011432996 0.008665899 -0.3877862 -0.01196317
31 0.16370194 -0.02436945 -0.059329923 0.12181888 0.26625735 -0.05118859 -0.20507562 0.2885464 0.04859706 0.25951517 -0.28918722 -0.40842023 -0.05600214 0.015656095 0.035578243 0.032817524 -0.24849856 0.26889098 -0.17120223 -0.14131351 -0.07923382 -0.48061788 -0.35975066 -0.16161588 -0.5847455 0.24702263 -0.03886601 -0.48074254 -0.0036197922 -0.39197326 0.2109637 -0.003224753 0.040247105 0.01725342 -0.12958749 0.31324026 0.22869389 0.32493562 -0.24289301 0.23326421 0.5492495 0.2542917 0.1647211 0.043038692 0.13732016 -0.003080267 -0.17288497 -0.12573433 -0.38874224 0.12521315 0.007186036 0.019011928 0.21608602 -0.0069201537 -0.13163112 0.11476017 -0.43652195 -0.14985365 0.41153866 -0.09376343 -0.08843155 0.34695488 -0.35769492 0.035761744 -0.025038237 -0.034356434 0.037506584 0.25040254 -0.04273986 0.048535634 0.16157852 0.089135095 -0.048482113 -0.02862772 0.15196078 -0.14652795 0.29918516 -0.20623924 -0.016461926 -0.30610192 -0.27260214 0.35905683 -0.24634036 -0.3495572 0.5816168 -0.29333287 0.17090467 -0.20748235 -0.40328977 0.52601093 0.16904409 0.014664531 -0.039007373 -0.05945663 0.17928821 -0.2891031 -0.29233783 0.19528905 -0.35236487 0.06268554 0.308703 -0.024205795 0.075166054 0.29728347 -0.36024407 0.004736456 0.26647007 -0.33773926 0.12127759 -0.1378241 -0.6517176 0.169619 -0.25271463 -0.08102174 -0.23070739 -0.34673983 -0.10482809 -0.101184525 0.21512482 -0.024269555 0.051393203 -0.28154078 0.030115576 0.11871679 0.15367284 -0.40508673 -0.50216025 -0.097935244
1641 0.028900439 -0.20467721 -0.001316899 0.26052597 0.20303296 -0.4108094 -0.14559625 -0.09591803 -0.2817169 0.22505346 0.00087253266 -0.33879623 -0.10813172 -0.3400837 0.094281234 0.070820235 0.26151258 -0.14302468 0.24365672 0.05241234 -0.16915351 -0.023931842 -0.10218269 -0.3081998 0.07127045 -0.25351378 -0.17923616 0.079175584 0.3045754 -0.033193704 -0.5080633 -0.21252728 0.04320153 0.19520241 0.078166366 0.255309 -0.19810559 0.04294886 -0.40024263 -0.0002821573 -0.22351035 -0.27044463 -0.19947681 -0.2638231 -0.11394645 0.62006426 -0.068487234 -0.014948774 0.24571869 -0.13808894 0.09559913 -0.027398668 -0.06502702 -0.37699673 0.5438942 0.068956204 0.15623017 -0.17304716 0.08980101 -0.49822122 -0.38489807 0.074342094 -0.35646617 0.23895814 0.6028178 0.0425232 0.07528965 -0.14341833 0.035887506 -0.08886257 0.008840117 -0.22351505 -0.10871211 -0.13170727 -0.08047198 0.019012567 -0.14836687 -0.32317555 0.019293942 0.042067003 0.06149135 -0.19772857 -0.6491004 -0.2783306 0.21981245 0.18882836 -0.06573451 0.095575504 -0.23823084 0.30183214 -0.14572719 -0.06041885 -0.2093455 0.101430774 0.20833148 0.038896754 0.27613163 -0.4390197 0.19117607 0.14284453 0.028842127 0.54298854 0.1366753 0.39986935 -0.34566107 0.40971777 0.13945259 -0.18206488 -0.32204688 -0.47081608 -0.26657972 0.18213649 0.078153774 -0.23027802 -0.17120083 0.016495999 -0.012920979 0.19233058 -0.3615389 0.12254953 -0.042110946 -0.17639461 0.3383239 -0.45949912 0.06123926 -0.1791944 -0.54076886 0.13392293
2148 0.24438086 -0.554223 -0.034267172 0.16763486 0.1365802 0.09090374 -0.121653825 -0.11554995 -0.17757657 0.1126351 -0.36602464 -0.06036519 -0.060860243 0.3689714 -0.45534715 0.097059585 0.05785723 -0.06093474 0.09066407 0.016983867 -0.17326628 -0.33762246 -0.14926775 0.15403976 -0.37339205 -0.23428138 -0.097498894 -0.0021350428 0.07106191 0.036464334 0.34354898 -0.17330165 -0.41924262 -0.025814919 0.559332 0.17431466 -0.29283062 0.35869777 -0.16836973 -0.28394967 0.009255703 -0.12535739 0.092398934 0.21333794 -0.15375319 -0.13712876 -0.06213686 -0.2106215 0.07855702 -0.1756289 -0.26291585 0.26639032 0.05311799 0.0016416861 -0.24308065 -0.094994776 -0.2344577 -0.45103258 -0.04083145 -0.05501815 -0.15211979 -0.2622649 0.008962036 0.07263281 0.32828948 -0.15263279 0.5116735 0.1303699 0.012872241 0.3180994 -0.2679105 -0.3437668 0.18320113 -0.3933996 -0.30992174 -0.2865191 -0.42030686 -0.11924412 -0.034579318 -0.39351842 0.30515164 -0.19561121 -0.20808943 -0.10258556 -0.1608616 -0.29034132 -0.22448039 0.03602752 -0.46880838 0.40989345 0.34199822 0.33397093 0.3495108 0.8443084 0.16002382 0.04303568 -0.30063665 0.12109725 -0.24199085 0.1967046 -0.13688236 0.517667 0.3144548 0.42078906 -0.09488782 0.47350356 -0.3280948 -0.24057965 -0.1512689 -0.063763455 0.20641202 0.22784936 0.22664355 -0.3661311 -0.5329894 -0.4241868 0.338465 -0.16993657 0.077501215 0.008684509 -0.0075831143 -0.12662672 -0.09462798 0.22525917 0.19651811 0.057099797 -0.2150412 0.17778249
1638 -0.16213822 -0.55897176 -0.13631596 0.111460365 0.16121744 -0.15866049 -0.06668142 0.37704155 0.108828075 0.37960452 0.001485659 0.038367648 0.043275956 0.18461397 0.085674286 0.015084836 0.04407231 0.047973517 -0.037605178 0.11573817 -0.06963472 -0.356687 -0.16476963 -0.012282201 0.028496722 -0.20118326 -0.22208755 -0.24274804 0.56885624 0.1192581 -0.050274618 -0.4718564 0.024115553 0.26077765 0.3305832 0.35349074 0.044508882 0.20089716 -0.11598 -0.13042371 -0.2063703 0.15469371 0.10111884 0.00061777706 -0.11696523 0.2336917 -0.28214154 -0.15953368 0.35494596 -0.37899232 0.008100933 -0.17931607 0.07621074 -0.08503712 0.024941022 0.14781293 -0.06009836 0.093856 0.3178841 -0.442172 -0.478862 -0.4079915 -0.29699424 -0.3757991 0.5094143 -0.43873945 0.081618674 -0.06592396 -0.09661136 0.23511037 -0.017158419 -0.4056382 0.013659057 -0.16981457 0.08030803 0.029233426 0.056496747 -0.04183985 0.06519207 0.030459339 0.18799542 0.1035659 -0.49288416 0.15947814 0.11441827 0.23229024 0.23706245 0.23802783 -0.46545535 0.014439272 0.1356017 0.351267 -0.056291826 0.3668122 -0.09622645 0.46720403 0.12357612 -0.4306511 0.21573602 0.13249242 0.15521492 0.40289485 -0.15060431 0.22814083 -0.14723633 0.24582835 -0.28089377 0.021147048 -0.29910862 -0.5284579 0.029868975 0.31853506 -0.0024227537 -0.13923074 -0.3306215 -0.014825775 -0.19903156 -0.1575958 -0.09415652 -0.20847486 -0.21405607 -0.061064392 0.21424522 0.086718366 -0.08807228 -0.10077095 -0.35093537 0.2736919
1645 0.24041368 -0.312376 0.075829044 -0.14773177 0.29178622 -0.087792866 -0.17799436 0.064409465 0.09607921 0.3718337 -0.029771939 0.027877059 -0.024958257 0.36175713 0.1886293 0.38160366 0.3316198 -0.08065374 0.041031666 0.15801573 -0.151473 -0.2842381 0.057527747 0.071951315 -0.18724434 -0.020677362 0.29257923 -0.38155794 0.5354264 -0.15021671 -0.09751705 -0.5287303 0.12529774 0.3237558 -0.10123505 0.17629868 0.052395415 -0.025294848 -0.11699003 -0.060626056 -0.07104564 0.07692171 0.071266025 -0.037209816 0.2245641 0.40413848 0.18372764 0.25452614 -0.15650833 -0.21870615 0.1780263 0.021717248 0.06674454 -0.36540225 0.053385705 0.06262236 0.03952874 0.14399837 -0.09558256 0.15014133 -0.7825986 -0.4792469 -0.19793943 -0.24827577 0.2761191 -0.3812712 -0.2603512 -0.29240993 -0.11387842 -0.19045939 -0.317893 -0.019636305 0.3305105 -0.23988865 0.13730027 -0.10210317 -0.2021724 0.09204786 -0.3621327 0.063080184 0.16361187 0.12796229 -0.4675692 -0.3687262 0.32822147 0.14650904 -0.316885 0.52496135 -0.2857046 0.31603727 -0.08749907 0.3583447 0.0006837552 0.022230035 0.07929736 0.029963853 0.43757096 -0.06503933 0.24041432 -0.067242585 0.23428908 0.426503 0.029286714 0.4232691 -0.06865602 0.13202322 0.010284914 -0.33827767 -0.50628775 -0.7974765 -0.19999455 0.008919625 0.17267731 -0.17741759 -0.09785325 0.021759339 -0.21086356 -0.18079811 -0.22750637 0.033830144 -0.4335322 0.1782014 0.30390298 -0.3525762 0.18412966 -0.4504065 -0.30008158 -0.061391022
696 -0.13431951 0.44652298 0.071009755 0.05248599 0.19855455 0.14741412 -0.43369383 0.23078705 0.43996853 0.23871592 -0.5912044 0.24024877 -0.10203873 0.017531775 0.08524115 0.052033965 0.067335695 0.06322388 -0.034580488 -0.018361287 0.17138183 -0.20296131 -0.21195617 -0.09095446 0.0076166033 0.32660595 -0.014077383 -0.42712244 0.07484313 -0.012297996 -0.0032320726 -0.12264929 0.094825745 -0.08235199 0.043088768 0.14888562 -0.24568895 0.30253348 -0.6000786 0.18781693 0.1423492 -0.06926123 0.3931626 -0.8253487 -0.15275434 0.061103426 -0.25338504 -0.3415081 0.3990067 -0.0075420216 0.060422957 -0.23607391 -0.6152956 -0.14662378 -0.106805176 0.04255975 -0.09388598 0.023562497 0.022932168 -0.116719365 -0.2595359 0.116638176 0.042782206 -0.054260705 0.29345602 -0.35183623 -0.1612569 0.03828306 0.34206417 -0.22395115 0.1133384 -0.09521712 0.30638215 -0.33915925 -0.22735213 -0.120146886 -0.074752554 0.123344034 -0.11498865 -0.14059989 0.5071014 -0.088653244 -0.099827416 -0.41469195 0.6471304 0.17037193 0.17597334 0.08635483 -0.21118942 -0.25130627 0.3387346 0.08600684 0.18113288 -0.02316144 0.16233112 -0.16138056 0.019917648 0.3289888 0.12256768 -0.43340027 -0.19951473 0.16956545 -0.15798001 0.026073778 -0.17133775 -0.04566445 -0.019832931 0.5098371 0.40337738 0.00052305683 -0.29643902 -0.029195681 -0.23167652 -0.36968535 -0.045225754 0.14017074 -0.38011542 0.0636042 0.10719824 0.466618 -0.123910375 -0.21082555 0.41276756 0.03879573 0.18787873 -0.32768103 -0.25256282 0.25103864
1443 0.2708973 0.12450056 0.10542923 0.20747414 0.058378894 0.2565558 -0.35973644 0.31366828 0.17217346 -0.22482944 -0.45102605 -0.19471596 -0.24970789 -0.18778378 -0.03347813 0.24689183 -0.04746903 -0.030551855 0.16928007 -0.28513223 0.13296561 -0.05282529 -0.024152711 -0.24038732 0.07765547 0.012343156 -0.15690811 -0.26451656 -0.025752544 -0.3182871 -0.044443227 -0.07065844 0.011817876 0.25214735 0.0746031 -0.021629827 -0.025366534 0.26598418 -0.47412738 0.00234063 0.35958365 -0.4414533 -0.22701772 -0.21244305 -0.20919836 -0.039819095 0.052253608 -0.014284367 0.06680927 -0.068068884 -0.21355064 0.26415104 -0.1810254 -0.013689825 0.093713365 -0.36939496 -0.21389586 0.13885821 0.34999606 0.18521467 -0.033577345 -0.09834323 -0.20199455 0.076219775 0.376175 -0.36508864 0.12137386 -0.038356192 0.27990705 -0.15108316 -0.013842268 0.25376782 0.41345024 0.08112101 -0.06602869 -0.6024016 -0.124610156 -0.26904333 0.26489195 0.26084995 -0.29211155 0.2996227 0.14318815 -0.062398884 0.2052053 0.10302686 0.502571 0.09361759 -0.041447192 0.4355755 0.019723304 0.015475959 -0.2712888 0.03601409 0.002805037 -0.2621669 -0.013744362 0.2640551 0.1472248 0.072077826 -0.12127579 0.16097434 0.15288235 0.20562686 -0.12580653 -0.08632606 0.32132074 0.07406443 0.39759055 -0.6428761 0.236162 0.44489217 -0.68391186 0.34476626 -0.1929165 -0.29350376 -0.10569486 0.17166844 0.33165124 0.19392125 -0.31435525 -0.5309687 0.40291622 -0.39850566 0.2021623 -0.30613485 -0.4696128 0.06819927
2330 0.15504564 -0.19282745 -0.21356305 -0.11848805 0.12358612 -0.41590747 0.10674205 -0.073780075 -0.010313428 -0.11257083 -0.054202404 0.16589867 0.15875229 -0.11294154 0.16353202 -0.03839217 -0.06284402 -0.31109548 0.15034406 0.023659185 0.019994857 -0.10389421 0.22113754 0.078509375 -0.4576968 -0.0011215163 0.034557417 0.024975924 0.6721159 -0.17982626 0.21890695 -0.3955184 0.15219715 -0.31272635 0.5099893 0.4294627 -0.48137173 -0.16450548 -0.48595074 0.012259574 -0.15631603 0.41131568 0.15044257 -0.10197103 0.21078125 0.05926014 -0.16799717 0.015504262 0.015678471 -0.39711863 -0.1027528 -0.13266546 -0.22953333 -0.4284058 0.023459788 0.22276126 -0.18693389 -0.5193545 0.2943915 -0.19343594 -0.14405516 -0.3757713 -0.33272678 -0.1919493 0.22458695 -0.13555644 -0.1125611 -0.038444158 0.09074644 -0.10527645 0.18883902 -0.28693813 -0.012324377 -0.21226324 -0.14902928 -0.34648666 0.16329624 0.041549657 -0.04164302 0.10870559 -0.19821058 0.27655917 -0.1945945 0.093642525 0.22139165 0.24748075 -0.31383753 -0.12504308 -0.42493924 -0.043391716 0.25219318 0.27378535 0.17082311 0.020507118 0.09812465 0.23285876 0.16991276 -0.424228 0.44443905 0.18359374 -0.11235014 0.16633652 0.015107059 0.33412135 0.0046725557 -0.015601828 0.045690577 -0.56244653 0.082854144 -0.46866363 0.062092636 0.21036308 0.16606633 -0.23205872 -0.48548892 -0.008080358 -0.47505316 -0.16003354 -0.30247587 -0.29801053 -0.40652296 0.23781334 0.006972557 -0.57777077 -0.24636002 -0.27855596 -0.38685337 0.033630647
68 0.5565288 -0.3961767 -0.096831895 -0.13056685 -0.12488258 0.4969669 -0.2344879 -0.11391131 0.15470882 0.058916025 -0.21579939 0.18982649 -0.33819073 -0.16275871 -0.03706298 -0.0024802075 -0.022410952 -0.05343819 -0.31001782 -0.08045542 -0.37044564 -0.22945957 -0.33833176 0.40191856 -0.24833338 0.10999113 -0.40871507 -0.58002543 0.28134942 -0.15594484 0.05501078 -0.17282778 0.1113811 0.07954116 0.3105983 -0.06520693 -0.020966431 0.17410283 0.09776937 0.051689006 0.16395679 0.066901274 -0.5739829 -0.5229089 -0.1423668 0.24095683 -0.5354766 -0.0019032345 -0.060695615 -0.033908118 -0.4857138 0.41343918 -0.101824515 -0.38456294 -0.040371343 0.060912658 -0.17177555 -0.07429391 0.22220017 -0.12016746 0.26581442 -0.23937221 -0.2766384 0.10535804 0.08505268 -0.38658166 0.10249933 0.42241073 0.11424908 -0.08980904 -0.209521 0.32507536 0.040073965 0.2592762 -0.038215153 -0.0708312 -0.1455454 -0.26795724 0.035749678 0.41411355 -0.10578611 0.10745823 0.32357934 -0.2073411 0.46510956 -0.0629019 -0.34246475 -0.11485135 0.4655692 0.03167326 0.10104944 0.27447817 -0.30388185 0.20323928 0.10916245 -0.21593577 -0.15372007 0.10277075 -0.122238144 0.025092395 0.020909969 0.3432262 0.02695358 0.103548214 -0.3586538 -0.43741554 0.4068149 0.07789372 0.063315526 -0.19010825 -0.09464119 0.4951823 -0.45808375 -0.15657772 0.08552564 -0.052400634 -0.17513716 -0.34206727 0.28981137 -0.0161967 0.13135068 -0.438563 0.26358324 0.047093377 -0.07609045 -0.100773655 -0.21617818 -0.34400752
1722 -0.06359317 0.32595322 0.17537953 0.019527048 0.43116692 0.031768683 -0.08807557 -0.41193932 0.4311085 -0.0059414394 0.07733363 -0.18431118 -0.15068193 0.09419304 -0.6220019 0.032389868 0.16970329 -0.018519761 -0.0681434 0.090889364 -0.12564656 -0.08946447 0.1193404 0.26394594 -0.056206573 0.061930906 0.07048816 -0.02001467 0.14202058 -0.21662554 0.35970747 0.12210389 0.11633242 0.09897311 -0.030333385 0.14866562 0.10954852 0.13678564 0.15222043 0.55374414 0.36147606 -0.48092106 -0.34447974 0.014926353 0.45484057 0.52969474 -0.20764962 0.19172068 0.2693875 -0.17510673 -0.516323 -0.21517117 -0.34991032 -0.1299024 0.09403945 0.26186576 -0.22068968 -0.41459644 -0.6741936 -0.46120086 8.7322274e-05 0.07346833 -0.55382764 -0.1811118 0.07615165 -0.16335289 0.3314859 -0.06096685 0.0076041557 -0.33076245 0.09873824 -0.12932274 0.16655512 -0.12737286 -0.24324226 0.179627 -0.4461788 -0.17185684 -0.031333562 0.017639738 0.22447138 -0.07545317 -0.34969625 -0.22550285 0.24282934 -0.07049106 -0.55285084 -0.16366696 -0.1594074 0.16655226 0.094647676 0.3494124 -0.16541578 0.17871484 0.16954853 0.0774448 0.103753164 0.31554264 0.17865129 0.33455035 -0.24269956 0.30449972 0.3699468 0.35729206 0.23198691 -0.14321654 0.17461884 -0.118315846 0.16453785 0.17444637 0.17256641 0.46420622 0.25719982 -0.12755832 0.20016737 -0.109523706 -0.355192 -0.26035896 0.32366222 -0.5548891 0.3998911 -0.049668852 -0.05299471 0.1254949 0.17395766 0.24336821 0.22665735 -0.032754444
1476 0.13629262 0.3608083 0.16756736 0.052566715 0.08534231 0.34751704 -0.10033977 0.21981585 -0.3064984 -0.121101245 -0.12876004 0.04752278 -0.15735906 0.11058139 0.13950184 0.32993498 -0.3157675 -0.2048271 -0.2510613 -0.355186 -0.12966496 -0.30820444 -0.3703893 0.12613294 0.02125085 -0.3471478 -0.1408042 -0.10723376 -0.05500106 -0.2095669 0.163163 -0.27938136 0.4225775 0.13473874 -0.11923352 0.21202937 0.05218201 0.47080967 -0.66357756 -0.26369354 0.31821576 -0.3062468 -0.14950892 0.16213152 -0.1408694 -0.1682727 -0.34557563 -0.41888312 0.0049736607 0.29184997 -0.018926872 0.15616633 0.06821508 -0.42046174 -0.038173515 0.15688956 -0.12690513 0.14926751 0.28306642 -0.10896423 -0.1516966 -0.20181128 -0.26253477 0.3120961 0.23646885 -0.28560725 -0.055184737 -0.26852298 0.16091798 0.3018696 -0.1721513 0.002673447 0.27052057 -0.25211808 0.24508572 -0.68719107 0.066355854 -0.28736666 0.0681104 0.38217735 -0.31300503 0.6937174 -0.07636045 -0.07929588 0.23029536 -0.08426933 0.40367353 -0.1112871 0.06909439 0.59441584 0.078038685 0.19618101 -0.13187206 0.06685671 0.056128427 -0.23181504 -0.086601466 0.30357075 0.37335157 -0.02996473 0.03324966 0.45202062 0.2849748 0.39123502 -0.093187034 -0.040732283 0.2999141 0.051618163 0.40832147 -0.75157756 0.15331618 0.13586515 -0.46487123 0.063573964 -0.20793876 -0.0818726 -0.31306806 0.38469332 0.25460538 0.07175535 -0.12606966 -0.13343392 0.0850765 -0.067380235 0.23632689 -0.060645413 0.029427275 0.28694665
510 -0.098614946 -0.028715339 -0.25528088 0.017781904 0.3033094 -0.111900516 -0.2601855 -0.5051124 0.37563732 0.022659255 -0.004703445 0.0673137 -0.0024247374 0.15464061 -0.57802284 0.2791015 -0.22061823 -0.12000776 -0.15150775 0.023460634 0.051159084 -0.12025651 -0.31531128 0.35156465 -0.0898139 0.092045866 0.46015102 0.115395375 -0.023294957 -0.47099376 0.26582226 -0.05985004 0.040440537 0.041215554 -0.44242984 0.102842376 -0.11204706 0.3020797 -0.03813797 -0.2428222 0.15396146 0.1816922 0.16505985 0.12085506 -0.2196115 -0.5108173 -0.43336615 -0.49768442 -0.11807743 -0.2641852 -0.29847434 -0.062268157 -0.057788253 0.14084609 0.29833567 -0.35160545 -0.3261565 -0.26282522 -0.38549298 0.06289163 -0.10629229 0.18400353 -0.4961897 0.038637564 -0.092374004 -0.10228484 0.28078994 -0.20317627 0.23325148 0.06801723 0.10295331 -0.5666572 0.10003255 0.011420284 0.21346763 -0.26778784 -0.20670098 -0.18148217 0.5715203 -0.08099893 0.4851802 -0.27207434 -0.0923702 -0.27411067 -0.106604725 0.14133519 -0.26380408 -0.080804855 -0.17727602 0.19336352 0.03333016 0.7805839 0.029117158 -0.0117651485 -0.12950407 0.29985163 -0.100796506 0.18328618 0.08422825 0.04301792 0.21086968 -0.02303814 0.18917066 0.44504637 -0.29425165 0.12605661 0.04316192 -0.029195739 -0.31227133 -0.15107127 0.047270574 -0.0074281073 -0.035614897 0.031520054 -0.17166531 -0.15159704 0.12524003 -0.29334068 0.1806252 -0.4600723 -0.15114312 -0.19006467 -0.05965857 -0.48203254 0.2411648 -0.36133206 0.21102631 0.06079641
1621 0.27865666 -0.54400724 -0.041794706 0.20714898 0.09528921 -0.018923758 -0.2874616 0.06011024 -0.045368176 0.34488085 0.02175667 0.12894215 -0.16806318 -0.073290646 0.41162178 0.14812066 0.10650701 -0.33350754 0.021135174 0.10033052 0.00054498395 -0.10215567 -0.13165236 -0.106462345 0.309137 -0.39530313 -0.01923635 -0.18379878 0.063191995 0.16223271 -0.25331885 -0.25813195 0.08099249 0.11580867 0.24591453 0.045626745 -0.11589323 0.21329525 -0.13302861 -0.06395161 0.013678358 -0.20090793 -0.2201146 -0.10250821 0.22031362 0.48840857 -0.26439098 0.0010564438 0.031350102 -0.2680423 -0.12443379 0.04797468 0.15159343 -0.2792559 0.32317516 0.32599503 0.21076174 -0.13371027 -0.03663787 -0.3181067 -0.5636992 -0.2061113 0.036593255 -0.22267355 0.694856 -0.15706365 -0.17958035 -0.069021806 -0.18329962 -0.20397918 -0.00020033726 -0.1850425 0.3202266 -0.10614897 0.03770376 0.15420428 0.1388701 -0.027652917 -0.040502716 -0.15604842 0.3227227 -0.0023832018 -0.56947106 0.1691371 0.033120513 0.28981313 -0.33036897 0.017943984 -0.35789382 0.25924772 0.1282192 0.04371806 0.25077766 -0.023621937 0.019544913 0.12758994 0.43614554 -0.3313058 -0.15021588 -0.025134739 0.22299597 0.5533045 0.24023235 0.524691 -0.0832987 0.2163388 0.031126918 -0.6806679 -0.2622049 -0.5018969 0.117009744 0.2773193 0.11681737 -0.10655492 -0.1693874 -0.20833276 -0.10876501 -0.1501126 -0.20787096 -0.15785252 -0.16077718 -0.10545168 0.15286037 -0.2778445 0.34519863 -0.25408804 -0.43784603 0.25309354
1478 0.2011538 0.24082437 -0.022811584 0.31115416 0.32454866 0.48675838 -0.25457913 -0.038994517 -0.05097946 -0.0759308 -0.5462804 -0.15805821 -0.09054719 -0.3310775 -0.020378882 0.25296807 -0.2606737 -0.09295803 -0.049212307 -0.41752928 0.2196157 -0.18594722 -0.33621332 0.11167618 0.25566566 -0.07978347 -0.2563763 -0.44818214 -0.18067884 -0.5202594 0.039751157 -0.10955187 0.24640392 0.40289584 0.12884709 0.05558847 -0.03713814 0.06127163 -0.73182684 -0.045228507 0.40438074 -0.39649788 -0.2582468 0.10051975 0.006369615 0.010340827 -0.05452264 -0.24772179 0.09950639 0.15227498 -0.23839805 0.25478548 -0.02978371 -0.12922528 -0.12760027 -0.034964785 -0.34299693 -0.006993089 0.31295535 -0.02151019 -0.24460715 0.08235654 -0.10205588 -0.012063399 0.17537272 -0.1931542 0.06272203 0.020598194 0.07442337 -0.13024749 0.21886067 0.2587058 0.6719828 0.25825202 0.2114064 -0.19027616 0.27338713 -0.104386084 0.39054966 0.44815084 -0.11029678 0.36401656 0.0636199 -0.1316356 0.4230366 0.10532031 0.38482735 0.40808848 -0.20372371 0.87268287 0.19546175 0.005330252 -0.19030538 -0.030274719 -0.21221656 -0.32157746 -0.008970407 0.3617382 0.2585069 0.23957399 0.13006598 0.23861438 0.0059655174 0.33474562 -0.2358076 -0.11039658 -0.06896361 0.22738846 0.24479996 -0.4032879 0.11163432 0.19049184 -0.22885978 -0.015374418 0.013850112 0.050538488 -0.43362594 0.24496463 0.23627803 0.5211691 0.16097699 -0.31026998 -0.13489486 -0.076895796 0.24714206 -0.35384545 -0.1522847 0.053157702
2159 0.14303137 -0.09370184 -0.45021713 -0.3137844 -0.2945121 -0.099947676 -0.30373296 0.08635438 -0.6600282 -0.110525824 -0.33237538 -0.15282889 -0.12983069 0.093359105 0.30094197 0.13887468 0.091484606 0.1847352 -0.2441178 0.38214117 0.050139956 0.04738978 0.032243792 0.10627823 0.015150341 -0.39698765 0.023709694 -0.28447932 -0.1063177 -0.113396555 -0.16895685 -0.14552154 0.0392113 0.15399644 0.31152806 -0.2358174 -0.03515686 -0.28666556 -0.23859857 -0.22303092 -0.108556435 -0.3074393 0.049926694 -0.24552849 -0.4383909 0.21496524 -0.32022008 0.16434868 0.052817196 0.20121993 -0.52355033 -0.19540568 0.23360234 -0.30699095 -0.21789338 -0.08125648 -0.06037842 -0.17309043 -0.095151655 -0.43049756 -0.44984448 -0.118699275 -0.2831798 0.090023465 -0.13003771 -0.13565361 -0.34120342 0.54310066 -0.08478347 -0.30035785 0.19088696 -0.37702113 -0.06838134 0.25358137 0.08337746 -0.5093777 -0.66731405 -0.354054 0.318381 -0.17067102 0.2919955 -0.09922826 0.043530177 -0.017485656 0.39810264 0.26311433 -0.043617707 -0.08560615 -0.39326233 0.020921744 -0.044977706 0.1337912 -0.06778465 0.6102165 0.03694231 0.6525954 0.11296899 0.5383642 0.33196032 0.14268273 -0.11849844 0.38236898 0.07265617 0.37528124 0.05804824 0.47396573 0.0853293 -0.20160115 0.060390353 0.047504045 -0.028400943 -0.052758146 -0.07349082 -0.5306348 -0.11589903 0.27496973 -0.21111336 0.17132427 0.16237557 0.120418996 -0.26446396 0.1657091 0.29164946 0.18358022 -0.014193613 -0.059725616 -0.08122938 0.18746167
1330 -0.12455351 0.049072903 -0.3397495 -0.13452426 -0.09823807 0.054862686 -0.15210462 -0.28160033 0.22360645 0.11102244 -0.015759679 0.13098063 -0.18664524 0.05328744 0.1052055 0.31444553 -0.24811348 -0.4092444 0.2529287 0.20382366 0.20946556 -0.101098634 0.066083506 0.32660297 -0.56902516 -0.040616933 0.07990282 -0.06591943 -0.0053183762 -0.28630942 0.24773216 -0.47734216 0.38043144 -0.011295759 -0.19558194 -0.111638 -0.3466561 -0.20084849 0.05540165 0.09635111 0.33047506 -0.21084805 0.06131923 0.3403636 -0.6456916 0.011344237 -0.11426044 -0.052756935 -0.119987756 -0.17961222 -0.46100378 -0.13576241 0.29558888 0.16451496 0.15025918 0.07129188 0.1888974 -0.27983496 -0.006989813 -0.51388407 -0.13144802 -0.036325492 -0.17733282 -0.22001787 0.0745281 -0.3371421 0.44011506 0.1029141 0.20850745 -0.20454793 0.34993687 -0.6911785 0.46810344 0.22408111 0.02751529 0.081769004 -0.11289641 -0.25794327 -0.06128174 0.049338106 0.10859233 -0.23075621 0.06508741 -0.2435924 0.2720733 0.39468297 -0.14358863 -0.023230528 -0.016596157 0.44596168 0.18351743 0.027844077 0.19235767 -0.0036871508 0.14826156 -0.1324172 -0.5245574 -0.38388872 -0.14587012 -0.0021940107 -0.44990653 -0.04733232 0.09500414 0.67593396 0.22418259 -0.003103498 0.34547803 0.024896346 -0.3731695 -0.20458442 -0.24141063 0.134301 0.081746124 -0.09922056 0.20877193 -0.16908722 0.10104719 -0.19881842 0.60118693 -0.345246 -0.49267897 -0.23632048 -0.5628037 -0.12533976 -0.3407364 -0.17847468 0.046632733 0.23160627
1446 0.2743406 0.18916838 0.038766216 0.32193968 -0.047740184 0.35478774 -0.3057839 0.17831841 -0.008823373 -0.10751091 -0.38035485 0.015865235 -0.264498 -0.22906612 0.15625484 0.3817894 -0.22872977 -0.055198565 -0.08877613 -0.29065624 0.041472606 -0.44797906 -0.24204946 0.10653981 -0.08576923 -0.23396015 -0.114843175 -0.27692822 -0.2236494 -0.32945523 -0.05229986 -0.13084996 0.28578937 0.34740573 0.13491622 0.24109317 -0.10933342 0.28691533 -0.6883208 -0.11276158 0.3180525 -0.41387844 -0.25051063 -0.11297748 -0.116440326 -0.18804447 -0.30236423 -0.05895806 -0.23214926 -0.035029884 0.019329881 0.20708784 -0.21083805 -0.014445743 -0.039974112 0.024603276 -0.16349702 0.075043425 0.38000828 -0.14454368 -0.3276232 -0.13659532 -0.073528916 -0.07173017 0.20853223 -0.25215244 -0.15778545 -0.28933024 0.06579687 0.09522212 -0.17596371 0.27575156 0.49051777 -0.06524269 0.03295084 -0.39691103 0.20758882 -0.22333366 0.09421324 0.2595361 -0.19647375 0.465382 0.090136744 -0.022991734 0.32459816 -0.13227536 0.17844057 0.1642323 0.03766032 0.7610181 0.1886414 0.11952646 -0.1949504 0.013083358 0.13309766 -0.26048985 -0.025648812 0.39736885 0.19606805 0.11614716 0.20459238 0.3558432 0.21664211 0.243947 -0.1399766 -0.24067155 0.16892989 0.17763038 0.34359843 -0.4272534 0.21834819 0.37891582 -0.5455113 0.11005387 -0.14750229 0.050414693 -0.17386726 -0.032283947 0.43843302 0.18780199 0.11791345 -0.37113184 0.08565634 -0.22758159 0.15811229 -0.46887934 -0.17557822 0.22842245
1430 0.40796456 -0.00829058 0.18733929 -0.060240656 -0.07230996 0.45241255 -0.0043265377 0.16239063 -0.08477099 -0.16017595 -0.5917495 0.015458467 -0.1584183 -0.39138713 -0.12038161 0.33359393 -0.11464043 -0.21023157 -0.41216388 -0.07401638 0.03680747 -0.48153123 -0.046640784 0.15832742 -0.31036708 -0.11093667 -0.40027002 0.027698627 -0.0581747 -0.37350744 -0.10902052 -0.09157046 0.45650756 0.67759424 0.24213634 0.15335067 0.060042214 0.3608624 -0.75644064 -0.15517473 0.29988256 -0.49853957 -0.39688173 -0.32252753 -0.103811644 -0.014454044 -0.32155034 -0.118915014 0.023369348 -0.109534875 0.16870576 0.21249816 -0.09888557 0.41104817 -0.014287956 -0.012720826 -0.17783515 0.10046785 0.34992167 -0.15993346 -0.40659022 0.018381726 -0.45555925 -0.21945341 0.21648082 -0.36286062 -0.13937742 -0.13191554 0.31596416 -0.27561194 0.19048157 0.3261585 0.3676634 0.18400119 0.072301574 -0.44382563 0.113974825 -0.17608164 0.033427987 0.2249023 -0.12185127 0.05673245 0.053064916 0.0070982636 0.44708478 0.21508153 0.21804307 0.22880176 0.09690625 0.7118447 0.18533596 0.10232982 -0.32179496 0.1283885 0.1541822 -0.22778118 -0.057360373 0.4993702 0.113218874 -0.014683632 -0.15442851 0.020874457 0.21378055 0.29596677 -0.06961867 -0.17253496 0.09228596 0.25125232 0.18379034 -0.36077765 0.20684737 0.12900595 -0.41857323 0.21610096 -0.16207764 -0.24756704 -0.038636934 0.007539668 0.26649424 0.16305448 0.12612705 -0.19337942 0.028270671 -0.12194088 0.5500434 -0.29849997 -0.12918235 0.30081567
1444 0.48812222 0.037766907 -0.06823242 0.40488043 -0.30780274 0.70511067 -0.10009584 0.09646439 -0.045150895 -0.3318867 -0.5306166 -0.07025626 -0.19981547 -0.12995248 8.2585844e-05 0.1710299 -0.120279744 0.1373052 -0.12298258 -0.26748645 0.064019956 -0.022657916 -0.09094755 -0.035887185 -0.07509171 -0.13673736 -0.12506032 -0.3995839 -0.04924929 -0.63023555 -0.1827015 -0.13966128 0.41227397 0.2131462 0.09930144 -0.053202085 -0.024132023 0.12838635 -0.68085724 -0.011241937 0.30102864 -0.45758966 -0.1097876 -0.17458016 -0.043942444 -0.07730463 -0.10349089 -0.34974834 -0.14854218 0.02577473 -0.029481927 0.24564563 -0.20295039 0.07454137 -0.11212995 -0.0063527864 -0.46812907 -0.06595115 0.26391074 0.090257935 -0.112571314 0.04398835 -0.186022 -0.01590794 0.3425423 -0.11182988 0.07097582 0.03229053 0.45101833 -0.03541649 0.02546207 0.24091248 0.53805804 0.11786061 -0.024768924 -0.34852824 0.008251086 -0.15419517 0.1269518 0.26295343 -0.14246279 0.35471267 0.021235226 -0.046446897 0.41108468 -0.037430543 0.18543695 0.21298057 -0.046493333 0.69612354 0.37719047 0.16247004 0.12103974 0.055834398 -0.028747741 -0.115716994 -0.050823282 0.54105514 0.31844357 0.21841104 -0.020523185 0.1445628 -0.14639963 0.033685274 0.10142284 -0.23260307 0.08413761 0.2092399 0.31495982 -0.5310812 0.16970798 0.39143035 -0.60019714 0.16737679 -0.38896865 -0.1588554 -0.32151565 0.065476604 0.33205545 -0.0077530374 -0.4170017 -0.41186902 0.10028751 -0.37105158 0.32133353 -0.23004289 -0.1891965 0.12475682
2197 0.53717965 -0.12370198 -0.21497898 -0.055872235 0.19165109 0.05696008 -0.342985 -0.12785244 -0.42282987 0.11807283 -0.19665089 0.004663695 -0.04269559 0.10869279 -0.45928332 0.10262057 0.1795876 -0.2522606 0.16214304 0.029659962 -0.3579443 -0.060811937 -0.28753695 0.15965185 -0.30302346 -0.22345966 -0.2805912 0.13019165 0.15299046 0.054935127 0.5265026 0.15641607 -0.31648225 -0.1293367 0.4301739 0.16037783 -0.67587996 0.3069539 -0.06482001 -0.23885126 0.14882088 -0.22215211 0.26640442 0.18630305 -0.24631886 0.3236091 0.04290997 0.0071198028 0.34455118 -0.20222111 0.10244595 0.3224716 -0.0031273894 -0.070825234 -0.081789926 -0.14682968 -0.24338947 -0.3468074 -0.19496179 -0.25800353 -0.09233191 -0.48361418 -0.124915384 0.04330116 -0.06562547 -0.30917475 0.49766508 0.29950464 0.17830506 0.22302197 0.049837265 -0.60749817 0.009101944 -0.1902862 -0.17828614 -0.44941646 -0.5496266 0.17179735 0.008272329 -0.28745797 0.08769468 0.22105302 -0.31028235 -0.08254959 -0.071063735 -0.31014886 -0.08623946 0.13020553 -0.4001053 0.2671369 0.093533136 0.46167332 0.4123607 0.4773349 0.3210277 0.22984609 -0.19943482 0.14597903 -0.059844803 0.107993655 0.084123455 0.2201815 0.35045505 0.56142056 -0.32087275 0.24487063 -0.040292185 -0.1514015 0.12666334 -0.1494842 -0.0414985 0.17923215 -0.052456852 -0.2830439 -0.5511139 -0.23000494 0.4267644 0.17387003 0.19312863 0.24835095 0.18089205 -0.08990435 -0.28508875 0.02247449 -0.109115675 -0.15799505 -0.23727207 0.23896241
1573 0.11270923 0.28021774 0.0067278566 -0.0842732 0.20715317 0.047546428 0.04356102 0.064842544 -0.32846722 -0.003303066 -0.41888788 -0.071099736 -0.34231842 -0.2886917 0.14648196 0.11972802 0.09469951 -0.34375826 0.14190128 -0.01688971 0.2083416 -0.6825712 0.07816663 -0.22259128 0.16346435 -0.042140123 -0.33673817 0.07297856 -0.1875581 -0.34153065 0.44474286 0.09643622 -0.03241349 0.47993848 0.023476588 -0.42226264 0.040745556 0.07363894 -0.3388981 0.0223205 0.34169805 -0.013356709 -0.24679315 -0.13037229 0.2651844 -0.09122697 0.059459977 -0.32285362 -0.03571609 -0.043577477 -0.4280956 0.018546771 -0.49249688 0.3420402 -0.07704071 0.025075825 0.32300475 -0.08276013 -0.09033592 -0.018092262 -0.1811033 0.28597292 0.08391249 0.3307423 0.06610997 0.18067215 -0.48315388 -0.07968348 0.20803697 0.036879588 -0.021974642 -0.07056002 -0.016511036 -0.23855673 0.17321685 0.007260434 0.38810998 -0.24039072 0.7024604 0.16665633 -0.43597472 0.12160055 -0.42780808 -0.06236611 0.5458243 0.093715474 -0.11017975 0.0935492 -0.23891269 0.3519381 0.072542556 0.40087548 0.1905998 -0.19282757 0.1217463 -0.15070264 0.19478092 0.063572176 0.022439085 -0.25769264 -0.07769822 0.67006665 0.43041041 0.4252462 -0.4849364 -0.09056463 0.14371185 -0.032861773 0.047113817 -0.48039687 0.08269599 -0.007928052 0.028016435 -0.111293666 0.03240587 0.35087854 -0.53590035 0.07402114 0.41577664 0.48426753 -0.25649038 -0.018325388 -0.15377931 0.045978192 -0.089761615 -0.16653703 -0.13146056 -0.12265591
568 0.29749522 -0.10578515 -0.1480923 0.47004104 0.20501038 0.267376 -0.36192128 -0.05958939 -0.22114375 -0.2228271 -0.40849444 -0.16671614 -0.3936327 0.065086536 0.16318177 0.13870612 -0.26347 -0.25220206 -0.0031392246 -0.08460836 0.22657892 -0.08194113 -0.27411124 -0.07375906 0.30188206 0.32685062 -0.4400321 -0.07913033 -0.6332757 -0.36019856 0.065755054 -0.2284311 0.52862334 0.4748558 0.44134384 0.03384567 -0.3621346 0.20860465 -0.11949418 0.043928158 0.30237198 0.01243277 -0.10788511 0.51145756 -0.17152599 0.34232935 -0.41271865 0.0426645 0.056978676 0.043734796 0.069572695 0.745634 0.14785855 0.06514702 0.07557001 0.04738464 -0.35996532 -0.29240042 0.009451097 -0.4948662 -0.2669052 0.4553399 0.038820464 0.10531054 0.17671208 -0.29468617 0.032686803 0.13722181 -0.3089843 0.115251176 0.13339813 0.3335318 0.23172487 -0.23882166 -0.13143004 -0.30557385 -0.02159738 -0.046698544 0.115148135 0.17868553 0.37198105 0.2434802 -0.25757346 -0.5164175 -0.4502634 0.109232835 -0.19605815 0.44214034 -0.031616036 1.035734 0.41503528 0.6403185 0.14573343 0.47803086 0.22537158 -0.262139 0.004032662 0.21791248 0.3407109 0.13360257 -0.19065568 -0.06080628 0.53632516 0.33432955 -0.013574172 0.13657457 0.49460554 0.14957304 -0.573846 0.0740263 -0.104063205 -0.07593767 -0.21108915 0.040911287 0.2189712 -0.08782631 -0.14045805 -0.37874064 0.30834365 0.12489218 0.15140982 -0.6748104 0.05100246 -0.20466627 -0.5746246 -0.48677486 -0.05200429 0.12132478
1646 0.13459662 -0.23527402 -0.24158783 -0.018899709 0.18360496 -0.19730207 -0.07044936 0.17490456 0.03105495 0.42003208 -0.30078265 0.10833086 -0.06176965 -0.18493511 0.19592519 0.2627505 0.37613016 -0.25012273 -0.015366041 0.274932 0.05570355 0.09787185 0.16503766 0.084185004 0.12421379 -0.08553704 0.018978918 -0.004389436 0.770671 0.10989441 0.11162568 -0.27188447 0.12787831 0.1197196 0.34474254 0.11346948 0.07292971 -0.008017754 -0.02159769 0.014316832 0.02226582 -0.15772294 -0.2719906 0.06260372 0.08013463 0.43333533 -0.15808676 -0.0724151 0.20348221 -0.18483783 0.15609427 0.13611753 0.12021819 -0.35072958 0.1974843 0.36921754 0.4560355 -0.059097826 -0.16014083 -0.1231621 -0.6671944 -0.41564718 0.05426274 -0.19968686 0.4193962 -0.42404234 -0.19649993 0.23531617 0.13226068 0.31960684 0.2741566 -0.21816906 0.092976786 -0.049244 0.0491808 0.08763596 0.17263553 0.016151099 -0.006586059 0.07655947 0.012030602 0.081585385 -0.62193614 -0.08314504 0.21838704 0.340399 -0.0035235642 0.18082401 -0.36293352 0.4001988 -0.0055378852 0.04780549 0.025812564 0.16530943 0.25152963 0.17554589 0.096844785 -0.40037084 0.36500245 0.33535087 0.2469247 0.8058252 -0.25371274 0.39725083 -0.07066841 0.17993459 0.027486566 -0.39765745 -0.43164918 -0.62524384 0.075374305 0.04755716 0.09850556 -0.12978831 -0.18007034 0.058415778 -0.08631639 -0.2971061 0.014456937 -0.1705762 -0.15936337 -0.14129373 0.51335984 -0.22344594 0.16823667 -0.5737049 -0.15999797 0.14943759
1460 0.34937468 0.27336693 0.067030616 0.3216311 -0.0145029565 0.5540279 -0.20623986 0.23468255 -0.05060639 -0.11041559 -0.42238945 -0.2746384 -0.30076185 -0.2571163 0.08699074 0.2606009 -0.26493204 -0.17011088 -0.06613166 -0.17707758 0.19829096 -0.42945445 -0.30161846 -0.028444663 0.06476723 -0.07707146 -0.12122699 -0.3392516 -0.24884057 -0.5646525 -0.03873215 -0.07851383 0.34635442 0.49628806 0.08305037 0.29636747 -0.01809807 0.40850106 -0.6984901 -0.022640876 0.34155077 -0.4303026 -0.33420357 -0.15225177 0.011650571 -0.045606524 -0.096797235 -0.08556279 0.052303415 0.047441307 -0.14118055 0.26015547 -0.1466507 0.080977045 -0.027191762 -0.069314785 -0.34271482 0.06890034 0.33163664 -0.28549656 -0.123519436 0.070340775 -0.08605272 -0.06532157 0.18172161 -0.23418655 -0.20243695 -0.09503027 0.023685182 -0.16519094 0.050324652 0.22668014 0.46335396 0.076774724 0.17643382 -0.4877925 0.20554645 -0.21279955 0.20615447 0.20277224 -0.23700923 0.5046453 -0.03955945 0.08471568 0.22622241 -0.031765617 0.22447322 0.09085912 0.06770208 0.8325448 0.33573824 0.14654054 -0.110587224 0.11478785 0.046863552 -0.23508295 -0.0820969 0.41212317 0.14099711 0.19189419 -0.012113269 0.28747112 0.082350805 0.26517576 -0.19673419 -0.15466072 0.089610554 0.31557235 0.29832277 -0.46539485 0.23393016 0.12748207 -0.2369967 0.1941397 0.01652852 0.16146387 -0.29957455 -0.09876877 0.3812038 0.29491204 0.044780213 -0.24641347 -0.0040229983 -0.16510879 0.21381338 -0.25180212 -0.110240944 0.06731309
1417 0.40221465 0.17423226 0.1556477 0.39591932 -0.22561441 0.4949039 -0.29312056 0.16842762 0.13476531 -0.13269027 -0.40172264 -0.15261582 -0.24360934 -0.2574075 -0.016131671 0.39750072 0.04293917 0.23997194 -0.2102028 -0.18057197 0.14020118 -0.22383657 -0.30171135 0.09430863 -0.20171921 -0.12566194 -0.061483607 -0.45496976 -0.23719805 -0.4922338 -0.15522276 -0.069778085 0.3949193 0.28611293 0.14832501 0.26309535 -0.19471286 0.44280425 -0.58000267 -0.18835951 0.3179483 -0.4005125 -0.3750006 -0.12658162 0.057875723 0.00025968612 -0.16493902 -0.032344744 -0.04039075 0.12805289 0.008820225 0.2666279 -0.092205994 0.02500467 -0.10352473 -0.23022033 -0.22044535 -0.039514117 0.32546705 0.098163866 -0.17135203 -0.3110582 -0.25596547 -0.008628745 0.27711022 -0.18169694 0.02258845 -0.14610548 0.08325229 0.06987364 -0.16092919 0.29166442 0.36562753 0.018482545 0.0016604968 -0.52032346 0.28777352 -0.2822667 0.27714896 0.12889783 -0.26263332 0.29785812 -0.08003401 -0.040308192 0.36197382 0.07437323 0.24431854 0.12343637 0.10207691 0.7615501 0.21727708 0.0662786 -0.083850175 0.17781632 0.067595 -0.24499722 -0.22375514 0.29933232 -0.0028503372 0.07002249 -0.011556888 0.13674864 0.19015968 0.14724872 -0.06857346 -0.02371224 0.29056135 0.22197944 0.4387263 -0.606104 0.20307553 0.30682507 -0.43122894 0.1742729 -0.14150599 0.05751175 -0.18956165 0.0077144117 0.2892672 0.12627731 -0.108723015 -0.30624744 0.000249474 -0.36748132 0.38942778 -0.38402954 -0.10194013 0.31141442
399 -0.35258043 0.32584956 -0.045923393 -0.12880348 -0.058940355 0.3287168 -0.085627325 -0.032447457 0.017734518 -0.17832837 -0.22883987 -0.3111878 -0.2015322 0.07666971 -0.07161992 0.1003369 -0.1470107 -0.23396078 -0.45570615 0.39362162 -0.032624792 -0.5085799 0.35199752 -0.10855456 -0.24737945 -0.42918512 -0.047335744 -0.18126293 -0.1531566 0.27504852 -0.109451525 -0.028994683 0.33409095 0.2853206 0.30156896 0.020681834 -0.052431766 0.023152653 -0.37469316 0.14906092 -0.76752216 -0.06001875 0.055158887 -0.15890297 0.0054860627 0.2541145 -0.20353644 0.036007833 0.11943201 -0.61753905 -0.02073411 -0.019790543 -0.036270224 -0.04442441 0.054832913 0.087997906 -0.2061098 -0.18440133 -0.26033384 -0.006740581 -0.11478201 -0.36139506 0.043311853 0.37701514 0.13243107 0.3973101 0.14465691 0.55354404 0.051859643 0.5492194 0.069253676 0.12277719 -0.36059564 0.08064647 -0.46043035 -0.08544144 -0.10651612 -0.03738826 -0.10796804 -0.25799474 -0.15756677 0.25166813 -0.2226958 -0.6003975 0.14647415 0.06351611 -0.3043383 -0.07764196 -0.47767395 -0.10247522 0.053421695 0.13609368 0.039287686 0.18350115 -0.1553538 0.23421474 -0.42824334 0.23938975 -0.041084796 0.36266845 0.27957776 -0.08692563 -0.026316045 0.50576735 -0.036045223 -0.07905891 -0.20572412 -0.031530224 -0.062396947 -0.41084772 -0.13550416 0.20371577 -0.07774844 -0.43479112 -0.031524226 -0.14620295 -0.1937847 0.05198494 0.40721163 -0.16360441 0.19690405 -0.09542046 -0.024075942 -0.13674833 -0.21765482 -0.19448112 0.11431474 0.1795948
1423 0.30878174 0.19776766 0.054287095 0.28020194 -0.013418562 0.45907983 -0.3325081 0.16564058 -0.019876337 -0.108285874 -0.22031248 -0.16551852 -0.21671541 -0.06564349 -0.034571443 0.2082124 -0.01593615 -0.159989 -0.122708626 0.039928883 0.115365736 -0.33183756 -0.19301552 -0.010124875 -0.15590009 -0.2317777 -0.09620395 -0.20560765 -0.23582697 -0.47557157 -0.18863623 -0.14437395 0.32053 0.48520496 -0.013746667 0.46131292 -0.15691532 0.36545038 -0.49610814 -0.045371287 0.34310302 -0.29984725 -0.23601359 -0.28673625 -0.029185658 -0.20821044 0.023675336 -0.16794108 -0.013139138 -0.06497737 -0.045263752 0.2845443 -0.19263642 -0.053050406 -0.22081943 -0.17677571 -0.11753024 -0.030355658 0.15422346 0.0082319705 -0.08972032 -0.175038 -0.26209414 0.13309191 0.103375025 -0.1375154 -0.08532665 -0.010403679 0.26453787 0.060413618 0.0071699647 0.12502587 0.37441555 -0.039831493 0.16113682 -0.3706414 0.14057004 -0.3837751 0.36213133 0.28039864 -0.285627 0.5369681 -0.25226077 -0.066705756 0.25630277 0.10677629 0.2569109 0.25662085 0.022400985 0.7939451 0.26909962 0.070596926 -0.15175185 0.096354015 -0.04619245 -0.40941978 -0.08534861 0.36208642 0.11940601 0.0003806235 0.1321822 0.20723236 -0.015470826 0.11125737 -0.13974929 -0.0074114944 0.37376392 0.12921503 0.27950147 -0.55331457 0.24873173 0.3375638 -0.54394364 0.17515714 -0.23614417 -0.064840525 -0.22050497 0.10640337 0.5291428 0.21073467 -0.087711774 -0.18163903 -0.098721154 -0.14063936 0.25934893 -0.565139 -0.13608292 0.12876107
254 -0.0052813096 0.35978243 -0.87145114 0.13206959 0.6241099 0.33189356 -0.57125926 -0.5370871 -0.10386421 0.17247209 0.121807136 0.36809897 -0.36054242 -0.014731818 -0.27407032 -0.19393535 -0.22042423 -0.13867517 -0.23191297 -0.26720172 0.095774315 -0.549405 -0.14952797 0.14664772 0.074370205 0.10327543 -0.30878478 -0.08714985 0.03688268 -0.4269238 0.14132035 0.03691612 0.048651326 0.24765638 0.46280074 -0.06989432 -0.13048473 0.4498674 -0.31779873 0.2726463 -0.107101604 0.029024685 -0.058366306 -0.28443062 0.15284912 0.17329931 0.1782024 -0.32406652 0.021597378 -0.36306596 0.11483853 0.13017984 0.006370568 -0.013199679 0.8150734 -0.077040374 -0.1060456 -0.11928886 0.059703182 0.12448047 -0.24136074 -0.45406312 0.17553307 0.099304035 0.10521331 0.26776415 0.030704876 -0.18510549 -0.41433218 0.30159205 0.17853098 0.0751132 0.24875587 -0.11969172 -0.164046 -0.15286887 -0.2971373 -0.11448022 0.1955568 0.117139116 0.25573552 -0.2992239 -0.15913475 0.030361656 0.82229954 0.19574015 0.3078765 -0.14390108 0.3058984 -0.0057138084 -0.031038469 0.067412145 -0.17035054 -0.51480496 -0.030857446 0.24005304 -0.29142007 -0.21340941 0.14203666 0.06561507 -0.6068895 0.43599167 0.20083252 0.36770737 0.11522573 -0.17132251 0.001329069 0.08977753 0.11606245 0.14851965 -0.16312772 0.6018791 0.35109425 -0.13981715 -0.39456758 -0.026400978 -0.013996936 0.07673593 0.18642287 -0.3069138 -0.29403445 -0.38365895 0.07510713 -0.2106058 0.16427566 0.13984324 0.4035493 0.34693053
3 0.21960118 -0.45915043 -0.0188203 0.16755676 0.18142252 -0.25828522 -0.1004423 -0.09092042 -0.0012137401 0.2225737 -0.20833951 -0.005892585 0.0633828 -0.23590392 0.22817448 0.002351467 0.21634872 -0.37468243 0.2358442 0.17108595 -0.14097407 -0.07461644 -0.12001083 0.07690333 -0.1841841 -0.3462491 -0.07133845 -0.18176289 0.47472188 0.12692255 0.028717553 -0.18473366 0.120132014 0.25663227 0.3285322 0.04886991 0.14596465 0.23004587 -0.15101564 -0.10292252 -0.19609614 -0.19845684 0.12009769 -0.2845262 0.022950798 0.28981698 -0.25813696 -0.094480045 0.37847465 -0.18036371 0.027701002 0.08992816 0.02049559 0.10093537 0.42940244 0.25697067 0.12243844 -0.08998771 0.28178945 -0.19679737 -0.5027799 -0.50841403 -0.103570886 -0.08303201 0.52533233 -0.032537527 -0.19019656 0.083911434 -0.2013147 -0.19353504 -0.0074838926 -0.21168181 -0.017854678 -0.15559314 -0.03828973 -0.22604324 0.23340605 0.036621284 -0.049822636 -0.07688932 0.21740146 0.1976609 -0.67550313 -0.065297835 -0.06421881 0.20280814 0.054377 -0.09130797 -0.57471293 0.12461568 -0.22561572 0.20415218 0.11670336 0.22185507 -0.07286945 0.22467256 0.33731562 -0.2777099 0.28623372 0.0647972 -0.04811121 0.5275688 0.25726217 0.47671238 0.005103932 0.2490069 -0.15779428 -0.61846566 -0.20879863 -0.64400756 -0.11144318 0.40781635 -0.12912738 0.19414741 -0.08013626 0.03808998 -0.057580255 -0.12797381 -0.329762 -0.49140722 -0.36865136 -0.044501465 0.5010299 -0.17980585 0.13539593 -0.22430782 -0.33864644 0.035846632
