2405 128
489 0.088264175 0.11398045 -0.1259121 -0.36051622 -0.17827192 0.0041892636 0.26406384 -0.11577273 0.11471058 -0.22415859 -0.079162568 0.16294368 -0.41534087 -0.095481075 0.26866212 -0.016685273 -0.30148184 0.23078398 0.21594925 -0.0025351252 -0.11955403 -0.38504544 -0.058432333 -0.25962457 -0.18493403 -0.23014934 -0.017370276 -0.12840855 -0.020959143 -0.13051488 0.20116305 -0.11638667 0.18656132 0.22717306 -0.11982627 -0.09932404 -0.076608367 0.049224045 -0.2316345 0.13052121 0.12342671 -0.15619917 0.046874221 0.094169289 -0.17442094 -0.47575358 0.091162644 0.14924189 -0.17490631 -0.34514686 0.38675913 -0.041907359 0.24401258 -0.12203693 0.08267948 0.0048275716 0.22125846 -0.21301243 -0.34194991 0.2399594 0.30372652 -0.033973906 -0.23680687 -0.014807278 0.41671756 -0.10756741 0.088950671 -0.2710495 0.13772835 0.018029941 -0.16642554 -0.02525958 0.031893805 0.33970201 0.036399748 -0.12018454 -0.10588282 0.19525179 0.041964699 0.022441737 -0.55968732 -0.056004908 -0.26092517 -0.054396436 -0.19178206 -0.28393233 0.36799815 -0.29315931 0.36950043 -0.077115498 -0.14766429 -0.37117353 0.37814078 -0.079602197 -0.044073388 -0.051262893 -0.094764523 0.13985656 -0.17332916 -0.10660263 -0.36855274 0.096495263 0.36091825 0.10616317 -0.18128908 -0.091778852 -0.058627136 0.12154648 -0.2965225 -0.30115804 -0.11928966 -0.49152836 0.16480891 0.25448173 0.17221792 -0.066518277 -0.086910181 0.04319945 0.26681021 -0.13713509 -0.16398759 -0.0321218 -0.34101748 0.024046745 0.18330102 -0.22726738 0.060252465 -0.049717721
393 -0.20007339 -0.0033205734 -0.051360756 -0.36271021 -0.059464231 0.61777705 0.050575711 0.00063333492 -0.0032720612 -0.17686461 0.1685445 0.22199222 0.19994685 -0.55834734 -0.013138846 -0.047374796 -0.039750181 0.2718811 -0.39121291 -0.2923061 -0.17857251 -0.027867287 -0.024497103 -0.10800578 0.1192957 0.030560395 0.096735924 0.52941793 -0.093139887 -0.20691799 -0.085395746 0.090260915 -0.073056683 0.1427111 0.32067475 -0.20270698 -0.0060238075 0.014508022 0.26995286 -0.3618021 -0.044568028 0.17998466 -0.30226603 0.28531915 -0.22916298 0.27250084 0.040927842 -0.11971726 -0.15997112 -0.078994453 -0.12122481 -0.022511931 -0.0037634862 -0.010464346 0.23574926 -0.16715273 0.18632562 -0.10689187 -0.032196358 -0.052199733 -0.15404576 -0.093962982 0.058774903 -0.099643715 -0.077614941 0.032815654 0.28390369 -0.17762525 -0.13932097 0.022349326 0.14658172 0.098570175 0.10629502 -0.19105947 -0.3145507 -0.13937196 -0.35972264 -0.38977775 0.29058141 -0.11935367 -0.049448673 0.028728969 -0.050413568 -0.0044765589 0.27205437 -0.36242703 0.31519675 0.31411463 0.47325242 0.33996937 -0.49277464 -0.14312369 0.13190082 0.076625064 -0.32731643 -0.27750972 -0.12539749 0.10450968 -0.261857 -0.035486583 0.049262356 -0.2821863 0.063482232 0.027822549 0.042940378 -0.0015642816 -0.23446378 0.18313168 0.33372957 0.0059381817 -0.26917285 -0.350618 -0.16889341 0.050186586 0.24207102 -0.013511241 -0.010019191 0.056765318 -0.24641578 -0.25499451 0.0076630614 -0.011988502 -0.14609458 0.061186928 -0.28606766 0.093320221 -0.14398049 0.015104411
445 -0.010426768 0.35397059 0.021070438 -0.1869664 -0.12752706 0.10942806 -0.069857247 0.2872988 -0.11020575 -0.021588475 -0.16948305 0.45758721 -0.25724244 -0.23308279 0.051156841 0.078776114 0.19328521 0.26070431 -0.10283323 -0.039014656 0.0880353 -0.26062879 -0.26430282 0.1267115 -0.6185841 0.053826883 -0.093443155 -0.1284574 0.19257818 -0.37094569 0.040936377 0.15241218 -0.040628988 0.27307913 0.044541124 -0.185601 0.11758697 -0.12568854 0.39221892 -0.091682106 0.26214564 -0.048544239 0.071610957 -0.044172209 -0.19932298 -0.3975932 0.064023346 0.091690719 -0.0012952063 -0.15819594 0.03121458 0.10435808 0.15146601 -0.063336514 0.096823961 -0.049316481 -0.17541841 0.14122701 0.048881918 0.27884477 0.040972162 0.19931689 -0.12999144 0.08538273 0.091870755 0.11294343 -0.035979308 -0.17612556 0.010143607 0.013220313 -0.18835168 -0.27277815 -0.19486564 -0.4112103 0.080698639 0.070972331 0.24633424 -0.48268679 0.3535223 0.0082136262 -0.12569682 -0.082621925 -0.0043307468 -0.070158541 -0.2117157 -0.2183463 0.04652787 0.36819968 0.093521126 -0.13290067 -0.013507764 0.23581271 0.21070868 0.20832545 -0.42027515 0.12288802 0.035819054 0.51254517 -0.0027963938 0.062858649 0.39307532 -0.10042094 -0.14630105 0.19959235 -0.33089384 -0.05514041 -0.00090666581 -0.014065885 0.08688651 -0.067810535 -0.24884579 -0.26839238 -0.23379563 -0.018112931 0.24901251 0.15375225 -0.25694418 -0.27150819 0.19874907 -0.27294767 -0.11787286 0.014303314 -0.017319892 0.071612291 0.19791703 0.23949678 -0.13352476 0.071102954
526 0.35182753 0.34238335 -0.2466144 -0.25480825 -0.26983762 -0.28580931 -0.1231229 0.19542377 -0.34971327 0.044576067 -0.19719006 0.00095089618 -0.34469405 -0.13573782 -0.055187378 -0.16973209 -0.033979878 0.28507596 0.12307708 0.11632987 0.33055857 0.23421814 0.12068125 0.082048289 0.0065981364 0.35177961 0.43742883 -0.26328617 0.23349726 -0.24689071 0.1286706 0.33796448 0.21078233 0.28939629 -0.19355923 -0.28568089 0.11406745 0.10169555 0.078533374 0.053362165 0.10947221 0.15610696 0.079951048 0.56016117 -0.2068581 0.1659617 -0.2171445 0.36055297 0.11363902 -0.31072927 -0.076820701 0.10888329 -0.075604446 -0.28394732 0.0045147375 0.033407874 0.0052912361 0.1458137 -0.27012044 0.18790165 0.28908816 -0.58998376 0.0045183063 -0.070767559 0.2192221 -0.21447161 -0.098183036 -0.22797045 0.1812984 0.17258161 -0.041742444 -0.19912764 -0.0057690213 0.041664574 0.11374629 0.065727636 -0.31785905 -0.083778657 -0.42523146 -0.26101273 -0.52278006 -0.24412131 0.15954342 -0.37980407 -0.3288593 -0.34387919 0.28464073 -0.20353976 0.32226193 0.033256177 -0.12181951 0.16267036 0.50190055 -0.079011545 0.35078186 -0.086282715 -0.37319389 0.017510427 -0.10926939 -0.45979571 -0.10385562 0.18931298 0.13022028 0.24508262 0.042262129 0.054222655 -0.078087255 -0.10782063 0.26173341 -0.010890201 -0.47582021 0.38887739 0.012852908 0.33823049 -0.19410507 -0.3826052 -0.16949593 -0.12138631 0.0068659773 -0.08603733 -0.063356049 -0.10769466 -0.53363883 0.094176814 -0.35561413 0.054864742 -0.098421954 0.41286618
708 0.1021069 0.0241234 0.24190313 -0.68465108 -0.0020883144 -0.031167392 -0.32010528 0.18192939 0.047284339 -0.0027610662 -0.04597678 0.30275628 -0.36798322 -0.14228284 0.15037461 -0.10172989 -0.1879833 0.31794295 0.10990062 0.067419246 0.11054448 -0.07913918 -0.26132086 0.032101493 0.22599745 0.21519797 -0.55620652 0.34093526 0.25768742 -0.25284103 0.003720324 -0.028420918 -0.22857524 -0.59257507 0.14866041 -0.29615039 0.10315431 -0.25799876 0.16090965 0.2930699 -0.37711003 -0.26833379 -0.22716922 0.12558328 -0.027437532 -0.10276671 -0.29800579 0.049013902 -0.0078637227 -0.28118175 -0.2452182 0.081076428 0.095123678 -0.37581605 0.27989328 -0.14800021 -0.066578433 0.081014097 0.091907248 0.20065992 -0.026207205 -0.23779687 -0.37135565 0.14227952 0.064350352 0.042978402 0.24519606 -0.11717637 -0.38254768 -0.018913608 0.055533182 0.028526386 -0.067373261 0.11186788 -0.19251946 -0.04551195 0.22870001 0.089357331 -0.11817063 0.3071661 0.15832058 0.20113991 -0.30235037 0.13154455 0.049305037 -0.40691537 0.044410735 0.039083131 0.10738767 0.0075701731 -0.037096564 0.18203445 0.1511098 0.01863833 -0.11318707 -0.55838287 -0.24511148 0.15770581 -0.054306161 0.1508031 0.1831781 0.05482465 0.037191153 0.10105243 -0.17611215 -0.39691567 0.032625251 0.029370744 0.46109101 -0.27948233 -0.21578716 -0.063847251 0.067638911 0.34706181 0.086221509 -0.58874357 -0.24282369 -0.25119007 0.13145258 -0.32095551 -0.039858043 0.024975639 -0.10043411 0.024070218 -0.24076849 -0.27516782 0.0061365939 -0.36806232
1412 0.033656348 0.30731887 0.0018823723 -0.19710936 -0.15162772 0.17343599 0.2605297 0.25051826 0.17502704 -0.19308226 0.48329386 0.066598885 -0.15018582 -0.40916115 -0.04801384 0.075117648 0.22804852 0.044739317 -0.08359424 0.14286987 0.076013751 -0.10827946 0.44923812 -0.21337874 -0.57562768 -0.051045209 -0.17372747 0.13038272 0.26364079 0.12525751 -0.13607475 0.068722881 0.16400336 -0.33667552 -0.10480209 -0.094853736 0.1615199 0.38429877 -0.023988348 -0.1138257 -0.0013144957 0.18809907 -0.3383677 0.19153391 -0.16184534 -0.19605444 0.15540349 -0.12616421 0.25816247 -0.31176305 -0.075875454 -0.12222565 0.09944848 0.14018123 -0.37097013 -0.49141952 0.24670969 0.011808729 0.21982877 0.40106291 0.072640702 -0.051181581 0.3845824 0.036580045 0.15477268 -0.33467191 -0.09120331 -0.16787961 -0.046874348 -0.19259658 -0.62100691 -0.24533288 -0.010965414 -0.26264995 0.055412408 -0.093984932 -0.4997063 -0.4818961 0.22859912 -0.19771315 0.21899979 0.17589985 -0.11178855 -0.15000919 0.040999103 0.11504791 0.13830858 -0.43994543 -0.10744844 0.24081886 0.32203671 0.26400253 -0.00087382994 -0.56791204 0.25100756 0.05885667 0.48563904 -0.13562332 -0.050593406 -0.1659568 0.036927525 -0.074276663 0.42156497 0.16900253 0.084865861 0.048522789 0.18338831 0.35500535 -0.073315516 0.14648421 -0.69221294 0.13850857 -0.063282996 0.43798181 0.3728725 -0.096866637 -0.20603174 -0.14925227 0.066359527 -0.26802579 0.013041263 0.16131474 -0.10024431 0.22940332 0.092828706 -0.20062448 0.38090914 -0.22107317
43 -0.0036938305 -0.035973635 -0.22845067 -0.32606235 -0.19674036 0.37380192 0.13308096 0.02149757 -0.097699516 0.23930669 -0.45080578 0.61623436 -0.037451252 -0.14630802 0.13991791 -0.13262738 0.34315914 0.13054737 -0.097945787 -0.17617477 -0.065891743 0.18438803 -0.036065921 -0.077533476 -0.33445039 0.33897468 0.21471886 0.096167699 -0.14524697 -0.4244867 0.36718863 0.14627206 -0.10135764 -0.11398896 -0.0061881333 -0.068614341 -0.34074625 -0.024898246 0.01080331 -0.021634212 -0.19543417 0.014447246 -0.28281185 0.43704823 -0.23855795 -0.0077429404 -0.04758209 -0.15977062 -0.35386679 -0.14474113 -0.068528734 -0.31290737 -0.26731893 0.10896505 -0.18173905 -0.55619729 0.27794307 0.078219824 -0.21113805 -0.0061124647 0.1674092 -0.08785782 0.041992009 -0.33405271 0.58864093 -0.5496673 0.32095471 0.015797623 -0.20487455 -0.14661823 -0.29482687 -0.18376654 -0.13132492 -0.24412622 -0.34331191 -0.012508049 -0.37259942 -0.18815489 0.33789626 -0.33263284 -0.13231252 0.33596665 -0.0070801615 0.26109058 -0.12303153 0.15562442 0.13111284 -0.26764742 -0.12551829 -0.13849574 -0.097135082 0.26443127 0.025233146 -0.11314544 -0.01029957 -0.032915238 -0.38308665 0.054118942 0.03372271 -0.07346043 0.37975812 -0.066671148 0.14173426 -0.083174303 0.33616799 0.038687401 0.51334161 -0.1551764 0.11318301 -0.011776371 -0.32908002 -0.2953757 -0.0403389 0.28963637 0.12279098 0.063845068 0.12387379 -0.012831016 -0.13832259 -0.1973394 0.17101902 -0.16154505 -0.049502049 0.0048159231 -0.19966468 -0.49806505 -0.45938754 0.20932095
624 0.15670131 0.25624239 0.13571113 -0.1943991 -0.3225826 0.35755754 -0.00017105187 0.097121291 0.040416922 -0.12951952 0.29078278 0.21870239 -0.31194121 -0.065197818 -0.314661 -0.20589077 0.46074453 -0.28023463 -0.14036344 0.7882331 0.54723883 -0.01507507 -0.040584069 -0.10276655 -0.54812318 -0.0052995761 0.49626389 -0.14200045 -0.27237147 -0.31625506 0.25805116 0.095554225 0.33334169 0.068407044 0.094166562 -0.25629151 0.03139108 0.16291864 -0.061292492 0.059253782 0.12202601 0.43819076 -0.59838963 0.45324117 -0.16158128 0.11444041 0.20666857 -0.068504445 -0.14011316 -0.020532349 -0.095437907 0.15223101 0.007014242 -0.38162985 0.31875393 -0.45698839 0.26874787 0.19701546 -0.46530935 -0.044261314 -0.081145607 -0.52268827 0.0072656167 -0.15165736 0.058166705 -0.21056753 0.19285633 -0.24476206 -0.20983557 0.34698853 0.087419033 0.26864353 -0.20427486 0.088013873 0.017884325 -0.053601623 -0.083798967 -0.11509939 -0.56701326 -0.095448099 -0.18445481 -0.1754242 -0.0032933857 -0.16546932 -0.50701678 -0.033187117 0.1995552 -0.33308774 0.44305697 -0.28212181 -0.071768552 0.070955798 0.24267657 -0.32456937 0.098911941 -0.047318202 -0.22884196 -0.11595579 0.02828845 -0.088265181 -0.14346002 0.04627699 0.23326562 0.037962403 -0.11314391 -0.55707401 -0.20976055 0.071998432 0.28510591 -0.46441299 -0.60551459 0.21774381 -0.24847388 0.40049875 -0.14904465 -0.12990113 -0.21241909 0.072299153 0.041524071 -0.52145386 -0.24114707 0.052268159 -0.21198407 0.038369901 0.39792117 -0.20476028 -0.092914775 0.1381968
400 0.3372111 0.20334972 -0.063845366 -0.090256102 0.04123072 0.053426065 0.051351067 0.27907684 -0.0021148063 -0.39512116 -0.36172858 0.46523562 -0.1416654 -0.21862902 0.096916206 -0.26143083 0.29628548 -0.073895253 -0.1525379 0.19132085 0.1353831 -0.22804768 -0.54853845 -0.56150591 0.27369449 0.16514795 0.36093599 -0.014146468 0.43563464 -0.078166395 0.088151842 0.17234899 0.049442153 0.48852947 0.047407188 -0.016529299 0.16366991 0.0057862517 0.2827886 0.10985097 0.22570927 0.067763701 -0.29491362 0.10618513 -0.63767105 -0.17167057 -0.37737894 -0.24146147 -0.19191763 -0.3776271 0.16115767 0.24955718 0.13039432 -0.13787153 0.1777651 -0.19055367 0.05901999 0.17517819 -0.012174366 -0.099972412 -0.093030363 -0.10770937 0.025202466 0.57955283 0.14890255 0.12082513 0.28537577 -0.32992068 -0.054081902 0.21766305 -0.27575666 -0.15191688 0.095695928 -0.38905087 -0.15385941 -0.049574085 -0.022624921 0.093062066 0.025728729 0.0024379126 0.27307445 0.13647409 0.011496065 -0.10353491 0.10135555 0.017175935 0.13041672 0.2188413 -0.17595182 -0.060665995 0.30787972 -0.074604057 0.19167529 -0.078457601 -0.27006385 -0.15483445 -0.27206817 0.18888281 0.24093677 0.12701039 -0.002657396 -0.11657555 0.0027055554 0.04005773 0.11888284 0.01619271 -0.21139646 0.44838977 0.39374027 -0.029635534 0.062534392 -0.16628882 0.072284371 0.35728839 0.36251998 -0.012059093 -0.33305052 -0.38969687 -0.23683767 -0.12423134 0.16254421 -0.59366643 0.006375873 -0.070555829 -0.16318659 0.11552203 -0.2269166 -0.18288946
235 0.05296272 0.60441333 -0.36047828 -0.37307933 0.11379333 0.083107799 0.031745508 -0.15774196 -0.061872859 0.57684457 -0.13267209 0.47830233 -0.28973135 -0.023403171 -0.11234989 -0.13934207 0.49527985 0.021607339 0.065911926 -0.44269043 -0.12780868 0.094079725 0.094166905 -0.16603345 -0.41910401 -0.0060938001 -0.36953428 0.18379216 -0.31584042 -0.34969491 0.047617007 0.1375493 0.55756855 -0.088890351 0.15249525 0.058435418 -0.084163897 0.14792769 0.078677632 -0.057669129 0.12280465 0.11825717 -0.073808454 0.19260666 -0.13375239 0.042194199 0.012505701 -0.220827 0.19500643 -0.2667329 -0.23599106 -0.16680183 -0.05800315 0.24814849 -0.10652147 -0.18904087 0.14224145 0.3564994 -0.048608471 -0.16362916 -0.14735456 -0.22179106 0.1809403 -0.01092385 0.17252743 -0.19090106 -0.067729399 -0.19141009 0.1500144 -0.20578171 -0.19501702 0.021519551 -0.15173061 0.26301187 -0.062710211 0.12771071 -0.52393609 -0.74284554 0.36654636 -0.23503119 0.35164043 0.23387222 -0.41660812 0.32843477 -0.40247598 -0.02810025 0.25333586 -0.1909612 -0.016511742 0.28404424 0.22164311 -0.011153728 -0.08852201 -0.2511045 0.21220805 0.31590387 0.20363849 -0.19980669 -0.20377097 0.17771597 -0.21197975 0.090268776 0.14755064 0.3524462 -0.2332571 0.098005645 -0.065019943 -0.085131735 0.1570759 -0.011142213 -0.51970369 -0.031809036 0.25581452 0.13179776 0.061715197 -0.35993728 -0.0081013795 -0.11978514 0.072818525 -0.3359628 0.20809864 -0.16959731 -0.077853046 -0.04086034 0.057017632 -0.077948004 0.42938486 -0.30789268
1467 0.1139231 0.44110608 -0.33488598 -0.39328316 0.18599713 0.10183022 0.24611981 0.41333088 0.35691682 0.10329539 -0.045673728 0.15674645 -0.23792182 -0.36893278 -0.29537523 -0.2081112 0.12821814 -0.092962034 0.19231425 0.11944874 0.17220667 0.11197341 0.37546602 -0.37285146 -0.68419927 0.11076476 -0.21412773 0.075876243 0.32154962 0.24724016 -0.18370354 0.28350666 0.05916195 -0.41655868 -0.089195557 0.23381828 -0.2054942 -0.015096656 0.21308921 -0.016224489 -0.070527211 0.53369445 -0.080355018 0.11710282 0.048252739 -0.11509269 0.42064711 -0.48652604 -0.064378306 -0.40765762 -0.022011552 -0.28243208 -0.09056706 0.42038238 -0.00024170644 -0.27006117 -0.086683147 0.13301204 0.050394677 -0.055153344 0.035607368 0.20904408 0.27921745 0.43735397 0.0038057126 -0.26037344 0.247483 -0.20289333 0.14023776 -0.11711881 -0.41224194 0.038091362 -0.0090412004 0.25011134 0.32195592 0.12592773 -0.45255125 -0.55548006 0.30606338 -0.081305914 0.28494921 0.46998605 -0.12407771 -0.080612324 -0.1418761 -0.35794491 -0.088942997 -0.086482748 0.09965276 0.14370567 -0.081395529 0.23338285 0.26876089 -0.39947969 0.26308444 0.22472142 0.15293854 -0.27701622 -0.039455794 -0.14205728 -0.12684245 -0.18236065 0.35972932 0.052874204 -0.31524643 0.12731795 -0.27387473 -0.027708527 0.084378891 -0.25349376 -0.47927067 0.12311509 -0.11678438 0.12271475 0.019446366 -0.1173034 0.12814681 0.052579977 0.24041064 -0.15484145 0.12019836 0.097891659 -0.10365229 -0.044011153 0.21336424 -0.0025160476 0.1331311 -0.17376241
525 0.014290038 0.20518984 0.3985154 -0.36122859 0.23276675 0.25425008 0.049515914 0.26996705 -0.11031125 0.084736191 0.10956512 0.37101272 -0.4449248 -0.26580781 -0.20484042 -0.12904176 -0.099189684 -0.1421808 -0.14701079 0.073963635 0.11437139 0.20332238 -0.32314947 -0.20200567 -0.14597237 0.15776008 0.21355782 -0.40233749 0.098090187 -0.061357826 -0.12216254 0.25932655 0.18704718 -0.059363719 0.41293228 -0.46940252 0.1442326 0.1152254 0.40583521 0.51906902 -0.25158101 -0.24766226 0.21065541 0.31727919 -0.11274898 -0.13323988 -0.033758469 -0.078225359 -0.38211036 -0.41062844 0.098478511 -0.056705832 0.0037386601 0.031351402 0.40673164 -0.31295326 -0.26469719 0.057544496 -0.30655721 0.1906372 0.13561249 0.026878035 0.1332951 0.46934703 -0.0068646884 0.0042765015 0.19897418 0.29015693 -0.17443904 0.12203405 -0.320577 0.10917155 0.30596718 -0.20480667 -0.06382665 0.097939752 -0.16329014 -0.33778757 0.26506674 0.44570613 -0.19720069 0.24086018 0.25446585 -0.32929245 -0.33256906 -0.095943578 0.45101085 0.20229539 -0.029858213 -0.12497278 0.071863137 0.16417181 0.05418181 0.056424517 -0.16794005 -0.054595254 0.076603606 0.24574852 -0.05715955 -0.12270974 0.3281332 -0.21733592 -0.038500715 -0.46198684 0.049848907 -0.023799047 -0.1271679 -0.053642299 0.33668616 -0.021950716 0.39747414 -0.45617026 0.20326617 0.36999837 0.26203144 0.097718 0.012423621 0.06582734 -0.080737248 -0.2189077 0.046950057 0.026375107 -0.027694479 0.14018083 -0.13514683 -0.20215294 0.23903288 0.33857003
1647 0.052697003 -0.075202994 0.075715676 -0.30279574 -0.03434439 -0.17747828 0.024044031 0.11383079 -0.013875892 -0.2191253 -0.024418365 -0.10652319 0.1104954 -0.037085459 -0.25186503 -0.13261668 -0.17851737 -0.12552924 0.35056913 0.28365043 0.22509438 -0.082639255 -0.3975026 0.24695835 0.27859998 0.43601951 -0.27556723 0.39667079 0.033543631 -0.15427817 -0.043624662 -0.23492241 0.10961707 -0.23903102 0.11501911 -0.059952218 0.40142733 -0.40209734 0.76179236 0.20154625 0.076532125 -0.27970678 -0.07239005 0.09846776 -0.10176203 -0.42522076 -0.31772673 0.013306907 0.27129769 -0.26831412 0.088659003 -0.28097987 -0.03829227 -0.18924996 -0.0022046864 -0.2962265 -0.18287259 0.13522129 -0.10963124 0.1004095 -0.025477592 -0.22941121 -0.082264088 -0.14797303 0.046524696 0.030804779 0.33076254 -0.038577691 -0.20777935 0.36513466 0.0034839835 -0.0033572803 -0.22900639 0.093930185 -0.20885846 0.23014389 -0.4213815 -0.12099529 0.084020354 -0.082868777 -0.34227404 0.067763276 -0.27698815 -0.12780397 -0.19166724 -0.11651698 0.54722768 -0.015819205 -0.065686569 0.11039833 -0.097344093 0.36631688 0.029902076 0.34720132 -0.064789526 -0.49433485 -0.22788447 0.52834493 -0.5159815 0.07321915 -0.17761269 -0.04777715 0.10052826 -0.094047487 0.13595927 -0.24798025 -0.30864489 0.057825956 0.45427448 -0.35143206 -0.28026572 -0.32237697 -0.010662229 0.25447002 0.52606326 0.11518499 0.21042714 -0.57788426 0.040579971 -0.15200844 0.18457334 -0.10631644 -0.092706874 0.11008062 -0.14218976 -0.098137587 -0.13765031 -0.057866685
228 0.11200444 0.46227241 -0.20629291 -0.19549894 0.066491231 0.19780296 -0.023275029 -0.29797125 -0.010042676 0.24032292 0.3981075 0.12885498 -0.37848106 -0.1134399 -0.29044768 -0.16532359 0.41256702 0.13686076 0.097047485 -0.45238772 0.14783289 0.18821861 0.020323751 -0.25792107 -0.51599008 -0.049013048 -0.063534722 0.017921323 -0.061352573 -0.13784397 0.060333855 0.34039491 0.16391736 -0.1236296 0.2128831 -0.10564187 0.029238379 0.25309864 0.037601333 0.030618073 -0.065199763 0.35235155 0.07577543 -0.087100446 -0.11753973 -0.094656415 0.10115661 -0.18242034 0.17981283 -0.27900714 -0.21293163 -0.043220825 -0.1469202 0.23962235 -0.042135477 -0.34029442 -0.235247 0.21166129 0.15199126 0.02091975 -0.013239915 -0.069961496 0.0410778 -0.049441911 0.279075 -0.082059383 -0.050479155 0.0043020165 0.14333524 -0.13253053 -0.16685347 0.074761786 -0.097569406 0.21812804 0.16014814 0.13535075 -0.33367816 -0.52503139 0.40483218 -0.62879121 0.30921689 0.60208505 -0.55781186 0.2237225 -0.262465 -0.21382035 0.13594842 -0.40776581 0.17090563 0.092564322 0.08001323 0.056994759 -0.19643445 -0.2703498 0.22290649 0.27119678 0.1435307 -0.18769161 -0.36063132 0.23250403 -0.076489486 -0.15100108 0.52140117 0.24059892 0.030187961 0.30607525 -0.26878381 0.11705071 0.064620905 0.023090169 -0.63884836 0.053573936 -0.093790941 0.058121439 0.01461646 -0.23422571 -0.2010694 -0.23557831 0.17235696 -0.58016807 0.06169318 -0.36089331 -0.027527548 -0.30200291 0.11459586 -0.04833119 0.44885501 -0.15604018
509 0.23546943 0.10608646 -0.35388616 -0.42576292 -0.42144671 0.11185611 0.16936256 0.29750437 0.39331049 -0.018727284 0.045033988 0.068721376 -0.18293439 -0.17169847 -0.17164676 -0.062288407 -0.0083555952 0.33148444 0.15646571 0.019797832 0.11202394 -0.30745921 -0.068994485 -0.15338951 -0.14650725 0.14792119 0.20234086 -0.17265013 -0.11060736 -0.23429614 -0.29425898 0.12553602 0.32240683 0.069357648 -0.075823203 -0.025854047 0.13814814 -0.037108682 0.13054249 0.14322391 -0.18734656 0.23515531 0.25259405 -0.21971881 -0.36358741 -0.49498135 -0.37522656 -0.12942532 -0.1597006 -0.11718605 0.26033974 0.031444617 0.32425627 -0.00093251956 0.40902638 0.007869672 0.28650358 -0.5184021 -0.11257414 -0.029337576 0.12626548 -0.52073413 0.25978139 0.14749727 0.44169667 -0.1852701 -0.049296666 -0.2093443 0.023924422 0.10734727 -0.41846779 -0.11860274 -0.30427337 0.21737087 0.35113823 -0.07649941 -0.14837244 0.31196073 -0.049538594 -0.1516232 -0.11513349 0.316062 -0.045549069 0.42319027 0.18138628 -0.062633939 -0.10776362 -0.11977299 0.30771187 0.24509268 -0.059382264 -0.34184411 0.35528123 0.24555528 0.35189754 -0.19296761 0.10802881 0.28483585 -0.016359115 0.022415774 0.24425326 0.0055313623 -0.20676562 -0.08811 -0.67988199 -0.49272129 -0.12598257 -0.018012824 0.24667306 0.035451036 -0.17000592 -0.23878707 -0.12545417 -0.0012004926 0.28526679 -0.0096159773 -0.020167008 0.18838017 -0.42077315 0.22012463 0.049928024 -0.10060629 0.017601337 -0.044002801 -0.22305971 -0.54306847 0.081512004 0.15561467
1717 0.0020060621 -0.15781572 0.27709854 -0.071308114 0.01932946 0.232443 0.050198745 -0.031358257 0.25753096 -0.32289219 0.01807143 0.3533017 -0.18956684 0.09207578 -0.12847255 -0.18125129 -0.047739401 -0.00035384533 0.5244078 0.00385456 0.19827874 -0.041944306 -0.54198074 -0.082189448 0.06437058 -0.26738855 0.014165767 0.43216866 0.035537131 -0.45773801 -0.17629848 0.54031003 0.083707675 0.097431675 0.20102142 -0.27991933 -0.086726263 -0.040780324 0.18016741 0.18950419 0.16390419 0.41483545 -0.031906661 0.22296499 -0.023016028 -0.56060946 0.044554196 0.080497243 0.060970351 0.145528 -0.10452566 -0.016317576 -0.1128938 -0.41038498 -0.28642988 0.29167694 0.28750703 0.13661353 -0.39033005 -0.18715353 -0.057475474 0.14292604 -0.0096069779 0.5705961 0.74048078 -0.28565061 0.14246853 0.082966462 -0.13517159 -0.087249301 -0.10629614 -0.4035897 0.19198911 0.099395417 -0.0071737738 0.14233707 -0.46941492 -0.5021621 0.32013708 0.058091875 -0.41884765 0.25393432 -0.27236298 -0.20509265 -0.39516097 -0.2033475 -0.092527129 0.19616348 0.16776222 -0.038831912 -0.1219473 0.31443962 0.22018164 -0.028397014 -0.55422527 -0.34990457 0.020683475 0.37771964 -0.19166557 0.31658548 0.059978325 0.0049765422 0.099601179 -0.17757262 0.25481737 -0.030251274 -0.023825398 0.28753835 0.28507221 -0.11373247 0.052252941 -0.15359619 0.08236099 -0.023171229 0.13030909 -0.20194109 -0.19788161 -0.051274035 -0.2134521 -0.14651074 -0.17716631 -0.18023397 0.076722845 -0.021452226 -0.28126073 0.13503085 -0.084133208 0.10779883
1525 -0.0020079233 0.2607922 -0.071426734 -0.12752108 -0.041737348 -0.072080351 0.3050392 -0.0064472081 0.054296046 0.057485968 0.021542417 0.52971512 0.10108913 -0.1273893 0.028493371 -0.40474436 -0.36666942 0.31671584 0.10555596 0.45571595 0.070614837 -0.068747669 -0.16333264 -0.25808224 -0.12374942 0.074382856 0.12738827 -0.23645321 -0.15480158 -0.10272339 0.10362376 0.06515988 -0.12646422 -0.086783811 0.21529879 0.097350061 -0.14393023 -0.034823395 0.1889185 -0.00020863493 -0.19265001 -0.17243828 0.30781591 0.32244003 -0.11171658 -0.022440994 -0.23949304 -0.12224711 0.22363023 -0.008325058 -0.28128219 0.20839699 -0.11194494 -0.068017676 -0.11563007 -0.069293514 -0.025490291 0.095685065 0.20029326 0.030680835 0.45618251 -0.66729456 -0.22506069 0.37269664 0.26936257 0.17577033 -0.12366751 -0.18230137 0.19430524 -0.13666548 -0.0070613222 -0.22223124 -0.0084335925 0.50353765 0.29025602 0.39304641 -0.54716122 0.22618352 0.25636825 -0.045748264 -0.60699612 -0.13940726 0.082152709 0.33700618 -0.091405138 -0.50136781 0.1229686 0.14973712 0.34997621 0.29968694 0.38412631 -0.16196896 0.14241134 0.12978181 0.04771965 -0.044709917 -0.19154601 0.25006482 0.14436874 -0.34009039 -0.15063237 -0.34336439 0.39932743 0.29037207 0.12356085 -0.61781108 -0.020760691 0.11876184 0.67242473 -0.030888537 0.29704547 -0.14502442 -0.12457406 0.49087706 0.044185348 -0.083351545 -0.35450616 -0.068401359 0.26163566 0.022019235 0.13341025 0.0063051116 -0.28187603 0.28445813 0.1068617 -0.27554592 -0.15905815 -0.033555806
471 0.20688468 -0.060177434 0.14604154 -0.25749218 -0.28828838 0.5005613 0.44959939 0.10669027 -0.093605623 -0.21915606 -0.16748847 0.33923262 -0.10330231 -0.044913784 -0.18480279 -0.25309134 0.049848888 0.14884934 0.35811812 -0.11705001 0.10335726 -0.0068828203 -0.26841509 0.034079287 -0.069729783 0.2092135 -0.10930834 0.41579923 0.006098703 -0.21937573 -0.093944445 0.37514827 0.13484165 0.044812132 -0.0035981557 -0.40285453 0.036896996 0.16464944 0.28063396 0.10981581 0.085360266 0.22354621 -0.35815877 0.062254306 -0.013110992 -0.50872499 0.14481771 0.097334199 0.41554683 -0.29620284 0.33260801 0.16003445 0.42950466 0.066642351 -0.39866245 0.3112562 -0.13822751 0.0021047543 -0.45148644 0.038929928 -0.31142864 0.019524902 0.072208725 0.17200565 0.17207791 0.0062790699 0.02033991 -0.20375481 0.13482347 -0.43595338 0.35126543 0.32738554 -0.066808082 0.2166575 -0.25250757 0.066994347 -0.20071879 -0.23228118 -0.26041818 0.076636828 0.0094656283 0.1842497 -0.077107154 -0.36109698 -0.38533023 -0.033897508 -0.083956473 0.10512166 -0.43756938 0.087053634 -0.52608752 0.099049114 0.50505823 0.083368294 -0.015974326 -0.41296446 0.29517812 0.20731506 0.0158196 0.21122795 0.24686417 0.059286837 0.17248438 -0.525392 0.27340397 -0.38140479 -0.28709421 0.17749117 0.083177596 0.043899056 0.044283569 -0.55212748 -0.20635359 0.088280641 0.48251536 -0.27353963 -0.099533245 -0.20885144 -0.12418306 -0.27609086 -0.086653836 0.083462767 0.007399159 0.43406856 -0.29163295 0.0047269268 0.18636258 -0.21437293
1465 0.12793981 0.40721136 -0.047450084 -0.36588714 0.15181904 0.11704819 0.26319164 -0.10324913 0.3619867 0.18909766 0.22218436 0.061369501 -0.21741728 -0.40529957 -0.48159334 -0.10390848 0.26778907 -0.11868333 0.26263931 -0.13897626 0.21843334 -0.095728323 0.20304783 -0.33844838 -0.70516515 0.039329872 -0.23113704 0.1215931 0.29237258 0.073946826 0.0039562033 0.33683088 0.046241771 -0.26835504 0.051179621 0.012553753 0.013550854 0.12106946 0.18092002 -0.039741214 0.1635092 0.21513541 -0.20201503 -0.055596739 -0.057556204 -0.086390741 0.35282212 -0.35980946 0.065702468 -0.65233064 -0.22509803 -0.13592841 0.13650894 0.12816805 0.077753499 -0.37301204 -0.016946005 -0.017486608 0.099911883 0.21434031 0.035572432 -0.26550013 0.24254283 -0.053084012 0.080860399 -0.17956212 0.20905735 -0.26571628 0.18819031 -0.23336078 -0.59780365 -0.053968053 -0.25067627 0.028333552 0.27748969 0.052438591 -0.55320662 -0.7607007 0.25188425 -0.14440215 0.3580195 0.08887206 -0.27331677 -0.055309784 -0.19459891 -0.29034382 0.034312051 -0.11708262 -0.15033406 0.20054165 -0.018324615 0.22425142 -0.07618472 -0.66681111 0.4200213 0.1508505 0.22961625 -0.14248495 -0.12863956 -0.16610312 -0.037323687 -0.045287881 0.41767621 0.011930818 -0.18003735 -0.061193462 -0.049955148 0.035160448 0.2503449 -0.059571162 -0.58457208 0.40592924 -0.14785886 -0.20640178 0.21302904 0.081501119 -0.052422211 -0.017512977 0.048422899 -0.28408405 0.11767792 0.065353744 -0.18218206 0.078140788 0.011301999 -0.31569281 0.30003458 -0.011229045
2288 -0.50906527 0.62264985 -0.1348691 0.096876711 -0.22626275 0.20622796 0.017730694 0.28788847 -0.0088770799 0.083104156 -0.14279199 -0.10007478 -0.56181097 -0.18122834 -0.29582375 0.026480855 0.093175806 0.32846546 -0.29290119 0.011618831 0.21376173 0.14008713 -0.16674525 0.12852071 -0.24981587 0.072174616 -0.23715043 -0.10050546 -0.098415002 -0.19125466 0.085600555 -0.31091255 0.19750749 -0.13189475 0.15028812 -0.035739366 -0.041425437 0.27179626 0.33691302 0.021666352 -0.17624387 -0.047520977 -0.63359785 0.13265802 0.19098614 -0.17627503 -0.062915534 -0.1522634 -0.15686336 0.047837108 -0.41896945 0.36443967 -0.063997358 -0.43704566 0.19374061 -0.078989342 0.025692914 -0.38899869 -0.23697092 0.19227222 -0.046535872 -0.49590427 0.0020522266 0.28521565 0.34311914 0.077030949 -0.056488294 0.024807788 0.13255204 0.2178378 -0.43930846 -0.38047203 -0.0208083 0.37144226 0.14805935 -0.060708616 -0.35140145 0.17872299 0.12405896 0.20559673 -0.14323807 0.10453686 0.63476008 -0.29319575 -0.062411226 -0.41244516 0.1689931 -0.097471289 0.53792965 -0.1386625 -0.41351229 0.0072188885 -0.20220834 -6.6202221e-05 -0.39864728 0.25025737 0.039833903 0.054936368 -0.087117776 -0.39298931 0.15716842 -0.083701015 0.24932528 0.28784463 -0.22626936 -0.30067858 -0.3116473 0.0053087622 0.47810572 -0.040094145 0.25452903 -0.17003624 0.15614241 0.14855255 -0.093798682 -0.15071258 -0.023464171 -0.12951756 0.083126731 -0.22984743 -0.014369847 -0.32516739 -0.61734462 0.45550236 -0.38048023 0.05385419 -0.19822209 0.17396231
1466 0.18720534 0.32647204 0.035825655 -0.10842936 -0.095748775 -0.13290729 0.44004667 -0.055416763 0.079176262 0.2232352 0.13028139 0.043903798 -0.25965738 -0.43340555 -0.65747797 -0.055255439 0.39059648 0.10355599 0.055744067 0.0040344279 0.11548193 0.30870706 0.11432678 -0.40893131 -0.60597003 -0.37066248 -0.18283114 0.1409118 0.15092452 0.019020509 0.088063374 0.083342649 0.26607957 -0.43947148 -0.1714875 0.21711059 0.12086591 -0.19292682 0.37775469 0.07390359 -0.021053297 0.27193654 -0.43185598 0.33086625 0.00067859603 -0.097833179 0.25032952 -0.39286605 -0.27932012 -0.53989369 0.23156823 -0.24476264 0.13522683 0.33719495 0.0097001661 -0.60051334 -0.017967444 0.096911177 0.0065696193 0.15909483 -0.13751735 -0.28806838 0.33850759 -0.079983741 -0.0097283227 0.0368133 0.050295625 -0.19715606 0.36518434 -0.090762936 -0.30269074 -0.025191734 -0.2387546 0.20727892 0.23438849 -0.018837608 -0.27965888 -0.73877168 0.27252293 -0.33063877 0.32752296 0.38390744 -0.23627706 0.28314158 -0.11584993 -0.23597109 -0.052486967 -0.33535215 -0.34414732 0.090397216 0.29938084 0.24185012 -0.15670101 -0.23017505 0.2595776 0.088146269 0.20208474 0.061047152 -0.24452291 0.069567047 -0.061078724 -0.17211097 0.41409752 0.20873499 -0.1883537 0.061766502 -0.16340649 0.16649948 0.16153738 -0.082865104 -0.33773339 0.28938186 -0.070573993 0.15441182 0.24862941 -0.20933558 -0.16096032 0.10199468 0.067099854 -0.51673323 -0.00071361777 0.01117654 -0.18828943 0.18339373 0.28907198 -0.27213883 0.046164081 0.10820526
1445 0.31252539 0.57237518 -0.049146064 -0.074450254 0.1138165 -0.021198114 0.092838593 0.18304345 0.52883923 0.18564197 -0.0064522903 0.023622222 -0.39712501 -0.2617844 -0.27341637 -0.098536856 0.3101615 0.091585509 0.012216421 -0.016542856 -0.042890441 0.24162707 0.10037417 -0.3200404 -0.62295133 -0.1039108 0.035336617 0.19119178 0.26783842 0.037086822 -0.05439711 0.41844782 0.0068400968 -0.63424939 -0.24945115 0.1103342 -0.072878957 0.23206371 0.45653316 -0.31009039 0.10774989 -0.070742935 -0.33151165 0.14888974 0.11595123 0.17099026 0.28047296 -0.64449656 0.081228711 -0.36971018 0.055848524 -0.41528592 0.042602513 0.066667028 0.049941525 -0.22215898 0.080510587 -0.038528204 -0.078258008 0.23250651 -0.25561267 -0.16460696 -0.031588759 0.094719976 0.24649028 -0.10843673 0.16222839 -0.076362699 -0.13196237 0.05783895 -0.38580325 0.31861874 -0.061745025 0.40196809 0.18793374 0.19823164 -0.5281201 -0.60849643 0.068637699 -0.29191288 0.35471123 0.29873192 -0.41852894 -0.099292293 -0.27975547 0.018334705 0.22017202 -0.32818165 0.098170355 0.12466522 -0.0091115842 0.34806284 0.14937389 -0.18099146 0.23329076 0.26167551 0.26041946 -0.1843265 -0.15142445 0.11112633 -0.06393256 0.19011739 0.42549482 0.24198666 -0.43036169 -0.22314839 0.14155871 0.30660316 0.29360887 0.32525292 -0.42363435 0.041341364 -0.25761369 0.2335178 -0.24160241 0.18176083 -0.063762397 -0.0059593543 0.14046372 -0.17559455 0.037893113 -0.026977491 -0.041298926 0.17856561 0.25734016 -0.22717619 0.25234258 0.015941026
458 -0.08454401 0.17691383 0.069819584 -0.4010109 -0.19770703 0.22585323 -0.21745683 0.38806936 0.10739266 0.11418313 0.011734975 0.66398221 -0.030030958 -0.078722104 0.27214852 0.059092727 0.084626198 0.15431304 -0.36678109 -0.15140055 0.070317209 0.52175283 0.0072581167 -0.093924716 0.065614864 0.39984342 -0.022581765 0.50181037 0.0082466444 -0.16094072 0.11080455 0.15551588 -0.13754062 0.26370436 0.35979506 -0.21481548 0.076186366 0.020642977 0.28891423 0.010563964 0.31029373 0.028962636 0.0034579739 0.4057444 -0.39139184 0.048576538 -0.019102463 -0.49558914 -0.51735127 -0.0051214607 0.27629605 0.39271668 0.18703777 -0.16854393 0.0037491869 -0.11403616 -0.042801589 0.36760738 -0.060071662 -0.27598843 0.0031353047 -0.37529367 0.14347889 0.090036146 -0.066812731 -0.58364975 0.11952044 0.34334108 -0.12029596 -0.14097594 -0.17255075 0.082370199 -0.0042892694 0.071097918 0.033315595 -0.030451562 -0.035701018 0.038762957 -0.26540157 0.21961442 0.066933341 -0.079473078 -0.27481017 -0.09876883 0.10454401 -0.10259679 0.3320266 -0.03455615 0.10238834 0.029510695 0.1653154 0.088800505 -0.10802169 -0.12198187 0.034035962 0.21457566 0.15062752 0.17578773 -0.26089284 -0.010350116 0.43509537 -0.24694389 0.12260984 -0.02776945 -0.0057648597 0.1083919 0.2450255 -0.085302502 0.33137715 -0.55691278 -0.38215938 -0.11753058 0.015769606 0.17546831 0.085347623 -0.26235098 -0.36747819 0.024713604 0.14281625 -0.28262162 -0.29537517 -0.17119284 0.17790261 0.57756972 0.043879475 -0.45126989 -0.11077577 -0.10656091
682 -0.077345885 0.22089703 0.31437051 -0.40037906 0.10423786 -0.16281459 -0.27666554 0.24588338 -0.35331702 0.046876136 0.22586387 0.36205027 0.11733785 -0.13216902 0.2887648 0.10287518 0.075810827 0.41500765 -0.15669475 0.14162566 0.093538135 -0.41574493 -0.047278713 -0.058176231 0.15802307 0.53007102 -0.08023984 -0.28273511 -0.017524993 -0.12608549 0.0078406902 0.17727923 -0.23494783 0.091788821 0.61224109 0.30273449 -0.11611393 0.060745038 0.18777035 -0.43018839 0.19323868 0.19878739 -0.10098054 0.091944881 -0.37673655 -0.39107993 0.082933798 -0.33613837 0.18198265 -0.26166579 0.055491257 0.018188057 -0.12581351 -0.23680864 -0.34276384 -0.34411943 0.30837792 0.28510934 -0.38249877 0.17317587 0.3579503 -0.086540833 -0.09704569 -0.028542127 0.17993116 -0.074212536 -0.36763495 -0.2523945 0.05472808 0.44190013 -0.56879157 -0.056637503 -0.36981142 0.76894498 -0.39529511 0.13391963 -0.30992746 -0.22780323 0.044586979 -0.046666767 -0.13349752 0.15786089 0.11073877 0.047723975 -0.35200343 -0.00085802167 0.069302961 -0.25923511 -0.40423805 0.096535005 -0.17910823 -0.018383671 0.29064786 0.1467011 -0.2509118 0.0069320132 -0.22724211 -0.13424419 0.011042123 0.080289729 -0.32606807 -0.45820066 0.18241249 0.38957104 -0.32125148 -0.036749844 -0.14534955 -0.30048704 -0.18075405 -0.37696922 0.24504316 -0.31878757 0.057837483 -0.012393 0.035041168 -0.27236602 0.12075852 0.01225384 -0.19645123 -0.0029320698 0.35720658 0.18237664 -0.29175425 0.25672165 -0.071592733 0.068597108 -0.075878106 -0.19453791
713 0.49656481 0.019431114 0.45693916 -0.11459502 0.097424299 0.043712385 -0.28637183 0.47500706 0.17373075 0.33166075 -0.12213825 0.25267306 -0.34306189 -0.076274596 0.16031137 -0.3273437 0.02885549 -0.30729064 -0.041730925 -0.075823225 0.17008328 -0.0083399601 -0.035379462 -0.23763403 -0.16259001 0.080518134 -0.083870515 0.35010552 -0.0028365187 -0.11552393 -0.1154792 0.21463194 0.11222375 0.37157059 -0.29070321 -0.33355477 0.47860146 0.076405585 0.32579729 0.13021287 -0.22048721 0.070968799 -0.034071289 0.13670042 -0.36354101 -0.3764987 -0.18412206 -0.34151378 -0.16282499 -0.49695006 -0.097900584 -0.53464967 0.14654267 -0.062625863 -0.0045205276 0.093805291 -0.26262337 0.34106386 -0.4716998 0.26032841 0.26154193 0.049573667 -0.12632497 0.20748502 0.037241314 0.025497248 0.28145048 0.21696176 -0.11597234 0.29885751 -0.39534256 0.1217765 0.26511762 0.42670316 0.44445524 -0.26918563 0.38357979 -0.2883099 0.46286166 0.096294373 -0.076002866 0.38575077 -0.30924779 0.087564439 -0.46598732 -0.19622636 0.14034244 -0.39924982 -0.08920569 0.171088 -0.34485486 0.38421929 0.39089191 0.17275536 -0.054185007 0.059633069 -0.0018621511 -0.20301905 0.17654514 0.0042689973 0.5707646 -0.22307436 0.22772722 0.12441212 -0.13426237 -0.20297314 -0.056971651 -0.018039333 0.65105498 -0.088759281 0.11838597 -0.023777539 0.28166416 0.18604648 -0.02694606 -0.13477512 -0.015607189 -0.10502633 -0.17569087 -0.22941415 -0.096708864 0.47861415 -0.29990059 0.33698139 -0.32990342 0.12038359 0.042988755 -0.22540528
391 0.026243605 0.14452711 -0.26927218 -0.1350697 0.20462969 0.038133256 -0.082194485 0.30249178 0.19903836 -0.22699577 -0.22306786 0.4531354 0.10853595 -0.56182486 -0.32944939 -0.11051365 0.11484233 0.14528358 -0.0052638175 0.23489049 0.046514891 0.0029479049 0.12280505 -0.68390101 -0.19952519 0.67563784 -0.30628243 0.37110278 0.068784185 -0.60636187 0.19694379 -0.072407685 0.09707725 -0.36881471 -0.22939381 -0.38721383 -0.18791483 0.34297332 0.097276494 0.085859291 0.099052787 -0.063536584 -0.13819736 0.39427009 -0.36202326 0.1201552 0.2102735 0.086525679 0.049484156 -0.10676233 0.064467855 -0.24846463 0.42552757 0.42077571 -0.14823183 -0.2849943 0.15211619 -0.081688464 0.16286282 0.15949214 0.43991381 0.065461434 -0.024593463 -0.19027787 0.20915081 0.046370309 0.035392392 0.2890909 -0.027426517 -0.031688783 -0.23160726 0.011651842 0.16132687 -0.11318335 -0.033599596 0.23762126 -0.31041789 -0.54010206 0.11816682 0.073175609 -0.12396561 0.3474386 -0.16398522 0.027714433 0.34716174 -0.032233831 0.18368605 -0.077906325 0.48000297 -0.18375015 -0.18114336 0.20614247 -0.23425712 -0.4131434 -0.058886275 0.33245561 -0.36547351 0.14127637 -0.22590247 0.02901159 0.059805833 -0.39847469 0.037138253 -0.066528782 0.093739942 0.0065437485 -0.027679065 -0.11354229 0.33622116 -0.4218646 -0.12961386 0.0076723923 0.060404312 -0.031022269 0.19134504 -0.2408492 0.27120477 0.050594691 -0.25915486 -0.024296932 0.092164122 -0.0064394232 0.27953956 -0.054183718 -0.32146063 -0.27924424 0.52415907 -0.00021525347
69 0.33977476 -0.11750597 0.10429553 -0.25907362 -0.077170014 0.27445406 0.4538748 0.23468639 0.28195715 0.19502941 -0.1885774 0.52630931 -0.28624216 0.17757994 0.23096411 -0.17347193 0.25450155 0.52668548 -0.039416857 -0.21552975 0.13321455 0.27432063 -0.040283859 0.23298825 -0.02629319 0.26041889 -0.19716154 0.030401535 0.026803214 -0.37575102 0.28861043 0.064813584 0.43734822 0.057554312 0.41748235 -0.19677368 0.036646683 0.35882062 0.29793185 0.31991982 -0.0311956 0.040869467 -0.10641941 0.053541407 -0.25979024 0.22156461 0.13754308 -0.1780656 0.022910327 -0.16653784 -0.055861235 -0.15051772 -0.21614753 -0.038520135 -0.012923948 -0.68581885 0.040624008 0.34839562 -0.169043 -0.20464294 0.24897179 0.18970512 -0.092167184 -0.23709141 -0.047733665 0.16784193 0.25288185 -0.24640913 -0.28699371 -0.076919898 -0.28868315 0.2833122 -0.15200061 -0.34497651 0.12689328 -0.18855689 -0.60051972 -0.34404048 0.15364908 -0.17829514 -0.12972492 0.4083074 0.036010589 0.459636 -0.30176884 0.096601456 0.080207057 -0.14880134 0.38756454 0.45020455 0.063100412 0.39506227 0.16463444 0.067175396 -0.011327991 -0.11561183 -0.096762016 -0.10886176 -0.070891201 -0.04657938 -0.069937989 -0.36369056 0.57848901 0.14773464 0.11315995 -0.028865613 0.46505398 -0.1283741 -0.36366922 -0.12006172 -0.095066354 -0.21918151 -0.32945487 -0.0022133025 0.057725273 0.00064677472 -0.0072470107 0.12143572 0.09145847 -0.1792081 -0.043913402 -0.38931444 -0.19483538 -0.20468351 0.18131432 -0.097271323 0.32582256 0.21104686
602 0.15838118 -0.10836296 -0.036082271 0.034843482 0.10479771 0.49482152 0.44332677 0.0046721068 0.22571705 -0.13092023 0.52929831 0.16215758 -0.21193224 -0.15669559 -0.046018425 -0.13853851 0.10508863 0.051418506 -0.27050272 0.35806569 0.29296884 -0.1812845 0.04704662 0.19218931 -0.27980673 -0.18431896 0.40453938 -0.043811932 0.25365171 -0.50461131 0.064521745 0.16345997 0.062090684 0.35368064 0.036018047 0.047371518 -0.092363983 0.031760458 -0.17207113 0.095311172 -0.18748273 0.29585451 -0.20425142 0.55583853 -0.29360554 -0.59876388 0.46170211 0.076975584 0.22889958 0.10857372 0.031061923 0.17751548 0.12949137 -0.28575227 -0.19578189 -0.30733368 0.47559947 0.27307078 0.3024984 -0.15561707 0.23551811 -0.3560802 -0.18638209 0.012352796 -0.0581774 -0.13765617 0.47384506 -0.50767362 0.064703912 0.62940949 0.0082857246 0.095169351 -0.37147859 0.27317128 0.084760226 -0.15386714 -0.27049348 0.33421016 -0.020836104 -0.15878455 -0.33255118 0.39024895 -0.18330817 -0.365181 -0.50691575 -0.025399152 0.33257404 -0.094616957 0.72524732 -0.34279034 -0.028880548 0.26860979 -0.18316039 -0.079161316 -0.33569023 -0.16477968 0.078447774 -0.21251848 -0.12204402 -0.17645134 -0.28321496 -0.084720917 -0.32884222 -0.053776853 -0.42764854 -0.50775498 -0.079402693 0.224481 0.18555459 0.089335576 -0.39182356 0.32439363 -0.28918165 -0.11385478 -0.084793299 -0.032445423 -0.33783633 -0.27399972 0.0021455353 -0.21849157 0.056963779 0.036053549 -0.4692404 0.054933179 -0.081945315 -0.132871 0.048621885 0.17263223
1434 0.071432941 0.22597119 -0.043322112 -0.28930557 0.26003441 0.20207955 0.20015417 -0.0072848983 0.45538479 0.12539439 0.041797668 0.29660007 -0.28621626 -0.25002766 -0.24390753 -0.14681879 0.20139427 -0.12858444 0.44961515 -0.06240664 0.15088391 -0.010041522 0.23330912 -0.52989602 -0.89865702 0.15071753 -0.23625025 0.23782812 0.13811263 -0.038245063 0.13288479 0.33996287 -0.095644251 -0.71863341 -0.18359199 -0.19219337 -0.036782425 0.22884297 0.17866221 0.40451181 0.06632638 0.20322926 -0.2876606 0.044100218 -0.29514682 0.10345615 0.30248463 -0.23755459 0.099812277 -0.49351338 -0.11973993 -0.37603953 0.11010829 0.24488886 0.13528454 -0.67010635 -0.096073419 0.011282156 -0.022040002 0.11815871 -0.34034485 -0.26074308 0.23566113 0.22796142 0.4097836 0.18245897 0.07242389 -0.25523892 -0.16058077 -0.24543519 -0.40245754 0.12280856 0.0089706313 -0.021150736 0.30702391 0.0081820264 -0.25383216 -0.59414124 0.21586271 -0.05687568 -0.093054689 0.081749327 -0.47829515 -0.089430362 -0.33365986 0.055771552 0.027858716 -0.33007985 -0.20014733 0.33268961 0.090609089 0.044274196 -0.095820509 -0.43937516 0.44028708 0.0028503749 0.19002961 0.063289568 -0.27282485 -0.033733286 -0.10055977 -0.12709472 0.41817799 0.056155343 0.035540733 0.29374647 -0.097812474 0.13971627 -0.01723377 -0.20439778 -0.6145125 0.12259005 -0.14702596 -0.18228678 -0.1621045 0.039039169 -0.17007807 -0.05640028 0.28662872 -0.26296428 0.065408185 0.057184793 0.12477527 0.33005857 -0.067213185 -0.25100106 0.38058215 0.10304152
569 -0.17839728 0.19372615 -0.087715313 -0.33852276 -0.30901587 0.15784776 0.36004347 0.2822341 -0.03355331 -0.12736355 0.28360084 0.33547488 -0.095169164 -0.16407482 -0.66309011 -0.036320474 0.57697695 -0.13115951 0.078007527 0.6476931 0.82850236 0.086813323 0.095777363 -0.30379161 -0.61975628 0.18649356 0.34554455 -0.23391755 -0.1367974 -0.61851114 0.091735646 0.15353157 0.15988222 -0.06769482 0.13367076 -0.35642183 -0.14009668 -0.04407471 -0.24278499 0.057652678 0.052427545 0.56652057 -0.53988743 0.41067553 -0.24379715 -0.075391993 0.21965361 -0.37939408 -0.15774271 -0.001931447 -0.12868692 0.14343928 -0.19842689 -0.52460164 0.28642452 -0.47266275 0.2526646 0.12502998 -0.62848693 -0.066590317 -0.16691282 -0.47154787 0.016534062 -0.011101231 -0.040027969 0.069889955 0.020504069 -0.34519053 0.1932276 0.33960658 -0.10585731 0.066511512 -0.11011863 0.2081688 0.11377239 -0.088163503 -0.14171879 -0.073145278 -0.49250829 -0.03239695 -0.11130862 -0.15617311 -0.29128981 -0.21047485 -0.55833191 -0.30554199 0.032874104 -0.32748812 0.50746024 -0.20871331 0.23516613 0.065881245 -0.050897986 -0.51321697 0.14194852 0.21348771 -0.1222086 -0.061552472 0.07195396 -0.13550828 -0.11359923 0.30201459 0.28908694 -0.050096884 0.059966784 -0.47227049 -0.37284136 0.0056710853 0.35948908 -0.10309031 -0.87676495 0.43836346 -0.3069818 0.21052572 -0.1803114 -0.033041082 -0.21196969 -0.072548024 0.068965614 -0.44516933 0.031270906 0.059891015 -0.38757381 -0.027891783 0.37343681 -0.30508685 -0.08660274 0.23183407
1637 0.214782 0.1749339 0.029419595 -0.15543114 0.13569851 -0.5187313 -0.18067299 -0.10392692 -0.32251826 0.1191985 0.083142824 0.4335469 0.20746018 -0.2938759 -0.17844404 0.14329533 -0.0352709 0.20639433 0.2390618 0.16081315 0.36233234 -0.0098994272 -0.34794882 0.20405674 0.41271961 0.51157671 0.043181125 0.47154745 -0.011692239 -0.12324842 -0.097672686 -0.13310535 -0.15110704 -0.0026762031 -0.31095943 -0.24853472 0.18548106 -0.14702235 0.54193896 0.36851883 0.15699628 -0.17601253 -0.21940292 0.26295885 -0.3703883 -0.087434672 -0.081796885 0.0093622347 0.28287834 -0.21044424 0.10431613 0.037362684 0.10837616 -0.11765492 -0.032392383 -0.17894585 0.10410877 -0.17450815 -0.37492329 0.16426834 -0.032323375 -0.028716858 0.036392357 0.09142071 -0.052695755 -0.23970507 0.4433012 0.20228142 -0.15524687 0.043686386 -0.15425065 -0.0034833965 -0.50905389 0.24679054 -0.26390442 -0.13176659 -0.41832596 -0.22246937 0.29213154 -0.053680409 -0.1560318 -0.082660496 -0.12456883 -0.32659793 -0.033283945 -0.1572198 0.32214832 0.23203762 -0.049274456 -0.0014135372 -0.16950449 0.11241683 0.046882015 0.27190861 0.17082375 -0.60515106 0.091412686 0.46710092 0.16802993 -0.31492767 -0.019153316 0.14148918 0.25945932 0.24390019 -0.26399317 -0.63931769 -0.40037969 -0.015038096 0.57209939 -0.37306136 -0.13300501 -0.25403371 0.32473156 0.50296551 0.42531765 -0.35039851 0.31697854 -0.57822126 -0.096274868 -0.073547818 0.13369538 -0.022232847 -0.14350684 -0.18082502 0.015381915 0.11890814 0.061671283 0.27405554
405 -0.14483365 0.15986717 0.15421855 -0.22749166 -0.12425476 0.10543402 0.03003731 0.37920573 0.089027487 -0.11938815 0.15012783 -0.45229247 -0.18948998 -0.63126004 0.18719715 -0.47676075 0.17227934 0.40363711 0.25366801 0.4588474 0.2700173 -0.40658113 -0.35070476 0.1227541 -0.15291402 0.058009882 0.12899294 0.23844993 0.21683291 -0.0092532719 0.17886786 0.24971783 -0.028492697 0.13457017 -0.20460112 -0.077747777 -0.10545055 0.054562509 0.20617068 -0.059135403 0.67995971 -0.027602125 -0.19081652 0.0036397523 -0.52849495 -0.27907109 0.11010006 0.40378138 -0.4748669 -0.40185094 0.24114232 -0.19229046 0.062328231 -0.23466766 -0.021771472 -0.027016737 -0.018676531 -0.060894024 -0.042563103 0.11101232 0.12691855 -0.33916345 -0.018787537 0.17759793 0.089260198 -0.14905947 0.1349999 -0.20927717 -0.03727686 0.16565973 0.20486474 -0.22623371 -0.14351346 0.25172818 -0.32575291 -0.1263189 -0.098320618 -0.043080572 -0.02067505 -0.21623695 -0.50856537 0.74100119 0.45933935 0.30423936 -0.27514631 -0.059750222 0.11405789 0.060628414 -0.053104911 -0.26825216 -0.41050005 -0.16588026 0.28133175 -0.0096390424 0.51951677 0.28867483 0.17929019 0.15640432 0.35271326 -0.018322667 -0.087855071 -0.14676349 0.26592702 0.28050476 -0.036735632 -0.1100352 -0.23429403 -0.17978965 0.30626139 -0.23523633 0.034299131 0.22273895 0.26152286 0.089150742 0.22389914 0.1004784 0.10200348 0.024663014 0.3229526 0.071370445 -0.49349993 0.017346336 -0.23861051 -0.04327675 0.0048775473 -0.45019084 0.20108807 0.17629761
1653 0.24218805 0.31798312 0.085954994 -0.13530244 0.15390852 -0.12459004 -0.053067561 -0.081543796 -0.116173 0.010942691 0.040812854 0.39222947 -0.061110873 -0.029718935 0.014916686 -0.20396525 -0.085581265 0.092151247 0.13034917 0.12083852 0.3368271 0.3106499 -0.26777208 0.36471531 0.46078792 0.68582004 0.013040856 0.25075176 0.014858376 0.24737616 0.026088206 0.075304225 0.091389775 0.10010812 0.14753504 -0.32124552 0.28857931 -0.08642789 0.51132286 0.01003054 0.065441459 0.41033345 -0.18346934 0.12205641 -0.61382389 -0.071913883 -0.18717384 0.17641148 0.41916564 -0.18192711 0.17135486 0.21252158 0.58339435 -0.34382194 -0.022307759 -0.09576375 -0.14442767 -0.077502325 -0.22043943 0.24835162 0.071137324 -0.18176073 -0.21062669 -0.19719069 0.24195449 0.21417646 0.3460272 -0.21612242 0.26624161 0.22155927 -0.1021212 0.08390148 -0.1420826 0.4547039 -0.26343289 0.10605634 0.1910774 -0.22680736 0.14713719 -0.14524004 -0.10683057 0.24068902 -0.2107951 -0.14946458 -0.32263097 -0.1472389 0.08115869 0.10085605 0.096752003 -0.27277178 -0.37447673 0.74541253 0.073535129 -0.14248191 -0.032368653 -0.28608185 -0.25796428 0.099731572 -0.13579801 -0.063364878 0.16001159 0.25979143 3.4986901e-05 0.068295598 0.1863718 -0.11650907 -0.23035009 0.1336468 0.42012605 -0.24440561 -0.40370059 0.083282068 0.00073901104 0.53298867 0.33618438 -0.12434582 0.14588514 -0.29405472 0.14413165 -0.24806246 0.33637235 0.23909706 -0.22305633 0.20782776 -0.22263579 0.075213745 0.037649743 0.14269298
31 0.0054501966 0.30367368 -0.22947772 -0.48342121 0.17956863 0.00981957 0.41623303 0.089726895 -0.059252776 0.39764634 -0.019909734 0.52746838 -0.21585064 -0.12912592 0.064168617 -0.13415444 0.68714476 0.40349236 -0.15147278 -0.081767648 0.21300812 -0.0067072231 -0.049241155 -0.16826381 -0.40362 0.023158692 -0.27546674 0.40201923 0.19303277 -0.29115784 0.47305706 0.42480788 0.24079622 0.11281266 0.21973497 0.16883293 0.0056395633 0.17648742 -0.10114201 -0.098671056 0.12544607 -0.092229284 -0.17439559 0.34619623 -0.24140546 0.10843179 0.0062250677 -0.14468196 0.059131984 0.1984507 0.08032842 0.14354236 -0.05721616 0.1730931 0.3911567 -0.44535279 0.029121891 0.023429995 0.081303023 0.098473601 0.3309845 0.1169922 -0.15428647 -0.19003434 0.40627807 -0.4001267 0.2678577 0.084295787 -0.028025782 0.14730373 -0.032886859 0.075143859 -0.26281193 0.089289881 -0.028889639 0.08360675 -0.37198058 -0.23582573 0.054381419 -0.32853228 0.14625877 0.23033994 -0.20248571 0.48722607 -0.36900076 0.026832495 0.48667169 -0.17351544 -0.25499624 0.36785969 0.20998126 0.16790384 0.53587937 0.051466845 -0.14959496 0.032999434 0.38631389 -0.22481059 -0.025701098 -0.21810679 -0.21361408 -0.21583034 0.28656247 -0.067726545 -0.037862994 0.37321055 -0.31561369 -0.34846768 -0.15833716 0.17911734 -0.34913743 0.056332458 -0.14401664 0.11500251 -0.3006115 -0.096980065 -0.095358066 -0.24372412 -0.26401526 -0.11836948 0.29688773 -0.10452867 -0.22968872 -0.15130003 -0.17010385 -0.27722204 0.15502675 -0.12982747
476 -0.0020486736 0.51906967 -0.14561953 -0.14594012 -0.4353838 0.22731307 -0.29171872 0.085875586 0.15304278 0.07518056 -0.053065091 -0.04330606 -1.4847847e-05 -0.31713867 -0.32085562 -0.053953901 -0.12694854 0.29768679 -0.13555363 0.05639049 0.50526732 -0.41640681 -0.080808081 -0.23775488 -0.33161038 -0.093096308 0.10813732 0.051108938 -0.16732144 -0.040979825 0.21410832 0.16621202 -0.014967069 0.33444667 0.319406 -0.017676486 -0.21179582 -0.20865013 0.11003791 0.31292009 -0.060036194 -0.081776522 -0.14912613 0.094917327 -0.12950528 -0.14003111 0.12443999 0.11042523 -0.00073482376 -0.13854438 -0.22380984 -0.13202359 -0.3824501 0.096415699 -0.24682251 -0.2905159 0.22776565 -0.19537914 -0.20394543 -0.10602158 0.26298922 -0.24507928 -0.43388912 0.21601488 0.052533798 -0.31573331 0.12596692 -0.4739159 -0.0007132006 -0.27841941 0.09926343 -0.020210331 0.27498025 0.59780347 0.11731714 0.14539538 -0.069163769 -0.092814222 0.014652029 -0.40642783 -0.15334699 0.3980675 0.5024398 -0.46432197 -0.20720392 0.11384023 0.071083143 -0.24546622 0.42456102 -0.24707262 0.15689328 -0.014050767 0.53270119 0.15177797 0.29447737 0.41150638 0.20311336 0.047720965 0.26343578 -0.19843778 -0.10477832 -0.037167851 -0.14987813 0.020510413 -0.32253167 -0.25037557 -0.041919507 -0.063095614 0.42616057 -0.10967204 -0.19216453 0.11008538 -0.11425892 0.53869796 -0.1382518 -0.41486868 -0.38972607 -0.12136675 -0.19775142 0.0085713239 -0.10603604 -0.40445235 -0.47695005 -0.26908585 0.096656069 -0.097301707 -0.10507161 0.085814483
2148 -0.24354765 0.15650794 -0.27069464 -0.22270334 -0.019449268 -0.073853239 0.28966618 0.73339283 -0.28307301 0.035067506 -0.25022939 -0.18951939 -0.16499445 -0.30523327 0.11526982 -0.57208753 -0.18132262 0.058809087 0.069288686 -0.094287142 0.088367216 -0.063294016 -0.46909431 -0.035182551 -0.21821822 0.14285973 0.35632473 -0.21928218 -0.23630422 -0.044991188 -0.10707979 -0.43487754 -0.11635944 0.20430179 0.20269188 0.14965971 0.045349415 -0.051745843 0.22231282 0.19487767 0.35966024 -0.23705466 -0.14326966 0.11928575 -0.28807783 -0.21897615 -0.23508351 0.2624504 -0.040474806 -0.3381798 -0.48243877 0.31938654 0.2858482 -0.14634424 0.61188668 -0.26612848 -0.17544408 -0.27804145 -0.15257049 0.12476138 -0.012870356 -0.58545029 -0.20983107 0.22563507 0.095031537 -0.28786585 0.16225874 -0.028211592 -0.070034839 -0.0028218187 -0.37378645 0.21643685 -0.2874226 0.028219147 -0.058768954 0.14426188 -0.57007045 0.13855949 0.24745762 -0.02222353 -0.22084637 -0.015609469 -0.19075994 -0.43466166 -0.27686584 -0.15302956 0.37963873 0.093874395 0.6652841 -0.19768889 0.037885077 -0.21712546 -0.062129609 0.070120908 0.029852966 -0.40807021 -0.15462008 0.098964691 -0.21199058 -0.15485829 0.2098365 -0.21776874 0.1592914 0.26976565 -0.025012815 -0.12640086 0.024609335 -0.039288942 0.82888991 -0.40474826 0.042686 -0.51880652 -0.3792668 0.10328642 0.2216932 -0.56046104 -0.0027133063 -0.064651556 -0.025983194 -0.44237614 -0.023129862 0.090347074 -0.30831411 0.093064263 -0.19633266 0.33797106 0.13888243 0.080643959
496 -0.079368621 0.0076104319 0.13156772 -0.26625383 -0.0014384817 0.082713731 -0.30776224 0.35977298 0.064687118 -0.21450034 -0.19875894 0.28534704 0.034241382 0.19423272 -0.20677291 -0.20189923 0.12145282 0.47981611 -0.035783596 -0.15894851 0.13429394 0.087784968 0.035774812 -0.33304796 0.069036752 0.041078072 0.28339928 0.1910277 0.060020354 -0.13000587 0.26863757 0.071813755 -0.068630524 0.022875641 0.30716085 -0.025531223 0.26019907 0.12224782 0.22983274 0.04706648 0.036435667 -0.32926932 -0.081847616 0.59977257 -0.093077973 -0.44926018 -0.038485218 -0.11027648 -0.0564753 -0.12689652 -0.36503822 0.12946659 0.24998446 0.74901986 -0.13560601 -0.52021068 -0.18316902 0.24830823 0.079846732 0.14277081 0.083092012 -0.17405663 0.034060337 -0.29852459 0.31412545 -0.83508849 0.28434834 0.2394394 0.028724229 -0.15073352 -0.53917527 -0.1483258 0.29682177 -0.12077764 -0.067128137 -0.18751171 -0.24324186 -0.22435288 -0.23965485 -0.23290102 -0.35061222 0.13195825 -0.28696352 0.24900082 -0.15892272 -0.029340276 -0.18985175 0.16377458 0.3668291 -0.19249141 -0.34956256 0.026435094 -0.081936173 -0.4431695 0.22729056 -0.030664014 -0.31187963 0.30003881 -0.11235025 -0.34776208 0.63255322 -0.22061236 0.051327396 0.11371677 0.049828403 -0.055496845 -0.091002218 0.0029790711 0.25266603 -0.20478299 -0.086387433 0.012975159 -0.021359939 0.16869329 0.27592185 -0.29184419 -0.17140976 0.17132229 -0.33995721 -0.10181891 0.53541327 -0.21956439 -0.11981985 0.0035933326 0.52975935 -0.045491166 0.2656101 -0.25536403
1648 0.16242231 -0.15811677 0.028541321 -0.32662794 -0.052371357 -0.064472951 0.0034441801 -0.19079486 -0.31931299 -0.01823391 0.10666303 0.063038945 -0.078747846 0.12514423 -0.031685725 -0.1209803 0.039598357 0.11368292 0.13596614 0.18158585 0.37469509 0.15777908 -0.14600083 -0.03331453 0.24017854 0.55792922 0.14609197 0.3819046 -0.076670542 -0.069970503 0.057083778 -0.27517194 0.027530599 -0.38278523 0.53925985 -0.40010509 0.29436073 -0.25384206 0.38554576 0.077091835 0.037139919 0.0009608611 -0.25302362 -0.1560135 -0.47269586 -0.10107114 -0.42991087 -0.40740892 0.34953374 -0.35956562 0.13254941 0.046573415 0.17019928 -0.033115171 -0.23172048 -0.29260451 -0.18077497 -0.15050791 -0.2780869 0.03755419 0.037434496 -0.1687184 0.14120014 -0.31095949 -0.017752595 0.1781991 0.35921156 -0.017012982 0.1905577 0.15447624 0.21160235 0.052568838 -0.54557312 0.27715904 -0.16811727 0.14198244 0.0046892706 -0.26849487 0.28159037 0.024027867 -0.38340962 0.38038033 -0.19678488 -0.13777752 -0.0077338764 -0.31513759 0.33927983 0.11438575 -0.14961159 0.094725698 -0.12259967 0.35154846 0.030774383 0.28077254 -0.2381326 -0.23603781 0.028686626 0.38711378 -0.25458014 -0.064820506 0.14224327 0.093526751 0.28728202 0.15444133 -0.16443059 -0.54454792 -0.19849317 0.11810915 0.58987248 0.016563581 -0.12193887 -0.062135033 0.15935428 0.37725362 0.18329169 -0.26235664 0.30476907 -0.3057726 0.11844245 -0.26710784 0.19625604 -0.12572943 0.014509496 0.26943123 -0.28705394 0.241823 0.037599869 0.14477377
6 0.19382934 -0.090697043 -0.27178013 -0.25104237 -0.048761122 -0.22241083 0.18572313 0.17773148 0.05308456 0.15959826 -0.44076213 0.26481938 0.042735141 -0.12919013 -0.11263181 -0.30407059 -0.027066702 0.36552304 -0.273489 -0.13382372 -0.039986592 -0.41830081 -0.43459234 0.0088582402 0.16799062 -0.093994699 -0.16813135 0.2915906 -0.04234175 0.11686764 -0.0089410311 -0.17642796 -0.02387126 0.19627357 0.42601562 -0.15419199 0.57943374 -0.28868186 0.44606578 -0.016013803 0.074543007 0.042850614 -0.24772444 0.44976339 0.056427971 -0.033375386 -0.14730798 -0.25886399 0.025924869 -0.12392159 -0.25001052 0.054631453 0.18643786 -0.34301817 0.30397534 -0.3997654 -0.33008561 -0.17020485 -0.17839774 -0.070403151 0.12555274 -0.066242978 -0.13587989 0.14550968 0.46122229 0.14965521 0.01195934 -0.085075222 -0.062300645 0.26680496 0.28539643 -0.21055923 -0.083300337 0.24879727 -0.50366312 0.19271436 -0.01899685 -0.28466898 0.02238914 0.022913489 -0.1168498 0.21923679 -0.13907085 -0.32464689 0.058848388 0.28857294 0.49294937 0.12534185 0.073400632 -0.16009466 -0.072954319 0.54092634 -0.06321805 0.3242192 -0.033487059 -0.1872981 0.14445476 0.35899282 -0.43881831 -0.12008049 -0.097866483 -0.0092369532 0.058384549 0.16603704 0.044321995 -0.096611939 -0.24992977 -0.06173208 0.20130405 -0.072047822 -0.029555485 0.027456714 -0.21365158 0.61250663 0.43241891 -0.094055317 0.26881069 -0.19545946 -0.040884282 -0.74025726 -0.14314634 0.15427348 0.025830152 0.43359575 -0.32951155 -0.18695353 -0.03214908 -0.21926616
1641 -0.037802655 0.23301299 -0.020948334 -0.16306365 0.16804035 -0.24207833 -0.049754214 -0.42590299 0.077949822 0.036291506 -0.0078239804 0.11521282 -0.29234496 0.1160076 -0.16885817 -0.42279148 -0.02592475 0.40613383 -0.022179021 0.42591324 0.28971788 0.081030495 -0.16776736 0.26959306 0.45438388 0.66159123 0.038719304 0.34646851 -0.08434251 -0.035875276 0.086712003 0.079100311 0.23123904 -0.18063469 0.11444091 -0.23068036 0.23433608 -0.23566416 0.23243695 0.25966337 -0.12705797 0.26660261 0.016249945 0.049483389 -0.48136467 -0.14542913 -0.017644558 0.1508445 0.31060985 -0.10487355 -0.017331911 0.046529908 0.59024996 -0.10818657 -0.10678311 -0.18631157 0.18905438 0.07507924 -0.45967644 0.28818613 -0.046123013 -0.25213137 -0.42796236 -0.37925261 0.3616969 0.025765678 0.28078726 -0.15906662 0.033469286 0.21615261 -0.26808223 -0.057165571 -0.20430477 0.468005 -0.05026219 -0.21238761 0.10218376 -0.23817523 0.23139502 -0.30876714 0.010349258 0.054462764 -0.056772221 0.027494244 -0.059454165 -0.042907577 0.057501301 -0.17115323 -0.17338412 0.063936956 -0.15896319 0.56376821 0.20708129 0.058857772 0.063139625 -0.53092086 -0.18554509 0.38351563 -0.055821124 -0.29230106 0.17386341 0.2897042 0.15361904 0.19686367 0.2172922 -0.044420764 -0.17474665 -0.020088421 0.16000217 -0.38080969 -0.2620759 -0.034360379 -0.0010673235 0.48530501 0.39182499 -0.10269643 -0.14415278 -0.32703355 -0.060477532 -0.10507566 0.36033332 0.24686867 -0.45200324 0.35086149 -0.30505729 0.11484321 -0.15579277 0.12772845
226 0.23786291 0.71603251 0.018349318 -0.59358782 0.025217121 0.31963566 0.12556934 -0.15742138 0.22359015 0.25612029 0.25778359 0.061810859 -0.18433186 -0.21395916 -0.17600593 -0.020467645 0.39861795 -0.1515314 0.052174266 -0.17811508 0.05477906 0.25098813 0.24534577 -0.15559258 -0.6128208 0.036634747 0.060636651 -0.16072197 0.10601835 -0.22292413 -0.036574006 0.10199289 0.21539472 -0.27490622 0.0032608893 0.1752865 0.10840958 0.00419673 -0.0067948173 -0.014316454 -0.024695406 -0.20470186 -0.23873636 0.15298977 -0.11257678 -0.27010956 -0.0034168528 -0.19978793 -0.17768906 -0.57980317 -0.23372231 -0.0056483932 0.063983686 0.37057057 -0.048653886 -0.50313371 -0.20260814 0.25017366 0.029856607 0.0042830505 -0.065842427 -0.069938302 0.47534022 -0.15334101 -0.085988469 0.14535575 0.068839327 -0.25904948 0.22882561 -0.22045353 -0.19070718 0.019897139 0.10737123 0.12131096 0.12346569 0.183671 -0.54957563 -0.6139366 0.095488377 -0.5786013 0.21149656 0.50265211 -0.44746834 -0.26678234 -0.42050791 -0.2612032 0.076372527 -0.27597067 0.19069518 0.14387225 0.13712038 0.071132965 -0.14675391 0.0024600145 0.36782742 -0.098149672 0.20176999 0.065153919 -0.035476811 0.20501734 -0.29228243 -0.058140721 0.16753352 0.5193674 0.024431609 0.014959714 -0.088731699 -0.036333285 0.188513 0.080044352 -0.33052874 0.32177567 -0.13461737 0.036407866 0.11217031 -0.16869475 -0.082233213 0.1137664 0.23213229 -0.32408592 0.20296717 -0.18431412 0.003394973 -0.072586782 -0.016131988 -0.0095847389 0.3534202 0.038479716
696 0.075322576 -0.060430542 -0.27533972 -0.16084889 -0.084640481 0.41295561 0.31451359 0.41215464 0.5655129 -0.17816739 -0.048307199 0.21620207 -0.44664627 -0.12944937 -0.22116947 0.013300507 -0.43339565 -0.15720598 -0.30769342 0.055199172 0.16791339 0.36775234 -0.25347155 -0.39586735 -0.23173782 0.051048063 0.11916589 0.11746719 0.22947554 -0.32545769 -0.14818449 0.38348439 -0.037580259 -0.13532634 0.15945263 0.054805521 0.23394322 0.31398177 0.065614693 0.26357403 -0.1086261 -0.037844688 -0.1456994 0.15980388 -0.31503376 -0.028106896 0.02783254 -0.3538124 -0.19450453 -0.37773547 -0.34858933 -0.58204234 0.096631609 0.027532633 0.26988152 -0.024930473 -0.043160692 0.20143029 0.25977427 0.35292649 -0.14821571 0.50897694 -0.033742636 0.0041494947 -0.047133598 -0.056102324 0.24648631 0.063020259 -0.13038869 -0.28551692 -0.50154233 0.15559645 -0.29844421 0.3533645 0.38763991 -0.27918917 0.056603186 -0.25081238 0.0378877 0.1287732 0.04990476 0.10495487 -0.13019827 0.53136444 -0.16399103 -0.1361469 0.29135779 -0.46327984 -0.47805464 -0.26566955 -0.088711657 0.11703308 0.49611872 0.19417173 0.11548959 0.099053845 0.17665634 -0.064464264 -0.16826218 0.0010001871 0.26216713 -0.35201588 0.17410864 0.39755258 0.010735372 -0.15614399 -0.070979446 -0.021631468 0.18112718 0.11645256 -0.14320733 0.14956079 -0.12041535 0.052366991 -0.013190282 0.077533029 -0.12590124 -0.45753112 0.044190519 -0.15287635 0.3718127 0.2151203 -0.39165813 0.37848905 0.13601671 -0.2350443 0.12711625 -0.76534963
1638 -0.089412384 0.16743609 -0.3581416 -0.22034413 0.037718937 0.020704612 -0.37178037 0.3505829 -0.44530636 0.11256964 0.021525135 0.33769754 -0.11590604 0.037443966 -0.21189708 0.023497423 -0.10681604 0.25509194 0.079901248 0.052696384 0.6096682 0.013893044 -0.23384792 0.017674781 0.28448042 0.54227501 0.17649423 0.35738909 -0.13887098 -0.2821472 -0.16543916 0.0090541989 -0.16737467 -0.026838945 -0.038013164 -0.39127779 0.15775155 -0.2625519 0.52647781 0.079429395 0.031828392 -0.15491015 0.019267453 -0.070682168 -0.44569647 -0.26360163 -0.23485772 -0.074258491 0.38396335 -0.53655028 -0.26262361 0.11413983 0.088533655 -0.1804363 -0.039574724 -0.019600818 0.0400737 -0.023326114 -0.14420065 0.02516227 -0.022748008 -0.20229624 -0.33616912 -0.21663113 -0.05941122 -0.03394141 0.19304317 -0.16894138 0.0013619282 0.41166785 0.247722 0.18020225 -0.32782018 0.3796362 -0.20246632 0.17838316 -0.0065032905 0.072076686 0.53982455 0.087472893 -0.31147823 0.26999855 -0.16098812 -0.27162012 -0.066135913 -0.075961508 0.41149092 -0.066470228 -0.39488983 -0.010396305 0.077581532 0.42302945 -0.16875356 0.083438702 -0.064968295 -0.17405635 -0.2057545 0.22662921 -0.43116343 -0.36270112 -0.11351832 -0.28434148 0.44277158 0.31666824 -0.14952587 -0.49390146 -0.11117137 0.029805012 0.4093993 -0.0063396301 -0.056908183 -0.14972761 0.22057614 0.17373423 0.46103406 -0.042999536 -0.045754544 -0.19897094 0.27352068 -0.11625754 0.31104112 -0.057087589 0.02441592 0.17337266 -0.14215329 -0.12202924 -0.21080516 0.10020372
2330 0.056547783 0.053542022 -0.35364038 -0.085317694 -0.27825317 -0.037089612 0.06238883 -0.016217971 -0.28078994 0.10894485 0.070429198 0.028307032 -0.10888962 -0.16753793 -0.10229436 0.23759635 0.53587872 0.35046488 0.16598745 0.55818248 -0.060405198 -0.22420175 -0.35814834 -0.23683389 0.26116535 0.19719289 -0.0076030865 0.20422643 -0.094475217 0.28576207 -0.10090215 -0.17412174 -0.31462768 -0.090644836 0.39322081 -0.4339025 0.015253521 -0.081373751 0.24594107 0.2783519 -0.098219447 -0.059423227 0.059702512 0.32630306 -0.15770611 -0.19427319 -0.49219421 -0.21228071 0.41601139 -0.56807733 -0.00035405607 -0.20879345 0.17689082 0.13465217 -0.15063721 -0.19200656 -0.051348761 -0.092719994 0.0068143001 -0.090428688 -0.15150183 -0.11330071 0.042093482 -0.034383062 -0.065612257 -0.12922366 0.36693484 -0.049407136 -0.088435531 0.30639011 0.40871704 -0.12468276 -0.28773427 0.29198036 -0.069293283 0.26053596 0.27178532 -0.40259844 -0.1859799 0.095017798 -0.28095621 0.066209078 -0.1321023 -0.14983903 -0.19930957 -0.073976725 0.56193465 0.06322813 -0.21354087 0.43169674 -0.53784198 0.11868536 0.094385087 0.15525468 -0.40797922 -0.52946562 -0.00074695289 0.65559655 -0.3411355 -0.054921862 -0.14141376 -0.21268043 0.48454604 0.041730087 -0.054364439 -0.044586699 0.022936808 0.028636791 0.61512804 -0.29058805 -0.082277909 -0.25861198 0.16678914 0.5615046 0.42659682 0.059539348 0.13642465 -0.3586438 0.034981459 -0.058336049 0.12655352 0.14466359 -0.071994521 0.31710538 -0.24815179 -0.068963073 -0.007447754 0.11932195
1645 0.072021991 0.18485725 -0.31601492 0.0056777741 -0.071118288 -0.11564998 -0.17795905 0.049904134 0.088384993 0.18178332 0.19685344 0.55385226 0.53214073 0.27887118 -0.60551363 -0.047996126 0.016583741 0.25296593 0.0069639059 0.26866025 0.20720069 -0.18506062 -0.31939188 -0.011439246 0.1390364 0.68522197 -0.0029432054 0.27613118 -0.14886801 -0.19792256 0.17675689 0.23271173 -0.073371001 -0.25127199 0.2622453 -0.034131475 0.056094255 -0.26759693 0.30277175 0.14461309 -0.23854208 0.14201252 -0.161392 0.083386898 -0.5279718 -0.16102368 -0.19822285 0.080711238 0.27337238 -0.49920401 0.062589787 -0.40140474 0.22084436 -0.33140528 -0.31009844 0.00388044 -0.46869484 -0.29954121 -0.55200666 0.34560487 -0.10448776 -0.30877924 -0.20869648 0.010312029 0.082139321 -0.035091475 0.053385399 -0.053039469 0.066738285 0.23762605 0.24794349 -0.013262492 -0.38891333 0.24678521 -0.037551451 0.26925486 -0.1804232 -0.29204753 -0.048138171 -0.31794363 0.036177631 0.021718822 -0.3166151 0.044302654 0.033420846 -0.2735582 0.39602286 -0.093394831 -0.22277872 0.043076742 -0.33310568 0.13881154 -0.056976493 0.083698958 0.12379566 -0.45323744 0.15438651 -0.13267289 -0.26285353 -0.14930691 0.0094530135 -0.24635997 0.17576586 0.3061485 -0.05079307 -0.23560485 -0.16931023 0.1005182 0.44199505 0.017333223 0.075539194 -0.18164377 0.64826173 0.26976609 0.37528551 -0.09508089 0.39477482 -0.49348322 0.26116911 -0.16148573 0.02136185 -0.29182762 -0.27816704 0.0009416425 -0.011465119 0.22979763 0.10738384 -0.18608427
1443 0.0057379049 0.47294077 -0.065829657 -0.23725085 0.16359089 -0.07600902 -0.0090376241 0.018242689 0.42409736 0.28000847 -0.12478928 -0.13054818 -0.32502353 -0.51090205 -0.35090452 -0.040455863 0.17605378 -0.054846268 0.15896462 0.049494568 0.27597758 0.081589453 0.26962402 -0.18229763 -0.47023544 0.13988484 -0.15969862 0.30699652 0.067389213 -0.00071440812 0.090926483 0.44021007 0.13287731 -0.42665178 -0.21554519 -0.066353478 -0.17467715 0.093100101 0.29895478 -0.1518586 0.096552491 -0.10324587 0.0044729267 0.12238884 -0.26954097 0.10490724 0.3904022 -0.23153052 0.16604184 -0.34115526 -0.075992011 -0.27034676 -0.088740982 -0.029370224 0.24598359 -0.7330001 -0.17886902 -0.17729254 -0.01005534 -0.037785318 -0.39214367 0.059481826 -0.17486696 0.19424911 0.2956104 -0.12500416 -0.04593733 -0.054773625 0.1182095 0.093430802 -0.44299158 0.16765037 -0.39842135 -0.15933806 0.15766941 -0.22261293 -0.37426439 -0.67429334 0.13666373 -0.49706572 -0.02923256 0.16686895 -0.4303866 -0.20623925 -0.21902679 0.26543182 0.15693891 -0.12689847 -0.18007253 -0.18373428 0.088923737 0.096050598 -0.074601874 -0.55031222 0.56824332 0.037385672 0.030515106 0.10187115 0.16588953 -0.13019517 -0.20974147 -0.13219222 0.22692102 0.39077446 -0.073166348 0.008435226 0.15936688 0.35739753 0.12795015 -0.10964964 -0.52366143 0.039340366 -0.32998145 -0.1967991 0.090124995 -0.28104308 -0.34849849 0.067771763 0.00060587592 -0.48351181 0.30799484 0.098118432 0.0087171793 0.46727663 0.018280242 -0.061354693 -0.01871819 -0.16400254
1476 0.15287453 0.45843378 -0.1342261 -0.3396351 -0.089925267 0.12187662 0.067807086 0.18644863 0.1610733 0.30556503 0.039854202 0.21502578 -0.31521615 -0.23516965 -0.39680499 -0.2755177 0.27984279 0.15232801 -0.09360303 0.30046982 0.23929806 0.060982618 0.3182112 -0.41865686 -0.57947415 0.042395502 -0.023268377 0.14671756 0.2366678 0.088377647 -0.61167794 0.37778491 0.17463163 -0.29952934 -0.019439466 -0.15691464 -0.2376817 -0.047510952 0.24478143 -0.031624895 0.039809264 0.034817219 -0.016246907 0.034013674 -0.12580818 0.11781821 0.20022097 -0.12470575 -0.021417839 -0.34046805 -0.28444189 -0.06681969 0.09242896 0.24721783 -0.12404812 -0.68642461 -0.18144566 -0.11844526 0.026601195 0.044296931 -0.30838668 -0.16974239 0.089331888 -0.10980469 0.25461051 -0.4007394 -0.27186608 -0.18507424 0.50533056 0.13973673 -0.19076495 0.10979351 -0.28655136 0.27527249 0.26057273 0.70104718 -0.39298296 -0.37311321 0.3555097 -0.19644122 0.13717134 -0.005825181 -0.63681722 0.0055428031 -0.07317587 0.098471917 -0.023865998 -0.16387452 -0.37231487 0.21381779 -0.2393795 0.27269533 -0.067413338 -0.26203471 0.45318103 0.030099632 0.142997 0.025213709 0.26002529 0.0543085 -0.28921238 0.044968069 0.27579001 0.28121027 0.25295216 0.056184355 -0.25962892 0.23471203 -0.17289042 -0.10122269 -0.53288311 0.17585038 0.22530606 -0.10728545 0.24110506 -0.18840493 -0.53211504 0.01577797 0.0029737405 -0.47349238 0.10599101 0.24551012 0.23674034 0.26035163 0.032667778 0.0070649022 0.28445673 0.075542733
68 0.072602242 0.25761223 -0.37148827 -0.091029547 -0.37120208 0.47045052 -0.11586048 -0.10080401 0.51506299 0.016941072 -0.33517411 0.41636923 0.088465609 -0.079182766 -0.23404294 -0.22300999 -0.027264887 -0.0017552987 0.14302629 -0.27956396 -0.080658153 -0.037425794 -0.16322283 -0.24700522 -0.78831929 0.26533338 -0.15600055 0.16571212 0.31004778 -0.153281 0.32064003 0.1532996 0.30624238 -0.10537481 0.090113707 0.036108792 -0.12358203 0.12304026 0.24158938 0.37110779 0.0041493094 0.26247472 -0.26790011 0.32905677 -0.14299472 0.040047869 0.16090544 -0.049332827 -0.26185215 -0.19350779 0.12171547 -0.06750156 -0.38416907 0.36948436 0.060562797 -0.10377504 0.19149716 0.42388001 -0.56094724 0.38217017 0.24857508 -0.04700724 0.41285279 0.14580603 0.47446755 -0.012226461 0.097847179 -0.026414128 0.02353254 0.029545017 -0.21016273 -0.29336792 -0.23486669 -0.35689092 -0.26152217 -0.19441533 -0.39007229 -0.37496412 0.41381446 -0.0039035114 -0.30137214 -0.200425 -0.51472282 -0.10969576 0.038655505 0.11278952 0.12998569 0.034844339 -0.02656142 0.027097873 0.059501477 0.05561972 -0.032974619 -0.32349825 -0.18291822 0.34000242 0.11245605 0.24376366 0.17651503 -0.17728807 -0.35964671 0.020444 0.14518422 0.23374586 0.098462589 -0.18322663 0.56713486 0.13919009 0.05592661 0.076887339 -0.3711071 0.026726805 -0.44695392 0.1389899 0.16701306 -0.43426338 -0.13723829 -0.099628873 -0.05140375 -0.10189113 0.57248819 -0.31927565 0.11316019 0.092480883 0.004718279 -0.20808806 0.019271109 -0.12932773
510 0.063653097 0.30621776 -0.02002272 -0.013778026 -0.27593005 0.066234469 0.11061472 0.38590708 0.12974361 0.26929447 -0.19491449 -0.36847872 -0.13426687 0.045317598 -0.22469032 0.41431856 -0.35132822 0.44642729 0.19105022 0.14154869 0.36284918 -0.13898566 0.12248425 -0.34451079 -0.26332334 0.20866027 0.029827163 -0.19620536 0.21685849 -0.23599124 -0.14680302 0.30392459 0.031606887 0.30132538 0.33664858 -0.040530052 -0.18678804 0.046419945 -0.026712563 -0.06367705 -0.14524226 -0.10909229 -0.25599471 0.29898772 -0.22515599 -0.4822152 -0.25152782 -0.052909032 -0.13656612 -0.093422338 -0.25608274 -0.097688705 0.012244836 0.053666774 0.25341573 -0.073288612 0.52835673 -0.33330113 -0.012794853 0.33628911 -0.33719099 -0.35879326 -0.12753496 0.29925719 0.17134015 -0.11879005 -0.052125461 -0.19330342 -0.12318575 -0.20302548 0.12087993 0.29460528 -0.1863841 0.29924488 -0.32420743 0.27090138 -0.20448709 -0.093573242 -0.13820472 -0.50689381 0.022952329 0.31062597 0.14971586 0.19206393 0.035719179 0.10327694 -0.0043085767 -0.13402729 0.64261222 -0.27194986 0.25434253 -0.6989122 0.28862277 0.18473847 -0.13380773 0.12405302 0.60191667 0.21413226 0.11751592 -0.27907044 0.22119837 -0.3837283 0.35211575 0.21339673 -0.24892727 -0.26006663 -0.16281345 0.27940997 0.41953617 -0.32178804 0.070998453 -0.055436388 0.22134878 0.27114731 0.16265805 -0.012301121 -0.28830859 -0.027767103 0.22968413 0.37965581 -0.069229543 -0.22718117 -0.073585466 0.098053493 -0.15793411 -0.033579964 0.30335739 0.16668814
1621 0.033010509 0.2690672 -0.20667224 -0.11167444 0.080918208 -0.066599302 -0.051442716 -0.066800855 -0.31507882 0.37538102 0.23943575 0.28944433 0.21270448 0.20560147 0.047781523 -0.24780369 0.028105013 -0.051344477 0.2100177 0.22192389 0.17654492 0.20568174 -0.36003792 0.2162724 0.070362695 0.66568297 0.093341589 0.52538246 0.085700691 0.13870534 0.12835476 0.15220286 0.1231968 -0.31778148 0.10444006 -0.15403105 0.15064511 -0.29261315 0.28338203 0.28081411 0.038272731 0.21641508 -0.071180984 -0.21336366 -0.37607974 -0.24938877 -0.2937279 0.322395 0.17268421 -0.19025883 -0.036431137 0.13819976 0.199242 -0.017771972 -0.17227739 0.075631753 -0.1574427 -0.11668494 -0.48334128 -0.074724391 0.033286888 -0.4092913 -0.33352733 -0.14887334 -0.071959071 0.10105654 0.17222516 -0.21312471 -0.075640664 0.27679679 -0.045277856 0.18947476 -0.1330653 0.20880902 -0.091960177 0.0079253279 -0.2443582 -0.3325111 0.13387747 -0.056603622 -0.40421677 0.052303169 -0.095018595 -0.25511897 -0.23980375 -0.34977758 0.24540302 0.00063549535 -0.11658619 -0.14478776 -0.10808427 0.49481827 0.3553521 -0.022667974 0.15292445 -0.15552317 -0.092347808 0.17802685 -0.10639375 -0.39575297 0.029320942 -0.024330875 0.18196288 0.38224137 0.26341277 -0.30319965 -0.33848199 0.13655312 0.50407708 -0.28426149 -0.32384604 0.048707921 0.4538362 0.6537956 0.59959722 -0.22353312 -0.091841459 -0.53582853 0.20805536 -0.13723356 0.1686988 0.19322418 -0.075244851 0.016335662 -0.39087903 0.087796055 -0.29118943 -0.10651505
1478 0.017098231 0.39337933 -0.22651878 -0.33143976 0.071318537 0.023574125 0.25031334 0.22899137 0.32736498 0.3442148 0.1815794 0.35376602 -0.11242512 -0.3769998 -0.20491171 -0.17731318 0.49976 -0.19115624 0.24842067 -0.020022979 0.34976187 0.12808335 0.39249349 -0.45307937 -0.2956512 -0.077182204 0.025958546 0.063585967 0.23065825 -0.22057965 0.27012786 0.38848013 0.10429341 -0.42950466 -0.22509903 -0.092387162 0.078760423 0.26909801 0.45235306 -0.13687848 0.049379457 0.3555696 -0.40286228 0.17667836 -0.059970275 0.049292307 0.031662934 -0.46422485 -0.040739145 -0.3172549 -0.019365968 -0.25699446 0.025315545 -0.063310899 0.05395988 -0.53568459 -0.089408167 -0.0035566036 -0.17566431 -0.018251244 -0.28443778 -0.067261115 0.21205013 0.13090301 0.25802907 0.10409797 0.028941084 0.12180898 0.26754165 -0.015700307 -0.30761784 0.17732823 -0.11089899 0.0093564326 0.19411638 0.1369544 -0.31972909 -0.84028244 0.078992583 -0.28153831 -0.027280509 0.03222809 -0.35890087 -0.023550391 -0.12445147 0.049814973 -0.13552125 -0.40119585 -0.36797053 0.10034841 0.09230455 0.23815359 -0.042946201 -0.68052405 0.22688417 0.16959308 0.17064352 -0.13774393 0.027065091 -0.2901552 -0.36737657 0.016678737 0.40738368 0.3697724 -0.014140972 0.075778671 -0.16334106 -0.064411797 0.033614669 -0.2174426 -0.57302421 0.34232894 -0.027203381 -0.12630206 0.050670624 -0.053159453 -0.43554616 0.029863792 0.29521304 -0.46211079 -0.19550253 0.1125582 -0.029180484 0.15552559 0.20817083 -0.32575911 -0.055550545 0.0043004756
1722 -0.19393453 0.061437931 0.19949855 0.055294216 -0.27572227 -0.045213196 -0.016422639 0.32893857 0.038853966 -0.25659943 0.21387364 -0.28034896 -0.51088732 -0.23907094 -0.25652105 -0.26820764 -0.20894636 -0.18206994 0.040536441 -0.067376055 -0.084168196 0.067501299 0.062452637 -0.32482997 0.024950378 -0.076307528 -0.088590451 0.31255394 0.53913212 0.0058274064 -0.091440834 0.37384304 0.28941011 0.36114952 0.033702638 0.10187729 -0.31720486 -0.12358055 0.14935555 0.25271478 0.050691064 0.31303996 -0.3789385 0.2068736 0.070395738 -0.36140534 -0.11620253 -0.17591935 -0.20975897 -0.08904469 -0.022366768 -0.18681847 0.11935801 -0.40881318 -0.087946787 0.053964429 0.16571876 -0.29253319 -0.30942199 -0.23203197 -0.013657307 -0.21074392 0.29529837 0.074810266 0.71106899 -0.054496586 0.29323331 0.054635279 -0.081013501 -0.065632015 -0.12713197 -0.22702107 0.039188646 0.26617825 -0.3080492 0.17670938 -0.69849855 -0.49148777 -0.11040318 -0.17127311 -0.49358338 0.16738357 0.0025094091 -0.37633413 -0.30938938 -0.089442678 0.046299919 -0.25042117 0.49695605 -0.16331789 -0.42504776 -0.035260875 0.28225809 0.60173506 -0.54955626 -0.31137502 0.061633132 0.38572469 0.026446339 0.42621419 -0.15239871 -0.1856709 0.15834627 0.071772099 -0.055620983 -0.67355019 0.2809183 -0.079505563 0.16925305 -0.14988069 0.19330527 -0.048034489 0.25446075 0.20323381 -0.21197142 0.33408615 -0.1323366 0.14169087 -0.29621589 0.11816933 0.26447204 -0.41827589 -0.026026459 0.018825946 0.20295949 0.16108042 -0.25269181 0.54752529
2159 0.11353961 -0.099845827 0.30011576 -0.4077602 0.41644272 -0.0091797793 0.10162347 0.43590248 0.18172237 -0.26173103 -0.15983011 -0.019669391 -0.056817573 0.23001614 -0.38674858 -0.43597254 -0.11815564 0.18702048 0.18955706 -0.29772893 -0.267845 0.46207741 -0.33576044 0.11679013 -0.18668987 0.52788651 0.35874221 -0.074408345 0.49393275 0.029400548 -0.50726181 -0.22294433 -0.31674454 0.20184927 -0.39720133 -0.20900536 0.41232812 -0.38138562 0.29807585 -0.22143796 -0.025499271 -0.11048901 -0.15815307 0.27921161 -0.24365637 -0.4955301 -0.12515743 -0.18159178 -0.4966771 -0.4432582 0.095798478 -0.14779639 -0.33062688 0.18340522 0.10558405 -0.00237645 -0.19006723 0.4465442 -0.020797975 0.29063874 -0.088154651 -0.53675669 -0.35458568 0.019278277 0.23977026 0.15317191 0.14570758 -0.041590765 0.2572391 0.45333305 -0.033832148 -0.43971205 -0.090845741 0.064284451 0.72386891 0.062577322 0.00051170256 -0.071480215 -0.13617581 -0.12886746 0.16144201 0.47230455 -0.19707297 -0.0052951025 0.087861359 0.024116302 0.18058893 0.16371281 -0.046079632 -0.048772745 -0.5378328 0.03105028 0.016143361 -0.05959468 -0.57867908 -0.11141364 0.15529309 0.20368709 -0.20014608 -0.040246859 0.20373602 0.034668654 0.15496808 0.19184166 -0.35967168 -0.31846684 0.09600123 -0.010060098 -0.071111843 -0.18766069 -0.12929033 -0.029174272 0.051516909 0.64911103 0.30310225 -0.40401202 -0.0963853 -0.094788358 0.059863236 -0.43889642 0.049183939 0.19322282 -0.2185601 0.18156488 -0.081131421 0.13248926 0.11445966 -0.061108593
1330 0.17358093 0.4615128 -0.1975029 -0.52418625 -0.3605313 0.37669733 0.41012138 0.20735547 -0.11499096 0.20839496 0.13505797 -0.32892299 0.18301776 -0.05880671 0.047144182 -0.29648805 -0.46032667 0.31318218 0.27058968 0.21707159 0.092532881 -0.62593669 0.027809387 0.21567145 -0.11198004 0.065406889 0.045991883 -0.033358719 0.21305668 -0.053220384 0.25302747 0.37007877 0.020765003 0.15175103 -0.25322139 -0.13837102 -0.3710545 0.26240966 0.14269508 -0.0050948146 0.040013772 0.31693348 -0.35424733 -0.24599625 -0.4763684 -0.61728638 0.41908652 -0.17283554 -0.30516213 -0.227292 -0.47527534 0.057399463 -0.099689186 -0.20688497 0.074330039 0.15512173 0.51704866 -0.47627184 0.16337879 -0.25587445 -0.084896877 -0.15772091 -0.11920138 0.31074205 0.13972402 0.10853626 0.42878395 -0.29719257 0.14970304 0.021021934 -0.043842763 -0.23206708 -0.20748106 -0.0081208954 -0.34923485 -0.08386115 0.17860197 0.028834851 -0.099594951 -0.25949571 -0.036350846 0.06239374 -0.29661554 -0.0031925051 -0.066500142 -0.0012627684 -0.0044196011 -0.014436028 0.28461006 0.2270899 -0.36737803 -0.33528364 -0.01090574 -0.0020892776 -0.35636964 0.11179565 -0.02673576 0.093082279 -0.30643627 -0.29686221 -0.17097303 -0.38312098 0.22574095 -0.30690807 -0.45960405 -0.27937216 0.11226407 0.12917262 0.11602201 -0.17898336 0.10808028 -0.035605855 0.044122074 0.42916593 0.4345527 -0.25402829 -0.24709871 -0.10099848 -0.27894941 -0.35178533 -0.073763683 -0.26233774 -0.16586229 0.072963446 0.19202223 -0.61184633 -0.001625194 0.12346245
1446 0.17838067 0.66030288 -0.044331677 -0.23367092 0.12713145 0.0449939 0.24135689 -0.086457655 0.36257377 0.22206779 0.1038854 0.10997797 -0.22423773 -0.34813488 -0.41907498 -0.055234175 0.21582083 0.047489401 0.10964721 -0.078155451 0.2619043 -0.032173257 0.34961221 -0.46440253 -0.85300583 0.014880491 0.14487332 0.22441545 0.20266247 -0.085438684 0.0092246924 0.25732386 0.0813412 -0.4632135 0.022063199 0.0063099763 0.038815428 0.014761476 0.23107971 0.13965113 0.00049074134 0.25145751 -0.15216683 0.03016779 -0.27054355 0.017233875 0.26350951 -0.2435469 0.15621404 -0.30947024 -0.16328146 -0.10486683 -0.12080659 0.016959149 -0.042415947 -0.68241704 -0.13127948 -0.13371174 0.0046053482 0.14253335 -0.1936588 -0.14766301 0.24389291 0.14802358 0.26829648 -0.07290753 0.0603415 -0.32336876 0.083230369 -0.092224084 -0.46503887 -0.1971215 -0.024015734 0.28149572 0.09387242 0.15866132 -0.62483954 -0.52011228 0.19497494 -0.38091922 0.12311972 0.040241849 -0.68606836 0.014537027 -0.45122653 -0.071679957 -0.037720308 -0.32029286 -0.047735501 0.081954949 0.19633618 0.37565702 -0.31286332 -0.33582413 0.36759356 0.29219398 0.31430894 0.11014015 -0.15403727 -0.070593901 -0.10106477 -0.046108406 0.33021092 0.18570916 -0.04803459 0.084358804 -0.26800376 -0.01821061 0.039273046 -0.078811772 -0.56046546 0.098152734 -0.026942894 -0.19334047 0.11320935 0.0082796486 -0.1548209 0.052657194 0.21188657 -0.41516581 0.095419772 0.045468986 0.063908264 0.18380126 0.11722156 -0.21575628 0.33391699 -0.21007183
2197 -0.22539276 0.19342664 -0.14861442 -0.15694819 -0.14396834 0.036268298 0.19956164 0.70180434 -0.15134718 0.04371047 -0.3515695 0.20804995 -0.24259055 -0.094842814 -0.023546752 -0.34972844 0.12690984 0.24204293 -0.20488116 0.21524468 -0.038154855 0.045831859 -0.15523571 0.21910958 -0.22658972 0.18872307 0.11757354 -0.1459341 -0.12345956 -0.22048011 -0.23384134 -0.30328146 -0.19015911 -0.010893512 0.1904891 0.27542862 -0.084984757 -0.10452878 0.20783576 0.089023091 0.2063401 -0.19922115 -0.23516798 0.25557718 -0.028593741 -0.37203673 -0.14377475 -0.12582293 -0.3701947 -0.16196692 -0.29803944 0.39012888 0.54900378 0.025648991 0.57578939 -0.31746021 -0.24408804 -0.30347311 -0.053155288 0.26265758 -0.28270027 -0.74159014 0.16647349 0.28285155 0.2145673 -0.39063641 0.20350534 0.24413113 0.15070938 -0.09527269 -0.20545687 -0.12181393 0.03469827 0.149551 -0.41758808 -0.17981982 -0.36234942 0.08924713 0.17176595 0.31708413 -0.56004769 0.10258964 -0.21129471 0.11700205 0.11814815 -0.11179934 -0.12468144 0.031715445 0.4947817 -0.06335146 -0.31216905 -0.21849746 0.059673902 0.21690929 -0.034743879 -0.25927711 -0.19014078 0.13056169 -0.26971337 0.032520879 0.19597478 -0.40630862 -0.027574327 0.40303186 -0.024403173 -0.25204784 -0.35433149 -0.046824921 0.74162048 -0.056372028 -0.27485448 -0.24762855 -0.44925633 0.32166278 0.26896986 -0.33560011 -0.066354431 -0.16952047 -0.18925735 -0.42508635 -0.13149101 -0.13129352 -0.43142191 0.095242351 -0.41721496 0.095873408 0.1208722 0.15541589
1430 0.11321323 0.51876837 -0.050782319 -0.18833926 0.16233997 0.01760124 0.045582157 0.21563867 0.12741019 0.14652222 -0.033190008 -0.044636328 -0.37584168 -0.39252099 -0.26227963 -0.51243484 0.36798072 -0.24006946 0.064467773 -0.13335405 0.02470842 0.089705467 0.42641336 -0.41965124 -0.85847819 0.036506638 0.030811135 0.15146416 0.17448094 0.0010383842 0.045003057 0.32608151 0.13442457 -0.5977298 -0.075704508 -0.1089632 -0.011154749 -0.07659626 0.023514401 0.26064119 -0.025527621 0.17909086 -0.14446127 0.075465649 0.0071576769 -0.020899657 -0.034973323 -0.55154735 0.026246505 -0.49791709 0.031259105 -0.032231066 0.18034415 0.21296853 -0.13233235 -0.48648754 0.066704094 -0.18954879 -0.11210183 0.0061526261 -0.15971297 -0.22253416 0.33631402 -0.057241432 0.19664721 -0.036879554 0.020632284 -0.46316627 0.60804474 -0.14958182 -0.56756324 0.20246737 -0.17164254 0.040115587 0.15011217 0.12248115 -0.30615592 -0.6907841 0.35887825 -0.19671474 0.38123879 0.37334669 -0.52467817 0.036297888 -0.3587448 -0.16231184 0.22594267 -0.52236974 0.071639925 0.25130799 0.1140776 0.14402938 -0.085001484 -0.33000797 0.29055554 0.11977882 0.21920368 -0.1776934 -0.2700977 -0.15056002 -0.27107474 -0.30874479 0.4821102 0.39778683 -0.20523396 0.022581538 -0.14774147 0.4102416 0.064018749 -0.036109734 -0.39762837 0.41847053 -0.012886286 -0.011139177 0.18247691 -0.25300512 -0.19535865 -0.021759484 0.088659935 -0.27163583 0.16722539 -0.035711881 0.079136848 0.11985365 0.1312125 -0.31807563 0.14974239 -0.062663808
568 0.162983 0.36339492 -0.11963781 -0.33273008 -0.07848271 0.065118626 0.4749479 0.38344881 -0.12578067 -0.17597678 0.40330434 0.15418483 -0.43457809 -0.21614295 -0.53619248 -0.11559881 0.52687728 -0.29602736 -0.029071053 0.55454534 0.50536394 -0.065250553 -0.20005195 0.10356995 -0.594257 0.2037386 0.51829278 -0.1425259 -0.12879422 -0.65764517 0.18184149 -0.071866877 0.21504171 0.15630212 0.11108623 -0.50369787 -0.25697604 0.25976592 -0.24623826 0.023525964 0.032846052 0.49240839 -0.2507014 0.44613239 -0.20748952 0.024177767 -0.01512775 0.0070969961 -0.090391941 0.17000706 0.13907772 0.0056590014 -0.13828337 -0.47704235 0.28507549 -0.48422295 0.10356408 0.10331369 -0.52161413 -0.21837702 -0.14624043 -0.4864749 0.0099487966 -0.11138418 -0.036949445 -0.16537128 0.079647057 -0.41732404 -0.040514804 0.40419951 -0.23807107 -0.065449268 -0.4215934 0.082283936 0.062535219 0.023686346 -0.31105474 0.063931137 -0.38852078 -0.20602114 -0.40602347 -0.10640382 -0.14668389 -0.16641127 -0.26643145 -0.031569898 0.28962687 -0.33786756 0.68400633 -0.33315003 -0.013450623 0.13190602 0.31456017 -0.45481706 0.19274342 0.20429495 0.086837903 0.037427105 -0.024739277 -0.16459277 -0.028041001 0.40912637 0.1724913 0.0014300094 0.0047138482 -0.46191141 -0.19088608 0.15904641 0.23354056 -0.51022375 -0.62495327 0.55680203 -0.31006894 0.38284862 -0.13732049 -0.12272787 -0.22824259 -0.35124043 0.13549717 -0.4905366 -0.13386554 0.17185175 -0.31867132 -0.0013434412 0.16244024 0.092261568 0.023221428 0.35742524
399 0.45747569 -0.025109179 0.026226658 0.095609352 0.25338444 -0.11203816 0.2051184 0.40529111 -0.11167333 0.093853928 -0.18378374 0.49528173 -0.17019729 -0.16925019 -0.061599579 -0.24415882 0.078282632 0.32002592 0.10495003 -0.086289167 0.10319286 0.087737992 -0.1769845 -0.51108623 0.22349402 -0.16081642 -0.034406859 0.059545491 0.23282652 -0.17514546 -0.10217509 -0.17662688 -0.147862 -0.055015363 0.36518499 -0.51068878 0.56991327 -0.10988757 -0.14843282 0.009968427 0.25648567 0.17598805 0.2159123 0.21242319 -0.27830392 -0.13832039 0.48364955 0.10155088 -0.24331729 -0.068905525 0.24967924 0.25583744 -0.15206523 -0.033033364 0.23895173 -0.25695145 -0.091635525 0.1287213 0.22697054 -0.14901859 0.053509776 -0.29444113 0.31332999 0.27007449 0.49434233 -0.29582518 -0.056608342 -0.31730619 -0.05729828 0.56343842 -0.4047592 -0.15213935 0.11961783 0.4615899 -0.026631899 0.095616996 -0.12789471 -0.18523537 0.079424664 -0.073397323 0.29376695 -0.0025506075 0.20841908 -0.014979407 -0.25972804 -0.2601788 0.18183438 -0.21680853 0.16173133 -0.28264603 -0.10966475 0.17869656 -0.1445372 0.47478831 -0.18464991 -0.35555136 -0.19182733 0.5697819 0.10409401 -0.09343712 0.37963814 -0.73055845 -0.16026226 0.17847352 -0.12236892 -0.46170327 0.083744839 0.22846337 0.093065314 0.26738879 -0.13756147 -0.54747146 -0.46848312 0.36792892 0.23006859 -0.30400375 -0.2046508 0.085083947 0.29161432 -0.49190715 0.0089591313 0.15706171 0.004620471 0.09792316 0.085010961 -0.15738246 -0.12291098 -0.037318498
1460 0.04111601 0.48504689 -0.023101507 -0.15476485 0.17287657 0.0688923 0.17278224 0.15882103 0.19136839 0.19152655 0.055657476 0.050977577 -0.31969953 -0.36985123 -0.43707031 -0.080798596 0.53774989 0.12811352 0.12025014 0.1148423 0.24699976 0.035076234 0.37149891 -0.39632228 -0.68141687 0.17077811 0.11551156 0.046169363 0.34662506 -0.075043529 0.14624427 0.37651205 0.16559009 -0.48487237 -0.068710223 0.071081318 -0.10357422 0.21618007 0.12544721 0.046605218 0.031027807 0.25173122 -0.26422492 0.11370215 -0.038924631 -0.016494544 0.23442307 -0.42482695 0.076532342 -0.20621285 -0.050474033 -0.13375576 -0.007042245 -0.048522715 0.15301815 -0.50735164 -0.037515461 -0.012505069 0.097832926 0.0013109321 -0.4382636 -0.022941954 0.12724648 0.049394652 0.098641284 -0.069119282 -0.036685884 -0.14185557 0.14656943 -0.045983665 -0.49586734 0.15815239 -0.084886536 0.0068015475 0.29135594 0.18049735 -0.38129437 -0.61703426 0.12102329 -0.42497489 -0.02993321 0.047910333 -0.61647177 -0.12036812 -0.27982396 -0.0514751 0.020810522 -0.42766488 -0.050180946 0.069765717 0.074583963 0.34593579 -0.28826752 -0.47341087 0.31410027 0.10251402 0.13097362 -0.083569258 -0.17677082 -0.21669176 -0.1997328 -0.027011953 0.53292876 0.16440983 -0.053385574 -0.025773486 -0.19968791 0.070628256 0.011213496 -0.24545513 -0.57569015 0.38076484 -0.01574365 -0.030529935 -0.0045375978 -0.032555636 -0.35855988 -0.18596689 0.15209872 -0.49845624 -0.21166496 0.11033499 0.043834791 0.15463118 0.044568449 -0.24777864 0.19599466 -0.0039169644
1444 0.37423089 0.4436388 -0.0066616465 -0.39499938 0.067466661 -0.018271033 0.14692758 0.14010447 0.34750617 0.22030297 0.060828786 0.21880247 -0.32137802 -0.37889227 -0.41361919 -0.33499688 0.38755092 0.096644416 0.18444122 -0.1224371 0.34548223 0.10229743 0.3331885 -0.28121758 -0.55128157 -0.19463322 -0.34613508 0.069383085 0.13744248 0.073491879 -0.029678069 0.25740147 0.099795282 -0.33407965 -0.34455734 -0.10818867 -0.039896283 0.20163073 0.42925325 0.10165036 0.057349056 -0.084373824 -0.374163 0.14172447 -0.0032312998 0.011771129 0.38325185 -0.48532072 0.0061703012 -0.45668522 0.032835778 -0.24249756 0.0089407833 0.27332279 0.05278974 -0.37662244 -0.22237593 -0.066910043 -0.077324055 0.22658816 -0.27806291 -0.22483382 -0.024403434 0.050313428 0.32674554 -0.0072830031 -0.15827729 -0.14166868 0.40203869 0.043189246 -0.56514782 -0.084816799 -0.1149107 -0.071493782 0.020117711 0.12379026 -0.3865549 -0.5846048 0.18629375 -0.38909963 0.1200165 0.1338764 -0.37666208 -0.1230766 -0.14174505 -0.14433476 0.075435564 -0.27005708 -0.059103087 0.034909453 -0.019542025 0.31311205 -0.26373696 -0.52920699 0.44466534 -0.10460451 0.13021567 -0.030814482 -0.18965057 -0.15861849 -0.28413394 -0.1597742 0.46946773 0.17214386 -0.208517 0.26729459 0.031574022 -0.016632304 0.22061154 -0.021709569 -0.75755912 0.16437294 -0.17876217 -0.21855797 0.11186428 -0.09567254 -0.039966874 -0.099657759 -0.052794516 -0.32211015 0.074897259 0.032654542 -0.052907389 0.29062185 0.060811318 -0.32991564 0.067262039 -0.39359781
1646 -0.012033153 0.22293139 0.036453586 -0.37140876 0.24334073 -0.287599 -0.17040963 -0.050396957 -0.38856283 -0.037521325 -0.010952499 0.60857111 0.21786906 0.24851722 -0.14289992 -0.027679835 -0.026083402 0.31707796 0.11316551 -0.2011043 0.24977912 -0.23061621 -0.54179525 0.03263494 0.21268798 0.60869098 0.13479368 0.17947246 -0.14042754 -0.10463316 -0.089338139 0.038509239 0.21361971 0.062212378 0.22877008 -0.090457216 0.27203724 -0.24728337 0.48814821 0.36603063 -0.095530324 0.62758511 -0.28598762 -0.32052466 -0.44419307 -0.020165503 -0.576307 -0.2049356 -0.03384364 -0.25370386 -0.078120857 -0.33666354 0.24217743 -0.0031634804 -0.11356199 -0.10577579 0.038991932 -0.067243524 -0.37433326 0.15191193 0.059190635 -0.11133006 -0.12845737 0.018388465 -0.20110764 -0.042615853 0.26680976 0.12652232 -0.14783952 0.0084424401 0.25717357 0.30367157 -0.43044984 0.59699321 -0.19330332 -0.17750722 0.031717889 -0.29622671 0.27309576 -0.27962407 -0.49756896 0.062017292 -0.30204651 -0.29318807 -0.10599262 -0.25520897 0.35823992 0.20985033 -0.32223588 0.01466473 -0.32346857 0.40638581 0.049319968 0.16023043 0.026060404 -0.43710709 0.032874204 0.047964301 -0.25868943 -0.40284789 0.011741544 0.22647505 0.25427935 0.22939403 -0.13338226 -0.47028214 -0.36573118 0.024518881 0.3289693 -0.41611642 -0.28441966 -0.011526708 0.13603377 0.12733154 0.61658061 -0.24870303 0.19654982 -0.40684411 0.12171777 -0.26420471 -0.047230937 0.057779588 0.039094489 0.17835118 0.057734814 -0.12488207 -0.050837498 -0.36463627
1573 0.26366878 0.24911731 0.033607718 0.19474407 0.20496771 0.16882186 0.029990403 -0.165843 -0.13091651 -0.26524314 0.1490923 -0.1877685 -0.023076864 -0.33845699 -0.12993923 -0.020880675 0.064463757 0.63061094 0.19389108 0.069348283 0.38477862 -0.14331441 0.38395903 -0.19339111 -0.34725252 0.48953074 0.015428759 0.1848888 0.34148812 -0.5252797 0.33705661 0.44820794 0.11196159 0.2488914 -0.035023343 0.1384059 0.16771628 0.067775905 -0.16617924 0.18313767 0.14416522 0.14521563 -0.39143667 -0.088970259 -0.066807739 -0.30331111 0.065768115 -0.026645128 0.20453113 0.062924735 0.4175556 -0.19533597 0.026169796 -0.40650439 0.49755856 -0.49916402 0.12726176 0.052223489 0.041262064 0.4208 -0.22037674 -0.039484411 0.32448187 0.16938725 -0.16272098 0.1354119 0.15992643 0.46040937 0.18367726 -0.077670366 -0.23068464 0.23425853 0.095189884 0.051411703 0.13809277 0.0017004869 -0.11982878 -0.57088035 0.0053066891 -0.36333159 -0.05585371 -0.35590249 -0.09320993 -0.18986911 -0.31534922 -0.31513882 -0.030897154 -0.45048821 -0.57619214 -0.084316991 -0.25236252 0.32255194 0.00086645188 0.036969706 0.25312918 0.01421323 -0.068860114 -0.19062935 0.067192286 -0.05429209 0.11300559 -0.15585069 -0.019452261 0.55159163 -0.10681165 0.040093139 0.0029567743 0.14931962 -0.27831021 -0.20744167 -0.20594615 0.22499739 0.45820206 0.22619611 0.29922551 -0.23778135 -0.29546434 -0.16292632 -0.14759074 -0.73383117 0.12138806 0.3198013 0.050461836 0.26496571 0.45399824 -0.39406055 0.28124499 -0.032016631
1417 0.00021779518 0.48311561 0.023413096 -0.20408726 0.21889898 0.079578757 0.052259833 0.090534985 0.57696033 0.023125464 -0.023451326 0.12591061 -0.13564539 -0.40425533 -0.15258975 -0.0049883537 0.44127107 0.1567051 0.35109279 -0.1526022 0.3329711 -0.040305078 0.25979745 -0.57779515 -0.61111671 0.22122748 -0.24767266 0.33162636 0.3704651 0.01738747 0.015282386 0.48449695 0.15780072 -0.45345262 0.017184356 -0.032252185 -0.031102097 0.16487856 0.25004208 0.03632202 0.03408071 0.077404775 -0.2712405 0.10203121 -0.28758803 0.12834306 0.19958949 -0.35102841 0.083465204 -0.27351752 -0.14327651 -0.17685373 -0.0374217 0.17771973 -0.080683798 -0.56466037 -0.21494752 -0.22542582 -0.067790113 0.034528654 -0.42128247 -0.22461602 0.10271373 -0.033997599 0.2554808 -0.095924035 0.054566756 -0.065325417 0.07703761 0.17462789 -0.52176857 -0.026435494 -0.17171417 0.040227916 0.087571763 0.22625421 -0.45774192 -0.67663318 0.29863575 -0.41970184 0.018482147 0.25519061 -0.33275506 -0.0064468435 -0.35488927 -0.11910581 0.15980986 -0.058485337 -0.02780501 0.20559116 0.1958431 0.075388514 -0.30150551 -0.66783535 0.33723909 0.27975792 0.26118776 -0.12132035 -0.076884963 -0.17911974 -0.1886318 -0.15738702 0.33893055 -0.095123462 -0.051903695 0.069369487 -0.065103322 0.19533926 0.043351538 -0.20837305 -0.61980402 0.32348999 -0.034907814 -0.28040314 0.073629923 -0.25334895 -0.22762044 -0.23527791 0.05701831 -0.41721076 0.15879411 0.016645256 0.067162782 0.11210113 -0.068796575 -0.22198018 0.26996177 -0.23177414
1423 0.16620325 0.40043905 0.16494688 -0.10399403 -0.056032948 0.21439256 0.15987258 0.15875386 0.38260958 0.11566901 0.0043492322 0.19327824 -0.14182176 -0.34645 -0.23948111 0.05230527 0.57497382 0.152143 0.11857539 0.015607382 0.25682643 0.18358387 0.34559286 -0.2339181 -0.57167411 -0.0051852176 -0.073668905 0.10523189 0.28512543 -0.060225043 0.10484958 0.40373516 0.058685876 -0.50472414 -0.20194395 0.059524499 0.1983176 0.078429542 0.26961616 -0.037762813 0.087648824 0.12340679 -0.3587133 0.16104594 -0.48860028 0.082293019 0.15743811 -0.37293214 0.16024713 -0.24838309 -0.064379543 -0.15162428 0.098325096 0.2079248 0.12797053 -0.45034024 0.020962993 -0.15684666 -0.075261526 0.14118227 -0.4269726 -0.27318859 -0.032068387 0.23795854 -0.012520153 -0.15404363 -0.11695944 -0.069771692 0.4086417 -0.034651782 -0.50842828 0.088461295 -0.068130858 0.22961345 0.1095342 0.096346878 -0.45951778 -0.71189278 0.24011062 -0.48397893 0.046493083 0.13104132 -0.60055697 -0.058195882 -0.29118714 -0.11518219 0.0084236907 -0.18539238 0.0094298329 -0.02075655 0.088440485 0.256208 -0.14158699 -0.48683199 0.45260882 -0.031540167 0.27381888 -0.10994323 0.011161798 -0.054261733 0.015794663 -0.21456063 0.50074196 -0.019232998 0.075229988 0.060466655 -0.20388125 0.11581615 -0.031055268 -0.24366048 -0.41229349 0.32983711 -0.037991147 0.12656555 -0.0016580579 -0.14752465 -0.15595503 0.063021578 0.016930524 -0.2994675 -0.02414537 0.31372312 0.086327061 0.28581858 0.22842374 -0.1138012 0.17514794 -0.27777007
464 0.41177773 -0.34990248 -0.16933666 -0.4312543 0.23306626 0.57922053 -0.18741357 -0.17131582 0.068823263 -0.25357604 -0.090994678 0.26396006 -0.501679 -0.25471407 0.22694966 -0.13874839 0.13500406 -0.17048265 0.18227588 0.30675805 0.35585082 0.0081042489 -0.25093079 -0.062777922 0.18489364 0.16041027 0.049519487 0.28907531 0.05690277 -0.47157973 -0.30444619 0.20368353 0.03356383 -0.0037260752 0.43402523 0.12625213 -0.15833804 -0.035486266 0.23806645 -0.21479994 -0.093117245 0.4905166 -0.28858173 -0.039642792 0.12284265 -0.17169198 -0.052129034 0.24353011 -0.2457225 0.17319009 0.23935741 0.14675766 0.1303096 0.064989671 -0.11427363 -0.13371071 -0.1436106 0.016426099 0.15282983 -0.06863457 -0.090095982 -0.14305221 -0.085031763 0.16168846 0.71216941 0.21684705 -0.012586436 -0.040572919 -0.3543326 -0.091892757 -0.47507977 0.44443476 -0.11040317 -0.060036514 -0.19248661 0.08088576 -0.0069733383 -0.20378029 0.048436631 -0.073143542 -0.24565946 -0.34355643 -0.26120111 -0.23293866 -0.038765833 -0.3298696 -0.14042298 -0.24190748 0.29353032 0.0034776917 -0.091838084 -0.20476276 0.22976485 0.03774894 -0.078513794 -0.27904561 0.1911047 0.12564568 -0.16810223 0.11733856 0.32832715 -0.40127251 0.34250221 -0.046653993 -0.44223586 -0.39238274 -0.18112291 -0.38289905 0.25973526 -0.28968132 -0.13183823 -0.34647354 0.22774111 0.11619182 0.29200998 -0.73658019 -0.17216223 -0.0031194095 -0.015169503 0.37016159 -0.2885454 -0.17356093 -0.15852427 0.31627578 0.21583143 -0.34126502 0.14646699 -0.11125314
