2405 128
489 0.075720452 -0.21386844 0.16164292 0.26430818 0.096670836 -0.091984384 0.2986798 -0.35036227 -0.17336339 0.27645138 0.13894475 0.080535196 -0.09243463 -0.24058087 -0.043447819 0.055299114 0.11646254 0.093557172 -0.10845993 -0.15558644 -0.0572851 0.024777308 0.34414363 0.16455443 0.00015075591 0.20032629 -0.16957733 -0.089859359 -0.1786985 0.2116414 -0.25326774 0.24165531 -0.15376155 0.17395569 0.14790125 0.095359005 0.11178429 -0.051660679 -0.040825285 -0.022894459 0.053048585 0.014306943 -0.0029654962 0.037263084 0.033686221 -0.22808085 0.083888784 0.087774746 0.55279589 -0.04765043 0.27153444 0.054549549 -0.33663309 -0.026843702 0.073502734 -0.12233688 -0.14586605 0.12871727 -0.063627876 0.015967179 0.40804225 -0.14981571 -0.23859881 0.028066691 -0.25775111 0.15219063 -0.128888 0.23792586 0.0072727259 0.20503131 -0.074040107 0.18367526 0.30250618 0.34377572 -0.18017276 -0.025156064 0.25658 -0.072520517 -0.025226891 0.1250412 0.0081822202 0.20191187 0.22252168 -0.18247874 -0.27364212 0.32631984 -0.29171896 0.021262147 -0.39921039 0.21041995 0.29180706 0.024505945 -0.1008824 -0.40339366 -0.097953424 -0.35523117 0.17515665 0.71553004 -0.16162959 -0.20315173 0.38811356 -0.31489798 -0.069127969 0.24631491 -0.32506856 -0.24794841 -0.25918961 0.057530757 0.11736496 -0.044278 0.16362138 0.28665635 0.12138607 -0.03509808 -0.34963906 -0.064550042 0.33515668 -0.07255125 0.034971807 -0.052917 0.05746758 -0.08605735 0.059281204 0.1321516 -0.17121591 -0.015747994 0.14466339 -0.083990484
393 -0.012353375 -0.20811579 -0.54047298 0.02256282 0.12405601 -0.14432934 -0.052205443 -0.30389851 -0.16246675 -0.16695118 0.1489844 -0.15254183 -0.013421427 0.37186989 -0.079339817 0.013402593 -0.30432507 0.16952868 -0.1226576 -0.30047795 -0.024876807 0.26862037 0.10598514 0.17925783 0.0017008906 -0.063376389 0.31431004 0.058836587 0.01457582 0.083640456 0.39404851 -0.17610693 0.04339413 -0.1416841 0.062412694 0.037115362 0.0068084747 -0.28203073 -0.094273932 -0.054367937 0.21233585 0.19943818 -0.17327888 -0.27127591 -0.01885085 0.05551526 -0.12121335 -0.10294903 -0.0029457235 0.08067783 0.17871819 0.26267341 0.027286982 0.19905053 -0.098328136 -0.58676916 -0.1102142 -0.14668564 -0.011358025 -0.0038200875 -0.0067659449 -0.15158719 -0.22247404 -0.13249439 -0.12418226 -0.15981339 -0.053914227 0.059671909 -0.23113842 -0.66120744 8.4693738e-07 -0.18912739 0.19256207 0.18727504 -0.044015996 -0.020748068 -0.16015841 0.30806926 0.073699825 0.028780006 0.32164007 -0.03340834 0.12602404 0.12940226 -0.30117586 -0.11286329 0.13899454 0.35450372 0.099394694 -0.2786828 0.34942609 -0.39785084 -0.29457104 0.11579319 -0.44021913 0.093211554 0.058443755 0.28561026 0.016546255 0.045458216 0.35558563 0.01834848 -0.30009326 -0.016032441 -0.23115821 -0.207754 -0.064652756 0.16634895 0.1333061 -0.15651399 0.0077350079 0.071206942 0.2385253 0.38792372 0.52844173 0.14112544 0.02888588 -0.20068572 0.24360016 -0.27669504 -0.063608117 0.070610687 0.01548476 0.25022128 0.12456295 -0.0078970296 0.016204847 0.15839477
445 -0.0080706077 0.023319351 0.25729162 0.050234504 0.24379276 -0.16462311 0.4653942 -0.045080476 -0.13097686 0.012162175 0.037834838 0.14671625 -0.25740078 -0.21857722 -0.3443431 0.2017726 -0.038107261 -0.061457701 0.15953392 -0.33208713 -0.075875342 -0.16795158 0.11809585 0.33617744 0.1616129 -0.074127555 -0.17148095 -0.32768291 0.026198072 0.052466109 -0.0042083096 0.11838968 -0.40383416 -0.19289483 0.058489569 0.073945165 -0.11434325 -0.15535292 -0.18522318 0.052077927 0.020325745 0.053863909 0.16057384 -0.15351951 0.034252256 0.015422616 0.034011669 0.0063164774 0.010986367 -0.027098719 -0.1150035 -0.05619872 -0.27495074 -0.051287055 -0.30291274 -0.25950974 0.11894013 -0.093129061 -0.29759464 -0.03990246 -0.13511315 0.076950081 0.050964262 -0.044578571 -0.32861397 -0.19745824 -0.46336278 0.47880614 -0.076599382 -0.60267431 0.10121503 -0.067920141 0.026354946 0.14590135 -0.26548272 -0.11682171 0.12523009 0.074214764 0.029619198 0.37732232 0.12586682 -0.23435505 0.066055246 -0.021314874 0.06837061 -0.19392705 0.05374923 -0.15544142 -0.26330528 -0.011022431 0.14474575 -0.069297709 -0.37871748 3.6920697e-05 0.23330474 -0.17993662 -0.13849261 -0.14525726 0.19024977 0.061589602 0.35661179 -0.066030532 -0.15516546 -0.071934074 0.037317026 -0.61536896 0.23875117 -0.39949012 0.07281211 -0.47070283 -0.1032932 0.17823078 -0.18855013 0.30882639 0.058606457 -0.30972207 -0.22024719 -0.0045305486 -0.023857919 -0.14347623 0.27856275 -0.066833735 -0.076823749 -0.046094127 -0.11458853 0.06650044 0.1487852 0.17040558
526 0.034206703 -0.17766286 -0.10525101 -0.08689557 0.27886376 -0.37309664 -0.35843953 0.067217916 -0.08727631 0.29143602 0.3259615 -0.049186047 -0.16329379 -0.058687933 -0.080671556 -0.47325018 0.37069255 -0.16191861 0.16481207 0.17218712 -0.044839635 0.081916779 0.12202103 -0.057553545 -0.24407262 0.43223494 0.0009634099 0.49532732 -0.028185407 -0.094681218 -0.41276684 0.051237565 -0.039534163 0.17899762 0.13883279 -0.40333205 0.047583487 -0.23812775 0.30568394 0.1355627 0.25515687 0.33269885 -0.19547002 -0.12314793 0.014206892 -0.16088521 -0.007767329 0.22341777 0.044135854 0.083028696 -0.040667091 0.064404681 -0.15239523 0.36606288 -0.040980801 -0.32876644 0.33263066 0.043608323 -0.45273784 -0.27114359 -0.1465421 0.065212309 0.028061157 0.41093194 -0.50761098 0.37860611 0.055672742 0.016017314 0.042300399 -0.16778459 -0.31175709 -0.23493578 -0.035258859 0.20186354 -0.16939087 -0.18744637 0.40408206 -0.21959476 -0.28767428 -0.034154888 0.0066168141 0.34731308 -0.27899632 -0.05244093 -0.35005248 -0.20389205 -0.050688993 0.41244975 -0.14788297 0.19904305 0.28858328 -0.49656293 0.045763187 -0.011962131 0.11148173 -0.039767023 0.14952688 0.3689478 0.52940565 -0.14857547 0.046085935 -0.32754263 0.080758445 0.29073575 -0.1519219 -0.19805026 0.41567603 -0.13418351 0.28987166 0.12954094 -0.22774126 -0.072760753 -0.07103236 0.015501662 -0.13590154 -0.25572839 -0.21700804 -0.075531326 0.35985541 -0.3993943 0.3410511 -0.2864314 0.030776296 0.38247848 0.15176748 0.049069874 -0.055452727 -0.31035241
708 0.12284407 -0.32988754 -0.12590501 0.096913308 -0.4228707 -0.49562877 0.19930434 -0.042658672 -0.20904271 -0.018050138 -0.01563774 0.34085667 -0.061788253 -0.14591467 -0.049725156 -0.093446039 -0.10180431 0.17742968 0.26581985 -0.34230807 0.28297511 -0.25553054 0.17860544 -0.07595098 -0.026620468 0.45838091 -0.10999111 0.20231594 -0.11586481 -0.10588165 0.21547353 -0.55747205 -0.063489087 -0.27988055 0.37533054 -0.074450776 0.042055842 -0.021242587 -0.12782586 -0.13894385 0.012839639 0.20714022 0.31109288 0.18521099 -0.10454134 -0.14223559 -0.098728769 -0.058917925 -0.25849807 -0.30617464 0.19170849 0.36749339 -0.64580536 0.16474046 0.33585978 -0.12183955 -0.37026602 0.29480648 0.036776129 0.0072944309 -0.11214741 -0.16645162 -0.034630641 -0.025188899 -0.17740002 0.021586979 -0.15619725 -0.19525485 -0.022316217 -0.015749969 0.10921388 0.17906846 0.17787245 0.44653913 -0.03558252 0.13350619 -0.36938891 -0.26513064 -0.072156668 0.16877088 0.36447147 0.10783143 0.087001011 -0.17526747 -0.50708473 0.10479103 -0.1550439 -0.36369616 -0.24048764 -0.042512417 -0.21017407 -0.10715195 -0.26203731 0.13741146 -0.5309301 -0.26392952 0.14522073 0.1621083 0.058620851 0.098686807 0.10716756 0.073834144 -0.1192507 0.091840558 0.010653489 -0.24293379 0.0012276052 0.11424467 -0.0037173447 -0.45054778 -0.18991333 -0.15550081 -0.40176159 0.14533167 0.0058229156 0.040064536 -0.61809516 -0.10999446 0.363765 -0.27235636 0.099001884 0.082923159 -0.046973113 0.11395283 0.17245398 0.1166318 -0.13511433 -0.14397106
1412 0.13682964 0.21557152 0.095159426 -0.11004046 -0.19355334 -0.013907564 -0.28133863 -0.24965282 -0.31221682 -0.074826814 0.24042331 -0.07766623 -0.075309396 0.00081777497 -0.36442748 -0.01735709 -0.61811769 -0.048342906 -0.039243188 -0.13023263 0.27741838 0.1614676 0.072582401 0.041920785 0.41544887 0.11897086 -0.24300772 -0.1227984 -0.21439417 -0.040039148 0.029459063 -0.076467544 -0.085153572 -0.3760955 -0.058024675 0.21376351 0.029748494 -0.12867877 0.23118292 -0.31704718 0.13013253 -0.31411001 -0.61144429 -0.69841212 -0.021815065 -0.14688979 0.10860353 0.07283093 -0.27006531 -0.15538424 -0.11545639 -0.10639924 -0.28938082 0.12678522 0.12436143 -0.44142035 0.30567709 -0.011918248 -0.14042309 0.2025813 0.37004057 -0.20305818 -0.14504291 0.36813971 -0.06609825 -0.3761653 0.11804453 0.43048126 0.1389048 0.036832999 -0.091425784 -0.098281197 0.10228321 0.057443034 0.027935771 -0.2155354 0.12810977 0.16046309 -0.10355266 -0.29496881 0.0044620158 -0.21435565 -0.14231932 0.17802857 0.29346788 0.31132513 -0.46645862 -0.0062819635 -0.061632626 -0.045995377 -0.30310079 -0.85437006 -0.27307141 -0.50772977 0.061909996 0.014536856 0.21010862 0.2223058 0.07965444 -0.079406798 -0.038623299 -0.3465811 -0.42027554 0.5627414 0.31171259 -0.10222334 0.040127832 0.047083087 0.46965915 -0.19968221 -0.1608244 -0.10631897 -0.30048174 -0.65890259 0.30774593 0.0070259701 -0.13815482 0.21314928 0.31211761 -0.0035223314 -0.0014225646 0.005941784 -0.072684124 0.023034263 -0.095034167 0.4018164 -0.16885291 -0.20795205
624 0.20721737 -0.68048573 -0.013765201 0.18442057 -0.050048277 -0.11041708 -0.049597964 -0.16140459 -0.10573181 0.18720746 0.53489715 -0.37403741 0.12335815 0.073730163 -0.15240739 -0.011418701 -0.26747054 0.54546356 0.12604718 0.023563771 -0.10117981 -0.24296148 0.026039386 0.0039518368 0.013560341 -0.01186582 0.015800685 0.51940072 -0.42306042 0.037814051 -0.19006799 -0.04549263 -0.35720149 0.03168517 0.11674815 -0.59281212 -0.15707287 0.012662775 0.49907407 -0.30194655 0.17343408 0.056205578 0.19404659 -0.42352375 0.11687183 0.26026753 0.38649127 0.14356609 -0.11895882 -0.23282574 -0.017387398 -0.15411097 0.06917645 0.25686815 -0.022729529 -0.51356578 0.20243768 0.033404496 -0.19876856 0.18097846 0.20175049 0.3674376 -0.14677659 0.2187714 -0.47751734 -0.044838991 -0.2193332 0.35426807 0.27033791 0.16195261 -0.45472625 0.27120194 0.18662588 0.38770485 0.19295326 -0.26967219 0.34865952 -0.0057809632 -0.34703293 0.037736483 0.4242453 -0.10645918 -0.28526333 -0.0041781589 0.021281451 0.12565082 -0.4797821 0.3846598 -0.066469952 0.098382808 0.23414333 -0.33894101 -0.24096306 0.2555528 -0.035944704 -0.15276824 0.24541548 0.21535158 0.48856834 0.31483975 0.011003157 -0.20079787 0.12217854 0.086390443 -0.4163751 -0.29498258 0.33778441 0.40202114 0.42825967 0.04313672 0.13856001 -0.20395976 0.071106605 -0.50073344 -0.057284191 -0.3014684 0.050119694 -0.018836433 0.080227643 -0.13833104 0.72948658 0.18098707 0.066247106 0.70711696 0.11991677 -0.12561427 0.22883902 -0.41570044
400 0.20477211 0.13239256 -0.005543814 0.20708302 -0.1887507 -0.32879511 0.15320128 -0.12725717 -0.20987447 -0.28611845 0.29068837 0.1484043 0.074716367 0.19565077 -0.14667203 -0.0023833704 0.13971454 0.11167125 -0.31499094 -0.11162497 0.28257957 0.09545885 0.49940014 0.58789867 -0.0582022 0.2638754 -0.2862674 -0.043365166 -0.049505409 -0.012347628 -0.058857102 0.04002044 0.0097526358 0.017567992 0.20332733 -0.041518845 0.025161928 -0.22096413 -0.081762232 0.17472135 -0.050528426 0.15444991 0.36017343 0.227681 -0.16514082 -0.15633759 0.16027045 -0.09988486 0.0089689326 0.038364325 0.0246555 -0.38161799 -0.32741454 0.11629108 -0.3751902 -0.23538807 0.13384844 0.25814715 0.019473143 0.025203153 -0.42064303 0.22377662 0.12637006 0.076244533 -0.1681802 0.08353617 -0.045202091 0.4409886 -0.24316871 -0.29775378 0.25273043 -0.27687088 -0.069275372 0.3883971 0.22010906 -0.032556981 -0.072634526 -0.0466608 0.10025155 -0.075487308 0.39413339 -0.057593659 -0.011340521 0.40528938 -0.54546106 -0.18111838 -0.28899577 0.023086894 0.074967265 -0.18761463 0.1820478 -0.11514049 -0.19062702 0.19096965 0.19240759 -0.16224709 0.022411417 -0.33028126 0.012509377 -0.4616726 0.41592327 0.036068596 0.033695236 0.046276752 0.053486958 -0.44321564 -0.27076781 0.44188827 0.39582664 0.088694967 0.031922124 0.38321489 -0.21539085 0.12933956 0.09304782 -0.03477817 -0.23562135 -0.048638407 0.14069448 -0.68863297 0.36767235 0.1751501 0.22546506 0.088627532 -0.42650607 -0.13122603 0.13940984 0.19146277
43 0.39934734 0.1029538 -0.36284843 -0.39377636 0.14068083 -0.3167918 -0.13337778 0.06415119 -0.032867573 0.23273584 0.038335424 0.13910198 -0.13725312 -0.03042515 -0.18038169 -0.062977143 -0.20482215 0.011295411 -0.31546548 -0.5486365 0.31508207 0.35713297 -0.06445387 0.28089023 -0.062691048 -0.023113433 0.028096952 -0.56908482 0.099032402 0.004289066 0.13931194 -0.077016987 -0.23771855 0.24436918 -0.32752758 -0.44249079 -0.043849677 -0.1153444 0.076730691 0.16986045 0.011424934 0.54897702 0.00039790801 0.12732552 -0.28161061 -0.134046 0.12951757 0.032355256 -0.25521082 -0.15129469 -0.24604809 -0.22529434 -0.028114 0.45012477 -0.049051683 -0.53447473 0.16496402 -0.31175554 -0.075743705 0.00036078115 -0.169303 -0.13945048 -0.29671657 0.27565923 -0.20038654 -0.474998 -0.19464223 0.20968181 0.033443682 -0.082580686 -0.19019054 0.10847067 0.26437977 -0.22248642 0.0079397354 -0.19173299 0.12298515 0.17473686 -0.30732289 0.041777626 0.15408626 0.016688507 0.027398 -0.12762007 0.066109285 -0.13251954 -0.26059121 -0.088870481 -0.1932174 0.12955806 0.29593754 -0.28248799 0.0048560537 0.34891418 -0.30128425 -0.5468815 0.066154368 0.47474045 0.081086271 0.058478668 -0.32445684 -0.14578973 -0.33638412 0.4528183 0.1368559 -0.03210748 -0.096908771 0.31952587 0.43155432 0.011839694 0.0602405 0.2161268 -0.038095031 0.13028523 -0.033697236 0.4387956 -0.32065475 -0.086069457 -0.16286878 -0.19090223 0.14461958 -0.22509196 -0.070549071 0.057871543 -0.28344828 0.13148694 -0.063973427 -0.24730375
1647 -0.20529008 -0.54995489 -0.22828077 0.049166188 -0.30983332 -0.15433104 -0.10451565 0.090502396 -0.47649741 0.14886852 0.33356205 0.47540078 -0.12780571 0.16507134 -0.14630614 -0.0065479488 -0.0048881792 -0.15437789 0.060427174 -0.30351177 0.24138378 -0.048715066 0.32560745 0.22648436 -0.057382401 0.061254397 -0.54245961 -0.065201603 0.17590955 -0.005930814 0.060377777 -0.24829078 -0.28132918 -0.39014098 0.11006094 -0.49952403 -0.20629121 -0.2403879 -0.042750709 0.095203176 -0.048991244 0.11757435 -0.26355278 0.21659122 0.25983819 -0.080994748 -0.065481283 -0.33909273 -0.33937851 0.19905798 -0.29036084 0.073451377 -0.28028259 0.14828344 0.25453421 -0.27728385 -0.23590982 0.066015318 -0.10579935 -0.18138285 -0.12370799 -0.041725229 -0.053919118 -0.20708646 -0.54401851 0.11842194 -0.096606977 0.076423407 -0.42383915 -0.14839517 0.023301939 -0.16274333 0.21436848 0.6748178 0.20657623 -0.10148695 -0.37942386 0.36148706 -0.14834128 0.51795936 -0.0030871772 -0.10548691 -0.14178413 0.19479516 -0.28018269 0.017098077 0.19374515 -0.14639452 -0.16750652 0.26930249 -0.065168194 0.04926271 -0.085802637 0.014378588 -0.12869808 0.021422286 -0.062033307 0.23925354 0.35489187 -0.51319778 0.3303695 0.11048989 -0.17516337 -0.15633571 -0.89765185 0.03643655 -0.11603157 0.079617292 -0.19714895 -0.30211157 -0.055724807 -0.042398874 -0.095670335 0.057410315 -0.094021924 0.13905458 -0.33062759 0.14372174 0.31682426 -0.12373842 0.12039408 -0.29933387 0.048074979 0.20851465 0.26654172 0.087179556 -0.13984729 -0.14768158
1467 -0.16436583 -0.078059994 -0.18607138 -0.35760361 0.019086547 -0.11114457 -0.30868047 -0.17393929 -0.44282824 0.084275626 0.37733513 0.1513029 -0.076353192 0.12518786 0.019494463 0.15990482 -0.41907895 -0.30681151 0.23776498 -0.1530239 0.25724122 -0.1586628 0.21518397 -0.11838571 0.10150789 0.22428146 -0.23132148 -0.29911298 -0.10393304 -0.25179484 0.16616324 0.51206845 0.26146892 -0.48274648 -0.13339779 -0.10757804 -0.098865509 0.1669936 0.45720655 -0.018281337 0.12930147 -0.11955035 -0.16172114 -0.5476476 -0.28075302 -0.10922322 0.21553677 0.029193304 0.11505174 -0.34841239 0.0066454504 -0.30566335 -0.38138056 0.24614523 0.36680689 -0.20556095 0.58453226 -0.26657471 0.03996554 0.28639498 0.098266222 -0.20873252 0.2676149 -0.029939581 -0.29027727 -0.12516372 -0.16370684 0.53603399 0.056612302 0.029464597 0.13105614 0.20230062 0.098782986 0.022413673 -0.20038088 -0.0835931 -0.1742807 -0.014209516 -0.081886582 -0.26837784 -0.15478688 -0.088742092 0.25733656 0.056530867 0.14877331 0.27639279 -0.20499568 0.11219885 0.17898029 -0.0040938566 -0.16477503 -0.31985307 -0.44782141 -0.4374288 -0.11596173 -0.072832637 0.47117239 0.033996809 0.15846835 0.17117347 0.041043837 -0.36553881 0.0021625636 0.47700629 0.13916446 -0.45567128 -0.062115543 0.19091018 0.18239592 -0.33401269 -0.030935047 -0.28882185 0.24267681 -0.28287211 0.24091054 -0.029231837 -0.15605621 0.4579137 0.29123607 0.04363998 0.1251478 0.13134214 0.028905585 -0.028753554 -0.39009303 -0.0011420578 0.047648337 -0.11951492
235 0.072043486 -0.15628494 -0.12442951 -0.25484928 0.24409258 -0.15357524 -0.21137255 -0.1669302 -0.14823128 0.11187202 0.44956347 -0.0056637442 -0.079847857 -0.21853116 -0.38443559 -0.12812877 -0.38874203 -0.47672892 -0.22663252 -0.083369993 0.014527231 0.24377555 0.26691234 -0.10612491 0.03653143 0.050587561 0.075670563 -0.24120811 -0.32676306 -0.058594238 -0.039008442 0.200571 0.017555654 -0.43527031 -0.2390213 -0.29905668 -0.3575165 0.11977259 0.16605535 0.22969218 -0.53498483 0.10508376 -0.11794216 -0.29490051 -0.29171589 0.2660062 -0.18832734 -0.41632098 0.08851514 -0.42291686 -0.11645731 -0.34772712 -0.057642829 0.31911519 0.40653759 -0.57237267 -0.055099826 -0.15897478 -0.25766006 0.18608731 -0.16912441 -0.44833556 0.053743888 0.14519836 0.11155053 -0.053880826 -0.24439812 0.38715473 -0.027329765 -0.070779786 -0.10073451 0.063384227 0.01173807 -0.074801154 0.068404451 -0.3520281 -0.21698573 0.047961138 -0.12821229 0.083111316 0.031690706 -0.10620299 0.33614266 0.23051003 -0.034337539 0.40255481 -0.43992093 -0.58133364 0.25026989 0.1589341 -0.095193692 -0.41634792 -0.14011118 -0.22448207 -0.38955742 -0.13116667 0.15763156 0.25733456 0.17451268 0.015837312 -0.19328798 -0.051201016 -0.085406542 0.37464869 0.34782541 -0.43666273 0.16398667 0.17407852 0.35595649 -0.053417102 -0.31754526 0.36813635 0.37791184 -0.27557546 -0.022030409 -0.17100076 -0.29794273 0.25714174 0.26774085 0.20435791 0.1407167 0.15177774 -0.2831043 0.10338046 -0.056703787 0.23990113 -0.023837054 -0.047591317
525 0.40779051 -0.10968067 -0.048426121 0.12747221 -0.22175075 -0.25241396 0.36204123 -0.21555035 -0.27686566 0.21562178 -0.4828952 0.36310977 -0.014558431 -0.039901312 -0.44351628 -0.057997193 0.36207771 0.1228165 0.26755759 0.10890201 0.41404605 -0.11864028 0.13764654 0.02962072 0.15800554 0.28251481 -0.047536153 -0.39945668 0.21045014 0.11168412 -0.073402904 -0.33104157 0.070135966 -0.16211851 0.02404109 -0.090453647 -0.15864341 -0.15867864 -0.033351623 -0.16876644 0.31188229 0.54816854 0.045820519 -0.031741448 -0.10963238 0.18239434 0.0073636384 -0.036536217 0.097710498 0.062121201 0.13571352 -0.32197839 -0.081271783 0.35677803 -0.34026492 -0.26821157 -0.16643555 0.17620508 -0.11562005 -0.18435606 -0.32014802 -0.098845564 0.31440207 0.14735144 -0.1956033 -0.68751889 -0.01768131 0.31848985 -0.12221418 -0.30729258 -0.14962417 0.23288673 -0.079414688 0.21791661 -0.14423555 -0.3184098 -0.10698935 0.26029858 0.51777476 -0.35776147 0.21514225 0.20983835 -0.079005413 0.12878639 -0.20507507 0.032756828 -0.060231626 0.083692983 -0.16774763 0.12556113 0.074344911 0.14527999 -0.19620033 0.075472943 -0.24988255 -0.17135368 -0.044359881 0.20162755 0.25503168 -0.33217609 -0.0039852457 -0.11185391 -0.50773048 -0.034370679 -0.47952166 -0.31240752 0.15130851 0.12965535 -0.035466503 -0.14774704 0.15512429 0.05473683 0.13037184 -0.10686746 0.40583149 -0.54902905 -0.19402699 -0.02123094 0.12972084 -0.48822841 0.049283467 0.095153533 0.15712565 -0.25329494 -0.11645349 -0.13312955 0.18805768 -0.2702668
228 0.069685929 0.21549362 0.073396616 -0.34929386 0.028853664 -0.050531935 -0.12701342 -0.22490382 -0.19224738 0.18767516 0.24576262 -0.25865126 -0.24418257 0.14380626 -0.41897634 -0.034892406 -0.5234639 -0.36063623 -0.39041588 -0.12975489 0.27922344 -0.11769465 -0.025672367 -0.021569608 0.025735369 0.14372985 -0.27401075 -0.36783776 -0.48763055 -0.1899725 0.037911773 0.052265551 0.12350574 -0.57532907 -0.2421695 -0.17755643 -0.27904928 -0.05522494 0.19501694 0.25696868 -0.46209267 0.037657246 -0.14112739 -0.41981634 -0.19772731 0.08590918 -0.11506293 -0.17571472 0.079734817 -0.29008082 -0.35180193 -0.027901607 -0.11311326 -0.018034661 0.24327946 -0.54471934 -0.025780493 -0.068314187 -0.097400092 0.30295882 0.35620141 -0.33415884 0.19819537 0.12355101 -0.18718627 -0.11004066 -0.25727782 0.60289139 -0.22306055 0.010651799 0.023899261 -0.18241039 0.13243566 0.0050869361 0.056066625 -0.26313332 -0.1138106 -0.014887039 -0.15566431 0.087868854 0.092249498 -0.11728946 0.30423114 -0.16424647 -0.10656346 0.28783765 -0.075350352 -0.079561509 0.065532453 0.10827792 -0.28482002 -0.57789886 -0.27603474 -0.12905937 -0.33518884 0.013367395 0.13245843 0.26160574 0.33978018 0.1299168 -0.090423971 0.068344317 -0.18713766 0.47814983 0.32682392 -0.38666958 0.13063157 0.16901998 0.0074163047 -0.0010982919 -0.34004644 -0.15077209 0.49460995 -0.34028447 -0.025970403 -0.096438684 -0.41532773 0.43047079 0.013794346 0.067437537 0.19632494 0.39929682 0.088117115 0.0089621888 0.042529177 0.11420422 0.10703281 -0.15708342
509 0.17920859 -0.077891931 -0.050325017 0.19090651 0.043536384 -0.070665471 0.10305737 -0.22661608 0.034394909 0.27255005 -0.22775704 0.066937141 0.089302503 -0.31199032 0.048424169 0.063224971 -0.06253019 -0.33613065 0.13170445 0.11228225 0.38720644 -0.3969276 0.8044368 -0.36253354 0.044785395 -0.045076344 0.037510809 -0.25538534 -0.2406856 -0.10260373 -0.49195305 0.14808249 -0.083770074 0.0081900284 -0.024242923 0.10549187 0.011633257 -0.081840694 -0.18680915 0.18989706 0.35539168 0.11139999 -0.022566846 -0.29187506 0.49722528 -0.34695077 -0.028266314 -0.076314703 0.36397111 -0.14884043 0.16975859 -0.14646412 -0.30545861 0.36934459 -0.27488953 -0.59430259 0.31947246 0.11422426 0.097628631 0.11508534 0.19719312 0.15989122 -0.050212096 0.25832412 -0.034347236 -0.21578193 -0.12238771 0.11234054 0.029314928 -0.10031392 0.49615985 -0.11541404 0.53894401 0.021164227 -0.0058601163 0.26001921 -0.24074461 0.0030544363 -0.61432868 -0.020500012 0.18653207 -0.21705057 -0.11496823 -0.34113431 -0.21274419 0.068947695 -0.46691257 0.30086604 -0.31689191 -0.082147129 0.074954018 -0.067359306 0.15197994 -0.18945144 -0.081136964 -0.02559877 0.15922101 0.018462328 -0.11079334 -0.040901694 0.082814701 -0.12536374 -0.44431952 0.0038830941 -0.43479788 -0.2091963 -0.027296364 0.17452903 -0.047133166 0.18257856 -0.044201914 0.03255612 0.0091464184 0.034189466 -0.064622141 0.18917456 0.33225739 0.066323563 0.012421004 -0.35091203 0.4305748 -0.12928841 -0.34892327 0.44024026 0.08505293 0.054439712 -0.48183292 -0.015284314
1717 0.11212895 -0.25977305 -0.053663101 0.36928874 0.13253617 -0.32230949 -0.015050505 -0.2273685 0.092876092 -0.043547969 -0.2072646 0.031540267 0.038383752 0.049114581 -0.16654383 -0.12750748 -0.2143556 -0.06301368 -0.1083001 -0.16735889 0.094719343 -0.33652535 0.044901192 0.10157617 -0.18514614 0.25116006 -0.13591529 0.071827196 0.35360867 -0.12574573 0.020265983 0.28995189 -0.56993717 -0.10786817 0.19181347 0.15558217 0.14844 -0.31532854 0.17492697 0.24192667 -0.17303954 0.22314498 0.070115492 0.076144248 -0.0019112163 0.05709381 -0.36184269 0.10677052 -0.08603441 -0.28584823 0.091760434 -0.38768262 -0.034754235 0.25990748 -0.083141692 -0.13372289 0.10548463 0.20793737 -0.21324046 0.15911756 -0.10432333 0.22827151 -0.064538077 0.078476727 -0.45337766 0.041707229 -0.27112964 0.37615827 -0.73152727 0.03430884 0.083416209 -0.067980498 0.35720062 0.21280187 0.085614204 -0.29639748 -0.0075110877 0.018551858 0.4270153 -0.10940351 0.24821924 -0.14511551 0.39512008 0.56042522 -0.010465102 -0.32059127 0.5617702 0.42726037 -0.14843991 0.21034248 -0.082669608 0.25064367 -0.17893468 0.50166678 -0.35361552 -0.67351907 0.25560167 0.34356552 -0.048905745 -0.22721532 0.47234139 -0.1848775 0.17757298 0.087693922 -0.24264804 -0.32812399 -0.00018687145 0.12830229 0.33373624 -0.53467524 -0.18142274 0.44181263 0.21150778 -0.012195152 0.24966921 0.025866017 -0.046252985 0.17652412 0.071777612 -0.18738131 -0.20674649 0.071352623 -0.19479741 0.23958798 -0.22769839 0.31316289 -0.23542102 -0.083585002
1525 0.11245389 -0.35699785 0.01340528 0.20008549 -0.11667322 -0.40437177 -0.11282898 -0.13482305 -0.080653369 0.056898024 0.014870438 0.017582804 0.1577071 -0.21390897 -0.37823558 -0.043024048 0.074932367 -0.4275668 -0.29248321 0.0084380377 0.35128531 -0.23278028 0.035459053 0.39406711 -0.25714982 0.17195307 -0.17067127 -0.23971726 -0.48749608 0.066200845 -0.26661843 -0.33853075 0.11542759 -0.12319766 0.28463808 -0.36328131 -0.092384741 -0.21095069 0.43003491 0.20957384 0.014169498 0.2809771 -0.38108346 0.051199872 0.079480611 -0.52429342 -0.31903094 -0.015222542 0.32299137 0.22008488 0.34284741 -0.12070533 -0.49708617 0.20522241 -0.067027539 -0.31261259 0.20314655 -0.13972414 -0.1205948 -0.034989726 0.14115678 0.14359227 -0.21784812 0.24748573 -0.33648828 -0.26617339 0.25073162 -0.72541422 -0.031252585 -0.41624498 -0.32492372 0.024492025 0.14082646 0.12866032 -0.063450195 0.30002856 -0.12151267 0.0020548236 0.19345233 -0.068670288 -0.18973193 -0.073265366 0.24216165 0.081454322 -0.2465383 -0.1511721 -0.03217404 -0.13461027 -0.41554672 -0.19713286 0.3003453 0.20073058 -0.12084877 -0.17088234 0.16683663 -0.30088803 0.17138205 0.20124179 -0.24573232 0.10909361 0.21009229 -0.11627191 0.18548788 0.13671386 -0.21557295 -0.42994395 0.1792188 -0.0080948249 -0.070948265 -0.19876172 -0.002093592 -0.41203377 0.089749366 -0.10084482 -0.034833562 -0.071177088 0.076041721 -0.21732053 0.03399476 -0.15040393 0.47539112 0.045057632 0.28584087 0.41778296 0.090560958 0.29022098 0.13382606 -0.42459497
471 -0.02710643 -0.13189563 0.35165367 0.094158687 -0.27069879 0.04871811 -0.17701973 -0.3711766 -0.0092786755 0.13895397 -0.074471325 0.25441509 0.37767595 0.17423764 -0.25065672 -0.32151288 -0.20944415 0.38591748 0.081467092 -0.38777524 0.10310986 -0.21300521 0.13491084 -0.053154804 -0.30705637 -0.0038904347 -0.43145671 -0.099592008 0.36136925 0.25670475 -0.080720372 -0.081197649 -0.15277871 -0.20136553 0.19180629 0.24274828 -0.24182761 -0.082872033 0.15718165 0.21244766 -0.0046787965 0.16771872 -0.012855044 -0.23140165 -0.23200676 0.31251866 -0.021559775 -0.033802684 0.095302083 0.027067706 -0.22104952 -0.0061483476 0.10498562 -0.047163088 -0.015874092 0.23022006 -0.28362611 -0.34537503 0.096175142 -0.048626605 0.23908651 0.40228364 0.047558561 0.46796611 -0.07211107 -0.02015553 0.08567661 0.43889323 -0.39403668 0.086668767 0.21042599 -0.25856632 0.52003253 0.64142549 -0.21682595 -0.18550898 -0.60376257 0.15037365 -0.09364076 0.25129312 0.099630438 -0.075930625 -0.080798753 0.43445477 0.2169221 0.15520523 0.01974725 0.36398014 -0.13542703 0.024448039 0.19928721 0.25823238 -0.14187039 0.31809953 -0.479303 0.0030903816 0.1400536 0.61231887 0.04264487 -0.24201314 0.31262037 -0.41618511 -0.090926841 -0.21044032 0.0090496466 -0.35259554 -0.11035396 0.059616145 -0.043829214 -0.38628036 -0.47042793 0.6715675 0.12570602 -0.14350954 0.55453157 -0.2143358 -0.34834847 -0.037548933 -0.21451591 -0.096185058 0.48139429 0.033757269 -0.37324402 0.44071564 -0.056097217 0.15753937 -0.40222993 0.0028778785
1465 -0.11033143 0.12925816 0.051596317 -0.17019726 -0.040951207 0.079618365 -0.18168075 -0.20879039 -0.40306976 0.046346415 0.14426595 0.03056936 -0.14707014 0.30403847 -0.38542426 0.11037069 -0.72480637 -0.28743118 0.034260161 -0.09928333 0.41525447 -0.070734836 0.16803841 0.038947411 0.20775002 0.25293308 -0.41937983 -0.15170413 -0.13555369 -0.19499058 0.041860234 0.15076452 0.060928978 -0.40716949 -0.35074741 -0.19456768 -0.45557967 0.15757939 0.3321791 -0.03486963 0.37554249 -0.29586741 -0.29898217 -0.51100105 -0.16330376 0.0077557447 0.2457069 -0.019999875 0.034287505 -0.36757421 -0.0035537377 -0.12329323 -0.17573941 0.080623023 0.053495321 -0.32142556 0.21176472 -0.20738241 -0.21308748 0.29394189 -0.039234992 -0.33438388 0.19021441 0.13170137 -0.059948046 -0.31382447 -0.42058983 0.40665194 0.070845462 0.018327083 -0.17221846 0.16234188 0.099914342 0.24837117 0.084668532 -0.063117668 0.012697594 0.030610854 -0.066809207 -0.092734285 -0.15334758 -0.13463327 0.18989006 0.090172239 0.046441365 0.19038883 -0.17022204 0.20001602 0.15197271 0.22639713 -0.27438945 -0.8106299 -0.42724359 -0.47274503 -0.03113687 -0.035463512 0.30210671 0.15277453 0.14804047 0.24995589 0.14966127 -0.27446079 0.056960639 0.52083367 0.16968355 -0.307448 0.13468577 0.30961338 0.18370195 -0.1028115 -0.20981281 -0.012737961 0.2311935 -0.3447791 0.30779138 0.047597975 0.063135915 0.19983184 0.048003513 0.033346418 0.1599279 0.30056846 -0.18764147 -0.15040179 -0.37938029 0.023805356 -0.081870213 -0.33401096
1466 0.042533007 -0.24693953 0.19784413 -0.1588295 -0.32262382 -0.098169439 0.27427563 -0.39475852 -0.42899862 -0.027664028 0.10243099 0.19986224 0.023706583 0.20682226 -0.43199995 0.098161079 -0.67264611 -0.19247983 -0.15984914 -0.03844972 0.312094 -0.022808922 0.31621906 -0.3280662 0.082994774 0.24700665 -0.35706884 -0.34867874 -0.29664856 -0.36143884 0.30089566 0.37617385 0.28324983 -0.40301672 -0.062933624 -0.30572137 -0.45748866 0.026986964 0.42541298 -0.35403079 -0.07495179 0.06923756 -0.1955698 -0.62260044 -0.057827875 -0.19014885 0.1216263 -0.09812393 0.093797199 -0.25452915 -0.26642886 -0.16400699 0.085186183 0.1084892 0.13746017 -0.37955654 0.25959024 -0.084099211 -0.032860361 0.16717574 0.1336699 -0.58634692 0.30500773 0.36851934 -0.24952069 -0.43975893 -0.50530005 0.51543635 0.36792386 0.12827633 -0.29033622 -0.081059575 0.039163012 0.28912637 0.07750231 0.065261655 -0.14407374 0.042211447 0.0021671781 -0.0065547829 -0.19747747 -0.21221742 0.3861739 0.014970746 0.05207888 -0.099942036 -0.21599579 -0.039900333 0.26312825 -0.025837677 0.048471164 -0.47096694 -0.34613931 -0.28083655 0.25540572 -0.067096666 0.25548425 -0.049475789 0.12019451 0.00041202485 -0.0069013042 -0.12573698 -0.28268144 0.57149643 0.32378334 -0.11362199 -0.018537128 0.15492487 -0.0072604064 -0.20634523 -0.2841785 -0.098574094 -0.013156961 -0.39368501 0.069813073 0.011135136 -0.092231847 0.29345167 0.19381347 0.10756823 0.18649039 0.10088082 0.068714961 -0.14284429 0.0089093186 0.078781068 0.07498876 -0.083426297
2288 -0.21840549 -0.027747253 -0.49696693 0.10366245 -0.04655087 -0.39024013 -0.01236644 0.17698395 -0.13849249 0.02677764 -0.18368912 0.23902157 -0.12663724 -0.24513505 -0.49989378 -0.18623935 -0.021878451 -0.16821961 -0.17920211 -0.20463064 0.0061784359 0.07067427 0.25187594 0.029616863 -0.044557247 0.19599761 0.10061544 0.3932105 -0.38463312 -0.05677589 -0.05749651 0.18778889 0.18701768 -0.017586371 0.53203857 0.027429625 0.066187702 -0.11421847 0.38389188 -0.27265626 0.10062709 0.41597509 0.31752861 -0.37490037 -0.10617539 0.54600924 0.38100201 -0.30087611 -0.023559017 0.20487776 0.24342698 -0.1260253 0.19615653 0.48732135 -0.29215634 -0.33030161 0.25459716 0.20213263 -0.014699432 0.052760307 0.40495118 0.2790761 -0.10722243 0.057136662 -0.097066276 -0.083074942 -0.13238181 -0.33803383 0.098302677 -0.34969297 -0.1843687 0.11406393 0.24178033 0.33775869 0.15878819 -0.04822709 -0.040046696 0.078072563 0.11572497 0.12357144 0.32953745 -0.28236008 0.30771041 -0.00087207626 -0.52887207 -0.24641022 0.063119397 0.065033391 -0.18825524 0.17830816 0.26425639 0.1123066 -0.81967479 -0.12374397 0.24399474 -0.32340175 0.28421789 0.39141393 0.43405855 -0.39437318 0.39604381 -0.5150665 -0.074243061 0.1919148 -0.14383964 -0.13681488 0.30580032 0.012000408 0.31387964 0.23538168 -0.0039417748 -0.40711391 -0.19066948 0.10359756 0.092273936 0.14160092 0.2629233 0.065556958 0.11085465 -0.15477224 0.0098404437 -0.26687244 0.17443699 0.12473422 0.42891118 0.021494215 0.1225896 -0.40951142
1445 0.26642424 -0.15704601 -0.12057992 -0.1703018 -0.28607777 -0.35536385 -0.0022633977 -0.056443032 -0.37424868 -0.078649864 0.07773634 0.098192856 0.096348263 0.17460893 -0.12495705 0.20872326 -0.59879619 -0.51575965 0.3090027 -0.18836419 0.34520325 -0.079942562 0.086897284 -0.23310387 0.12036632 0.28551078 -0.34297723 -0.40447041 -0.27015868 0.018390151 -0.035700861 0.45906338 0.1140667 -0.21315002 -0.0095743332 -0.31002402 -0.19722277 0.16571674 0.25026277 -0.10394447 0.2982524 -0.11269403 -0.18144462 -0.6552214 0.1595749 -0.061875921 0.4196628 -0.1435288 0.2446983 -0.38187319 -0.094282769 -0.23661342 -0.14685564 0.13351174 0.23410286 -0.57191873 0.40782586 -0.2691797 -0.038255878 0.1710958 -0.017815894 -0.25057143 -0.14431618 0.081935793 -0.12224122 -0.074618354 -0.18599758 0.36267802 -0.0022334477 -0.052188393 -0.58274072 -0.11994304 0.21601191 0.097419389 0.12281302 -0.28753677 -0.14301394 -0.044289812 -0.22387575 -0.014808446 -0.22442599 -0.24960779 0.24187671 0.072022632 0.27313557 0.17475457 -0.076455705 -0.33539695 0.22130127 -0.027324378 -0.074963301 -0.50625294 -0.31892699 -0.23385404 0.020923238 -0.044721436 0.29425555 -0.075042889 0.14283884 0.26729715 0.28872016 -0.10214455 -0.091300786 0.53282517 0.066112213 0.01933145 0.12378844 0.20377621 -0.0058748634 -0.16565678 -0.38189912 0.038568448 0.23961213 -0.44692913 0.50241697 0.08924783 0.21638516 0.61314607 0.24764541 -0.067190893 -0.14331189 0.5663287 0.45384607 0.062310845 -0.18675637 0.097723693 -0.012766524 0.051237144
682 0.03618633 -0.10981624 -0.27572402 0.14800474 0.20411448 -0.047700286 -0.089584559 -0.26060554 -0.49534854 0.34688881 0.23693769 0.31721142 -0.090883307 0.0084939664 -0.38987488 -0.36137727 -0.27053681 -0.26826721 -0.14059962 -0.52994752 -0.14625861 0.063498974 -0.087786824 0.0043290751 -0.075943068 0.011577797 0.07681746 -0.16580002 -0.05154717 0.15030415 0.055694677 0.11632767 0.015260397 0.16209193 -0.31379953 -0.21858087 -0.11593466 0.54841977 -0.37184435 0.12964435 -0.43754444 -0.23893502 -0.2901617 -0.12510008 -0.39850414 -0.20692058 -0.45556989 -0.32540771 0.083382115 0.029097181 0.42041096 0.33354342 -0.38094881 0.20296758 -0.24072619 0.44840723 0.25889784 0.054386754 0.18461244 -0.55423355 0.01425438 0.26881558 -0.19708757 0.28544852 -0.31206974 -0.059419021 -0.56372988 0.18730609 -0.17805752 -0.1192652 -0.050752334 0.33360094 0.063881621 0.017306576 -0.047916327 0.0198106 -0.21833491 -0.16157688 -0.10939901 -0.085519142 0.28870168 -0.15030317 0.098239027 0.17288923 -0.29575628 -0.18428722 -0.13995872 -0.30216217 -0.32329407 0.0062937653 0.31557444 -0.13739946 -0.12723762 -0.21073189 0.36436442 -0.35745716 -0.040332917 0.44517353 0.093431868 -0.20326526 -0.0021183349 -0.19411941 -0.28222212 0.16294415 -0.56896943 0.12542047 0.58990431 0.1346565 0.30826178 -0.3727279 0.13840474 -0.078576975 0.19647989 -0.17910004 -0.18141229 0.13403986 -0.16336726 -0.38184762 0.44495532 -0.16265671 0.39544076 0.24606483 -0.18688826 0.4305374 -0.28388914 -0.35526603 0.031586949 0.3413575
458 0.47419983 0.019424768 0.083354793 0.43175513 -0.17396463 -0.23803598 0.24751318 -0.013562731 -0.018861504 0.061688151 0.12421357 -0.28467104 0.3953425 0.16247797 -0.15703472 0.090309195 -0.40495783 0.098245569 0.19065699 -0.0095142592 -0.14116681 0.15099192 0.32067379 0.27461004 -0.58189124 0.073112786 -0.059096351 0.021170236 0.6278941 -0.028724609 0.12584685 -0.34071526 -0.16703956 0.21645227 -0.059499413 0.11245208 -0.074545532 -0.029959863 -0.17019671 -0.091978639 0.1349768 0.38754153 0.18111624 0.16817915 0.26689538 0.35459983 0.28425872 0.031903569 -0.092168927 -0.33654332 0.010738554 0.049196184 -0.32314152 0.30815431 -0.080652557 -0.4864971 -0.24490909 -0.31491274 -0.086559318 -0.059967954 -0.18809886 0.071529731 -0.12076102 0.29937837 -0.17575893 -0.37114167 -0.11321715 -0.0037614382 -0.53328443 -0.27814254 -0.12706272 0.14783339 -0.22723334 -0.039083857 -0.2721521 -0.073104262 0.042801928 0.16877669 -0.21165536 0.059058528 0.073950455 -0.075603418 0.17095648 0.14677274 -0.51780725 -0.046555463 -0.23953936 -0.24608238 0.007036563 -0.18729848 0.0047802087 -0.26561871 -0.42709953 -0.169046 -0.078686617 -0.48539314 0.12708555 0.47602293 0.13207766 0.0043238001 -0.3910349 0.19054155 -0.26181203 0.25615776 0.09913265 -0.14749029 0.025426028 0.28901938 0.39069983 -0.30647859 0.021434611 -0.22549255 0.023049042 -0.28555605 0.13507611 -0.099626645 -0.21908389 0.40775764 0.11461165 0.0095894514 0.30179143 0.21828333 0.20680521 0.22128431 0.036688387 -0.55494058 0.17111003 0.02769582
391 0.038726151 0.015129563 -0.069743149 -0.55635738 0.14498651 -0.39787316 -0.10886139 0.032246765 -0.071412548 -0.048461761 -0.098471358 0.013107092 0.31305057 0.17698427 -0.20775169 -0.24234028 0.016185006 -0.33882743 0.026992202 -0.34111786 0.43924597 0.19332345 0.36897042 0.21796502 -0.18412247 -0.034653191 -0.19856223 -0.022752361 -0.044551067 0.3093217 0.26308605 -0.12351321 -0.286998 0.12113076 -0.0073678195 -0.25144053 -0.16768637 -0.094577543 -0.0088002551 0.05787237 0.38187766 0.097616181 -0.20998737 0.33888063 -0.056090925 0.040979762 -0.11841459 0.15850003 -0.21335754 -0.32447293 0.2394436 0.14759073 -0.48270762 0.40298229 0.13089253 -0.19879614 -0.21504742 0.11024015 0.19529958 0.055634446 0.27089089 -0.46196103 -0.27497271 -0.2148236 -0.40584549 -0.5936169 -0.05363737 0.13346507 0.33806935 -0.079054117 -0.37234917 -0.23684539 0.091760121 0.27903706 0.0506698 0.2780745 -0.13632995 0.24894108 -0.32876682 -0.30024615 0.33175573 -0.28620511 -0.20304385 0.023740081 -0.13645563 -0.067366935 0.33685288 -0.23992948 0.35606715 0.12831996 -0.062889561 -0.57245296 -0.0995894 -0.20328078 -0.14322843 -0.16046314 0.13155042 0.018570781 0.18546797 0.13624857 0.0080968067 -0.28219905 -0.059907552 0.51883191 -0.022708256 -0.68140662 -0.11714289 0.03759579 0.15336302 -0.014446762 0.22201575 0.167235 0.18095389 -0.24013446 0.45265806 0.22021417 -0.2059785 0.25005046 0.22639552 -0.023164429 -0.08461903 -0.28983676 -0.29707509 -0.0095865596 -0.17031275 -0.05944521 0.019186633 -0.20711665
713 -0.039105427 0.19143026 -0.31306535 -0.1360607 0.092828184 -0.45805901 0.2026089 -0.46174857 -0.33959761 -0.052781846 0.13606323 0.45312253 0.082159162 -0.13408838 0.0075577907 -0.31418258 0.22206832 -0.15510498 0.24938799 0.046461824 0.21183157 -0.31443414 0.50463241 -0.013129072 -0.37582165 0.057141628 -0.35399196 -0.56854886 0.37060484 -0.018735107 -0.049469735 -0.084479049 0.17011872 -0.4706355 0.069746092 -0.042487275 -0.10270882 0.488363 0.14078875 -0.087346449 0.051836099 0.14584817 0.086548388 -0.22297345 0.086681463 0.081440315 0.29277843 0.056342028 -0.048059024 0.02225323 0.21609657 0.37448493 -0.23929252 0.18013254 -0.34038723 -0.20504615 0.11016832 0.18383171 0.038781133 0.19403967 -0.1263442 -0.30884621 -0.15986255 0.13089116 -0.28300238 0.18868142 -0.38066649 0.55290484 0.035219267 -0.03089313 -0.0029127351 0.058205809 -0.07861726 0.55806941 -0.19151495 -0.72499537 -0.14214498 -0.10036104 -0.00047505792 0.053262606 -0.045528926 0.10537047 0.054383919 -0.081171758 -0.057381161 -0.1806436 0.00062526728 -0.32253551 -0.16493502 0.27525949 0.13606443 0.21971768 -0.60866326 0.2101465 -0.23975594 -0.54894876 0.13824782 0.083705932 0.069620632 0.33787906 0.11249128 -0.033583775 -0.71165049 -0.33484668 -0.21851861 0.010673676 0.28998932 0.014915442 0.35395634 -0.28929242 -0.10277931 0.23719998 0.25712785 -0.11231282 0.28614068 0.0062282961 -0.21437676 0.15355369 0.070156932 -0.60106355 -0.0063074939 0.32702327 0.38576713 -0.17147394 0.20429206 -0.095708475 0.03232909 -0.20529701
602 -0.11037668 -0.28644383 0.22757447 0.08577051 -0.28342986 -0.33069721 0.11819635 0.075574845 -0.34897342 0.10962091 0.20129006 -0.16496049 -0.033205133 0.26705191 -0.13073671 -0.010181747 0.098251358 0.4205811 0.067237139 -0.055077352 0.27497637 0.042214669 0.30466229 0.2048672 0.0025187426 0.23392238 -0.031467587 0.34848028 -0.29512227 0.1739583 -0.42000794 0.04179794 -0.064429522 0.016206043 0.057618111 -0.26900056 -0.01287183 -0.056473855 0.089286931 -0.46229574 -0.059937365 -0.42175499 0.15024909 -0.034503084 -0.0020820484 -0.11032676 -0.034254242 -0.066742294 0.13738014 -0.098324627 -0.029504795 -0.16401401 0.3837046 0.10309241 0.076630525 -0.4350678 0.38565746 0.28917947 -0.14560187 0.34889883 0.31802982 0.33331427 -0.52931356 0.28048819 -0.25944677 0.039568447 -0.25503197 0.2313882 -0.39636406 -0.055894107 -0.17658065 0.30737638 0.45315751 0.15562716 0.08088576 0.46551478 0.029433452 0.10683025 0.012572969 -0.16806628 0.114471 0.15108603 -0.24385744 0.090262726 -0.1499885 0.25750643 -0.015894858 0.29308629 -0.32542059 -0.3568984 0.21822606 -0.43163329 -0.30925611 0.39074636 -0.10431994 0.016571071 0.29021689 0.539325 0.62991226 0.59379721 -0.0040068375 -0.33409762 -0.056796018 -0.070553906 -0.40315983 -0.29051569 0.10825795 -0.43043649 0.36172676 0.23554726 0.31520909 -0.093470842 0.10577712 -0.55516869 -0.24011438 0.16052672 0.082129315 0.017555851 -0.0096453968 -0.24663377 0.41736278 0.032310903 0.21804576 0.49758276 -0.28737301 0.15027788 0.41382623 0.11137588
69 -0.086408906 -0.0049640643 -0.22264697 -0.3402662 0.22382115 -0.086476624 -0.057905372 -0.18914931 0.10854003 0.24604736 -0.24371849 -0.36583024 -0.37696522 -0.15808135 -0.35654625 -0.23804484 -0.54602593 -0.13401575 0.0017497642 -0.35807827 0.24567819 -0.3724483 0.35790595 0.12663825 0.15046899 0.18838836 -0.28704807 -0.48731458 -0.13833368 -0.093952931 -0.067748971 0.39431614 0.0029769416 -0.13723242 -0.26274848 -0.36848554 -0.077920757 -0.38109186 0.14326048 0.24945167 -0.35618773 -8.9187677e-05 -0.049547646 0.060094401 -0.24040967 -0.1831935 0.3483696 0.042885769 -0.28172046 -0.08616782 -0.12877987 -0.019176351 -0.21760222 0.25632057 0.25043243 -0.39437684 -0.17304896 -0.39414781 -0.12771027 -0.20766334 0.016996557 0.15036732 -0.2468694 -0.052171778 -0.21598954 -0.46624658 0.049130656 0.19574104 0.2293781 -0.52260911 -0.447896 0.4324528 -0.18674818 0.32788509 0.0074872123 -0.045303505 0.063989922 -0.015192049 -0.21138643 -0.54727232 -0.24560104 -0.021721898 0.12377439 0.055051059 -0.25061375 0.13147376 -0.33296734 -0.22235592 -0.10142919 -0.069804572 0.54408574 -0.23426944 -0.11759761 0.38217285 -0.36105222 0.22995734 0.17436337 0.61708742 0.095930025 -0.055243865 -0.19948801 0.061346214 -0.34567264 0.087065347 0.074263833 -0.25840786 0.084368557 0.28118059 -0.063517623 -0.011583734 0.081758365 0.39437807 -0.06573122 -0.1445803 0.15236177 0.16585979 -0.0051549622 0.25720903 -0.1301645 -0.020490404 0.31564027 0.15046458 0.41571918 -0.069242179 -0.19928949 0.096344352 -0.23283504 0.30301663
1434 0.54630554 0.042042114 0.023829209 -0.2398728 0.024656802 -0.16884536 -0.068921179 -0.53257 0.086962983 0.1551646 0.11081837 0.040478341 -0.12504648 0.27271408 -0.43665183 0.1367646 -0.53262085 -0.21789384 0.084562972 -0.25910249 0.53311688 -0.021184562 0.36893806 0.1165138 0.25849664 0.13884138 -0.72069156 -0.22318779 -0.27893108 -0.26108238 0.072235964 0.18036871 0.15905751 -0.35279492 -0.23566584 -0.34032166 -0.30621031 0.10455731 0.27632636 -0.10808928 0.2595841 -0.14513098 0.15360013 -0.4994331 -0.28307125 0.17701451 0.13839912 -0.039753489 0.16656671 -0.42177764 -0.2147337 0.018360447 -0.13954161 0.16805801 0.4236629 -0.33096161 0.13878444 -0.33348754 -0.22060959 0.13980542 0.09931799 -0.53660232 -0.095076576 0.20697515 -0.18211694 -0.2895329 -0.32532302 0.39567715 0.043560568 0.07415884 -0.22380593 -0.25742105 0.045973707 0.072654724 0.044494536 0.0057056337 -0.053617202 0.10199053 -0.28730562 -0.077322111 -0.18729655 -0.085067846 -0.02711284 0.26035795 0.023700239 0.2476012 -0.098852903 0.31886482 0.12028196 0.31180698 -0.37683624 -0.6471644 -0.13307655 -0.47878194 -0.035943653 -0.13373505 0.32989499 0.079812281 0.2204272 0.28973064 -0.001938098 -0.22844729 -0.077336751 0.35054737 0.33445898 -0.43442383 -0.16335152 0.34700114 0.10197343 -0.50022018 -0.41155025 0.13294761 0.08826188 -0.34178197 0.19374633 -0.31066045 -0.047220554 0.13752325 0.20410752 0.18677609 -0.041036773 0.26703238 -0.10187306 -0.30225369 -0.37940106 0.11980435 -0.34480858 -0.31699753
1637 -0.51712787 -0.40639877 -0.23778971 -0.10335878 -0.45312509 0.10480653 0.13656677 0.014303217 -0.31733766 0.11061502 0.24990864 0.20648313 -0.18774416 -0.34094775 0.021485496 -0.27169815 -0.082504325 -0.03774938 -0.12031094 -0.31605637 -0.022435715 0.24017963 0.22554712 0.33539999 -0.39155564 0.31851548 -0.19117667 -0.13806872 0.15024351 -0.19052386 0.017959766 -0.35819981 -0.2321801 -0.22529331 -0.013464237 -0.47324589 -0.18198961 0.14773357 -0.038694318 0.046157703 0.22686911 -0.10066263 -0.2556603 0.25102171 -0.15158685 -0.18342969 -0.09008389 -0.23833504 0.21528111 -0.025119564 -0.03599003 0.12210865 -0.35383922 0.3888993 -0.15876903 -0.31500816 -0.03480294 -0.14063826 -0.023915017 -0.24657658 -0.09038502 -0.029555414 0.23031111 -0.049471166 -0.53828216 -0.083230495 -0.13081807 -0.023425084 0.1675476 0.10657029 0.29117513 0.055641789 0.24230105 0.58614719 -0.019827843 0.097104743 0.13833874 -0.15557016 0.079777189 0.6375432 -0.18066773 -0.049592793 -0.31701455 0.53476965 -0.47876894 -0.023900772 0.17655309 0.027009394 -0.12521549 0.14237894 -0.028441193 -0.0053886725 -0.43986502 0.47025797 -0.33782607 -0.26633248 0.018763045 0.12778528 0.43693554 -0.36413428 0.40526003 0.2401762 -0.26018953 -0.0034118083 -0.47341177 0.021770719 -0.1723852 0.21245176 -0.19604778 -0.1819789 -0.26893634 -0.018199902 0.11950508 0.056871008 0.011211881 -0.22981252 -0.28653768 0.10363913 0.46616796 -0.2082364 0.18725011 -0.33487186 -0.20268048 0.14686587 -0.12581556 -0.20904687 -0.030626077 -0.26794592
1653 -0.5842787 -0.21592817 0.12371405 0.20566322 -0.19008251 -0.31705993 0.082112685 -0.070356861 -0.24781738 -0.010699082 0.18134302 0.19088374 -0.018315254 0.28587654 0.21628556 -0.27233139 0.14019634 0.078000687 0.037786096 -0.19071665 0.038527038 0.098929957 -0.0074620121 0.0092337774 -0.19961616 0.20469078 -0.26825652 0.13872449 0.05799529 0.19192083 -0.35459992 -0.36447591 -0.42174122 -0.43091622 -0.12065523 -0.69136649 0.20170884 0.40428931 0.20438617 -0.029322458 0.20549527 -0.0077304407 -0.33329973 0.041723736 0.10057727 -0.071315281 -0.18056451 0.079240926 -0.20128196 0.045824382 -0.087915711 0.1915113 -0.035823748 0.27201086 0.26485696 -0.14850156 -0.25865084 -0.11830129 0.047455806 0.020765351 -0.21790417 0.29749674 -0.083540007 0.14754024 -0.59888613 0.13139823 0.025601812 -0.0048138341 -0.10730827 -0.41361129 0.04388126 -0.11614525 -0.0072744214 0.62582147 -0.092099667 -0.090383962 -0.3671402 0.0378231 -0.21042851 0.13128401 0.029397316 -0.11194704 -0.21722181 -0.04234466 -0.18291698 -0.10315284 0.021166626 0.089113869 -0.11448871 0.068447106 0.17436045 -0.26440275 -0.16785966 0.091891252 -0.061879504 -0.43867552 0.30355483 0.029207459 0.37280893 0.17586517 0.29080442 0.41380414 -0.41970479 0.35624108 -0.43575782 -0.047542047 -0.039102599 0.31427345 0.013178607 -0.38104793 -0.31908971 0.18753496 0.072153218 0.23443139 0.13290845 -0.24222958 -0.49400952 -0.029718913 0.12595809 -0.28166443 0.41928577 -0.10734405 -0.26684082 0.23731084 0.055278014 -0.28448325 -0.2940928 -0.47524861
569 -0.20436446 -0.60193247 0.29231751 0.0098881265 -0.15220445 -0.26329976 -0.26258469 -0.11544681 -0.065240227 0.15866601 0.51013929 -0.42168525 0.036393542 0.20218408 -0.4286021 0.07343252 -0.20900752 0.46404263 0.081583038 0.16110961 0.0041067093 -0.067627825 -0.058275264 0.080628172 0.094796397 0.1422057 -0.051593151 0.5965603 -0.28231576 -0.015257519 -0.29357871 -0.076796137 0.041661084 0.077180408 0.031779528 -0.63486284 -0.32795069 0.16522586 0.63499027 -0.30523503 0.19302732 0.12668318 0.24751543 -0.47968531 0.22087374 0.53106254 0.30606505 0.00069413712 0.001427275 -0.69308698 -0.10910162 -0.35905379 -0.014191746 0.22907054 0.27108446 -0.49937028 0.25307202 0.04770432 -0.033723492 0.079015218 0.31880587 0.23475233 0.00051399786 0.27530581 -0.63315964 -0.16131067 -0.45189187 0.47767028 0.33688644 0.27692348 -0.6142835 0.24411029 0.29191887 0.28590202 0.25848442 0.20344663 0.4938854 -0.30902717 -0.17028588 0.1390489 0.21212456 -0.073749132 -0.2453846 0.10525025 0.13110361 0.17855287 -0.42244029 0.2550377 0.00072814943 0.11761248 0.18859293 -0.54921138 -0.11601178 0.045625646 0.038625173 -0.1794887 0.54172748 0.3433893 0.47710833 0.40933064 0.056088079 -0.2666153 0.017210755 0.14935161 -0.390275 -0.43894392 0.25550371 0.17121589 0.2546314 0.018647362 0.089055486 -0.1997094 -0.15406135 -0.38698182 0.087122411 -0.04900033 0.086446457 -0.0119661 -0.10586437 -0.22847359 0.61262023 0.28387859 0.010378717 0.60787886 -0.076942824 -0.078852996 0.24493992 -0.33676597
1641 -0.44927597 -0.34733847 0.068879694 0.23258395 -0.10057455 -0.34234664 -0.028174121 -0.12393046 -0.28185809 0.10535729 0.29629424 0.063098148 -0.085180826 0.17028597 -0.23511946 -0.1497712 0.12519169 -0.28833011 -0.12910242 -0.61804003 -0.043271359 0.26468784 -0.13709842 0.19707885 -0.069345012 0.2566708 -0.28161308 -0.30099523 -0.081924871 -0.11624511 -0.48463666 -0.032602586 -0.34446535 -0.42785907 -0.068647154 -0.44641027 0.32767177 0.44647592 0.12870014 0.14920621 0.25741643 0.017985966 -0.03525053 -0.040572297 0.099284053 -0.2793448 -0.38753659 -0.27557394 -0.091567874 0.034628496 -0.11033948 0.47428063 -0.14207512 0.60289896 0.07280606 0.080569163 -0.16760428 0.27523589 -0.17367309 0.18696077 -0.11072774 0.21440186 -0.062910795 0.23314844 -0.36221218 0.066646479 -0.060114626 0.002055018 -0.023859188 -0.013801041 -0.04838169 -0.16472852 0.057222106 0.64589876 0.0065973126 0.21433385 -0.20708287 -0.12181342 -0.33088112 0.11673003 0.030781509 -0.018206466 -0.26839054 0.22888736 -0.054680113 0.13201715 0.16966365 0.12230198 -0.048140015 0.23168233 0.36619884 -0.22226055 -0.029652853 -0.062683441 -0.26967397 -0.38736603 0.16575465 0.23035726 0.42400518 0.1140653 0.23300095 0.36812353 -0.29930437 0.20501821 -0.34039515 0.39882416 -0.064939283 0.18301207 0.074716866 -0.61116368 -0.34423319 0.074958004 -0.16283321 0.10552399 0.0039140619 -0.02154173 -0.44987908 -0.056690853 0.20749445 -0.30726865 0.10285933 0.044734545 -0.1111193 0.19441929 0.025182236 -0.09456227 -0.14306408 -0.35138702
476 0.061943877 -0.074034497 0.032819156 -0.3104018 0.22755267 -0.53047121 0.13535008 -0.14113271 -0.11855053 0.35130855 -0.21183079 0.1203233 0.28529751 0.097176865 0.062421687 0.086268522 -0.139658 0.015236246 -0.20433031 -0.15496348 0.2632966 0.063816547 -0.12891707 0.49744505 0.0073055048 0.11080168 0.066905215 0.1865617 -0.12577033 -0.10646646 -0.37956786 0.29027975 -0.061849315 -0.057967626 0.52638215 -0.24640611 -0.061460417 0.2482018 0.03898054 -0.25368512 0.18231778 -0.15764514 0.25192299 -0.49753046 0.075686 -0.34127846 0.2853969 0.12669407 0.21601479 -0.038787361 0.35878447 -0.066041254 0.0078454111 0.25066796 -0.10214277 -0.31966835 0.15797806 0.11950801 -0.26900154 -0.14384554 0.18368579 0.34772083 -0.0077580796 0.76080316 -0.56837261 0.22157751 -0.060164373 -0.13748199 0.41624945 -0.31467578 0.19822325 0.096012726 0.25519159 0.4713226 0.083825462 -0.34177959 -0.17157209 -0.11508361 -0.18452951 0.30931124 -0.088630192 -0.099097379 -0.021803163 -0.010392983 -0.23430724 0.1085153 -0.092077345 0.36135292 0.0099857654 0.044790804 0.2775265 -0.056529775 -0.092659585 -0.0022936254 -0.5402599 -0.28770041 0.064923011 -0.064932056 -0.35024965 -0.23826784 -0.46524328 -0.16629718 0.064432524 0.33218026 0.094431795 -0.58509386 -0.0043327142 -0.1074587 0.17802018 0.1730869 -0.10931192 -0.50781715 0.22447437 -0.3818464 -0.18398367 0.2697666 0.090107135 0.19328901 0.035167363 -0.21827835 0.34895512 0.21572553 -0.030777045 0.35802284 0.12121465 0.11456298 0.4196282 -0.03452608
405 0.23489986 -0.21431892 0.028766848 -0.11947389 0.25682476 0.18177365 -0.19449401 0.07738094 -0.26939055 0.221503 0.13891001 0.10287044 0.21350077 -0.21242401 -0.20566119 -0.35240918 0.24701951 0.3042745 0.21497795 -0.05252555 0.28147706 0.073274285 0.29665676 -0.020124296 -0.067740567 0.30636868 0.16942768 -0.37714839 0.11191345 0.22462185 -0.022858571 0.10641713 0.024159078 0.2002601 0.75852197 0.061925426 -0.39710429 0.20031168 0.13592333 -0.10211539 -0.22058152 -0.41413558 -0.17968059 -0.2305527 0.2112865 -0.51283807 -0.066386349 0.49774101 0.10324445 0.10341544 0.23657903 0.21089749 0.12946071 0.20839602 -0.23573671 -0.15225372 -0.0075387424 -0.28987306 -0.12355224 -0.10889697 -0.10461766 -0.097822778 0.51601136 -0.17403662 -0.49189559 0.51381809 -0.40281063 0.370487 0.1024609 -0.078804672 -0.031812247 0.069422908 0.38655251 0.49503917 0.2044507 0.7379415 -0.078640155 0.19852407 -0.42734355 -0.17230363 0.34327829 -0.17333931 0.038631324 0.054760605 -0.30425817 0.2338842 -0.22879894 0.070225731 -0.40970117 0.62276155 0.55925643 -0.20429963 -0.41259721 -0.084123395 -0.080873869 -0.40707836 0.021974739 0.092608474 0.025113644 -0.076672778 0.035136141 -0.12949704 0.025409225 0.22219442 -0.17749549 -0.3044585 0.11260583 0.13091362 0.092006229 -0.080196925 -0.29555079 -0.014762336 0.038838651 -0.16921018 -0.34416893 -0.014648562 0.44748938 0.18158084 -0.019166207 -0.38301146 -0.10428549 0.063391678 0.091610625 0.29219627 0.011713095 0.42926669 -0.2306547 -0.023674294
1648 -0.54221302 -0.26907876 -0.11902309 -0.027858563 -0.18574506 0.20777895 0.15903717 -0.3578943 -0.19939482 0.14483939 0.21020794 0.62670612 0.16010939 0.050791278 -0.3137522 -0.25219712 -0.40092951 -0.33069563 0.1183084 -0.4509688 0.20294924 0.20007163 0.043970317 0.096745022 -0.0086305123 0.053329911 -0.2709842 0.39444339 0.030960063 -0.34062818 -0.21073608 -0.30624285 -0.55118465 -0.25994515 0.18888775 -0.48654041 -0.11180428 -0.11660403 0.14359261 0.16965981 0.094931953 -0.066368237 -0.0097474176 0.10132341 0.056189884 -0.13283943 0.03894119 -0.39077783 0.016705671 0.090142787 0.13956669 0.36578289 -0.31359208 0.24047749 0.1366733 -0.26929596 -0.087205507 0.030637743 0.099000126 -0.051515996 -0.23131126 0.0029183 -0.014316737 0.053303394 -0.34665108 -0.052343555 0.0040367283 0.1961709 -0.54356128 -0.20300141 0.13629104 0.14253528 0.27803057 0.4055126 0.0035426687 -0.024824822 -0.39329389 -0.10261457 0.0087966695 0.18157156 -0.14340459 -0.28264445 0.054143831 0.25975001 -0.44325113 -0.11689444 -0.073405519 -0.3343316 0.078677684 -0.0096948082 0.026932785 0.060882565 -0.10642131 0.34101665 -0.095190451 -0.27941775 0.023833655 0.21129763 0.37549856 -0.054911166 0.1797597 0.11925135 -0.39373019 0.046855539 -0.4167169 0.18901065 -0.20473917 0.18482956 -0.37119481 -0.24005878 -0.31483373 0.03259192 -0.074403435 0.054223221 -0.041796044 -0.072653733 -0.33076984 -0.021234753 0.40924877 -0.2561909 0.041432101 -0.20837662 0.10948334 0.35396823 0.14708476 -0.084201261 -0.099935949 -0.50344288
226 -0.16807429 -0.28599435 0.077221654 -0.40563896 0.18928389 -0.29542297 0.10828718 -0.092871919 -0.19372465 -0.064260602 0.25269422 0.33593982 -0.14189181 0.22687143 -0.14220546 -0.14924821 -0.68051553 -0.2154929 0.20705312 -0.16257828 0.59700876 -0.19487034 -0.14444724 -0.26123944 0.037860408 0.21687989 -0.26039612 -0.17697768 -0.36675635 -0.36575431 0.11807439 0.23059727 0.052042391 -0.36377379 -0.14266935 -0.044254769 -0.2171904 0.14147025 0.26866904 0.039437104 -0.18521379 0.30550724 -0.23289089 -0.40730664 -0.25724471 0.13538651 -0.10097573 -0.3052761 0.22069865 -0.19299215 -0.37336415 -0.23388138 0.10130747 0.094751365 0.15253223 -0.72326618 0.0020161981 -0.19318254 -0.059831519 0.31825882 0.23222257 -0.22391936 0.18813136 0.093799822 -0.046373226 0.01508423 -0.40965256 0.33858576 0.0034966711 -0.051058423 0.10866074 0.00036536608 -0.042744484 0.30082944 0.096000552 -0.18066196 0.0048413458 0.23553225 -0.22721241 -0.21059391 0.019616405 -0.28302488 0.17570011 0.02731956 -0.27256152 0.35078335 -0.46915948 -0.11411643 0.19354656 0.13979051 -0.12273525 -0.62539303 -0.062534586 -0.26299092 0.069041505 0.27149409 -0.01782318 0.37367064 0.00017099241 0.043015964 -0.10945478 -0.22038777 -0.21390653 0.80304521 0.27862617 -0.53383613 0.31549042 0.08320675 0.011596492 -0.062261425 -0.15359785 -0.0058878763 0.27864033 -0.672719 0.04837146 -0.044187147 -0.066822708 0.11758465 -0.0068806214 0.0038048518 -0.043808814 0.26597032 0.097142816 0.093729794 0.070309713 0.21136817 0.095868468 -0.16606264
496 0.48483709 0.1039017 0.20538589 -0.22910975 0.072242022 -0.311373 -0.12983358 -0.32747039 -0.52024287 -0.17876066 -0.11748779 0.44109869 -0.13031334 -0.068609677 -0.13114099 0.106351 -0.10890083 0.073227316 -0.35953653 -0.25463533 0.059582237 0.21708521 0.13438945 0.030343797 -0.054233752 0.070713773 0.0026559622 0.082857288 -0.38250846 -0.15958348 0.034889661 0.32184789 -0.33979806 -0.26524004 0.33165634 0.24470054 -0.29059139 -0.2143743 -0.21129984 -0.034083288 0.022558505 0.56829071 -0.12479656 0.066402122 -0.010797027 -0.26371768 0.074608564 0.12864968 -0.42241663 -0.2249153 -0.05189703 0.16383408 -0.60801774 0.41470745 0.038068432 -0.61930001 -0.086432233 -0.15419337 0.25326487 -0.093034789 -0.14522041 -0.058781855 0.16599308 0.1521848 -0.26061565 -0.52181935 -0.33649385 -0.074511744 -0.20241976 -0.1513437 -0.31013459 -0.026506476 -0.13656425 0.18865393 -0.05150339 0.16369499 -0.042018544 0.40087414 -0.28973833 0.27286854 0.20408213 0.024269579 -0.34773916 0.075649433 0.073298715 0.12936652 0.16186935 -0.13470677 -0.030150024 -0.23355182 -0.089977637 0.044520576 -0.097129375 -0.20595554 -0.30445763 -0.32095525 -0.15104827 0.38027474 -0.17637694 0.068066105 -0.2477842 0.024604626 0.18314002 0.52854222 0.11404483 -0.0028232951 0.31886864 0.17583779 -0.2184611 0.20288357 0.22964746 0.06987083 0.45916066 -0.40586737 0.37495199 0.070910789 -0.19613804 0.10297754 -0.17087881 -0.3145535 0.21891777 -0.14196399 0.30014339 0.17518374 -0.23109885 -0.55286789 -0.42286295 -0.31999609
31 0.24145417 -0.086363085 -0.073487885 -0.13725801 0.16337714 0.17111482 -0.18610436 -0.0080551673 -0.22186966 0.4999246 -0.18329775 -0.19293474 -0.36317337 0.076121427 -0.24327488 -0.2462744 -0.30999488 -0.042346377 -0.38580236 -0.58757788 0.1123088 0.030394297 0.15169613 0.096662425 0.22826348 0.16393384 -0.11486266 -0.304061 -0.27685466 -0.13864204 -0.13933067 0.0086830501 0.019783925 0.045393538 0.082459308 -0.046608955 -0.12758195 0.18205406 0.52743018 0.057102535 -0.33280376 0.30975771 -0.11968529 0.052320648 -0.20283976 -0.023269918 0.067712665 0.068607762 0.051383127 -0.04225859 -0.012188273 -0.29847464 -0.31505033 0.66200793 -0.049355935 -0.40127951 0.051270988 -0.20716178 -0.24669668 0.1904171 -0.066934325 -0.2923488 0.095840111 0.28720987 -0.18378299 -0.3320134 -0.14361392 0.38387012 0.13957088 -0.24078023 -0.013718243 -0.24461631 0.065269507 -0.078752816 0.082829684 -0.12452514 -0.14410643 -0.10126172 -0.44984609 -0.036348917 -0.070875429 -0.11354343 0.21297747 0.22240378 -0.25211015 0.17746195 -0.063608386 -0.45877746 -0.06837979 -0.10443806 0.30341896 -0.32749227 0.071325727 0.02477397 -0.12903179 0.33616441 0.13315088 0.40071419 0.43595722 0.18166003 0.087179579 0.36479247 -0.14223996 -0.10006147 0.32076967 0.02795616 0.2051836 -0.097593576 0.71421611 -0.22352736 0.032241255 0.0137832 0.50210106 -0.41342822 0.054417506 0.35382539 -0.12166581 0.15080272 0.18192567 -0.0055724951 0.36542848 0.4201104 -0.1230531 0.027013242 -0.45312718 -0.01101848 0.065570965 0.1849675
6 -0.26771423 -0.20481874 0.14747365 -0.075152166 -0.24358855 -0.47974467 0.21123162 0.025821777 -0.22775137 -0.43898293 0.18506837 0.22489767 -0.039754797 0.29241416 -0.21463522 -0.042879488 -0.27929458 0.16345689 -0.2285452 -0.26015922 -0.12948985 0.15927318 0.2270229 0.14811806 0.069226094 0.31604254 -0.28952098 0.14557019 0.3411904 0.13995154 0.20031448 -0.33974722 0.15616515 -0.46749523 0.38289094 -0.23588605 0.064499028 -0.25842363 -0.072989725 0.17189318 -0.2027069 0.36149704 -0.22239259 0.052098017 -0.045719836 -0.0060478481 -0.16507576 -0.038232248 -0.17971817 0.015739106 -0.22489561 0.036993816 -0.22627698 0.57597178 0.043126486 0.16715071 -0.49001938 -0.37639254 -0.25698 -0.1514245 -0.017164407 -0.19456495 0.047687195 0.09730792 -0.092797384 -0.10341903 0.066058867 0.55290037 -0.16088192 -0.60656166 0.21643709 -0.21530387 0.33250114 0.41631037 0.064638294 -0.10711029 -0.20177051 -0.065580554 0.046246026 0.48241377 -0.18004005 -0.25832057 0.29461101 -0.24797384 -0.21197692 -0.02057039 -0.055986345 -0.16825423 -0.10473028 -0.24408907 0.2187143 0.10798918 -0.10528988 0.15195309 -0.082927063 -0.36961117 0.058071159 0.024438953 0.4932636 -0.41746876 0.021995947 -0.16705027 -0.215385 0.065473534 -0.57995284 0.20684086 -0.07367558 0.090888888 0.11145 -0.18203196 0.19198596 -0.02738768 -0.0307549 0.010548487 0.28580064 -0.14233774 0.26509225 -0.011582065 0.36611372 -0.23443513 0.27334478 -0.13473126 -0.30411607 0.38972408 0.19609842 0.22068004 0.25776586 -0.37045696
2148 0.17318709 -0.36688331 0.1139596 -0.33392978 0.41413629 -0.34343761 0.24787913 0.083443761 0.072163492 0.42695412 -0.13709758 0.27122703 0.070877478 -0.25059813 -0.15816164 -0.082881168 0.20688525 -0.043623634 0.018603878 -0.29806277 0.17523162 0.27619499 0.40913323 0.13414027 -0.014623669 0.33377674 -0.0034309386 0.010308302 -0.41275671 -0.13161273 -0.02176781 -0.060751557 0.046972085 -0.49367046 0.090281278 0.19943975 -0.027630439 0.076233529 0.084649161 -0.060798526 0.43287101 0.51964748 -0.0085421586 0.26987004 0.29637897 0.058576256 -0.41309848 -0.041362666 -0.12250384 0.12160153 -0.076160043 -0.33701056 -0.33614245 0.025773434 -0.030863259 -0.37629792 -0.17176038 0.28943431 0.012217377 -0.113934 -0.13579656 0.1202153 -0.024144961 0.1595048 -0.17573826 0.12950677 0.023059325 0.14806746 -0.072844073 -0.76411009 -0.22566007 -0.16344018 0.18394795 0.1842608 0.32226118 -0.16894853 0.029392155 -0.21086541 0.22490682 0.69965082 -0.0084280195 -0.14838122 -0.056865972 0.26540294 -0.45480967 0.09526293 -0.058166765 -0.017408596 -0.18251692 -0.062727951 0.12782839 -0.10995425 -0.39673075 -0.46490899 0.099152401 -0.11133663 0.3726477 0.48796892 0.65983319 -0.13767071 0.41382647 -0.47210726 0.035235904 0.12597889 -0.51023442 -0.12712784 0.10602152 0.49368766 -0.018994741 0.03945988 0.16156822 -0.46738905 -0.10507079 -0.21858297 -0.019506212 0.028219033 0.10992703 -0.033170301 -0.25541881 -0.55350941 0.16351606 -0.37855536 -0.00060503447 0.024461964 0.22038034 -0.21038105 0.033440661 -0.30201742
1638 -0.55030441 -0.15671001 -0.061691072 0.074618027 -0.10991704 -0.079787277 0.23480038 -0.38666791 -0.40953398 -0.01350539 -0.03061742 0.13949032 0.10738479 -0.081573315 -0.34995145 -0.20300595 -0.29588914 -0.067719154 -0.12794049 -0.40105718 0.12686343 0.16319057 -0.074542992 -0.025211968 -0.48181885 0.33515576 -0.52511346 -0.18180765 -0.089401275 -0.031415641 0.055697661 -0.26535356 -0.38309482 -0.31160501 -0.14347802 -0.31775111 -0.14473514 0.20972361 -0.16040272 0.30689508 0.20279902 -0.37891957 -0.13278197 0.18686204 0.087291203 -0.062544212 0.083713107 -0.3467634 -0.28690597 -0.047348205 0.030574175 0.062373821 -0.21020146 0.1382184 -0.17906587 -0.17415017 0.10289028 0.041469611 -0.0016011747 0.052622363 -0.17022268 -0.04069145 0.12043737 0.12402321 -0.51236063 0.074583337 0.22748999 0.11771221 -0.20924556 -0.34713668 0.06347283 0.10437925 0.55947989 0.41764817 0.1385878 -0.020565182 -0.40513483 0.083748646 0.018052051 0.37190279 0.083055399 0.087364763 -0.16059242 0.093186475 -0.45264533 -0.10922273 0.09286686 -0.24224456 -0.14630531 -0.062453616 0.42803854 0.25473517 -0.19628562 0.14541516 0.17579126 -0.18261953 0.16064148 0.30992916 0.45878997 -0.12090745 0.1536952 0.30434734 -0.013817291 0.10556936 -0.50559223 -0.056609262 0.13008034 -0.015177962 -0.17126073 -0.026717683 -0.11586861 -0.32240975 0.05326375 -0.14809039 -0.23524828 -0.12028287 -0.35351253 -0.3258464 0.39512217 -0.43988225 0.22399063 -0.17107348 -0.00053873257 0.24309374 0.41454992 0.01491194 -0.066111162 -0.43294209
1645 -0.30084088 -0.40563703 -0.31661025 0.063820817 -0.073977418 -0.068107687 0.15305677 -0.10973058 -0.56309652 0.45502302 -0.14222835 0.28575897 -0.046730872 -0.061189689 -0.39250171 -0.049511418 -0.23632039 -0.37151018 -0.27640903 -0.051547457 -0.079349056 0.032947261 -0.023069473 -0.048403364 -0.24182729 0.018744208 -0.41190952 0.11188748 0.085597798 0.15634996 -0.2735824 -0.33969712 -0.25660241 -0.053626094 -0.17535491 -0.33222723 -0.17575459 0.49112484 -0.083434984 0.22358523 0.078524642 0.14192146 -0.036755458 0.087292902 -0.18605237 -0.005935946 -0.13749219 -0.28994337 -0.25253302 0.00041050091 0.0087057864 0.25844988 0.022279253 0.29838175 0.21489604 -0.054911841 -0.10811725 -0.34299389 0.0086275106 0.10229208 0.048007593 -0.20525399 -0.15013468 -0.086109333 -0.5800432 0.063331448 -0.036725309 0.21726294 -0.32571721 -0.26792997 -0.022393469 0.031539079 0.39140183 0.72095853 0.27466851 -0.12604222 -0.43014303 -0.17959987 -0.13411173 0.29227543 -0.34472412 0.14638792 -0.15234764 0.31870815 -0.53844601 -0.28692394 0.21756701 -0.30869254 0.37486923 0.28785995 -0.12632319 -0.35998452 -0.15800239 -0.10007178 -0.17839333 -0.29425824 -0.23298271 0.075871475 -0.086227 -0.041280773 0.34274405 0.2805756 -0.12523381 -0.19273651 -0.11338992 0.36706334 -0.26839525 -0.0094212117 -0.15161452 -0.26993504 -0.18213899 -0.073453747 0.19459189 -0.25079551 -0.15193775 -0.11345951 -0.3771641 -0.032079551 0.57965881 -0.3051914 0.28637874 -0.081641547 -0.27924451 0.76602638 -0.21964693 0.28499559 -0.017339762 -0.59765959
696 -0.054781627 0.055075552 0.14535436 -0.25098237 0.073814675 -0.43935823 0.30660278 -0.30550086 -0.39567 0.14840186 0.21749863 0.29381585 -0.047880493 0.11800145 0.16200823 0.031042809 -0.30756855 0.20431037 0.21852298 -0.091216028 0.047475193 -0.32284838 0.17672445 -0.092875496 -0.083195232 0.00068226695 -0.36494642 -0.63485229 0.26372829 0.018233299 -0.16259061 0.42275518 0.72341621 -0.033941731 -0.13146281 -0.097375832 -0.027644288 -0.002952164 0.079327665 -0.142575 0.4414742 -0.11435272 -0.34852201 -0.43333268 -0.22602874 -0.0060891793 0.12840992 -0.089995258 -0.39640108 -0.22678316 0.21682288 0.27105114 -0.26183027 0.50813967 -0.29206899 -0.2220065 0.20591822 -0.34104827 -0.021056481 0.14581493 0.17877221 -0.14953718 0.27085996 0.034120657 0.076594092 -0.1954021 -0.21258388 0.0049980124 -0.03929729 -0.12214036 -0.53915805 -0.087617442 0.14289522 0.0095288428 0.09341035 -0.067691728 -0.16396478 -0.11070628 -0.10682203 0.13320436 0.06109269 0.20227271 0.30662227 0.17476462 -0.0020954015 0.21953364 0.16195318 -0.88563269 -0.015046799 -0.17297693 -0.46422923 -0.014217995 -0.084600031 0.084756672 -0.30072927 -0.15939359 0.42140511 0.048618 0.31154335 0.13979569 0.51271641 -0.061181467 -0.37574744 0.033168066 0.045256343 -0.42448443 -0.29457077 -0.4171949 0.32805234 -0.097782671 -0.047601014 0.37859342 -0.15218136 -0.26053536 0.037151292 -2.5685848e-05 -0.18439762 -0.18306981 0.13776603 -0.30485958 0.29662353 0.14617625 0.22458003 0.10580929 -0.12639181 -0.17241861 -0.23781744 -0.37405202
1621 -0.56428331 -0.35817346 0.19778772 -0.024409849 0.0081329793 -0.23592024 0.049766719 -0.25304997 -0.31794512 0.19851589 0.13200019 0.12673983 0.032018673 -0.025115637 -0.25716519 -0.075923003 -0.11690767 -0.23683938 -0.036698055 -0.24150307 -0.28680179 -0.0051105749 0.14982182 -0.13843559 -0.34734175 0.027293805 -0.17876707 0.26622176 -0.17381981 0.15540335 -0.2762984 -0.29285169 -0.58562559 -0.372926 0.079578929 -0.65487641 -0.057380084 0.38360754 -0.34021962 0.10987186 0.20247646 -0.11477905 -0.25750563 0.19115618 -0.09192317 -0.0029345693 -0.15808043 -0.32578418 -0.16643806 0.26496765 -0.30607921 0.27771825 -0.13821255 0.34715641 -0.032604299 -0.1205972 -0.093951754 -0.00088033912 -0.35972267 0.026744559 -0.29555589 0.20570175 0.026674606 0.33861819 -0.54450363 0.32656622 -0.0092599355 0.16671768 -0.28797218 -0.3016673 -0.20662905 0.026788006 0.16011706 0.66380835 0.10418306 0.064523898 -0.45716882 -0.12130689 -0.19359222 -0.02312761 -0.23382476 0.14865512 0.0074994802 0.22332147 -0.089465588 0.048007373 0.020928033 0.086023554 0.12449946 0.10304823 0.18971471 -0.073159061 -0.4699901 0.091245092 -0.42244765 -0.045709025 0.37341577 0.11735334 0.33777115 -0.2135805 0.28835905 0.1593658 -0.17110126 0.18017477 -0.2525695 0.07816793 -0.17631538 0.42586985 0.14159641 -0.042554159 -0.27306983 0.18171424 0.0284288 -0.038856689 -0.0048640249 -0.29933044 -0.41656047 -0.12624414 0.25588635 -0.2066367 -0.1546738 -0.034716863 0.079116896 0.36143652 -0.009253853 0.16908675 -0.15104987 -0.62298727
510 0.11901237 0.19309574 -0.095923647 -0.074051626 0.073677994 -0.18284571 -0.0049069519 -0.32883435 0.054154225 0.028277805 -0.27645004 0.22394848 0.23646264 -0.16517343 -0.16047743 -0.28805575 -0.059739605 0.18098396 0.074164495 0.24477512 0.48275578 -0.44627941 -0.027974913 0.20780453 -0.095744625 0.3464945 0.4134689 0.090831243 -0.51062131 0.2349333 -0.65688455 0.37411684 -0.087239914 0.056520257 0.3073737 0.20203646 -0.042135179 0.026189355 0.024657857 0.17195202 0.17603619 -0.18456458 0.17400649 -0.13520576 0.43082505 -0.33940807 -0.31700099 -0.2278647 0.18786076 -0.33634213 0.15856285 -0.43125254 -0.15645753 0.13574958 -0.21479626 -0.39490458 0.081454925 -0.19553444 0.29765251 -0.078411415 0.46316698 -0.052934956 0.35008284 0.58885145 -0.085612543 0.33270004 -0.073562592 -0.10764401 0.044021569 -0.27591339 0.069833495 0.15442625 0.28333396 0.31318069 -0.22156011 0.011002082 -0.21909083 0.1725861 -0.0229697 0.52692443 0.14697489 -0.35579002 -0.22707507 0.00064706459 -0.6299234 -0.1631773 0.11356151 0.081926689 -0.16920057 -0.22835542 0.16944134 -0.3611764 -0.4556714 -0.20201737 -0.0069731828 -0.065381877 0.23101279 0.16276354 0.058435109 0.01825981 -0.063188024 -0.079797029 -0.37816799 0.1526905 -0.077198081 -0.20230101 -0.10930169 -0.1108044 0.014622831 0.23759368 -0.33312508 -0.20071097 0.17186388 -0.037609152 -0.18099712 0.24207091 0.55265743 0.12400857 0.24342328 -0.028692229 0.35233548 -0.086841412 -0.20748419 0.04466942 -0.25218314 0.090252168 0.38899142 0.025151705
1443 0.19511232 0.019526469 -0.20782687 -0.12415372 -0.1909945 -0.2149618 0.094526343 -0.21342896 -0.13901152 -0.037387766 0.43237844 -0.13624373 -0.18302493 0.40734178 -0.21399386 -0.062051367 -0.24327733 0.015549643 0.23610763 -0.2038718 0.10843564 -0.034610324 0.14206888 0.041888211 0.26736605 0.39478719 -0.43130478 -0.35692537 -0.051698051 -0.19831046 0.10733359 0.22804309 0.086726792 -0.5266819 -0.43452775 -0.050603066 -0.37443241 0.080555685 0.30221057 0.14066102 0.14498536 -0.10434159 -0.18904053 -0.6126011 0.024913775 0.27935135 0.25656193 -0.25419125 -0.013002266 -0.27839851 -0.20529778 -0.48291352 -0.46464765 0.28108323 -0.097346373 -0.23181471 0.016201014 -0.19365977 -0.37598827 0.055146843 -0.035895552 -0.24072589 0.096592471 0.33109832 -0.45074809 -0.23470668 -0.30923954 0.041725405 0.22833212 0.13793491 -0.54391074 -0.28484878 0.35424867 0.42466858 0.097427011 -0.075339802 0.076387584 0.25871363 -0.45520324 0.078060754 -0.022121601 -0.40719816 0.29001886 -0.0086329095 -0.01036171 -0.058745477 -0.10936801 -0.0053186296 0.20657161 0.10082699 -0.18698367 -0.69273007 -0.19029731 -0.37076506 0.06532304 -0.0085570468 0.35568428 0.0024507167 0.1810527 0.059030138 -0.010638584 -0.11522335 0.030677093 0.25102726 0.24097854 -0.28938195 0.28750288 0.030094706 0.18412645 -0.38299525 -0.31670237 -0.13256328 0.055473935 -0.44577631 -0.12311896 0.14293294 0.065967441 0.2075253 -0.12095118 0.23643562 0.014477681 0.30164167 -0.058662292 -0.24967879 -0.31343761 0.18775854 -0.48520619 -0.35303512
2330 0.070876352 -0.48733059 0.061253741 0.21320161 0.056854084 0.14376949 -0.037533276 -0.36435926 -0.49098864 0.36876342 0.075544596 0.77572846 -0.014238262 0.44016343 -0.067412093 -0.0017299592 -0.16316004 -0.050754804 0.21116033 -0.65519941 0.25259116 0.050860465 0.426617 0.28154448 -0.058730405 0.31486571 -0.37225512 0.50132686 -0.036839981 -0.0016464066 -0.13504706 -0.49633726 -0.15900007 0.066062778 0.14908628 -0.25337642 -0.082273535 -0.064346015 -0.054520652 0.22613157 -0.075099371 0.19639455 -0.34687114 0.26160982 0.11281639 -0.12507547 0.012930744 -0.48665428 -0.13408321 0.25612983 0.11977794 -0.12393304 -0.34905839 0.24414426 0.032891363 -0.27802041 -0.27979407 -0.24104753 0.25084895 0.33367327 -0.070016302 0.15650846 -0.12741485 -0.17555518 -0.3291153 0.0014293909 -0.12936831 0.21279193 -0.040933263 -0.12759013 0.22089089 -0.065225035 0.43402743 0.40268451 -0.14089058 -0.16230337 -0.77135068 -0.09472511 0.13024756 0.077055953 -0.13879061 -0.26670015 -0.013199668 0.24355422 -0.21001557 -0.2413577 -0.24614935 -0.15800191 0.12484756 -0.16822235 0.50359023 -0.085314207 -0.24121362 0.088872686 -0.27959526 -0.35731348 -0.054750018 -0.0174719 0.21244514 -0.20629051 -0.0026349295 0.020854143 -0.1098282 -0.099969231 -0.47425526 0.23628634 -0.24497654 -0.10596835 -0.27823079 -0.54278725 -0.26151168 0.064405307 0.071800709 0.13247627 0.041455608 -0.26371947 0.1235226 0.062026549 0.55987519 -0.043028619 -0.023243826 -0.29205218 0.16372108 0.033700552 0.38285574 0.041490234 -0.073216252 -0.25544789
1722 0.083413176 -0.27934563 -0.23144326 -0.0071432763 -0.1473764 -0.67576885 -0.12706441 -0.089281678 0.27045873 0.17953269 -0.018695368 0.16995226 0.082217537 0.15676592 -0.11746398 -0.37556502 -0.25309449 -0.2190212 0.0033829103 0.1794121 0.1823681 -0.36737248 -0.20238391 -0.20329398 -0.3661516 -0.012324492 0.38024241 -0.21268032 -0.41052252 -0.036994383 0.13490424 0.50770557 -0.54917192 0.29457542 0.52510792 0.044264827 -0.2532602 -0.40440962 0.15041028 0.014280749 -0.049959291 0.13551891 -0.14888099 -0.12567343 0.63616067 -0.27620101 0.033602003 0.1734713 0.31310764 -0.1877591 -0.10874697 -0.14497146 -0.073042169 0.27530771 -0.19674227 -0.075182177 0.56438226 0.30960089 -0.057163533 -0.3094106 0.035560708 0.025141895 -0.2302203 -0.23773023 -0.42589393 0.20472261 -0.26525319 0.24546462 -0.34112838 -0.44124752 -0.23897141 0.005732452 0.18880698 0.14151265 0.049548697 -0.28098175 -0.11010139 0.20388894 0.56503302 0.2931585 0.41481596 -0.31056929 0.10759757 0.40213916 -0.32235953 0.18770358 0.15423654 0.32358798 -0.29258436 0.1210181 0.072268426 -0.11953983 0.0063400501 0.15766695 -0.34038013 -0.29385144 -0.049701743 0.35687968 0.49774164 -0.22920844 0.35550028 -0.14859924 -0.50487602 -0.0099197486 -0.3953394 0.12755163 -0.42450961 -0.16296634 0.033960935 -0.17973424 -0.14774647 0.26666325 0.081310377 -0.2002151 0.31599247 0.27357092 0.28261399 0.071085833 0.0844175 -0.087870128 -0.096363299 -0.02946868 0.36104628 0.10327313 -0.21220717 0.41112837 -0.080852248 -0.066744238
68 -0.14704105 -0.051564269 0.094849952 -0.3426618 -0.3269693 -0.17657247 -0.17868511 -0.18283926 -0.093198985 0.15241489 -0.041068923 -0.17586525 -0.23166116 0.082227089 -0.21308106 -0.33474061 -0.18994416 -0.048269246 -0.049075909 -0.45429873 0.60380185 0.26662406 -0.020915426 0.063811883 -0.16984215 0.13345963 -0.32933062 -0.11019557 -0.23279914 -0.12182029 -0.0075389924 -0.11265413 -0.043945275 0.0018632348 -0.13749781 0.059312232 0.23916309 -0.23783182 -0.30387092 -0.034333728 0.061257571 0.2584928 0.0027726742 -0.20104192 -0.099874616 0.33015335 0.342621 0.086065054 0.094403543 -0.066753931 0.035875227 -0.39459914 -0.051190201 0.39735416 0.3022919 -0.63144964 0.14603829 -0.090626001 -0.086231157 -0.084274732 0.0077478271 0.027566699 -0.051296294 0.16760275 -0.28300869 -0.048423707 -0.51703173 0.097219542 0.24201174 -0.17399141 -0.38380063 -0.015876915 0.26538301 -0.095123351 0.53102249 -0.17025383 0.3764464 0.40231273 -0.15928522 0.23495021 0.07637345 0.14698917 0.22382976 0.11172876 0.078403451 -0.016063668 -0.356291 0.035678826 -0.0034888347 -0.24896459 0.095838949 -0.61953372 -0.1905681 -0.25269377 0.018450581 -0.65618432 -0.14915828 0.35941523 -0.32564142 0.17201994 0.011156917 -0.10624184 -0.14529502 0.088583149 0.43622527 -0.49195442 -0.30434921 0.027361408 0.15682051 -0.068237744 0.034409806 0.52671391 0.14815977 -0.1138045 0.24025598 -0.29166815 -0.16514342 0.22022754 -0.047623899 0.1047582 0.15254682 -0.056576069 -0.14661264 -0.24437316 -0.72311372 0.45553589 0.13312531 -0.38657382
1476 -0.12310567 -0.05870736 0.13665643 -0.42941082 -0.2381923 0.098987907 -0.025508318 -0.15038456 -0.12598836 0.12892768 0.12829763 -0.48927549 -0.08664991 -0.079986796 -0.22819468 -0.15531945 -0.47634488 -0.37310693 -0.0431569 -0.60491711 0.28802261 -0.06621062 0.0020674455 0.023410406 0.080523446 0.5278939 -0.31269619 -0.4214676 -0.22291161 -0.4635632 -0.024153074 -0.15904243 -0.27551612 -0.46708995 -0.33128223 -0.092386164 -0.68971127 0.33615476 0.38390985 -0.033247106 -0.17511463 0.13944115 0.058208223 -0.44654852 0.14294142 0.21603154 0.085408539 -0.33594191 0.068425298 -0.19065298 -0.28397501 0.0078818267 -0.20573154 -0.14324203 -0.18000096 -0.23622483 0.49979848 -0.44116747 0.020403303 0.35510203 -0.14908257 -0.26899946 0.49538696 0.47007594 -0.1846137 -0.23672272 0.11824685 0.27126154 0.11469095 0.058043189 -0.23235603 -0.13019495 -0.019601122 0.28667384 -0.15460593 0.48841724 0.036527812 -0.26565269 -0.12437063 -0.041999999 0.03631207 -0.10977151 -0.17324437 0.12711592 0.039192874 0.29283682 -0.20266734 0.12889479 0.10332014 0.20397204 -0.263989 -0.71738815 -0.087783359 -0.4414413 0.033905018 -0.041762717 0.31916353 0.16286245 0.061233133 -0.046072468 0.12433342 -0.26532039 0.014312205 0.52400476 0.060876761 0.089976728 0.19472504 -0.11187633 0.0041838693 -0.307403 -0.36768681 0.24468111 0.19053891 -0.3481566 0.38251719 -0.22358678 0.12584706 0.23599811 0.19419806 -0.12624249 0.36519969 0.4228825 0.1039782 -0.12786955 0.098298527 0.28887579 -0.054922469 -0.38694286
1478 0.065017357 -0.0090641696 0.21345773 -0.15341194 -0.032913685 0.030060347 0.030669583 -0.22510196 0.0018353458 0.076742604 0.2830711 -0.10119481 -0.090609588 0.13885097 -0.40825552 0.30959389 -0.37974215 -0.076240458 0.1533843 -0.074830264 0.22915138 0.030105095 0.23550364 -0.035467327 -0.084505677 0.0301315 -0.61571103 -0.45915344 0.0062679756 -0.19474609 0.070056058 0.15808013 0.14696269 -0.32803145 -0.38567141 -0.40177438 -0.37874082 0.33257854 0.57540166 0.082126141 0.22231643 -0.045111019 0.055320866 -0.76731443 -0.072497033 0.19973446 0.022736348 -0.051078897 -0.1308258 -0.37045148 -0.33657092 -0.18619435 -0.21965107 0.17182162 0.16961974 -0.18451685 0.51260221 -0.23817845 -0.3038232 0.18169132 0.24029386 -0.22511986 0.14934385 0.41859591 -0.28543714 -0.25031632 -0.29089335 0.3768568 0.11835279 0.45428726 -0.3385857 -0.26556066 0.23291261 0.22920926 0.018313559 -0.0072080791 0.29623377 -0.21850035 -0.16913593 -0.091829382 -0.15817074 -0.24941866 0.22625795 0.04288331 0.036996625 0.017829817 -0.18996227 0.035737194 0.45814827 -0.2257182 0.2102724 -0.81276202 -0.56824911 -0.18814324 -0.032042161 0.0064059333 0.2524761 0.28095624 0.29676807 -0.054365132 0.25541639 -0.21206725 0.066574253 0.48301554 0.39715177 -0.24336582 0.22585405 0.045724589 0.25815159 -0.21084997 -0.22968642 -0.027730253 -0.10141545 -0.36725122 0.047218375 0.22739275 0.094926357 -0.015329016 0.11348002 0.12976779 -0.045027025 0.42208827 0.2145382 0.038481601 -0.30401862 0.1028982 0.011867033 -0.31913096
2159 0.034501664 0.11766941 0.30639973 0.032590263 -0.04899279 -0.11786973 0.18878077 0.14796193 -0.28064001 0.024402596 0.30377918 0.43323022 -0.15720017 0.3751179 0.096080996 -0.58290076 0.21657024 -0.16889758 0.063364051 -0.10339177 0.11149011 -0.09060026 0.95665932 -0.059942633 -0.24656458 0.66712588 0.17925258 -0.057058416 -0.052139878 -0.16763823 0.17075671 0.0051463032 -0.28450009 -0.31443995 -0.24736279 -0.28437966 0.40452439 0.017364277 -0.42374703 0.16787279 0.19785462 0.35968229 0.38402513 -0.55389982 0.069262274 -0.31852117 -0.27440092 0.18235275 -0.35185668 -0.11987444 0.21747403 0.19231239 0.15457447 -0.050754108 0.21911258 -0.23043531 0.181593 0.098641381 0.013405764 0.013546056 -0.27047166 -0.071948811 0.56485575 -0.13910416 -0.15638894 -0.11078954 -0.053447451 0.31521693 0.017726723 -0.28418404 0.19130448 -0.060435545 0.28043738 0.61803389 -0.094320953 -0.12060382 0.14115186 -0.064710043 -0.043904506 0.23205464 0.1909219 -0.025888896 0.22462566 -0.28481528 0.053129189 0.27390242 0.27699241 -0.012070246 -0.39432922 -0.17659968 0.004788457 0.061401244 -0.69369602 -0.24940094 0.39538196 -0.30746531 0.38697964 0.45142969 0.079397403 -0.13213414 0.083222426 0.20045133 -0.12691317 -0.10518314 0.089292482 0.10405324 -0.27055249 -0.086213201 -0.058259197 -0.37052509 0.17112432 0.0092588877 -0.0095707243 -0.26866889 0.30024195 -0.14674635 -0.24898079 0.044941213 -0.022560969 -0.22087601 0.21241443 0.1864118 0.36127555 0.26426464 0.16426261 -0.040356353 -0.0064632366 -0.17810476
2197 0.21233241 -0.2809374 0.096277758 -0.085725941 0.24209218 -0.28376743 -0.11489827 -0.020072309 -0.040329788 0.012337487 -0.21953152 0.29142448 -0.069942541 -0.3993496 -0.067441076 0.11385733 0.088524856 -0.25562412 -0.14049843 -0.50463247 0.17573531 -0.19718599 0.46564609 -0.0078498749 -0.10893686 0.1173507 0.050515309 0.19698079 -0.32159889 -0.10384391 0.0082727401 -0.17562917 0.29687831 -0.12459241 0.31639481 0.19122179 -0.024628993 -0.073043354 0.14225744 -0.13514659 0.11044744 0.87571514 0.11027824 0.057594448 0.14700791 0.16487454 -0.14403068 -0.26179051 -0.023727877 0.16912307 0.22292548 -0.041582476 -0.33211896 0.016154477 -0.07847394 -0.4054074 -0.11526307 0.18445027 0.14274535 -0.08316417 -0.25543648 0.20676424 -0.014449769 0.22574319 -0.23604983 -0.16799699 -0.15316635 -0.20973359 -0.16904053 -0.84731406 0.008952341 -0.088632479 0.37586462 0.40862718 0.16659784 0.25461575 0.27564082 0.13622072 -0.14450552 0.5136351 0.11471054 -0.14499696 0.12654208 0.14883471 -0.57915968 0.11698834 -0.21036504 0.14563817 -0.13547873 -0.0057740528 0.01948842 -0.11344655 -0.3811838 -0.14450267 -0.010048307 -0.38207051 0.46125337 0.35239315 0.8886655 0.022448974 0.30178937 0.011934166 -0.16004014 0.2011278 -0.22628407 0.035128165 0.094767109 0.45678836 -0.31092414 0.028430719 0.13297494 -0.28136483 0.004412557 -0.13901724 0.22837418 0.22463208 0.46161982 -0.021265546 -0.13146895 -0.2610687 0.35161653 -0.0055821571 0.051609028 -0.045819644 0.16053614 -0.3898654 -0.0636933 -0.52051336
568 -0.1791984 -0.47749114 0.26013312 -0.25562409 -0.24872121 0.18895312 -0.27235079 -0.2014522 0.14344637 0.51249123 0.52221042 -0.20006327 -0.12072731 0.018024793 -0.28966293 -0.012320199 -0.27568603 0.45306787 0.26832449 0.14876696 -0.00015631225 -0.15133432 0.30358428 0.0059206854 0.078529365 0.36739618 -0.13937952 0.60597807 -0.47547033 -0.0042735082 -0.34124252 -0.13097747 -0.15233248 -0.20114182 0.32172915 -0.62610769 0.004460773 -0.24625 0.57275218 -0.25510019 0.35088888 0.10247701 0.25334519 -0.43024749 0.23595344 0.32835168 0.04579027 -0.13098371 0.058014862 -0.45488507 -0.1455994 -0.2704896 -0.16172491 0.23533568 0.23766853 -0.44128102 0.34381694 0.10968728 -0.097164743 0.28562668 0.20129931 0.36094034 -0.10122778 -0.00099309988 -0.60336286 0.062194627 -0.23653814 0.47190794 0.10565853 0.047760718 -0.71236092 0.42171979 0.31010097 0.25244164 0.13755523 -0.15272343 0.61443251 -0.18780403 -0.25769442 0.21805739 0.29223204 -0.055155989 -0.28139302 0.16656019 0.057805363 0.1560553 -0.2988641 0.69315475 -0.13773106 0.10218377 0.2208584 -0.56434995 -0.0388177 0.29115394 -0.023226956 -0.025912533 0.38411185 0.37422055 0.57664263 0.40442452 -0.0014224274 -0.21384887 0.29556555 0.094352789 -0.31007391 -0.30626994 0.31415048 0.20017648 0.53846586 -0.089577124 0.11688907 -0.20527211 -0.084910244 -0.33201578 -0.25645387 -0.035510961 -0.00051847677 0.10981604 0.18176052 -0.4535248 0.65597981 0.059675042 -0.031502653 0.48049349 -0.10794068 -0.018670985 0.14298318 -0.305769
1330 -0.048041414 -0.36887276 0.089325339 0.36757857 0.074875548 0.030264007 0.0088863047 -0.14225125 -0.10298166 0.048232291 0.14259964 -0.2102541 0.49070078 -0.16389315 0.19372493 -0.10149185 0.010674168 0.45843735 -0.50664443 -0.35972455 0.33013847 -0.37730706 -0.068391472 -0.097914346 0.064855605 0.40115401 -0.092377082 0.27060491 -0.1365677 0.00063267257 -0.038632728 0.30489671 0.077405304 0.039960105 0.16912922 -0.3617073 -0.41997316 -0.16217475 -0.14403479 0.42228994 -0.027031044 0.075831957 -0.12198101 -0.56456 0.16794637 -0.074360304 -0.27676022 0.018490583 0.20647129 -0.20636858 -0.0010247104 -0.10548698 -0.16318502 -0.1852607 -0.040350575 -0.056040253 0.024340862 0.15437208 -0.0026639558 0.29160064 -0.106507 -0.10270936 -0.28722852 0.062093798 -0.2187833 -0.091060221 -0.060297705 0.33340183 0.0041042427 -0.37156415 0.11963158 0.13109665 0.84559661 0.15987226 -0.2534084 -0.086773969 -0.24549867 0.43743187 0.11878101 0.44619128 -0.17045255 0.35575247 0.14161973 0.066018268 -0.36442629 0.41093379 0.071308039 0.51055962 -0.21162935 0.17836387 0.14537987 -0.39849705 -0.73023355 -0.21136144 -0.040914308 -0.37245867 0.03475406 -0.060104407 -0.023699462 0.062986776 0.0056690336 -0.10752903 -0.45971662 0.13598861 0.060599089 -0.61472344 -0.111145 -0.18859528 0.036947701 0.14646791 0.19115619 -0.012937403 0.18682481 0.22393399 -0.41354233 0.28749728 0.53147781 -0.097733222 0.018205155 -0.46678022 0.4611932 -0.20699295 0.24152394 0.40270072 -0.071624279 0.10271443 -0.47275779 0.42354193
1460 0.036676977 0.030401165 0.070014402 -0.23030728 -0.11564733 -0.085260287 -0.10191777 -0.30344 -0.15561034 -0.10897829 0.34442636 -0.25134417 -0.1605498 0.23077157 -0.32450265 0.093496472 -0.59209758 -0.18659204 0.15668912 -0.26171127 0.40195948 -0.003353162 0.16802515 -0.1847124 0.27651525 0.16946571 -0.49598697 -0.25527129 -0.40637854 -0.35955739 0.029049817 0.1780256 0.21642737 -0.31388211 -0.1936274 -0.2415949 -0.45972139 0.11897597 0.54156858 -0.19479153 0.034513026 -0.037313398 -0.011734991 -0.49529678 0.031379223 0.38867605 0.23392302 -0.15074071 -0.094750859 -0.46640447 -0.40163326 -0.277834 -0.073831692 0.077544592 0.11881542 -0.38038787 0.243048 -0.38744995 -0.16743183 0.35052302 0.16218503 -0.11566591 0.060736481 0.21065718 -0.38267753 -0.13418761 -0.21291555 0.56381708 0.14595988 0.27915877 -0.093991138 0.0010947351 0.10462505 0.27577758 0.031771496 0.045566734 0.091570862 -0.12101254 -0.31375694 0.047587462 -0.087855525 -0.2632387 0.0013532105 0.13836791 0.19778392 0.066074468 -0.1714026 0.15157779 0.062564112 0.25033334 -0.025528328 -0.74918348 -0.48315501 -0.31345269 0.040305033 -0.0043596704 0.25978926 0.070246689 0.36340305 0.24236204 0.073333815 -0.17457707 0.09766154 0.43085179 0.17125402 -0.20332941 0.22039835 0.22567761 0.3385781 -0.33655831 -0.3105188 0.028123712 0.025410879 -0.49780804 0.046759453 -0.087797217 0.0048878631 0.21129642 0.24868806 0.092186481 -0.0031072593 0.3979764 -0.034330469 0.082492195 -0.32740825 0.038212873 -0.019149348 -0.4109748
1430 -0.042797405 0.11727186 0.13730876 -0.097731523 -0.19231051 -0.13380885 0.16490419 -0.19502075 -0.17706767 0.18582024 0.48553425 0.07426998 0.13666363 0.040289745 -0.48276815 -0.084910579 -0.50012374 -0.30278003 0.13008158 -0.2166414 0.30157077 -0.1213802 0.27782437 -0.05542611 0.13301043 0.30177137 -0.092679039 -0.47420496 -0.53056383 -0.20879798 0.25266212 0.030796751 0.2900438 -0.56549472 -0.068037249 -0.15406297 -0.39536762 0.053763162 0.44071782 0.03524147 0.12888272 -0.33700261 -0.24443111 -0.46245182 -0.056036815 0.1736404 0.15661086 -0.012492876 0.19470158 -0.28848866 -0.10567953 -0.1664869 -0.07588511 0.069200225 0.24443679 -0.37742695 0.21556233 -0.28760216 -0.10449806 0.49809799 0.29962799 -0.18319687 0.053757723 0.32764572 -0.29231238 -0.33623198 -0.37022442 0.40125731 0.28465065 0.23480546 -0.093044527 0.139181 -0.17763962 0.12387963 0.13212205 -0.23167178 -0.042067748 0.014964845 -0.05920453 0.0068728975 -0.18270867 -0.47643843 0.30257016 0.13986005 -0.29704571 0.24608192 -0.21448377 -0.0073370812 0.1899773 -0.055504981 -0.17054637 -0.74028641 -0.25855455 -0.36358163 0.12581682 -0.051216789 0.4726887 0.013207661 0.050124988 0.28484088 0.0067760847 -0.20628245 -0.010557684 0.69217294 0.38608563 -0.0078561883 0.13446572 0.35103309 0.060686611 -0.26963699 -0.27054858 -0.31251273 0.22957689 -0.61949128 0.26154718 -0.076412722 -0.017591206 0.25110537 0.079029679 -0.23938838 0.14844263 0.090568908 -0.07300435 0.030784935 -0.30109715 0.18139201 -0.13345738 -0.25282741
1446 -0.031786587 0.12597558 -0.016386393 -0.37728953 -0.11271309 -0.047453668 -0.050749473 -0.30089593 0.01682855 0.12542346 0.14722885 -0.14193237 -0.07671082 0.04458119 -0.26968491 0.023726918 -0.59376812 -0.24029635 0.27110377 -0.071381986 0.38420704 0.084430888 0.12649517 -0.078411832 0.21281441 0.34288391 -0.53940326 -0.2393716 -0.28653178 -0.45165959 0.0042876033 0.097560748 0.15444237 -0.64198613 -0.2444683 -0.15489928 -0.47596726 0.30268937 0.36592349 0.16007036 0.086012565 -0.067537174 0.058498733 -0.62525392 -0.182723 0.18641838 -0.00010861394 -0.10563865 0.093959913 -0.53411889 -0.27617151 -0.073005162 -0.4068602 0.17457953 0.10918009 -0.44606251 0.26562664 -0.36819655 -0.12000454 0.29798126 0.045991208 -0.31201375 -0.054821141 0.31349427 -0.14714521 -0.31422514 -0.22004567 0.38847631 0.034730226 0.13631542 -0.26515225 -0.12175775 0.085418426 0.23410392 0.034192406 0.026982568 0.056854114 0.14199887 -0.16283876 -0.037073724 -0.076321892 -0.24219014 0.13358378 0.02824978 0.055535469 0.15843372 -0.14828084 0.13316135 0.29903388 0.10433277 -0.23232178 -0.70995283 -0.25283319 -0.4212817 0.103715 -0.066922933 0.45789957 0.1403781 0.24586485 0.22448398 -0.043669082 -0.13055514 -0.023970721 0.53494537 0.092402175 -0.3508442 0.10024714 0.1841412 0.22550419 -0.27580965 -0.35661492 0.13021335 0.18429507 -0.50102198 0.084293433 -0.15641564 -0.0362073 0.29092652 0.28384906 0.10544471 -0.06193199 0.2660417 0.019623941 0.15890236 -0.28278494 0.024564603 0.011612995 -0.21722254
1444 0.26433495 0.09547551 -0.022345576 -0.050917204 -0.083216757 -0.08740437 -0.26010767 -0.20569488 -0.195585 0.079808392 0.19707172 0.020741902 -0.282509 0.21552096 -0.54300469 0.27832866 -0.54388845 -0.046819929 0.11200841 -0.18627982 0.40097666 -0.021585168 0.39474073 -0.024220658 0.091568463 0.13660716 -0.36098027 -0.46213093 -0.29221216 -0.15000056 0.097479463 0.10772666 0.060539294 -0.31261337 -0.33858758 -0.41680676 -0.52264279 0.081675008 0.44400266 0.0012408497 0.10273805 -0.0013939728 -0.21588616 -0.61439145 0.055095319 0.15668567 0.2174684 -0.26767522 0.057021029 -0.3618494 -0.3542147 -0.16071011 -0.33702904 0.091316827 0.18320304 -0.35470739 0.30295983 -0.24193002 -0.12287862 0.26375872 0.194967 -0.48196909 0.11458703 0.27041957 -0.25071654 -0.10535628 -0.27063039 0.33639216 0.096525751 0.066151001 -0.045779996 0.009136823 0.142149 0.56164134 0.02185471 -0.13352993 -0.080118746 0.11070224 -0.22517557 -0.097071014 0.011439941 -0.19987155 0.31816703 0.11680529 0.035210263 0.18258826 -0.099737063 -0.13240589 0.22811979 -0.044072416 -0.090122268 -0.67067105 -0.19821976 -0.61396015 0.11749644 -0.20235571 0.31074217 -0.058900397 0.24584331 0.16015707 -0.11867394 -0.23417288 -0.089333557 0.49651277 0.15599862 -0.092054509 0.16740814 0.093046464 0.25835529 -0.069761775 -0.13917392 -0.10953587 0.19369631 -0.37668473 0.25155005 -0.11799203 0.093005672 0.39344263 0.17194873 0.11095186 -0.27060416 0.22837731 -0.032395117 -0.23105869 -0.25823215 0.077701263 -0.33226404 -0.37034386
1646 -0.3526701 -0.35534969 0.021562302 0.21762408 -0.3570666 -0.14813864 0.20861439 -0.2388549 -0.27666783 0.0068396805 0.21614672 0.35195869 -0.031281117 -0.23743108 -0.46645677 -0.49094024 -0.23530254 -0.1878677 0.05855104 -0.095504358 -0.42055327 0.055426173 0.098157838 0.12963209 -0.35498831 0.1438989 -0.53809279 0.03237563 0.23632534 -0.0060875192 0.007251543 0.078744195 -0.48161194 -0.29605612 0.11314318 -0.52058345 -0.35850611 0.42391771 -0.25603849 0.40186805 0.15583715 -0.24365327 -0.19299223 0.24694747 -0.13030086 0.037166782 -0.064449169 -0.33435866 -0.25033692 -0.24637067 0.035100747 0.13237077 -0.28359279 0.10058834 0.1529232 -0.06039764 -0.43438777 -0.29653642 0.036087826 0.087796897 -0.25818345 0.11311394 -0.2114699 0.024236677 -0.52592969 -0.085493617 0.03268284 0.16518451 -0.20805542 -0.31032804 0.32350507 -0.14344171 0.46925494 0.46299988 -0.061969116 0.094879992 0.048247714 -0.22198477 -0.18923043 0.19769682 -0.19328667 -0.080594465 0.10189068 0.11901236 -0.25797918 -0.14571445 0.16300964 0.057850171 0.060776606 0.019827006 0.15901214 -0.27560249 -0.50931084 -0.025612239 -0.46352425 -0.31563252 -0.12799266 0.15120564 0.23453754 -0.35762587 0.17541562 0.42163312 -0.57071549 0.0013110018 -0.34284532 0.23860921 0.17601484 0.19854687 -0.0068906276 0.091193251 -0.35423449 -0.023119841 -0.15732232 0.13463527 -0.14610162 -0.35462645 -0.22088033 -0.14944008 0.52931309 -0.38787147 0.14997804 0.008855233 -0.30164286 0.37376055 0.15551196 -0.017493745 0.020886477 -0.55810189
1573 -0.07661394 -0.47347912 0.1092748 -0.022969786 0.072809577 -0.0058477521 -0.1650036 -0.39245528 -0.33301625 0.0072307917 0.31122696 0.001119173 -0.25323415 0.26312917 -0.02112305 -0.36580309 -0.1124585 -0.14974917 -0.1857406 -0.050451718 0.22273584 0.21050161 0.18258594 -0.31551826 0.24297269 0.14944433 -0.47245219 -0.44191828 -0.15948842 0.068184428 -0.12249631 0.43900961 0.13109994 0.030307259 0.15401351 0.30022967 -0.41976175 0.092104405 0.055069357 -0.0089661907 0.17180313 -0.1575653 0.49225086 -0.058517694 0.16844657 0.080983624 -0.24997695 0.14731182 -0.21651715 -0.32018921 -0.17872642 0.25557202 0.10935812 0.040571712 -0.61209494 -0.19615476 0.065657645 -0.52599955 -0.36858538 -0.20015424 0.11547358 0.045704644 -0.018540222 0.10705617 -0.37189847 -0.67118615 -0.11846525 0.128379 -0.062446352 0.56436658 -0.23280182 0.24365418 -0.28289479 0.49703997 -0.22163537 0.25653443 0.29094899 -0.4373883 -0.06187062 0.36440882 -0.2688694 -0.29144651 0.22104916 0.28485221 0.24591824 0.19395544 -0.32754239 -0.057367325 0.12751815 0.1426605 0.10091962 -0.85624087 -0.54425442 -0.046968862 -0.25253078 -0.20447868 0.25185674 -0.23831449 0.026948838 0.067559533 0.12930305 0.27607158 -0.14023142 0.16612488 0.10808398 0.000506123 0.27801585 -0.42806193 0.13349728 -0.12338713 -0.35668606 0.073149987 -0.17575987 -0.492064 0.040345386 -0.049361106 -0.2035155 -0.27957141 0.11859294 -0.11404132 -0.28411195 -0.22007288 0.13392684 0.49154803 -0.32763243 -0.24239706 0.073700964 -0.075895421
399 0.50292569 0.085693039 0.13264854 0.18178804 -0.2867102 -0.41992104 0.097118214 -0.29526296 -0.19592927 0.013379722 -0.16451316 -0.0063971886 0.021459447 0.29249442 0.041288119 0.44646934 0.028390564 -0.19335765 -0.11812929 -0.32432094 0.031367928 0.2242102 0.36750525 0.17800075 -0.074098878 0.57341957 0.16104491 -0.24477002 0.23277737 -0.35421145 0.14622311 0.13197561 -0.27677393 -0.7951082 0.5707348 -0.27287251 -0.27521113 -0.35424885 0.058785722 0.13718666 0.16843216 0.4881731 -0.011504959 -0.13686611 0.20603606 -0.06925422 -0.30273515 0.10560029 -0.035688367 -0.29094157 -0.13442668 0.29143098 -0.05880357 0.59372634 -0.29844686 -0.22791013 -0.3087984 -0.16796297 0.081094004 -0.077838287 0.084727429 -0.032502472 -0.030819874 0.11532624 -0.39051771 -0.09766154 -0.41039124 0.16492695 -0.18738882 -0.37355644 0.44259405 0.12516972 0.075914264 0.20660768 0.29383269 0.089193329 -0.11042958 -0.19225451 0.19760534 -0.14549604 0.04608541 -0.16282178 0.2615369 0.29489428 -0.241465 0.029645452 -0.45047367 0.022317471 -0.096156299 0.10376904 -0.078973159 0.21489483 -0.10397699 0.14484107 0.41676238 -0.11056691 0.27700689 0.36791945 0.097661309 0.11442703 -0.030134544 -0.072499506 0.056608476 -0.14984511 -0.1460558 -0.18456757 0.051135391 -0.25936395 0.15311153 0.0058215507 0.41572723 -0.057312969 0.0055727991 0.08809185 0.054378081 -0.26101342 -0.024838768 0.00048261083 0.073056802 -0.21870433 0.69850105 -0.33876973 0.12877096 0.031243321 -0.34543508 0.064349137 0.42954472 -0.019808847
1417 0.090923436 0.095102124 -0.056336623 -0.27822021 -0.23388745 -0.11875811 -0.10828333 -0.24655324 -0.18087403 0.15527402 0.32661954 -0.23402557 -0.029810596 0.079347 -0.2560935 0.11207183 -0.54135209 -0.16194315 0.083977602 -0.33781835 0.55556649 -0.13914935 0.35334083 -0.035852354 0.4337087 0.28771234 -0.40268198 -0.15660772 -0.31182408 -0.16063635 -0.064961016 0.22378738 0.056321319 -0.46600491 -0.2804054 -0.29471463 -0.43091455 0.10005672 0.28084275 0.021171695 0.040097881 -0.096349627 -0.16224521 -0.62114614 -0.1762317 0.19924127 0.14676894 -0.043772958 -0.026143353 -0.56367749 -0.31245422 -0.18356556 -0.44462991 0.16978295 0.29566377 -0.3916209 0.27292767 -0.50383002 -0.27323073 0.23382443 0.040725481 -0.31199184 0.061309524 0.20198567 -0.19754092 -0.066084661 -0.3569549 0.35461953 0.12104253 0.10909321 -0.1901717 -0.21596561 0.0099698817 0.39592651 0.18448964 0.15470025 -0.17348856 0.22961712 -0.18090715 -0.034246456 -0.0022780534 -0.31919035 -0.043343604 0.085507944 -0.054217093 -0.042500027 -0.17062832 0.0025619722 0.20601983 0.2570467 -0.14176452 -0.63697296 -0.23559256 -0.45294267 -0.08395008 -0.10460251 0.2931188 0.043563724 0.21124421 0.26611257 0.001134058 -0.13214844 -0.0044634244 0.48644888 0.23689499 -0.10964713 0.030213427 0.32794657 0.23121743 -0.49175301 -0.3552888 -0.11074139 0.15599532 -0.57841849 0.19614111 0.087075464 0.048473157 0.26759526 0.15500467 -0.027435521 -0.090159237 0.23089145 -0.046002932 -0.21729037 -0.34963912 0.075066894 -0.14198257 -0.24167433
1423 0.19437113 0.1283861 0.079296 -0.32412204 -0.18274969 -0.23363481 0.02611115 -0.19296438 -0.41735163 0.017074522 0.25973257 -0.14298448 -0.16270721 0.10060861 -0.071086615 0.057960562 -0.54359257 -0.20258257 0.11196868 -0.072139591 0.25302023 0.058411669 0.081467859 -0.31728908 0.35647503 0.24933067 -0.2449604 -0.18788546 -0.16336688 -0.1314366 0.0075064902 0.202904 0.032260459 -0.15210611 -0.32766187 -0.33470437 -0.63284719 0.15582158 0.59731799 -0.14075826 0.10196723 0.013532586 -0.013278719 -0.58036721 -0.055071265 0.33904287 -0.016307 -0.054918066 -0.12040465 -0.37484854 -0.2719461 -0.35824722 -0.31020212 0.19354202 0.1076743 -0.46736988 0.23056927 -0.34172532 -0.22190271 -0.028064549 0.029957421 -0.17028859 0.06186362 0.27001348 -0.37351909 -0.3382374 -0.20243223 0.39473373 0.13086784 0.047335498 -0.010441671 0.0073843962 0.0018243495 0.39694867 0.11997174 0.10083489 -0.14409752 0.18106765 -0.18755716 0.011376408 0.0050646299 -0.20651522 0.040340144 -0.0036255827 -0.026673559 0.050506048 -0.14635321 -0.0015647833 0.21082352 0.13510881 -0.42304802 -0.69776261 -0.267932 -0.30056936 0.03578588 -0.078354202 0.53200954 0.13169254 0.049854312 0.36468494 -0.02217415 -0.11377382 -0.056591943 0.53762841 0.30574468 -0.2042353 0.20506282 0.29391322 0.22545518 -0.64122099 -0.46257758 -0.015480376 0.14574456 -0.29148677 0.21850409 0.0081212008 0.11638803 0.19813718 0.29338703 -0.055697858 0.032686699 0.10548691 0.05305063 0.018752107 -0.28936201 0.092975326 -0.055486403 -0.19094704
464 0.27341604 -0.66677916 -0.07601583 0.41223741 -0.11961049 0.0045628306 0.14672126 -0.39748454 -0.15881908 -0.11686999 -0.34994736 -0.18769807 0.3188099 0.086388782 0.14698736 -0.46569172 -0.12562859 0.0931274 0.39140192 -0.30921173 -0.16692895 -0.41108349 0.45663545 0.54099518 -0.26981509 -0.50492752 0.023572277 -0.17707805 -0.22117685 0.11153918 -0.093207106 -0.14616391 -0.31273803 -0.38350752 0.032571658 0.049789261 0.021925604 0.0084109651 0.2150207 -0.016487615 0.058339674 0.079853833 0.1762712 -0.19929658 0.21475168 -0.057801653 -0.220883 0.31008071 0.053056687 -0.30166641 0.33606148 0.26093942 -0.14470144 0.22723767 0.18234499 -0.077244617 -0.034994088 -0.32019722 0.0060762456 0.0063310987 -0.075800255 0.39788601 0.073668838 0.12431785 0.056736447 -0.24846672 -0.50327772 -0.013592637 -0.54756242 0.03942208 0.25729448 0.12153417 0.036981523 -0.061515696 0.059045274 -0.1772074 -0.31434762 0.04636408 -0.30801272 0.35878897 0.27163267 -0.12645639 0.35303527 0.26115042 0.035852954 0.11936251 -0.12855989 -0.044589724 -0.062523238 0.34810001 0.19448569 -0.17008592 -0.41984567 0.2845825 -0.50228977 -0.21406572 0.086146519 0.62553948 0.066277504 0.3181178 0.2657021 -0.33379632 0.011899737 0.45405465 -0.47446355 -0.2801863 0.020706505 0.017071541 -0.10873529 0.39470249 -0.21453823 -0.16113512 -0.12599039 -0.067847654 -0.059741538 -0.20107476 -0.018091511 -0.30134356 0.49457714 -0.12188923 0.20120494 0.011206679 0.154679 -0.092157453 -0.4273915 0.16370529 0.052508291 -0.058906745
