2405 128
489 -0.020548083 -0.47756392 -0.086642824 -0.14430206 -0.22095475 0.12652883 -0.31744704 -0.026358476 -0.07072414 -0.42573842 -0.163442 0.44068268 -0.49648276 -0.011875353 -0.19814907 -0.0469534 0.09679612 0.19293748 -0.13390654 0.36165726 -0.0402933 0.15967077 -0.06466764 -0.35774434 0.05554235 -0.07410762 -0.14088196 0.28097463 -0.16794617 0.09413859 -0.26902592 -0.26038852 0.10894536 0.27499035 -0.043171946 0.14946094 -0.2123231 -0.19589114 0.16238205 -0.19302958 -0.11977896 0.13233586 0.16701749 -0.3012068 0.10330854 0.1842836 0.17930678 -0.20896266 -0.059999555 0.1289039 0.027917229 0.044197943 0.42957634 0.26704547 -0.3041629 0.024989374 -0.02615341 0.30801648 0.3145979 -0.08364239 -0.101067625 0.23364438 -0.32560536 -0.093716726 0.032258887 -0.12016283 0.02180596 -0.03838336 -0.16053864 0.08675874 -0.15404671 0.090279564 0.13000706 -0.3160607 0.02973564 0.20735607 0.33283553 0.030446246 0.29503593 -0.06275924 -0.19666438 0.18160304 -0.20578165 -0.14259286 -0.22005515 0.015710736 -0.08439075 -0.09161729 0.3335938 0.15487592 -0.05350045 0.07587574 -0.059676286 0.27618614 0.050287 0.06118453 -0.2268761 -0.31256005 -0.19534738 -0.36100835 -0.1263856 -0.5465825 -0.107698165 -0.05181526 -0.20788857 -0.07391287 0.11016036 0.33620802 -0.24837978 -0.06501388 0.21179621 0.01691146 0.07089666 0.3173271 0.07014631 -0.21025357 -0.2552029 -0.1835835 0.19828157 0.15866303 -0.19374686 -0.0721897 0.3729864 -0.071211375 -0.112605736 0.13642079 -0.12606996 -0.27369368
393 0.0960153 0.0090441555 0.020227572 -0.1255047 -0.10955219 -0.14135765 0.18706937 0.24148522 -0.26862857 0.02231204 -0.1352512 -0.018969497 0.0067374543 0.19127525 0.36465603 0.098712444 0.34792337 0.16494748 -0.06266386 0.5174572 0.04190329 -0.3088775 -0.18556736 -0.024149751 0.20679303 -0.46841913 -0.15098768 -0.16375884 -0.16598694 -0.452804 -0.1747291 -0.32363227 0.16056502 -0.018764302 0.22922191 0.04245408 -0.160638 -0.21106347 0.14804451 0.27703455 0.12553705 0.18411401 -0.19203709 0.010515339 0.12642811 -0.23183173 0.04544533 0.15393037 -0.11972828 0.06687595 -0.06280462 -0.099005595 -0.24815208 0.40443778 0.10149898 -0.32997605 0.10403272 -0.2244238 0.24856988 0.46011633 0.46994457 0.08584512 0.14022605 0.057643183 0.18813254 -0.06990708 -0.2417272 0.043710094 -0.097847976 -0.18834455 0.027148925 -0.15517741 -0.006165332 0.31953874 -0.21671188 0.35639286 0.127296 -0.20453952 -0.38584623 -0.041364893 -0.02280403 0.15832111 0.041288145 -0.13241719 0.0942991 0.09483807 0.023323432 -0.18974626 -0.24768683 0.065285794 0.10764669 -0.0700282 0.10861562 0.2981747 0.0072530815 0.020590803 -0.44878367 -0.28238484 -0.06086473 -0.045816004 0.041855197 -0.13402773 -0.22688675 0.029297123 0.35580707 0.18332966 0.18420073 -0.19224022 -0.3235846 0.2744767 -0.2944847 -0.09176756 0.055553026 -0.011953845 0.12345222 -0.12410407 0.0072992826 -0.22817047 0.016442439 -0.024881437 0.12017422 -0.028239883 -0.12217643 -0.04003027 0.38664827 0.30940607 -0.4966498 -0.07147614
445 -0.07992889 -0.28958738 0.024677949 -0.12015949 -0.0916202 -0.20905273 -0.13035949 0.45192847 -0.25585735 -0.081572525 -0.20658456 0.022564813 -0.20962937 -0.24224305 -0.09556754 -0.16032864 0.2743421 0.04474345 0.24039382 0.40364397 0.29897252 -0.16650306 -0.3012024 0.079016574 -0.0037288906 0.36818466 0.1720139 -0.07360719 -0.13809527 -0.30198157 0.09352051 -0.20070228 -0.24469346 -0.056269296 -0.019463046 -0.122405775 0.13387662 0.20575906 0.011209027 -0.12687631 0.12570083 0.3132065 -0.18416561 -0.3187132 0.15206236 0.26573423 0.055018842 -0.17202394 -0.2393965 0.20639811 0.13843308 -0.20941125 0.3033937 0.24528432 -0.06466755 0.16540001 0.033020027 0.19936103 0.17922299 0.18492827 -0.26470768 0.27577206 -0.020082824 0.16937295 0.22990568 0.16865478 -0.051009823 -0.026759993 0.10671634 -0.40959865 -0.32610255 0.095473595 -0.031774785 0.24828567 -0.3690334 0.22893266 0.20769785 -0.53890324 0.083079986 0.07171902 -0.2021383 0.03541332 0.14731964 0.1569651 -0.204844 0.028499475 0.0020097792 -0.07762663 0.054263543 -0.0051220767 0.1875755 -0.030977279 0.23027267 0.20744932 -0.32834634 -0.08829108 -0.14344612 0.39524472 -0.088998914 0.145399 0.22362679 0.06477495 -0.3173175 0.29383478 0.17781256 -0.044094376 0.10862914 0.16276968 -0.13669947 -0.25681806 -0.0150044765 0.038885944 0.13129285 -0.033577863 0.17236273 0.25937212 0.12588361 -0.18462127 0.26138046 -0.11454289 -0.02224464 0.38786098 -0.33164734 -0.11524955 0.032778855 0.15214194 -0.28281996 0.036929216
526 0.24345979 -0.20594187 0.18764584 -0.2989538 -0.33761045 0.33498582 -0.140082 0.11028079 0.30360368 -0.38951784 0.09395262 0.28721258 -0.38148654 0.07513389 -0.027276484 -0.19839124 0.19027391 0.13065319 -0.017439334 0.31631 0.4632419 0.0019647796 0.42003912 -0.29013625 -0.22576796 -0.053444963 0.28624693 0.23297612 -0.26883814 0.0035909535 -0.14432584 -0.32559893 0.166915 0.2352497 0.10331318 -0.055006262 -0.11089204 0.24270205 -0.14045377 0.033666838 0.1283882 0.3921312 -0.2574464 -0.35905972 0.14056793 -0.36370656 -0.3157456 -0.42260218 -0.29442722 -0.22797915 0.15768763 -0.2370548 0.063681 0.21002172 -0.010967378 -0.36658037 0.0875165 -0.14529902 0.24146046 0.11773115 -0.14017661 -0.04129019 0.23334517 0.06045887 0.008338401 -0.29694632 -0.099754676 0.3322689 0.056320664 0.52720356 0.12009123 0.20762482 0.18088868 0.07181649 -0.43014014 -0.28791925 0.05683564 0.12800975 -0.11057537 0.09638055 0.11241502 0.30155733 -0.44217625 -0.0528384 -0.42026025 0.004743113 0.005418899 -0.13681898 -0.29511923 -0.026159236 -0.046009377 0.20888905 -0.010026924 -0.046275046 -0.20075022 -0.007815886 -0.065606266 0.22860493 -0.12931567 -0.31519324 0.2255107 -0.10601774 0.28914967 -0.6402084 0.27060336 0.08631604 0.019087968 0.51160103 -0.16569325 0.06930837 0.06087544 -0.2519622 -0.37846583 -0.21720545 -0.17033736 -0.3738503 -0.1499955 0.27528468 0.42555994 -0.04344134 0.07803116 -0.038984705 -0.24060284 -0.024275849 -0.043469828 0.034356173 -0.05889564 0.33108428
708 -0.02274267 -0.17915654 0.11753905 -0.082704365 -0.040221695 0.09321188 -0.163728 -0.103301115 -0.08923372 0.0046490855 0.099453986 -0.054063097 -0.10405613 0.21748532 -0.073246665 -0.4065184 -0.07883205 0.3593725 -0.104705505 -0.2509097 -0.11026804 -0.25448358 -0.11338694 -0.125096 0.29960576 -0.16340968 -0.11034724 0.07546679 -0.2541496 -0.1886851 0.07950988 -0.40785637 -0.098874606 0.0057301694 0.13759793 0.023156386 -0.13846776 -0.059474897 0.0153799895 0.21804902 0.16323905 -0.043730304 -0.2171363 0.2006677 0.3073128 -0.07647824 -0.18108624 0.29029015 0.051379837 -0.1372386 0.63591945 0.13029218 0.4817883 0.038248487 -0.23838219 -0.15630259 -0.1858098 0.0038535264 -0.1319205 0.22909974 -0.10131725 0.32092214 -0.096152276 0.107152075 0.12845707 -0.11012643 0.24074493 -0.005396494 0.27700973 -0.24567766 0.009113567 0.057199415 0.23507811 -0.15989357 -0.30517966 -0.021749873 0.17575778 0.27533475 0.049963925 -0.0150634 -0.10005751 -0.04596381 0.3556976 -0.40659714 0.21216394 -0.29539895 0.21313007 -0.2259462 -0.35420483 0.2253418 -0.033652615 -0.19267434 0.04263997 0.22544254 0.03241717 0.5458367 -0.2820816 0.2597149 -0.10738942 -0.57789916 0.102398396 -0.28085157 -0.08510156 -0.1544633 0.1365349 0.0054763705 0.3403249 0.056580637 -0.22981279 0.2603243 0.31102473 0.110188276 0.05079401 0.062136713 0.07372424 0.15419516 -0.27640054 -0.27644488 0.457919 0.15540618 0.16584373 0.15575755 -0.7323617 0.28561407 0.1481489 -0.22670032 -0.25737152 -0.26831725
1412 -0.13876072 0.09179891 -0.63832045 -0.3635444 -0.5162669 -0.18371388 -0.11744652 0.094674096 0.19664119 -0.35711196 0.45521057 0.5303921 -0.21086654 -0.23341444 0.40717947 -0.034188412 -0.08668765 -0.33379734 0.06077712 0.13351874 -0.09978215 0.4208447 0.078794636 -0.24925828 -0.40281898 -0.08887343 0.073298424 -0.22310366 -0.3082305 -0.27392983 -0.13830088 0.0149863325 0.022239268 -0.13607801 0.18698062 0.19221352 0.031587847 -0.20845945 0.23109129 0.10548385 0.28982058 0.7433875 0.15702921 -0.28789943 -0.009632335 -0.07486237 -0.047981422 0.40470883 0.017301084 0.046076175 0.15610257 0.29917994 -0.08176236 0.12655465 0.22921503 -0.20217086 0.12985694 -0.41997948 -0.0013095621 0.46716917 -0.24404055 0.012572567 -0.22706051 0.20342284 -0.088357404 0.26792485 -0.31114224 -0.2269144 0.44476438 -0.18886161 -0.16900875 0.3022808 -0.117702596 0.21776728 -0.13295746 -0.11963626 -0.09253694 0.14901142 -0.30213633 -0.049829405 0.17166735 0.0476688 -0.09102061 -0.15936767 0.031293087 0.21176699 -0.040032838 -0.21665096 0.20920658 -0.0844599 0.16981745 0.016436512 0.08643776 0.58797824 -0.06599192 0.40514565 -0.40858796 0.28679967 0.16331676 -0.08226361 -0.05228021 0.07694693 0.0548259 -0.23293896 -0.016874019 -0.21678302 -0.55582124 0.1827598 -0.1397767 0.043547153 0.28223762 0.27801722 -0.20765957 0.34119073 0.27658564 0.15415412 0.22612059 -0.31838995 0.16557951 -0.16613518 -0.3981758 -0.39703056 0.20484544 -0.029492602 -0.17452234 0.07868472 -0.21930335 -0.09665962
43 0.04368171 -0.06576559 -0.08913928 -0.5210711 -0.119218804 0.42756 -0.18755928 0.102050655 -0.2951095 -0.44232917 -0.14533804 0.3306666 0.15945177 -0.10615182 -0.25143632 -0.038154375 0.022393903 -0.06354096 0.36611584 0.111492455 0.11506679 -0.16524531 -0.28273985 -0.13445365 -0.008666935 -0.15291837 0.23992012 0.15891542 0.027274124 0.021334402 -0.07356716 -0.34633616 0.28112462 0.0789233 0.10786799 0.25640166 -0.3241485 -0.5337251 0.03771802 -0.12293545 0.16724838 0.14130422 0.106328495 -0.20995541 0.63572353 -0.110185206 -0.07447855 0.064461395 -0.2515906 0.029107802 0.10713543 0.026645802 -0.14154236 0.3187608 -0.08373222 -0.29750714 0.3971578 0.47439814 0.04928827 0.3546143 -0.01965703 0.09075577 0.37144613 0.009080598 0.08750147 0.22035576 -0.4804502 -0.34307286 0.037471034 0.18422231 -0.0067664683 -0.11610827 -0.2984125 0.30394518 -0.43312883 0.36417454 0.15980485 0.20624363 -0.24057554 0.17601494 -0.34617856 -0.1288484 -0.12848751 0.12775739 0.10990405 0.07723364 -0.28897202 0.14778043 -0.4510477 -0.22998936 0.08333804 0.44911507 0.24082 0.19171585 -0.020837799 0.4322583 0.11921163 -0.18943015 -0.20932138 0.2906992 0.0071634823 0.048385777 -0.24568635 0.2537109 -0.15267195 0.06477943 -0.06910771 -0.028795883 0.16040042 0.40651965 0.17947228 0.044238526 -0.20572059 -0.24387117 0.217518 0.26638225 0.1518132 -0.3191247 -0.02998159 0.070765406 -0.18803798 -0.35255927 -0.42656976 0.1208482 0.07352499 0.3720974 -0.19609603 0.3431207
624 0.16222772 0.021536263 0.26104617 -0.508505 -0.44941583 0.01236312 -0.08914918 0.048832472 0.24305654 -0.033633288 0.39483508 0.5938805 0.023113094 -0.10703531 0.120851636 -0.12430405 -0.19468816 -0.0158422 0.06579081 0.36576742 0.44605768 0.062259383 0.16459012 -0.57280827 -0.14010501 0.12386981 0.2627117 -0.0865166 -0.0034152844 -0.11425518 -0.14413518 -0.85620964 -0.014541669 -0.1409247 0.11534525 -0.13983673 -0.34432235 0.19821301 -0.05866796 0.116057165 0.20744301 0.3002269 0.2531933 -0.048996326 0.2765591 -0.15942964 -0.022142628 -0.22563733 -0.13129672 0.21051553 0.27254033 0.21106231 -0.16532375 0.019182278 -0.028258944 -0.24412401 0.06346502 -0.0028095432 0.52672565 0.17687677 -0.00021554294 0.2953616 0.42140824 -0.21208943 -0.029767422 -0.39078778 -0.46315783 -0.17478831 -0.26971593 0.033405248 -0.4196861 0.16920358 -0.024958342 -0.023370363 -0.17089209 -0.35284844 0.2845402 0.06517746 -0.080652036 -0.06402309 -0.17807907 0.3531866 -0.58518416 -0.071903035 -0.6388902 -0.079460286 -0.058055572 -0.2640028 -0.06742347 0.23180872 -0.11161108 0.328559 -0.39539772 0.13943192 0.013295507 0.8933687 -0.0027775944 0.5200961 -0.082649976 -0.25066853 0.16641404 0.036091954 -0.099012956 -0.04827109 0.25614753 0.17956331 0.3926804 0.48332828 -0.0057403124 0.25588578 -0.20205206 -0.30255932 0.2220165 0.54566586 0.009801773 -0.12875904 -0.14026341 0.14616749 -0.1410597 0.22666152 0.040446427 -0.3860834 -0.053089358 -0.3132818 -0.3273436 -0.36458206 -0.3657291 -0.005807316
400 -0.1613977 -0.54916364 -0.041635368 -0.10241923 -0.18889304 -0.27591142 -0.23985039 0.0062504043 -0.1797092 -0.14651522 -0.09692663 0.2225935 0.122320406 0.04352835 0.13471992 -0.3996502 0.07831404 -0.046929166 -0.25523487 -0.3375603 0.049378976 -0.1287186 0.27829987 -0.30989024 -0.007510794 0.15522489 -0.12448867 -0.25562236 0.26590014 -0.090175904 -0.26367328 0.041339397 -0.4845658 0.0107176695 -0.18067192 0.073902465 0.48378882 0.35509652 -0.066434145 0.37918517 -0.096144594 0.0026441384 0.22807734 -0.056163322 0.10024957 0.108262844 0.19828583 -0.06483044 -0.5048117 -0.027190419 0.24678437 -0.15092783 0.06606987 -0.07267836 -0.35449475 0.06808028 0.299489 0.30730498 -0.07133661 0.37894726 -0.09755394 0.17371215 0.20110385 0.08532068 0.0070617744 0.15411213 -0.24485481 -0.018270379 -0.41276017 -0.24111836 0.07577827 -0.39225584 -0.11737262 -0.11214848 -0.49728656 0.24703313 0.15560606 -0.44672292 0.016246082 -0.0007125663 -0.18083742 0.29605982 0.12160974 -0.49439713 -0.014207169 0.2182919 -0.14433496 -0.39166543 -0.37828392 0.030479755 0.15463482 0.13106759 -0.054626007 0.3606185 0.31271672 0.1767635 -0.52492577 -0.019007448 -0.17281443 0.11260472 0.15073687 -0.17867854 -0.36259732 -0.03848219 0.04858323 0.21606772 0.033357754 0.13658096 -0.12041341 0.21561243 -0.19986846 -0.5440995 -0.04676176 -0.07069594 0.02375006 0.30584115 0.094613865 -0.014163343 0.17323886 0.2057316 -0.13958684 -0.045499243 -0.5235686 0.21719371 0.16287486 0.4119909 -0.0009833376 0.025490401
1467 0.38655135 -0.04164928 -0.08688987 -0.6493314 -0.132849 0.15397991 0.016003331 -0.00806418 0.37911704 -0.40316033 0.106731825 0.15865071 -0.21603921 -0.4001453 0.027810827 -0.157636 0.3402023 -0.07649993 0.078516714 0.07504408 -0.18854006 0.23238017 -0.05262709 -0.3300523 -0.46059117 -0.42658135 0.096161634 -0.27864295 -0.04184435 -0.27979204 0.014894928 -0.06235982 -0.22828533 0.055913303 0.23915641 -0.14210752 -0.29018134 -0.21834272 0.011623649 -0.119882524 0.10475463 0.6173663 0.17865942 -0.008140703 0.17016022 0.41123995 0.08591359 0.29688564 0.005294694 -0.0926643 0.30812365 0.3053518 -0.30748707 0.15507594 0.09422493 -0.33860448 0.20139115 -0.08819112 -0.26506868 0.35381132 -0.4371345 -0.08752005 -0.2224497 0.23051001 -0.10559733 0.20663433 -0.121328995 -0.07855769 0.12874815 -0.05420335 -0.25455534 0.21789968 -0.52604944 -0.16722105 -0.22648717 -0.32755598 0.18058553 -0.15936454 -0.28253555 0.3037449 0.13158657 -0.3136036 -0.2441363 -0.031185858 -0.12290432 0.090061106 -0.09002633 -0.15620074 -0.15633267 -0.025595725 0.5867498 -0.06805659 0.110096626 0.5451983 -0.09714559 0.09408277 -0.56909686 0.4476392 -0.08216538 -0.024864402 -0.17687355 0.14427727 -0.18796831 -0.3518226 0.23743679 -0.105380654 0.03622527 -0.0961608 -0.10384607 -0.24576262 -0.12689497 0.23728591 -0.2761927 0.56156933 -0.21470356 0.03537711 0.21739595 0.016632069 -0.033718124 -0.2800656 -0.10073422 0.006597137 0.39634117 -0.026934054 -0.074039325 -0.008578383 -0.052124612 -0.3027339
1647 -0.03830845 -0.030804811 0.2587821 0.14860569 -0.06269556 0.07578346 -0.09036207 -0.201509 0.35194233 -0.23689382 0.11946865 -0.050374012 -0.2628885 0.37486857 -0.036632523 0.1071096 0.064981446 0.63015807 -0.4113145 0.32801265 -0.089916006 -0.14144468 -0.54912055 -0.09302762 0.14150277 -0.029383251 0.10709384 0.04657962 -0.31488827 -0.2688041 -0.17299582 -0.45435843 -0.3536078 0.35258332 -0.11499984 -0.013044854 0.07762355 -0.40885556 0.22249736 0.11054457 0.19676948 0.19989915 -0.28269872 -0.34694117 0.30881748 -0.11359975 -0.18104039 -0.09284864 0.12620556 0.114778966 0.11608314 -0.27371937 0.11028717 0.35587054 0.043049216 -0.1476664 -0.003392552 0.11402957 -0.06425324 0.35771635 -0.24354382 0.16692048 -0.43328455 -0.33781058 0.15442862 0.09061865 0.26723558 0.16630776 -0.28991774 -0.6362603 0.14057736 0.031675715 0.13471735 -0.34419608 -0.31808007 -0.08825965 0.19963343 -0.091750644 0.06542449 0.069973856 0.06220179 -0.05658018 0.52156425 -0.013225565 -0.24077865 0.0017364018 -0.13000232 -0.42406774 -0.72723943 0.3370856 0.022335071 -0.0068914276 -0.15818112 0.10391785 0.023067154 0.061121065 -0.09702253 0.24645093 -0.16315442 -0.21479602 0.22214869 -0.18230888 0.16828741 -0.15579188 0.008218649 -0.008262006 0.16924873 0.12746224 -0.18833554 0.14634512 -0.07422842 -0.33044413 -0.12432786 -0.13832349 0.06774739 0.45079583 -0.021247461 0.10449083 0.1348928 -0.3492572 0.094138406 -0.23535126 -0.33677596 0.5904685 0.108625405 -0.11083911 -0.3974002 0.22297366
525 -0.10131311 0.054005384 -0.13286777 0.034472886 -0.20230617 0.5492166 -0.28327617 -0.12821408 -0.42841852 -0.11762849 -0.014923631 -0.37385398 -0.22738597 -0.14939591 -0.056171093 -0.22064134 0.17164607 0.10215686 0.16268161 0.19829857 0.1998528 0.15136704 -0.18274954 -0.2928763 0.20280601 0.3047952 -0.13659881 0.08660643 -0.20704982 -0.12048466 0.24099769 -0.1339768 -0.2419252 -0.0887053 -0.3980744 0.20747314 0.117951155 -0.13621765 0.23116294 0.32075438 0.48008674 0.5901374 -0.28606358 -0.1190765 -0.030821292 -0.015660437 0.50209206 -0.032919828 0.0030490297 -0.07290569 0.025597673 -0.051431116 0.065361604 0.3498839 0.25284612 -0.0019798041 0.38192254 0.3557598 -0.049538225 0.10757641 0.14891535 0.30717304 0.24863978 0.114192545 0.062326305 0.056564942 0.010697583 -0.39915618 -0.10201664 -0.26559335 0.2046626 0.19742721 -0.24005854 -0.014732205 -0.070625104 0.25772798 0.49769375 -0.16132821 0.1373034 -0.067838766 -0.1459284 0.22135979 0.070568256 -0.2809723 -0.045622993 -0.008945625 -0.14145374 -0.35865527 -0.5240076 -0.15081403 0.17602372 -0.32615128 0.29629657 0.23247752 0.31234354 0.20786779 -0.16327828 0.37057513 -0.17892155 -0.302865 0.072241254 -0.11914216 0.18022983 -0.12020598 0.11469589 -0.043766286 0.10245205 -0.22229384 0.14831854 -0.011740555 0.036779974 -0.33142358 0.0005523492 0.23652397 -0.30224097 0.6236265 -0.0022866987 -0.1994968 0.3542744 0.33213505 0.0021911436 -0.058855217 0.0024351918 -0.26439372 -0.17338945 0.36123726 -0.16577296 0.22025116
235 -0.11604081 -0.48561257 -0.033910442 -0.13794187 0.029944193 -0.011646596 -0.17252935 0.057591796 0.0068949074 -0.34178874 0.3100099 -0.02922075 -0.3194864 -0.47934103 0.3217269 0.14968209 -0.3985979 -0.15099305 0.47724697 0.029831259 0.02050651 0.24199802 -0.083559155 -0.15809138 -0.3641968 0.092147924 0.06593637 -0.6856683 -0.087796904 -0.37815315 -0.09427941 -0.020094829 -0.014603149 0.1036631 0.10682864 0.16275743 -0.34443367 -0.19911021 0.03382248 -0.45583808 0.28708082 0.4263949 0.36250725 -0.22306265 0.4405624 -0.11108616 -0.08381312 0.0138008725 -0.5060391 -0.23445158 0.31412858 0.29294652 -0.032537613 0.26544148 0.36160997 -0.51394725 0.02383247 -0.19337068 -0.16599648 0.092667304 -0.2624258 -0.071222566 -0.051154938 0.007299002 0.2135699 0.0027138116 -0.31170353 0.2163427 0.29664928 -0.045981117 -0.26750952 0.17378034 -0.1782748 0.112258464 -0.31681785 0.09558011 0.33636743 -0.019238016 -0.22922763 0.10525935 0.44370592 -0.34123263 -0.15963009 0.06739705 -0.0039777253 -0.0754376 -0.27642992 0.18530951 -0.08562918 -0.10897883 0.1539889 -0.10844039 0.021858899 0.35459888 -0.11417983 0.17445438 -0.19450249 -0.20470698 -0.3960961 -0.329506 -0.36283907 0.05679304 -0.5831408 -0.17009023 0.07204897 -0.35114834 0.10386011 0.07792456 0.09395494 -0.064874865 -0.28855512 0.36087933 0.05213196 0.19697537 -0.14207847 0.15595038 0.036292057 0.007064446 0.06854699 -0.3662611 -0.38154298 -0.33363026 -0.24919029 0.2278216 0.07381986 0.13858533 0.076412834 -0.20259741
228 -0.11181221 -0.16958596 -0.13520825 -0.25506634 -0.0769707 -0.12663242 -0.10076497 0.049757816 -0.020843772 -0.062613904 0.39706376 0.15639868 -0.1791572 -0.20092674 0.14093505 0.18333119 -0.10733363 -0.19895615 0.17562714 0.11395944 -0.0061445674 0.26873124 -0.15769376 -0.044426367 -0.44306877 -0.030627746 -0.011431816 -0.600415 -0.012454826 -0.62158215 0.42425558 -0.31176022 -0.023880081 -0.2020121 0.091278724 0.2794216 -0.26126364 0.047553305 0.12881663 -0.55275923 -0.039530553 0.49294713 0.34184387 -0.14292414 0.1910692 -0.050004445 -0.15340908 0.14018644 -0.39278394 -0.1786577 -2.7671173e-05 0.5163348 -0.20781639 0.28982845 -0.013073503 -0.28357002 0.20508784 -0.20022604 -0.112174764 0.20695503 -0.30347657 0.1611929 -0.092870556 0.21706986 0.18912269 0.17281565 -0.31025591 -0.056477007 0.19087866 0.15084934 -0.120120384 0.4622432 -0.27878186 0.040282287 -0.19519968 -0.10404721 0.29669166 0.023243433 -0.32025903 0.14706734 0.42596453 -0.41692707 -0.027027406 -0.038504723 -0.031200191 -0.0019028294 -0.33982086 -0.11640845 -0.1053337 0.24100173 0.14903115 0.13042012 0.17663977 0.3250357 -0.24042822 0.14973085 -0.32706192 0.04080721 -0.23357132 -0.39831287 -0.2979923 0.0046470747 -0.483599 -0.4552606 0.018029446 -0.35574654 0.010793163 -0.049633637 0.04910047 -0.09827329 -0.2212801 0.39736247 -0.053861476 0.28935415 0.12695727 0.4478001 0.28292942 -0.07356412 -0.042907987 -0.2561676 -0.15647183 -0.3758831 -0.07349671 0.089203805 0.15406057 0.14323696 -0.20137298 -0.11239539
509 -0.013746652 0.08815717 0.39324096 -0.46161655 -0.35048643 0.33724305 -0.06114109 0.035160303 -0.15776287 -0.09237171 0.023191046 0.2829406 -0.21037412 -0.25030142 -0.03909027 0.15173167 -0.16973074 0.22788115 -0.12905835 -0.113747716 -0.49948943 -0.08504795 -0.29456827 -0.4198873 0.12476459 -0.48050895 0.07034417 0.120092295 0.17923601 0.1151265 0.1906248 0.08217301 -0.14552204 0.23344119 0.066656 0.21566986 -0.010473804 -0.16012017 0.21712504 -0.31870198 -0.024526281 0.36077106 -0.06566865 -0.08409833 0.243828 0.04798276 -0.4398517 -0.2507569 -0.21949618 0.3417042 -0.0060115727 0.25285137 0.11697809 0.045388497 0.0069689127 -0.16166519 0.53030765 0.18228893 0.029978512 0.11752722 0.024417767 0.20358601 -0.14020565 0.5185145 -0.4116376 -0.26978964 -0.5516766 0.044993866 -0.3729647 -0.38830954 0.08617767 0.08906355 0.390736 -0.3301521 0.025984488 0.07311827 0.4229044 -0.1286717 -0.10808612 0.07542549 -0.017418418 0.339727 -0.11834516 -0.17840326 -0.14551665 0.36945704 0.22919118 -0.32237852 0.53878427 0.446376 -0.28584555 -0.14559142 -0.02069627 0.46417037 0.13485463 0.28089002 -0.08000326 -0.06681997 0.010516357 -0.06347062 0.03546229 0.07275785 -0.057608753 -0.12081876 0.013591876 0.05417445 0.39558193 0.3474364 0.22569478 0.027859418 0.071253456 -0.14686345 0.4365745 0.22368744 -0.0068643857 -0.08043287 -0.14091018 -0.25289387 0.5543442 0.2028054 0.16764978 0.44628355 0.094957545 -0.1679954 0.082130454 -0.046683915 0.19138509 -0.07733206
1717 0.07257083 -0.3549838 -0.022124024 -0.017493008 -0.14723499 0.11565618 0.24887724 0.35086772 -0.14570625 -0.28210294 0.20391366 0.14092846 0.07207635 0.18813221 -0.17568943 0.0855781 0.37936896 -0.31344712 0.10578606 0.12831065 0.10309411 -0.28106052 -0.08034279 -0.060485825 0.03733482 -0.062156577 -0.42530465 -0.24349032 -0.11962551 -0.12873125 -0.4506703 -0.38622725 0.08274656 0.14210372 0.026370136 -0.22123747 0.1007679 -0.016076315 0.3211836 0.1951058 0.046308067 -0.23448703 -0.23855473 -0.075846374 0.35533452 0.07706703 0.17696193 -0.41585115 -0.10009968 -0.26909158 -0.33016557 0.16427061 0.44450364 0.4798972 0.17653903 0.16830653 0.3468333 0.52526623 0.18624696 0.28509617 -0.15172996 0.17239536 -0.044881687 0.04251013 0.05929869 -0.10140899 -0.15289102 0.045489557 -0.28380367 -0.006327952 0.030949002 -0.17208648 -0.50747025 0.13564698 -0.26890486 0.26264054 0.13638596 0.11609546 0.107121915 0.049720734 0.07518337 0.6110289 -0.027333027 0.079006754 -0.31438407 0.029689036 0.18914837 -0.08722593 -0.26144683 0.05656632 -0.010971561 0.11643309 -0.33809894 0.32982254 -0.09365126 0.13021336 -0.16927727 -0.07569067 0.2039661 0.09186347 0.18393005 0.007546826 -0.12119773 -0.23148571 -0.11056906 0.55984116 0.36052385 -0.25569478 -0.34099263 -0.4258562 0.09677846 0.049987923 0.020578848 0.3624351 -0.23172311 0.9771661 -0.45664513 -0.07657754 0.40473044 0.11344873 0.14998047 -0.20624167 -0.37925816 0.057745263 0.24122374 -0.083394855 -0.09416326 0.06881971
1525 0.29858145 -0.18907934 0.0773323 -0.42615974 0.013363657 0.026194517 -0.5793977 -0.10672358 0.3090859 -0.36316803 0.17604378 0.31361797 -0.4241658 0.15405723 -0.06581692 0.48241326 -0.065613456 0.04681467 -0.16523352 -0.07474983 -0.12849887 -0.0072537716 -0.10931552 -0.08424618 0.32384416 0.058624394 -0.15398178 0.18834494 0.41845614 -0.056475103 0.31465662 -0.39377093 -0.0921624 0.28072846 0.15083462 -0.02304354 -0.00082851556 0.15222964 0.2609607 0.22385336 0.033563983 -0.060181353 -0.153009 -0.27738217 0.29061285 -0.22219414 -0.071767196 -0.09285595 0.19136137 -0.21729708 0.41616753 0.18686916 0.3943568 0.103852496 -0.13563742 -0.27388406 0.054671455 0.48347813 0.1642368 0.034616385 -0.022617854 0.3807382 -0.35973114 0.16269115 -0.1422175 0.07335866 -0.15401408 -0.060696192 -0.08562187 0.22542194 0.2341413 -0.110503994 0.13888262 -0.03460353 0.25933596 0.540062 0.06593316 -0.1380848 -0.46740425 -0.27851766 -0.14484306 0.07368548 -0.0783678 -0.12768391 -0.32157835 -0.09016731 0.19162 -0.3923939 -0.026316036 -0.16288449 0.2365502 -0.32835302 0.84784985 0.32954034 -0.32464334 -0.002603779 -0.06426695 0.20742713 -0.106705554 -0.19539754 0.025609728 -0.113000974 -0.07393066 -0.40356076 -0.003245062 0.21364328 0.32003483 0.38201982 0.18329985 0.23746192 0.009347562 0.015038996 0.17541246 0.09552646 -0.056164067 -0.091890395 -0.07882998 0.20056109 0.4024044 -0.25880733 -0.0015340181 -0.0719674 -0.068019405 0.03475435 0.019272035 0.42965975 -0.12018575 -0.081893094
1465 0.05905914 0.23502019 -0.15166278 -0.66387486 -0.1748197 -0.028114242 -0.13207048 0.05174413 0.18639979 -0.2864169 0.5720544 0.4104665 -0.3145862 -0.16329584 0.1844818 -0.18013142 -0.099437736 -0.1969652 0.22634546 0.13757949 -0.0014955588 0.36615247 -0.0702674 -0.20621991 -0.2205961 -0.13532563 -0.033708885 -0.45398736 -0.11605663 -0.29748923 0.044093467 -0.10897056 0.019902878 -0.010387199 0.42120486 -0.106847964 -0.09745704 -0.17088188 0.01706338 -0.118411735 0.28143764 0.5711643 0.2153701 -0.1428233 0.016525406 0.034328308 -0.16462272 -0.058432627 -0.109769575 -0.048284214 0.10814742 0.43053666 -0.27332082 0.052541852 0.3042534 -0.294301 0.12708968 -0.15083958 -0.21643442 0.17791893 -0.32293093 0.03323317 -0.246597 0.3937842 0.163553 0.24150142 -0.23107761 -0.29793084 0.26830786 -0.11771505 -0.19894195 0.48237374 -0.49743742 0.029395672 -0.42249995 -0.24646536 -0.07755348 -0.0004405708 -0.26046464 0.3717835 0.2753543 -0.029444292 -0.110963985 -0.21354881 -0.058771603 -0.055495396 -0.2466438 0.039428517 -0.08173069 0.017032899 0.35979372 -0.20890918 -0.15569857 0.6738194 -0.19792978 0.38624763 -0.40762556 0.24893776 -0.29866433 0.19891869 0.0024248373 0.15713607 -0.3318021 -0.5175726 0.25639474 -0.5075806 0.2589067 0.1854436 -0.032674585 0.09095843 -0.017369052 -0.03734715 -0.07699222 0.32990068 0.054153457 0.07454696 0.31496322 -0.08477148 -0.21842521 -0.2916361 0.09366367 -0.2887125 0.06912806 -0.027303528 0.037845794 -0.108124994 -0.20603435 -0.27051997
471 -0.4812476 -0.65650195 -0.16084105 0.10881073 -0.2686934 0.15333697 0.47464517 -0.16194843 -0.26951048 -0.15248613 0.13634269 0.21657793 -0.35349226 -0.02733631 0.060717165 -0.031194156 -0.13921542 0.25152534 0.367518 0.08860525 0.008376922 -0.33602294 -0.31043026 -0.047796145 0.038623966 -0.37461498 -0.2658156 -0.20322375 -0.31635973 -0.055459667 -0.1723598 -0.30059555 0.13248727 0.15113936 -0.037467528 -0.24503702 0.44287354 -0.10571311 0.45786503 0.22420356 -0.017099148 0.39400068 -0.28076476 -0.20497006 0.31507707 -0.026834665 0.19506608 0.1937165 -0.07996038 0.3033227 0.25164175 -0.025266847 0.31826815 0.06373029 -0.11436936 0.03349049 0.22814699 0.4635156 0.094750576 0.17681082 0.058658183 0.030676559 -0.64191294 0.02671777 0.40171865 -0.34433043 -0.29715604 0.40921947 -0.06935609 -0.26820433 0.17919059 -0.27823472 -0.15045512 -0.13254146 -0.14428292 -0.3784448 0.19743712 -0.06303226 -0.0018568682 0.093007855 0.15285456 0.040977884 -0.14616865 0.021819342 -0.2763917 0.11943031 -0.20924947 0.011407265 0.016021475 0.26542363 0.29761076 -0.19868387 -0.28482777 -0.13554952 0.115331076 0.51872206 -0.20240334 -0.06273735 0.3534742 0.34638536 -0.16682406 0.10949173 -0.09507519 -0.45466885 0.20927346 0.1892224 0.049103998 -0.26460546 -0.394917 0.029465431 0.091710865 0.0073100273 0.1927539 -0.01050555 -0.13526821 0.90105516 0.007369674 -0.010633168 0.07006231 -0.06925208 0.23904714 -0.21879777 0.25565317 -0.077016145 0.36713767 0.07683624 -0.43055844 0.050620385
1466 0.06525738 0.16065496 0.05420079 -0.18217078 -0.13799354 -0.05490029 0.01094796 -0.116593085 -0.06447726 -0.22560586 0.51251096 0.5590507 -0.42290255 0.044772986 0.15143567 0.011495617 0.1749206 -0.35375732 0.17846455 0.04603618 -0.0569739 0.48255002 -0.018355774 0.13582277 -0.489083 -0.069444746 -0.124270454 -0.37758917 -0.11986204 -0.37729216 -0.15111579 -0.26780945 -0.3059331 0.39258885 0.21952195 0.045843277 0.08068189 -0.15251894 0.11943617 0.039939858 0.044208888 0.5953121 0.3989679 -0.14139937 0.06493378 -0.020055661 -0.1887953 0.16923974 -0.2172163 0.37716633 0.22405884 0.25438187 -0.48355308 -0.09535921 0.052139662 -0.21301709 0.0278572 -0.15363178 -0.08506549 0.36810496 -0.2951038 0.040519387 0.059088442 0.15501864 0.14052428 0.46059325 -0.3344329 -0.11972754 0.11423651 0.09476715 -0.1356653 0.28140464 -0.5191384 -0.10480245 -0.11594362 -0.037631266 0.114582606 -0.098654844 -0.46106616 0.19927712 0.250178 -0.1284344 -0.10744583 -0.10092475 0.19944333 0.025572706 -0.2922318 -0.22092824 -0.19751008 0.17430013 0.043100838 -0.09961256 -0.014574607 0.49229717 0.09698938 0.26827592 -0.36242566 0.645967 -0.49462694 -0.14975296 -0.25034362 0.053104293 -0.5444244 -0.18036811 0.057515007 -0.21050054 0.09298174 0.082188234 0.101825625 -0.23973332 0.16995478 0.18100081 -0.16940992 0.19929536 -0.28351468 0.34730932 -0.0013981448 -0.305008 0.0027142297 -0.4487467 0.10409797 -0.47048768 0.18515147 0.12776922 -0.28063372 0.04840515 0.06550248 -0.19285244
1445 -0.0037706513 0.27911493 0.028981606 -0.22966507 -0.3061086 0.18010178 -0.019186677 0.045680072 0.18757118 -0.51171005 0.798922 0.37177655 -0.29362366 -0.4594647 0.047381163 -0.17290981 0.09873034 -0.30462492 -0.16539045 -0.07257044 -0.058620565 0.2540171 0.08196776 -0.14104597 -0.022989113 -0.038513456 0.12875739 -0.11814716 -0.050454803 -0.26868302 0.1509032 -0.3533063 0.022702392 -0.024359703 0.3187142 -0.004196872 -0.10548461 0.16219954 0.41674608 0.055590138 -0.07293927 0.41445887 0.7013564 0.2850134 0.21618482 0.3034494 0.22785044 -0.08354299 -0.114730366 0.06689961 0.31682324 0.240794 -0.2960424 -0.11667881 0.35216057 -0.10015253 0.03926904 -0.10486191 -0.17993084 0.41414195 -0.32076028 -0.06798222 0.036091197 0.3274805 -0.0012390027 0.077484325 -0.3999269 0.18770309 0.06176941 -0.21204166 -0.10480831 0.44098002 -0.5033544 -0.023054264 -0.22897196 -0.14190339 0.18495402 -0.027238198 -0.3112578 0.19368058 0.42339295 -0.35162213 -0.45374802 -0.16308655 0.095755115 0.043452214 -0.19073094 0.111514114 -0.15762168 0.11928881 0.45519945 -0.15478995 0.03855846 0.6721744 -0.05595597 0.086084105 -0.41223893 0.30659315 -0.39359298 0.11448024 0.26277342 0.112208575 -0.37656808 -0.1022237 0.07942176 -0.10239231 0.13310352 0.0834318 -0.024231514 -0.00093903905 0.15394522 0.08381985 -0.41128948 0.115670316 -0.24874806 0.13901234 0.073355265 -0.24687551 -0.001529488 -0.3693833 -0.071485795 -0.31987104 0.0626035 -0.048012994 -0.19081937 -0.0084167365 -0.3440699 -0.32903814
682 -0.1990236 -0.056062147 0.14587098 -0.26338798 -0.22761796 0.27593216 -0.08255656 0.035509605 0.4741189 -0.384919 -0.10243663 -0.09653596 -0.029894013 -0.12764086 -0.2898627 -0.17150225 -0.10102508 0.14997143 0.2527358 0.47586513 0.00397309 0.4014714 0.041852213 0.0018042258 0.09620195 0.046164133 -0.06733113 -0.47602323 -0.13992468 0.027671007 -0.11368417 -0.4110774 0.58090484 -0.04313094 -0.24402295 0.029231228 0.25304374 -0.26616138 0.0273278 -0.13063955 0.24952579 -0.17963117 -0.06236441 -0.11847012 0.16816941 -0.30959764 0.06012493 0.40463033 -0.6309466 0.27988672 0.30766994 -0.25283766 0.56123227 -0.2618469 0.18700369 0.10823217 -0.0016723975 -0.0722766 -0.12323103 0.10143761 -0.3637166 0.081052884 -0.33387843 -0.18269528 -0.024621991 -0.074538976 0.21587762 0.5306625 -0.0170081 -0.28032148 -0.11056675 -0.057345152 -0.49671715 -0.06738547 -0.5509653 0.12727211 0.20969018 0.25101677 -0.50645137 -0.06749563 0.025471015 -0.002379222 -0.018810261 -0.016895508 -0.35854173 0.20294592 0.06743162 -0.1974647 0.04943928 -0.22560263 -0.021631302 -0.105238676 0.41923216 0.4951717 0.15030794 0.28051513 -0.08427818 -0.3078952 0.0015597673 -0.2845987 0.12338617 -0.1891988 -0.1855328 -0.24079618 -0.06566055 0.37500307 0.3391425 -0.23430496 0.08952894 -0.21499793 -0.23282915 -0.13898554 0.29753482 -0.010342581 0.38567883 -0.4015952 0.08766981 -0.032643046 0.21504958 0.08088426 0.099264 -0.24674603 -0.32450786 -0.0789546 0.120664865 0.47302547 0.38763413 0.23209344
2288 0.022326605 -0.09311865 0.19860214 -0.17601016 0.0804531 -0.064269386 -0.08820672 0.18642221 -0.24619773 -0.07402647 0.22704493 0.40688238 -0.4765516 -0.41934538 0.17090677 0.061062016 0.31867442 -0.1215738 -0.10967769 0.6537026 -0.069607966 0.14070493 0.132972 -0.1449531 0.23412989 0.21321993 0.10619323 0.2550806 0.25523904 0.2752746 -0.24616244 0.117416054 0.22169302 0.28578502 0.17942189 0.08251601 -0.29225028 0.061123848 0.016095644 0.3752074 0.015364896 0.20866936 -0.042763133 0.08274253 0.14745253 0.050447147 0.30367917 -0.041074686 -0.29238465 0.3752834 0.32708922 -0.2995363 -0.2287346 0.20115203 0.39428455 -0.32437336 0.09490062 0.25212526 0.48492897 0.25614735 -0.024814872 0.62798756 0.24533962 0.04381749 -0.19444336 -0.33959672 0.21214646 -0.028915944 -0.23109522 -0.061139785 0.3468473 0.379783 0.25370726 0.117412396 -0.122029305 0.17135204 0.1727421 0.0959512 -0.7502732 0.11317809 -0.3214266 -0.1292923 -0.040213943 -0.45596302 -0.33067685 0.04247159 0.106976375 -0.15696086 -0.2982332 -0.20917721 -0.42063546 0.02398835 0.110379234 0.0063535827 -0.17944118 0.043695603 -0.14280604 0.79483145 -0.320736 -0.18039821 -0.29348955 -0.24299608 -0.06551413 -0.47463843 -0.13033813 0.40948707 -0.014100124 0.1512692 -0.45137203 -0.0734296 -0.3343544 -0.2587132 0.30320218 0.027320653 -0.32048386 0.07399455 -0.22477457 -0.058154974 0.45893398 0.12903188 -0.052812427 -0.1826406 -0.20740624 0.28011802 0.33972013 -0.013437681 -0.16249698 -0.25321043
458 -0.011893357 0.023731971 -0.40691388 -0.1029009 0.09300191 0.019205106 -0.745412 0.73606193 -0.024500245 -0.16253486 0.21054305 -0.3038634 0.0718831 -0.09865964 -0.00823043 -0.49884832 0.007678186 0.15362407 -0.071525104 0.093020216 -0.00071355666 -0.12204466 -0.06641591 -0.309075 -0.31184348 -0.15048426 -0.14008461 -0.3922469 -0.040427364 -0.32301205 -0.032470647 -0.17586267 -0.10366601 0.64151144 -0.040920343 -0.002271634 -0.37256667 -0.0025433174 0.18699108 0.037346195 0.03316102 -0.23838593 -0.09281197 0.083062604 0.29679072 0.16977689 0.13864064 0.20008865 -0.1952189 0.115789264 0.4410488 0.095507815 0.22843908 0.24269083 0.06363496 0.07807694 0.4320019 -0.03029594 -0.0398439 0.10975764 0.1489725 0.23458377 0.01258492 -0.13438037 0.07257736 0.07544942 -0.002797339 -0.26730698 -0.19581671 -0.24788034 -0.029610518 -0.33669308 -0.16893572 -0.0859891 -0.067985855 0.30548504 0.23990333 0.17169842 -0.13490708 0.2232942 0.027563278 0.106361225 -0.43001112 -0.02870532 0.020948824 0.23784073 -0.23424464 0.104917414 -0.19617987 0.12549745 -0.17593676 0.33018726 0.28142014 -0.00017461317 0.22972201 0.6547321 -0.17203486 0.27082965 0.013854356 -0.29894736 0.079670854 0.0011057664 -0.0034774535 0.07067649 0.46142 0.44578153 -0.14955004 -0.06371728 0.024228191 0.34971523 -0.05509018 -0.09892068 0.057448108 0.27192968 -0.17292717 0.17357692 -0.1521077 -0.3218335 0.24982522 -0.3180123 0.12345475 0.1681753 -0.16505107 -0.017207121 -0.04104224 0.38826364 -0.38766485 0.15254878
713 0.1505706 -0.27205804 0.25563827 -0.4292745 -0.052882593 0.50831664 0.12778598 0.077009745 -0.5088869 -0.13795802 0.49104843 -0.18857777 -0.07933691 -0.4119618 -0.10088963 -0.1241601 -0.019818554 0.10471264 -0.063593306 -0.16482821 0.18051215 0.06283227 -0.14712058 -0.02724541 -0.28473884 0.37354589 -0.21271513 -0.15286627 -0.07845582 -0.4581151 0.18242642 -0.62118125 -0.33244184 0.10103482 0.069039494 0.300044 -0.16882525 -0.09710245 -0.035895687 -0.0953416 0.11155477 -0.040583216 -0.060989786 0.02063063 -0.21899898 0.48674685 0.37157607 -0.0014410125 -0.24909593 0.26355663 0.012303221 0.17472905 0.04101053 0.045305103 0.3607372 0.22145571 -0.22161074 -0.15981789 -0.09920672 0.03615269 -0.24524641 0.34875104 -0.24916153 0.046837136 0.075060844 -0.27787927 0.01834515 0.098941535 -0.07944182 -0.2165894 0.2510555 -0.04752343 -0.16043 -0.10152422 -0.27053568 0.05472012 0.62771225 0.32479873 -0.055847112 0.44244534 -0.28147936 -0.09972789 0.43770593 -0.21020097 -0.16885112 0.2808004 -0.25315487 -0.6724058 -0.4509397 0.18540098 0.34585488 -0.2045011 0.2963881 0.1802203 0.34749395 0.43214756 -0.13611484 0.35117486 -0.29710504 0.04503468 0.62355465 -0.49721333 0.0018192577 -0.38590342 0.32614323 -0.07031482 -0.08548364 -0.1387148 -0.29099312 -0.29275727 0.23155098 -0.0071569025 -0.09254093 -0.26998928 -0.29368877 0.049511068 -0.2219716 -0.36796248 0.24911574 -0.048472356 -0.083235875 -0.09061138 -0.05270314 -0.17005956 -0.006147299 -0.06698984 -0.2223272 0.24753001
391 0.37873483 0.032753 -0.14520256 -0.19906954 -0.023379343 0.4071892 -0.17393507 0.3850082 0.04730067 -0.17409043 -0.09800263 0.16396424 0.12439133 0.09566006 0.48800185 -0.24613489 -0.051055226 -0.17603442 0.062129136 -0.033569247 0.2274396 -0.24540679 -0.43964446 -0.09105112 -0.2526538 -0.20109208 0.032312483 0.23760583 -0.22773553 -0.0021498506 -0.16840899 -0.010142164 -0.07553676 0.23486996 0.34559533 0.016713833 -0.18728262 -0.27682653 0.29345158 -0.12140719 0.53912073 0.1325016 0.1199533 -0.012804781 0.1347689 0.019608948 0.0023599523 0.03738515 0.0810691 -0.24038261 0.2701267 0.039310694 0.10689195 0.5038696 0.02844483 0.31798598 0.2610273 0.06953704 -0.106572784 0.45896724 0.06760016 -0.11018872 -0.28968772 0.08951828 -0.24435891 -0.15426476 0.22381893 -0.10283751 0.3350483 -0.24899918 0.2004462 0.07625671 -0.34246895 -0.023413137 -0.4775954 0.23218846 -0.03964951 -0.55483174 -0.4669934 0.28408018 0.04578452 -0.131823 0.034957025 0.011690844 -0.15840076 0.14182174 0.008708693 -0.009668358 -0.20860174 0.2747737 -0.0007477754 0.18990429 0.0036396454 0.8916672 0.21098468 0.2507208 -0.0014256913 -0.003089719 -0.36000973 0.11096884 -0.14081413 -0.31036937 -0.06673458 -0.12707992 0.19027159 -0.28067353 0.2964188 0.20923857 0.4316755 0.39498472 0.006727691 0.25040582 -0.3486972 0.3184654 -0.33725777 -0.15952498 0.06919442 -0.06356179 -0.16167513 -0.100732535 -0.20551918 -0.22829412 -0.113754004 0.23064145 0.27561948 0.17258775 -0.14298227 0.30606914
69 0.22914822 -0.20374918 -0.13242398 -0.23519728 -0.4227327 0.1440241 0.008159293 0.015678784 0.011035098 -0.6123583 0.3904296 -0.013477496 -0.1575804 -0.22783393 -0.011023519 -0.2865376 -0.29095516 -0.044751465 0.0916091 0.3143644 -0.1971376 -0.20480762 -0.024370706 0.2616043 -0.18051976 -0.15391846 0.07264663 -0.19624175 -0.2581261 -0.14802292 0.24431002 -0.03080314 -0.07753631 -0.44891816 0.14114879 0.037725642 -0.0899551 -0.06295985 0.54432154 -0.13197154 -0.28801954 0.41083318 -0.16266307 0.06236732 0.68849075 0.11024068 0.214135 -0.36469522 -0.058173552 0.123507164 0.6688733 0.2221933 -0.003817696 0.25574556 -0.14971194 -0.4165158 -0.093128264 0.19168645 0.23394229 0.25818178 0.24768221 0.23182182 -0.034258604 0.344311 0.022240162 0.5479715 -0.20302218 -0.2440576 0.038312003 0.31667888 0.022442939 0.06496832 -0.35712335 0.33911574 -0.028121348 0.39691165 0.2883371 0.31362304 -0.37337005 0.008569815 -0.034499913 -0.47570196 -0.36536664 0.52909005 0.025362397 0.0843665 0.031138888 -0.25279933 -0.25931323 -0.08014775 0.19714294 0.44763288 0.07100542 0.38862073 0.31234387 0.3005711 -0.23614886 -0.21063861 -0.20806995 -0.08099515 -0.20596302 -0.23346771 0.0823806 0.08776533 0.18343918 -0.2148042 0.25164852 -0.08617835 0.24803439 -0.03975549 0.08956631 0.042422056 0.2945802 0.022490276 0.009192849 0.00022735061 0.2615003 -0.049442332 -0.16487318 0.14672653 0.14509505 -0.17906068 -0.4444176 0.02899943 0.017596632 0.25885206 -0.011084469 0.28159478
1434 0.037340086 0.10067399 -0.3350803 -0.62764174 -0.3421193 0.08022119 -0.19184637 -0.17089236 0.09442492 -0.39586282 0.259118 0.03370103 -0.17275426 -0.1144021 0.084841534 -0.013481882 0.05860022 -0.13937128 0.38889268 -0.05683688 0.15926808 0.18282796 -0.18515275 -0.17975427 -0.3043374 -0.094980225 -0.054963965 -0.24958229 -0.07211525 -0.42053366 -0.18151882 -0.09779634 0.025677629 -0.021107329 0.27852663 -0.18058482 0.12252604 -0.385458 0.45854145 -0.106453784 0.21580198 0.66138285 0.25575182 -0.10466523 0.30258024 0.18168831 -0.12619059 -0.097047485 -0.12276496 -0.07439132 0.3155833 0.25943664 -0.42392728 0.09664 0.035824943 -0.29648218 -0.014871464 -0.31441405 -0.058663946 0.29653913 -0.32665753 0.010854505 -0.15372583 0.17069565 0.2931038 0.06768896 -0.4484658 -0.30256474 0.4583619 -0.04403908 -0.21097025 0.50935894 -0.38962755 -0.030021474 -0.26501185 -0.19780934 0.026049327 -0.13946666 -0.09888174 0.014925136 0.16310188 -0.086797595 -0.23056775 -0.2016424 0.04766394 -0.405003 -0.2224944 0.0076782927 -0.023968894 0.39151117 -0.1611371 -0.20498021 0.0017089611 0.61614823 0.03176844 0.64361906 -0.43663657 0.054199826 -0.50333995 0.14049585 0.100110315 0.042356055 -0.17904574 -0.413645 0.49189332 -0.47454405 -0.012838119 0.13451743 0.086114444 -0.093822815 0.31722197 0.15033107 -0.40030923 0.348805 0.043691326 0.43214178 0.19363075 -0.1270154 -0.2734367 -0.41037476 0.057611804 -0.28679863 -0.0026154323 0.034842387 -0.25081134 -0.17703305 -0.32512867 -0.42245176
602 0.1215814 0.023335448 -0.16675845 -0.37115657 -0.01306336 -0.222909 0.06547109 0.2709061 -0.039052535 -0.3575848 0.26978534 0.7299957 -0.10502741 -0.054581065 -0.009992335 0.06732102 -0.12542982 -0.100230776 -0.3692099 0.5162297 0.04166771 -0.15518965 -0.19117986 -0.061193276 -0.26898786 0.13014458 0.20580868 -0.22580616 0.14343739 0.12510766 0.0022379754 -0.47406936 0.21051112 -0.47019914 -0.010175264 0.4142728 0.126534 -0.04907246 -0.15499055 0.19991753 0.41685334 -0.28825137 0.11294807 -0.36956465 -0.13749057 0.172278 0.5914471 -0.35268927 -0.13396183 0.1149464 0.2533216 0.024750188 0.13348036 0.19970465 -0.37998077 -0.14817086 0.044644024 0.20650369 0.3062624 0.0992816 -0.33227804 -0.016539907 0.22485101 0.10235381 -0.3299052 -0.052305162 -0.4131532 0.1920265 -0.06001784 0.03435472 -0.24700196 0.26176035 0.13658285 0.15203205 -0.08606306 -0.08250675 0.0634453 0.33629504 0.12937483 0.079574935 -0.37746537 -0.0018581296 -0.27389526 -0.13954324 -0.6538434 0.09666731 0.16910134 -0.25584245 0.03186197 0.4228757 0.03850421 0.15392686 -0.24305476 0.12280625 -0.021632697 0.78994226 0.060226437 0.17061587 -0.23477903 -0.5507918 0.15201618 0.44263738 0.05129307 -0.4430651 0.075640574 0.063572116 0.18823203 0.3939068 -0.3235527 0.23612303 -0.34193256 0.0016078108 0.29575476 0.4602797 0.5523499 -0.047623314 -0.25702816 0.4335184 -0.0016625187 0.13557312 -0.08665125 -0.07485894 0.036158066 -0.35975263 -0.035870373 0.2138122 -0.5064469 0.10434386
1637 -0.15297323 -0.38484827 0.47434855 -0.029162405 -0.13739489 0.124422215 -0.052571885 -0.3141624 0.32467383 0.23989189 -0.13670796 -0.034670252 -0.08225375 0.01931143 -0.07630651 0.24413358 -0.08158356 0.3547661 0.10062682 0.25863215 0.43007895 -0.32963866 -0.23606613 -0.36187544 0.20234124 -0.26634613 0.11676749 0.12715186 -0.24383305 -0.01641207 0.08226402 -0.3346118 -0.18317805 0.23323417 -0.053269546 0.5523457 0.056397505 -0.19443664 0.46666765 0.24010368 0.010674714 0.2945423 -0.29198927 -0.3570025 0.30317473 -0.15445215 -0.15990825 -0.18062477 -0.01765886 0.15513825 0.13160247 -0.20682003 0.30780643 0.025721326 -0.063471146 0.0035581288 0.18155757 0.05479683 -0.27704862 0.24199016 -0.24298929 0.08260532 -0.27060893 -0.08690939 -0.22901668 0.21975721 0.31085336 0.20849515 -0.26110172 -0.49548605 0.018165553 0.18701802 0.068930075 -0.22023402 -0.5871202 0.17344499 0.02982639 -0.13348737 -0.34659538 0.27187556 0.047915366 0.0780361 0.21375565 0.08331154 -0.45814633 -0.14402732 -0.2578938 -0.09759878 -0.518754 0.2227399 0.24287635 0.20563659 -0.18278083 -0.036516357 0.08720493 0.07581989 -0.13296644 0.059307285 -0.036653377 -0.2369332 0.7275444 -0.60626495 0.0253179 -0.5758063 -0.14637037 0.13708514 0.34865585 0.04305809 -0.42953652 0.33585328 -0.026140917 -0.38313356 -0.15790819 0.19137838 -0.039714128 0.21268927 -0.08140195 -0.22527517 0.22782035 -0.15744121 -0.097204454 -0.2390121 -0.37788692 0.38888115 -0.08917123 0.070455015 0.009039366 -0.021555606
405 0.34975177 -0.12241528 0.13303359 -0.07013671 0.084643796 0.27640066 0.16409229 0.012920214 0.16279508 -0.49542448 -0.4679334 0.20099987 -0.16834451 0.1519297 0.4634395 -0.4698267 0.18019915 -0.10369521 -0.123759225 0.5278646 0.30695826 -0.41601512 0.1883679 -0.1363436 0.1789749 0.3635623 0.10328934 -0.16868079 -0.18297437 0.2506272 0.36659098 -0.017481962 -0.18826593 0.13146943 0.30487242 -0.22873884 -0.083378196 -0.26526752 -0.11836796 0.06772565 0.06189689 0.28543591 0.20200105 -0.30897188 0.067869976 -0.25664118 0.01466907 0.10292736 -0.36746463 0.7239295 -0.18010052 0.41380894 0.4746997 -0.10098265 -0.0050841477 -0.13347168 0.29597214 0.072822504 0.27214858 -0.0853707 -0.45818546 0.16293004 -0.27420676 0.2761804 -0.3047003 -0.023641217 -0.47959012 -0.14940098 -0.271076 -0.09855384 -0.11353103 0.22519082 0.33705756 -0.124342225 0.018607562 -0.20795263 0.37303522 0.22395341 0.022048164 0.37966332 0.16269587 -0.014631655 0.093399845 -0.16323525 -0.21673624 -0.31188172 -0.4201318 -0.39763373 0.01647595 0.1765993 -0.050642267 -0.093841806 -0.019739218 0.27080092 0.08631902 0.21161984 -0.1447867 -0.29997745 -0.19161619 0.023186112 -0.12885821 -0.32848606 -0.16541646 -0.35325557 -0.004938075 0.22077447 0.29485556 0.5212805 -0.48992196 -0.21812361 0.18293484 0.12129446 0.19878997 -0.14246719 -0.10876736 -0.25690168 -0.3378721 -0.17097555 0.47323945 0.050367806 0.037678845 -0.038987696 -0.048803076 0.3819455 -0.069302365 0.2708059 0.15077627 0.14570445
1648 -0.13945392 -0.09100479 0.2824373 -0.11940777 -0.14723274 -0.006756779 -0.11675477 -0.12727429 0.22605225 0.08196951 -0.028196545 0.3160578 -0.14746876 0.15780596 -0.092169106 0.20182343 0.12662381 0.37247032 -0.049100567 0.06563951 -0.0013448911 -0.2761904 -0.24984643 -0.32522327 0.047213767 -0.11986796 0.10783189 -0.03937337 -0.3265215 -0.022516519 0.025848845 -0.2924129 -0.17705843 -0.115633436 -0.23982154 0.33988187 0.026393471 0.041656934 0.22536197 0.20380129 0.23523232 0.019000363 -0.09078934 -0.36563197 0.31005645 -0.26511917 -0.2135514 -0.051969532 -0.15387377 0.3299205 0.38005608 -0.13289905 0.16714329 0.39389107 0.11842962 -0.29051545 -0.10042433 -0.036881145 -0.23682044 0.057858735 0.11637771 0.09570546 -0.3660143 -0.36674735 -0.086272225 -0.02154389 0.35209748 0.17190818 -0.27942875 -0.5336801 0.10066868 -0.20582211 -0.29448006 -0.3017856 -0.27786154 0.17413336 0.39967495 -0.034728825 -0.3805144 0.3059882 0.3323642 0.113747135 0.31463376 0.17199838 -0.30086112 -0.069854714 0.2832704 -0.11837928 -0.61046726 0.27188328 -0.015733602 0.09511979 0.28780714 0.15146996 0.08356803 0.18518242 -0.22696376 0.069289766 -0.075621024 -0.11030357 0.3453252 -0.24751408 0.034558583 -0.5924128 -0.065242656 0.40863213 -0.027718654 -0.063298285 -0.013411145 0.09313108 0.198189 -0.18271273 0.12398222 -0.2826042 -0.05652724 0.30177858 -0.045123305 -0.095873214 0.2768318 -0.07018566 0.25202456 -0.50728846 -0.35406432 0.40631762 -0.029280996 -0.28795284 -0.40076953 -0.2953884
1653 -0.07577419 -0.12563387 0.31406865 0.036728 -0.19323401 0.20252816 0.024152186 0.113012776 -0.054001726 0.11222507 0.0697417 0.3516753 0.055256385 -0.0057679205 0.070494436 0.029668799 -0.008398137 0.10710718 0.12331823 0.33145818 0.14976683 -0.108221605 -0.27180412 -0.10036401 0.08006141 -0.030950665 -0.1606781 0.020205976 -0.38637346 -0.15861127 -0.22806194 -0.5353921 -0.16885562 0.059435204 0.20227605 0.41123924 0.118876226 -0.04913011 -0.03654197 -0.04597518 0.2914769 -0.081632845 -0.019995278 -0.4767934 0.42694625 -0.27353054 -0.024359565 0.2998688 -0.3647152 -0.06992797 0.40950856 -0.012701765 0.25336525 0.03449341 -0.31810227 -0.085515626 0.055163603 0.017943135 -0.11864583 0.32083994 0.21084255 -0.029776433 -0.31152156 0.14145862 0.28349206 -0.0105994055 0.05653947 0.36861882 -0.36576754 -0.2356659 0.009717331 0.020146674 -0.32227176 -0.3035773 -0.48841667 -0.23467878 -0.24725889 0.1512776 0.010642755 0.3917115 0.357762 0.04601762 0.3226259 0.26336727 -0.33115232 0.05308956 -0.0016186801 -0.21661173 -0.40063387 0.18508488 0.21942359 0.09500366 0.097259656 -0.015501596 0.16499399 0.16045155 -0.07804244 0.25448668 -0.055520557 -0.12759711 0.49021113 -0.39848682 0.2722278 -0.5640994 -0.10179364 0.2442101 0.21446852 0.44617456 -0.034836408 0.28928083 0.440408 -0.58753616 0.00011185913 -0.28115514 -0.41682652 0.19452706 -0.34599578 -0.060412154 0.14743067 -0.18701585 0.13176374 -0.077267155 -0.4901704 0.048908465 0.23434734 -0.2531266 -0.3139997 0.11832537
569 0.14845845 0.1556339 0.14240828 -0.45576033 -0.18100733 -0.20219982 -0.110795096 0.28856838 0.19050935 -0.11674401 0.44499975 0.7701104 0.1036731 0.03457618 0.111042194 0.12624232 -0.25548348 0.089894824 0.09996751 0.5555523 0.5511748 0.29398674 0.14929968 -0.4104763 -0.20534341 0.12557635 0.43272656 -0.1295662 0.20032178 0.12278174 -0.2768087 -0.8495289 -0.19116452 0.042081617 0.18676548 -0.1150788 -0.12615983 0.46973664 -0.10169198 0.40469426 0.37435296 0.45264798 0.046084773 -0.101185784 0.35349524 -0.11444413 0.028078703 -0.04024318 0.009534263 0.113387525 0.35563412 0.23179708 -0.27796403 -0.09658204 0.073716044 -0.2269348 0.16941711 0.2687683 0.48210904 0.34827453 -0.15642883 0.48507318 0.31699848 -0.18948972 -0.04016686 -0.21162282 -0.4684419 -0.09736431 0.008690238 0.058318477 -0.18509214 0.21661013 -0.07676654 -0.08963432 -0.1671417 -0.5832864 0.14018592 0.10684879 -0.011954855 0.012964594 -0.108245485 0.33385453 -0.5444928 -0.06080604 -0.55449015 -0.23353249 -0.28576463 -0.118713304 -0.051245175 0.26312065 -0.103886925 0.19744693 -0.35224473 0.3022862 -0.15991464 0.9688751 -0.18429402 0.71566546 -0.28057194 -0.105014086 -0.012108657 -0.06330498 -0.1535532 -0.5331027 0.45527104 0.1798324 0.2894283 0.45961538 -0.18566938 0.13846254 -0.26239753 -0.111233056 -0.12635963 0.7172092 0.2606806 -0.036023 -0.0037578933 0.22673003 -0.42469764 0.20233397 0.05262927 -0.18604684 -0.051501423 -0.29498312 -0.22530417 -0.12029121 -0.12295522 0.2987678
496 0.026304387 -0.01675823 0.03766377 -0.7396911 0.06382187 -0.058386654 -0.48170343 -0.010135389 -0.22944438 -0.27026334 -0.22313629 0.03202262 -0.37334478 0.053455174 -0.09885356 0.039128058 -0.19923364 -0.11005427 -0.06456391 -0.12749115 0.5922994 -0.1631124 -0.24781388 -0.42465928 -0.114956655 0.027811322 -0.13328657 -0.19279794 -0.10506675 0.111955784 -0.07720252 -0.0053441264 0.3129693 0.35477483 0.6010621 0.078419924 -0.32168826 -0.2886972 0.15521128 -0.14824104 0.1983619 0.21778233 -0.25859123 0.7324111 0.24122587 -0.186594 0.114016324 0.3052634 -0.30711314 -0.3027342 -0.0071040154 0.017459579 0.4118138 0.1365404 -0.27446383 0.07465054 0.6936263 0.025542088 0.09285741 0.6897422 0.12771659 0.037995327 -0.28556356 0.12015667 0.013409766 0.29042384 -0.14402108 0.044358682 0.09683327 -0.09157031 -0.07377833 0.046068575 -0.34084678 0.076898314 -0.045677792 0.39046398 0.2245568 0.043197233 0.49595028 0.37269017 -0.246149 0.19923393 0.039195113 -0.10888405 -0.0563762 0.0047441977 -0.103617914 -0.39673716 -0.32632542 -0.062039636 0.2201311 0.24263993 0.06374494 0.40457687 0.28996927 0.37638235 0.070680104 0.38631842 -0.1898562 -0.08863166 -0.42647433 -0.18266754 0.03534319 -0.14688025 -0.02559051 0.24447918 -0.025795022 -0.101782665 0.26941267 0.20194623 -0.25159153 0.040115487 -0.094605066 -0.022300897 -0.04535992 0.012629976 0.28250158 -0.036628548 0.27425262 -0.5089918 0.21328224 -0.20949388 -0.096630745 -0.044467233 -0.13191837 -0.108497195 0.17317066 0.07037498
476 0.54123163 0.010455063 0.40804815 -0.6819184 0.17014983 -0.035675276 -0.13054445 -0.12774932 -0.22084849 -0.33216769 0.32466096 0.29682744 -0.42107302 0.002087319 -0.19202128 -0.075824924 0.2622401 0.17399475 -0.1655929 0.30107096 -0.008821137 -0.06673166 0.38774326 -0.48860025 -0.1030294 -0.06718553 0.47162184 0.14608651 -0.005129145 0.3518562 0.15141849 -0.48305464 -0.11092109 0.092098214 0.24528983 -0.19698977 -0.21804811 0.054554947 -0.04022906 0.10809676 -0.17874314 0.18936199 0.24803343 -0.3977726 -0.19172293 -0.080155954 0.25513673 0.15058978 0.19912684 -0.17014432 0.095045336 -0.096289426 0.5032482 -0.022660825 0.24009939 -0.06577665 0.3220123 0.47205257 0.29380366 0.12109279 -0.15196706 0.14672141 0.10658185 -0.0073263273 -0.30604455 -0.20119381 -0.41755292 0.51072305 0.04687506 0.38909867 -0.35735065 0.48430726 -0.14116989 0.10373114 -0.11589584 -0.10787666 0.08036698 -0.3052867 -0.48439306 0.2910663 0.100063026 -0.10359697 -0.15971833 -0.1905807 0.21692103 0.26246005 0.12389278 -0.08882413 -0.019880703 -0.26462978 0.05529351 0.14382279 -0.06754202 -0.09053193 -0.109455645 0.4076584 -0.33218235 0.18522377 0.22853968 -0.26221988 -0.1060198 -0.30921152 -0.11535427 -0.12587103 0.019305648 -0.0030937938 0.16178837 0.46870443 -0.13262 0.2615266 0.04864936 0.044190865 0.2746668 0.26103708 0.28432027 0.25657907 -0.25997815 0.20482159 0.25236452 0.101199254 -0.14081772 0.059976768 -0.116737776 0.27254593 -0.47477907 0.60121953 0.17441083 0.02804244
31 -0.05080999 0.038857378 -0.0038997012 -0.26872027 -0.109073244 -0.17542641 -0.3700496 0.26052886 -0.26348454 -0.46585074 0.15519883 0.0749783 -0.026559189 -0.42569146 0.35320032 0.03424114 0.13821688 0.078736246 0.023677044 -0.11022758 -0.33968505 0.24132228 0.11074379 -0.060572464 -0.29236713 -0.0087789055 0.1606889 -0.09639689 -0.15666866 -0.09603657 -0.045605797 -0.4824297 0.1013834 -0.22843027 0.0011648 0.07535007 -0.111130364 -0.20440689 0.23652582 -0.79062474 -0.22320765 0.17664756 -0.042410154 -0.38876534 0.4511096 -0.1351269 0.032408133 -0.35220683 -0.66781545 -0.123315424 0.20401455 0.21329871 -0.07014646 0.21380006 0.19625625 -0.2976747 0.020163065 -0.191299 -0.029907657 0.18149662 -0.08464128 0.18443465 -0.05414414 -0.02085333 0.060717646 0.26090136 0.0070686312 0.2446148 0.30041325 -0.025124744 -0.27397916 -0.0522852 -0.36786819 0.5486979 0.01837741 -0.0015196984 0.25973707 -0.025289 -0.27780297 0.2927533 -0.20125286 -0.016687706 -0.45747712 -0.012609149 -0.42585036 0.0855114 -0.47994474 -0.20802404 -0.1397296 0.11812495 0.5491194 -0.09647454 -0.08698199 0.46458083 -0.012005722 0.48441827 -0.24611816 0.01695889 -0.08972328 0.07287506 -0.38313287 0.25543687 -0.27046567 -0.117781125 0.10722121 0.08327007 0.044004012 -0.21439718 0.18356018 0.28895614 -0.16590427 -0.016633408 -0.2723578 -0.10044377 0.3363108 -0.027179332 0.025055775 0.20352395 -0.08398438 -0.040189333 -0.050415855 -0.102946445 -0.34984964 0.20115705 -0.08571362 0.5383798 0.12361355 0.12525067
2148 0.1176689 -0.08612227 -0.012821908 -0.42193392 0.17113811 0.020921422 -0.13515848 0.16396688 -0.38167885 -0.21608432 0.29380926 0.06798765 -0.40986687 0.050299454 0.2869665 0.17938137 -0.1114849 0.0090262 -0.51862234 0.51948154 0.20940234 0.05479672 -0.29908004 -0.60961396 0.3392961 0.16022064 -0.10682227 -0.19130582 0.1337301 0.15777077 0.27640125 -0.039335076 0.14908002 0.28133896 0.08536188 0.08808924 0.31869093 0.14325991 -0.44992504 0.041162062 0.2202747 0.2354907 -0.13084635 -0.08144439 0.5217655 0.0067889295 -0.19272415 -0.5041814 -0.09420828 0.07720499 0.23121396 -0.28869787 0.35926792 0.21408851 0.096723124 -0.3131714 0.19231515 0.069060616 0.69730306 -0.05882942 -0.050315764 0.57028526 -0.012801098 -0.061067183 0.16161135 -0.16320574 0.10646229 -0.053757474 0.15767124 -0.5559368 -0.054457158 0.043646857 0.59697586 -0.29490167 -0.15510215 0.23724668 0.42384216 -0.14766608 -0.36180013 0.059890285 0.22538806 0.114998564 -0.24056353 -0.50706637 0.03603054 0.3563453 -0.12736723 -0.32561192 -0.7486789 -0.08381057 0.19658762 0.23682337 0.1204178 0.1837567 -0.067094095 -0.11603561 -0.09975156 0.33786473 0.030308507 -0.14536235 -0.3462735 -0.48165202 0.18092504 -0.3455994 -0.07488046 0.1543782 0.6055606 0.14993803 0.032061525 0.2010825 -0.016835548 -0.022408655 -0.16599932 -0.05886674 -0.11733442 0.1596493 0.12888417 -0.093928166 0.35640952 -0.13549991 0.11363877 -0.33148977 -0.18024032 -0.22821492 -0.3079855 -0.22912559 -0.1744216 0.06626533
6 0.32206047 -0.36361858 -0.046402194 0.035026442 0.24137062 -0.34031588 -0.10003881 -0.050841946 -0.2599935 -0.07048352 0.16424264 0.18776038 -0.23379055 0.20094873 0.0898635 -0.060962535 0.018325958 0.34079945 -0.04968037 0.28517285 -0.2878078 -0.11760124 -0.42980975 -0.12154679 0.08868284 -0.16499458 -0.11998955 0.22909129 -0.054019995 -0.42748353 0.13790831 -0.11403453 0.045921583 0.3025692 -0.0112238 0.1826449 0.15163128 -0.05716483 0.24394159 0.4023245 0.0211445 0.14522772 0.20040058 -0.43102577 0.5808412 -0.20048694 0.10350311 -0.12939566 -0.31362304 0.18264423 0.16865022 -0.2263805 0.06636216 0.3987835 0.12998894 0.038397733 -0.009865065 -0.0957079 -0.26490852 0.23206843 0.25128067 -0.04321606 -0.23663156 0.23909716 0.38071263 0.1781698 0.0011722374 0.26269147 -0.57632524 -0.58680224 0.08484454 -0.25878948 0.1267754 -0.3984946 -0.5891426 -0.13653328 0.2552896 0.019869946 -0.23104095 0.28250012 -0.10369188 -0.00018543143 0.20020789 0.09668513 -0.1618413 0.084878705 0.20303036 -0.21981783 -0.5903153 -0.047514394 -0.23605926 -0.15534206 0.09891252 0.051350594 -0.069534086 0.124806754 -0.12755513 0.64890987 0.09105244 -0.46687874 -0.1874826 -0.17643124 0.10499529 -0.099498354 -0.049053527 0.1288935 0.052952733 -0.38833058 -0.13895895 -0.11725548 0.22708733 0.04468596 -0.18614668 -0.22188373 0.15726231 -0.002553152 -0.44664913 -0.35506284 0.14122391 0.2572024 -0.039527923 -0.14438717 -0.42547444 0.14897792 -0.1894902 0.2289815 -0.44202295 0.35262096
226 0.09380035 0.18696769 -0.0967801 -0.25427186 -0.12610209 -0.032129437 -0.10564979 0.09683526 -0.0011590583 -0.32001308 0.38574186 0.516447 -0.35487467 -0.2125889 0.15088306 0.24290477 -0.001432009 -0.1406702 0.03682458 0.30342606 -0.14064461 0.20369689 -0.07041355 0.03564441 -0.22543445 -0.13219899 0.15901907 -0.7356613 -0.34958225 -0.04289824 -0.034911048 -0.19971569 0.0009387331 -0.007647775 -0.04587089 -0.06630056 -0.3349622 -0.42066154 0.026792979 -0.41488376 0.28351867 0.32086822 0.29245374 -0.2282618 0.06038004 -0.16732603 -0.23300675 0.39192736 -0.44319907 -0.27663925 0.16474666 0.3296774 -0.22695589 0.07150111 0.27953857 -0.37317947 0.22667095 -0.11993031 -0.020381795 0.07532079 -0.31196007 0.2678073 0.069965735 0.120989345 -0.013779889 0.1379618 -0.35611182 -0.06690463 0.1567647 0.19407323 -0.09491632 0.36751318 -0.43237182 -0.22286983 -0.24313171 -0.026350781 0.2909531 -0.06642461 -0.330155 0.02990675 0.3992567 -0.19794622 -0.328662 0.20462903 0.14098532 0.040602352 -0.19154488 -0.12995608 -0.2533618 0.30900702 0.09425893 0.06896535 0.07101621 0.4420345 0.03132154 0.05144547 -0.08509313 0.42536712 -0.21490669 -0.25821033 -0.27248642 0.046749458 -0.5306806 -0.3174754 0.10401931 -0.8577409 0.002007208 0.36299354 -0.071171395 -0.019708624 -0.031497702 0.3711047 -0.098652236 -0.081704415 0.02062718 0.511533 0.20353518 0.11228228 0.035691287 -0.18332398 -0.030778859 -0.17807178 0.10559442 0.040267915 -0.11185652 -0.16870762 -0.5006008 -0.37129387
1641 -0.14793392 -0.16747618 0.3332181 0.2609227 0.07975128 0.28439265 0.16382316 0.0020712991 0.093613826 0.19229819 -0.04997819 0.23123185 -0.0055772853 0.035220977 -0.1555558 0.011717021 0.024492452 0.36214343 -0.01733604 0.20381717 -0.060689952 0.27726516 -0.28959236 0.0126562305 0.2930439 -0.019837122 -0.24225745 -0.08250704 -0.29299647 0.2429877 -0.47790724 -0.52039534 -0.24128777 0.01639173 0.60497224 0.38983634 -0.02630588 0.15329772 0.1596267 0.044419914 0.34866855 0.004530885 -0.2097527 -0.4859521 0.3373078 -0.38497937 -0.03287412 -0.06741407 -0.3101461 -0.012004504 0.38072786 -0.28034735 0.24287626 0.15283547 -0.36239848 -0.25960988 0.15033151 -0.17796378 -0.40147197 0.10399962 -0.041945037 0.26322234 -0.3116829 -0.13636188 0.26681173 -0.21168014 -0.14496411 0.55115855 -0.37394387 -0.03391918 -0.23022805 0.05819413 -0.36827865 -0.15680687 -0.39581072 0.19709635 -0.123910904 0.19388539 -0.10998799 0.30139112 0.17906202 -0.16348298 0.12948711 0.009486762 -0.36087033 0.09469421 -0.20173334 -0.1287495 -0.18531546 0.39275688 0.39085713 0.10069559 0.2421723 0.38636288 0.07069727 0.57568693 -0.076878704 0.15277486 0.017967256 -0.2817399 0.42736667 -0.228485 0.23001763 -0.40306008 -0.12743802 0.25126833 0.060492743 0.28192595 -0.10275734 -0.006546789 0.28422418 -0.42360562 -0.1484933 -0.18509157 -0.33366188 0.1840452 -0.13134024 0.01877887 0.047540504 -0.06970575 0.01033326 -0.24716029 -0.36613482 0.3250324 -0.001741744 -0.16226658 -0.104235694 0.15456681
1645 -0.17051351 0.076128855 0.42296693 0.046607174 -0.07971148 0.1472611 -0.1249327 -0.09902536 0.06082805 0.073168896 -0.24269907 -0.014506442 -0.17182049 0.52929556 -0.41235155 0.19065715 0.20421596 0.14491674 0.28658426 0.36870927 0.0639864 -0.1403222 -0.042760532 -0.055148166 0.043000862 -0.15897721 0.18044925 -0.50944746 -0.08307158 0.117316656 0.078515135 -0.45304447 -0.3832492 0.29043463 -0.20378728 0.45683843 0.04967191 0.04523443 0.30520785 -0.0003086447 0.27658585 -0.32575005 0.011371734 -0.59147733 0.3297651 -0.14226948 0.13032843 0.19943513 -0.37033424 -0.064891465 0.5296507 -0.10431879 0.06617758 0.44172394 0.43614948 -0.08813649 -0.044022735 0.23941928 -0.3538786 0.41949964 -0.17062679 -0.18586762 -0.4600644 -0.1129276 0.31746957 -0.021629315 0.003696659 0.2144479 -0.008066248 -0.4240238 -0.14207631 -0.11926125 0.23805411 -0.3358934 0.07474778 0.1607739 0.005800477 0.11703457 -0.44300392 0.3692982 0.32480425 -0.17374788 0.082545616 0.05018268 -0.20740049 -0.11280853 0.1031979 -0.1532427 -0.43390226 0.41289008 0.25015312 -0.14048643 -0.25015545 0.046499014 -0.09811312 0.5812193 -0.4712735 0.14961842 0.038531855 0.14854395 0.3928079 -0.35506365 -0.26527494 -0.84658986 -0.04627398 0.01824886 0.1274418 0.027400782 0.004145528 7.800282e-05 -0.31548303 -0.23165798 -0.20871067 -0.28237388 0.05606943 0.053378645 -0.1580024 -0.3019053 0.1405129 -0.27935183 -0.042903103 -0.062434096 -0.13966319 0.2347611 0.07503525 -0.12877524 -0.06167376 0.15819687
1638 -0.1096099 -0.1780607 0.21362378 0.11998377 0.008538237 0.112471394 -0.36604622 0.12646973 0.006271243 0.19142936 -0.13343216 0.40852916 -0.4509465 0.07898213 -0.47500575 0.00040549494 -0.19017948 0.43560383 -0.16319801 0.16818208 0.22346163 -0.2198208 -0.40779388 -0.017889667 0.20022075 -0.15271619 0.1439025 -0.26670098 -0.018076647 -0.16866247 0.19098587 -0.32075438 -0.20690446 -0.07473531 -0.21809624 0.31328872 0.11889261 0.26537088 0.096827894 0.16322803 0.1733292 0.04255435 -0.22302632 -0.3804833 0.3171985 -0.37463954 -0.14518239 -0.028839175 -0.039210953 0.19734251 -0.096349865 -0.2403925 0.61714464 0.026998011 0.09121658 -0.36378446 0.12742549 0.016503451 -0.00077623257 0.12443069 -0.30814362 -0.11158643 -0.17557721 -0.14142035 -0.09325842 0.229858 0.22262427 0.24758016 -0.12963861 -0.5199181 0.05764302 0.38744858 -0.23245521 -0.3173157 -0.32746094 0.24227959 0.1334567 0.20164923 -0.3385453 0.20672004 0.009316561 -0.025802106 0.21427162 0.31004313 -0.22405925 -0.007244792 -0.05876485 -0.20952128 -0.5887677 -0.12823173 -0.050424825 -0.021534357 0.093922205 0.12649508 -0.14174579 0.40076977 -0.25507843 0.13119707 -0.25468445 -0.124906175 0.2622437 -0.4367846 0.2510018 -0.5023759 0.22923471 0.40238518 0.061305907 0.37467176 0.073597096 0.0980347 -0.1351351 -0.07693443 0.14619541 -0.1813222 0.016594557 -0.036636636 -0.15256439 -0.22903259 -0.06398164 -0.28600192 0.08997071 -0.4038652 -0.21631487 0.3167957 0.31233174 0.032227725 -0.2555923 -0.18856527
1443 0.13452727 -0.21055919 -0.09982683 -0.395222 -0.52020407 -0.10942059 -0.3342199 0.4613799 -0.13960654 -0.3073322 0.45409304 0.3775459 -0.27022147 -0.2295901 -0.18164054 0.029541144 -0.031528372 0.24230261 0.36887327 0.26111087 -0.0033876954 0.33074743 0.13647787 -0.0019056664 -0.30481455 0.090718865 0.11149109 -0.5317741 -0.11514699 -0.29323834 -0.009869743 -0.1525565 0.22502102 0.026313588 0.36735195 -0.34941033 0.21568112 -0.1581088 0.2067445 0.21936272 0.24097018 0.46979094 0.20520677 -0.05254013 0.02976432 0.05513296 -0.3479749 0.067787915 0.00051903963 -0.09858216 0.17871733 0.1841018 -0.29891703 -0.23145619 -0.010010294 -0.2017171 -0.02315586 -0.08956471 -0.21006383 0.6182305 -0.25888976 0.15204144 -0.20545925 0.01621095 -0.0039356733 0.33639205 -0.09450198 -0.0064320303 -0.095510334 0.09986815 -0.018939346 0.4356118 -0.32397565 0.05393625 -0.08119175 -0.23752284 -0.06476016 -0.056098085 -0.16782182 0.37048724 0.21535486 -0.052938864 -0.04159274 -0.47317 -0.11327791 0.061467413 -0.35965604 0.05967764 0.1627364 0.3546578 0.22514738 -0.17252672 0.042295385 0.65433943 -0.031427857 0.1070324 -0.2676954 0.2860011 -0.30231747 0.2324458 0.15732384 -0.20815744 -0.32290593 -0.027668206 0.32828605 -0.31509712 0.21211149 0.11533651 0.23645067 0.0549281 0.12106649 0.03635633 -0.46851343 0.4078074 -0.12086674 0.0655356 0.32226896 0.1104618 -0.34116015 -0.5570079 -0.12435571 -0.46405607 -0.3055706 0.040864483 -0.41504383 0.17151979 -0.18355328 -0.34963495
2330 -0.25306293 0.18468347 0.069901146 -0.037253596 -0.08180778 0.080666624 -0.23475121 -0.27509508 -0.1319456 -0.30752054 -0.044826433 0.04316039 -0.24543169 0.31606522 -0.061485305 0.30440697 -0.13538569 0.60023737 -0.3562037 0.39849073 0.006436046 -0.007012508 -0.22167267 -0.23783144 0.14124528 -0.20594877 0.09516172 0.39489076 -0.026489042 -0.11387904 0.21849553 -0.2124455 -0.28276694 0.1494559 0.06082343 -0.064709306 0.015118879 -0.07975312 0.4768257 0.066597484 0.07389096 -0.01872769 0.005992292 -0.4996049 0.4632393 -0.42696947 -0.21122459 0.012066032 -0.34403586 0.22172675 0.15833262 -0.45200974 0.22698517 0.19071664 0.12718868 -0.066587426 0.0904204 0.06985503 -0.2767535 0.37831318 0.05881729 0.1788766 -0.70691574 -0.30973688 -0.07535176 -0.001106627 0.3472566 0.4873918 -0.49662212 -0.37391302 0.09679281 -0.4547705 0.19967502 -0.26216683 -0.09801675 0.1702872 0.16191253 -0.1555429 -0.3668297 0.29771554 0.16281593 0.03950744 0.6070884 -0.10914411 -0.5336847 -0.33428696 -0.116749085 -0.18182616 -0.5435918 -0.26568502 -0.014881752 -0.1651617 -0.086062945 0.098514006 0.2398384 0.28110912 -0.4810029 0.123434305 0.17243907 0.023251263 0.21041286 0.113052435 -0.12441296 -0.23363627 0.25139043 -0.021662109 0.009058992 0.14444 -0.11871714 -0.05671135 -0.1714407 -0.02861511 0.08834029 -0.05508745 -0.1509074 0.20073298 -0.02532654 -0.21145861 -0.16789758 0.20878369 0.24024406 -0.25331792 -0.62714624 0.30742738 0.14931564 -0.0027863248 -0.5126912 -0.33773226
1476 -0.1886512 0.08231111 -0.14007992 -0.24934445 -0.24044785 -0.112194724 -0.06562681 0.2081865 -0.1895632 -0.3369572 0.025265113 0.63722354 -0.2693619 0.19624436 0.25415573 -0.1646169 0.0023420842 -0.18267019 0.33560455 -0.033262055 0.053797685 0.29776633 -0.19524653 0.29656753 0.07358002 -0.35353538 -0.04622824 -0.34163225 0.014702938 0.055696677 -0.008817001 -0.11641714 -0.17931227 -0.055415496 0.15335055 -0.23363307 0.064855345 0.03101885 0.41950986 -0.20037018 0.24781251 0.53790194 -0.057746157 -0.12241941 0.10896989 -0.11233268 -0.12536655 0.36600405 -0.083996266 -0.26223612 0.17053398 0.27670336 -0.39346844 -0.21651039 0.4290287 -0.38441783 0.1519641 -0.23173729 0.0027734877 0.16155872 -0.5108459 0.32209253 -0.22556482 0.27613574 0.2687346 0.15636079 -0.20539965 0.12450056 0.27938968 -0.16188884 -0.014134731 0.5021819 -0.3566932 -0.5772899 -0.46888253 0.17313781 -0.057095125 0.070904225 -0.37196907 0.4207961 0.1333237 -0.20512983 -0.24174675 0.012137747 0.029039994 -0.01420094 -0.32684672 0.11837439 -0.045952074 0.16686566 0.4622403 -0.12133357 0.20344205 0.42903697 0.06753013 0.412904 -0.22472122 0.016321858 -0.020660875 -0.08125876 0.14390591 0.29536107 -0.3313744 -0.22388043 0.43712315 0.018816961 -0.051133808 0.47937274 0.17749739 -0.28538173 -0.040901437 0.11498818 -0.5197698 0.5241863 0.10964443 0.13901672 0.1228006 0.10249191 0.028960636 -0.33812043 -0.09737927 -0.55084723 0.12682636 -0.10856397 -0.41686147 -0.047567833 -0.13229255 -0.24755551
696 0.14839968 -0.0830812 0.3533251 -0.4186781 -0.4539018 0.39137885 -0.34675887 0.5738151 -0.035269424 0.28846854 0.52045614 0.17524739 0.15427843 -0.31013507 -0.40247956 -0.31459406 -0.18801402 -0.109906025 -0.16705187 -0.10776529 0.045352392 0.25999495 0.088580355 0.14528999 -0.11003238 -0.25471482 -0.36046505 -0.2327529 -0.12509345 -0.14692177 0.045559406 -0.3535524 -0.3722498 0.10979936 -0.059830923 -0.15425684 -0.105772175 -0.26425114 0.05443868 0.15710753 -0.20863627 0.19518031 0.18909916 0.030308481 -0.07759581 0.00873177 -0.028976547 0.09277046 0.29010972 0.26459843 0.12995043 -0.16458426 0.3046118 0.40824372 0.18836328 -0.057445474 -0.33669516 -0.20829996 -0.26475203 0.26309225 -0.05895946 -0.22006817 -0.24414305 0.25253007 -0.051147964 0.14772019 -0.4813088 -0.027756914 0.031665362 -0.03162197 -0.55755347 0.11144013 0.20881903 0.39305115 -0.114942364 -0.12051357 0.067664705 0.04094134 0.111648485 0.068559736 -0.31847256 -0.22978385 -0.017740343 -0.021873847 -0.202841 0.1805983 -0.017203413 -0.324092 -0.78588045 0.20970766 0.5103081 -0.51834905 0.35392013 0.7892535 0.21943577 0.39085945 -0.2853973 0.11090367 -0.6682776 0.16627003 -0.2005553 -0.035979696 -0.0712334 -0.020176008 -0.30301 -0.19059885 -0.2546418 0.0226397 -0.19013052 -0.33909124 -0.04329005 0.17378479 -0.13369228 0.09304993 -0.23429312 0.1916324 0.04283151 -0.105235524 0.050032303 0.01825943 0.1995911 -0.1328763 -0.14301237 -0.3109649 -0.09036672 0.08133437 -0.23001817 0.024035262
1722 0.03875114 0.0044583883 0.48680395 0.20970729 -0.277731 -0.2221193 -0.08444385 -0.09711199 -0.08148926 -0.85942096 0.18543915 0.50703967 0.14021416 0.00056215224 -0.1414507 0.016259968 0.49028113 -0.36619627 -0.08761176 -0.019891497 0.07083835 0.019622527 -0.0723105 0.13772446 0.2938054 0.20504332 0.042777177 -0.09914218 -0.036198337 0.048985217 -0.20618887 -0.3562464 0.56968427 -0.13233252 0.07460157 -0.080978304 -0.17511523 -0.2789998 0.21917759 0.15550603 0.03784846 0.037807904 -0.1567152 -0.21979362 0.118798785 0.35832158 -0.15724163 -0.20416622 0.41235468 0.1991923 -0.38986972 0.009230415 0.17115347 0.6342573 0.37813228 0.118227206 0.44940758 0.29111004 0.4357256 0.07840165 -0.051942963 0.42703012 -0.005733184 0.3624087 -0.27042845 -0.15401043 -0.26526424 0.16521265 -0.27100584 0.06532773 0.013753879 0.08791027 0.033536103 -0.19844098 -0.20718257 -0.33602297 0.2824024 0.09744459 -0.29938364 -0.26922742 0.0629155 0.16026431 -0.07972881 -0.13683088 -0.26548645 -0.019535435 0.14840205 -0.5880899 -0.3936211 -0.24397117 -0.10425088 0.12709619 -0.14566544 -0.02724168 0.23196319 0.08722043 -0.33172077 -0.0067475 0.26920614 -0.0843012 0.12995718 -0.13576664 -0.25566205 -0.11093948 -0.15413278 0.26099536 0.4757952 -0.007611498 -0.345444 -0.083909325 0.02406848 -0.47273695 -0.032533642 0.2550704 0.14641029 0.6128917 -0.29796302 -0.35483617 0.37639526 -0.20959598 0.33294696 -0.21187891 0.043022037 -0.1785122 0.39070916 0.33048132 -0.0020772645 0.06179077
68 -0.22025397 -0.06613192 -0.42567408 -0.2287653 -0.1469251 0.14276779 -0.35225186 0.47853738 -0.20053998 -0.33290255 0.1850282 0.13219309 0.20964071 0.0296675 0.018062528 -0.03765489 -0.11478002 -0.6510827 0.046756987 -0.04768494 -0.11323717 0.062746964 0.03649501 -0.4204238 -0.21892428 0.087817095 0.45111018 0.17803602 0.48243102 -0.1412052 -0.4356972 -0.27615502 0.2812608 0.3875731 0.20377423 -0.03871855 -0.097931884 -0.30544946 0.030459458 0.3150474 -0.16607358 0.61568165 0.028741617 -0.39024064 0.54142237 0.291991 0.1155043 0.10703276 -0.32698718 -0.36310694 -0.0039088144 -0.01506347 -0.13297842 0.5929005 -0.19807537 -0.24186607 0.27472565 0.23747718 -0.07909593 0.2547383 -0.111183986 0.21276098 0.011449018 0.088830486 0.04840799 0.34830302 -0.34327906 -0.1206119 0.32504615 -0.047140274 -0.3085669 0.28427932 -0.4757678 -0.05290533 -0.010631644 0.16505183 0.06963286 -0.03933774 -0.10263145 0.1704663 -0.14802364 0.12300329 -0.1908222 0.039598383 -0.0671698 0.1084805 -0.35612953 0.2584004 -0.16077372 0.04076786 -0.19715077 -0.1982628 -0.20358488 0.4393033 -0.027960459 0.34028324 -0.45726338 0.03951042 0.029541114 0.17839971 0.12699443 -0.38590142 -0.42063484 0.13500372 0.03783299 -0.20101851 0.29667222 0.29882276 0.15045257 -0.05151125 0.13420674 0.41264033 0.07750685 0.0174235 0.061627958 0.14596002 0.43093225 -0.0012195867 0.2077163 0.021266067 -0.3102659 -0.4456821 -0.39483252 -0.2599981 0.36999482 0.10053074 0.03212252 0.18076181
510 0.5068127 0.053807758 0.1583221 -0.03605091 -0.5689779 -0.22508748 -0.11824593 -0.21392126 -0.45784283 -0.19990262 -0.1258097 0.4888784 -0.2672231 -0.49706787 -0.10313702 -0.24186225 0.0651184 0.035757583 -0.24355562 0.4372509 0.23816316 -0.12548491 0.019262373 -0.15280493 -0.22412652 -0.23366648 0.39610463 -0.02174146 0.2909995 0.46631494 -0.02554551 -0.4948029 0.049069952 0.25518385 0.0401187 0.0040865093 -0.12542535 0.08323574 -0.049217448 -0.112801656 0.11646255 0.03253685 0.25383627 -0.079703294 -0.24169014 0.036066618 -0.09325598 -0.26872942 0.15984644 0.17908022 0.22190568 0.2941353 0.21638449 -0.42042848 0.05928277 0.07694645 0.5439522 -0.20602237 0.3197794 0.18009962 -0.040902253 0.3534931 -0.099366084 0.3672626 -0.35817528 -0.010972508 -0.18113193 0.18101539 -0.16433741 -0.18308263 0.19074574 -0.09458022 0.2879967 -0.21179529 0.15400402 0.22646894 0.42241922 0.0040437123 -0.5533924 0.090717964 -0.008104118 0.09560687 -0.10573354 -0.29240155 -0.21836053 0.050282963 0.16122133 -0.12932387 0.31815282 -0.11430892 -0.15602992 -0.20723654 0.11458134 0.1340112 -0.039071076 -0.11310435 -0.34666434 -0.2353963 0.054351486 0.012641858 -0.114161305 -0.33208156 0.039039172 -0.28456363 -0.08725339 -0.3008152 0.46157223 0.25931066 -0.262252 0.26813766 -0.47479707 0.2132806 -0.10124279 0.34194067 0.06314472 0.31959596 -0.09792595 -0.22726409 0.8919975 -0.15029953 0.018841136 -0.14154996 -0.24652073 0.20845045 -0.20301978 0.3185331 -0.03208466 0.0036040393
1621 -0.12885796 -0.28328425 0.16541356 0.18426363 -0.08129687 0.20149033 0.077319324 -0.04546088 0.15204668 0.05759381 0.15565449 -0.05925762 -0.2800724 0.17884944 -0.27195337 0.38414976 0.026301935 0.00062142365 0.052913293 0.3519025 0.16267315 0.10835638 -0.25134704 -0.39874315 0.09694343 0.08824967 -0.11830308 -0.4022391 -0.49393386 0.32041648 -0.01399447 -0.31417617 -0.46480146 0.2357185 0.06428901 0.49326044 -0.08870192 -0.14516687 0.033092823 -0.06568152 0.095777564 -0.1659665 -0.24958993 -0.4555486 0.17467596 -0.36184952 -0.20169619 0.15945871 -0.34534892 -0.045601446 0.5855747 -0.24494809 0.18448927 0.31817862 0.12852204 -0.5715688 0.13006552 0.089744225 -0.22871685 0.38461733 0.08339092 0.1300479 -0.40752774 0.04822796 0.37698576 0.22253351 0.11651293 0.36765 -0.25619695 -0.03362199 -0.26757315 0.051398057 0.108076915 -0.18045846 -0.34393433 -0.113542974 0.15347683 0.17573307 -0.18969762 0.14299211 0.35857415 -0.09703828 0.27479607 -0.08976307 -0.19249077 -0.004674911 -0.20459327 -0.24900746 -0.5340995 0.099954136 0.21826304 -0.057953868 -0.05822569 0.019527625 -0.35537648 0.35893083 -0.24237306 0.13819835 -0.08211468 0.13522072 0.6079954 -0.32581508 0.30657494 -0.3339409 0.07149676 0.41350096 0.013839394 0.47801143 -0.08342554 0.0869772 0.04841028 -0.121094555 0.059952367 -0.105856836 -0.14819331 0.21734166 -0.55675584 0.24293488 0.033101827 -0.13582528 0.14099228 -0.2842716 -0.07284468 0.30814168 0.18001465 -0.23911344 -0.15081269 -0.047321014
1444 0.24304263 0.16142286 -0.18012488 -0.42244896 -0.5607945 0.17560269 -0.05884436 0.35671976 0.16478366 -0.53441334 0.35412633 0.15665746 -0.3545995 -0.22414605 -0.023209397 -0.031783756 0.008994177 -0.12175915 0.07009981 0.071636386 0.054290388 0.54913604 -0.23617426 0.005519789 -0.25238192 0.042194974 0.11628805 -0.3344715 -0.084892586 -0.47194618 -0.34144163 -0.093667366 -0.056579687 0.13053152 0.3664313 -0.31816286 0.022381539 -0.107143134 0.4812666 -0.12763643 0.017725967 0.64273727 0.24415067 -0.0033581352 0.21734951 0.09578497 -0.16153388 0.19354455 -0.064403564 0.12338059 0.054112673 0.35503387 -0.30669782 0.1434251 0.14278764 -0.26378796 0.4206268 -0.11931651 -0.21252227 0.29890397 -0.6173316 -0.021181371 -0.27162683 -0.1068477 -0.0067135487 0.29112706 0.06640131 -0.26058453 0.13441212 0.03668183 -0.0958025 0.29690343 -0.3899871 -0.09832433 -0.37758562 -0.06787459 0.02358368 0.04269493 -0.3780222 0.1415259 0.3563805 -0.27028936 -0.1408647 -0.10736398 0.063829 -0.115155324 -0.3077922 0.08736046 -0.12012925 0.41746637 0.12488234 -0.23261765 -0.027193144 0.7818322 -0.13276386 0.548258 -0.3117134 0.42771867 -0.16683002 -0.06989814 -0.09926265 -0.06550117 -0.47156367 -0.19380943 0.08896973 -0.45029837 0.057200745 0.23651545 -0.11578419 -0.02239886 -0.049425714 0.20435376 -0.41053644 0.4690543 -0.16757172 -0.01622117 0.21882065 -0.05682789 -0.20440337 -0.3850661 -0.025973286 -0.31649637 -0.054685928 0.014868023 -0.23050822 0.069933526 -0.09381527 -0.30354774
1460 0.23014134 -0.08414627 -0.17747174 -0.4452742 -0.4810632 -0.108999036 -0.1705483 0.15542828 0.02347846 -0.1969399 0.70031303 0.4591474 -0.22931041 -0.062520765 0.21404175 -0.089771695 -0.086118944 -0.22821513 0.23690261 0.06107158 -0.06463943 0.53068095 -0.121321075 -0.10871975 -0.36993802 -0.0016677448 0.11413691 -0.49733317 -0.17189597 -0.21111882 -0.12964593 -0.2842978 -0.06728699 -0.10775392 0.26329362 -0.15038356 0.032292377 -0.1356412 0.25174776 -0.12072607 0.2109493 0.42053995 0.23215398 -0.184093 0.1315504 0.11225993 -0.14573278 0.16279003 -0.35737637 0.24143316 0.2988344 0.29905847 -0.37395218 -0.08858685 0.2641254 -0.121600546 0.17039242 -0.29559985 -0.03468191 0.3070701 -0.44684073 0.20929277 -0.024053477 0.014435319 0.03116941 0.08005919 -0.22930583 -0.16587287 0.15130801 0.18334398 -0.310163 0.22672145 -0.22781754 -0.14469622 -0.3786474 -0.13644092 0.043008722 -0.010382566 -0.26675317 0.4658247 0.23264535 -0.22211553 -0.14025337 -0.1459558 -0.26338753 -0.09823902 -0.3517922 0.1329185 -0.1649977 0.22888327 0.0661119 -0.073346764 -0.2656952 0.5420321 -0.13402773 0.46126762 -0.4937746 0.31860927 -0.27489477 -0.033912018 -0.04645394 0.2365883 -0.4104432 -0.2836326 0.2629197 -0.20087917 -0.06352951 0.25098383 0.09953366 -0.13626173 -0.017174263 0.08215994 -0.5500862 0.5815496 0.14664215 0.15887386 0.24296327 -0.057037998 -0.33196163 -0.45190513 0.074929856 -0.31118336 0.22784884 0.018216943 -0.26420453 -0.20704181 -0.12418789 -0.22188579
2197 0.20363136 -0.012441273 -0.017461197 -0.5884551 -0.05052908 0.26894698 -0.08812964 0.11867333 -0.47801584 -0.23303573 -0.006170733 0.079116955 -0.29688832 0.2920123 0.11682214 0.18802056 -0.11788282 0.038805958 -0.25186107 0.388752 -0.06699501 -0.23908368 -0.14159255 -0.40922487 0.312004 -0.009399054 -0.14048626 -0.08069194 0.23373377 0.26586843 0.24702495 0.09805404 0.28369915 0.22351031 0.15596229 -0.18570614 0.22076125 0.26830724 -0.36216298 0.01146103 0.21860138 0.17476702 -0.07338447 0.31582463 0.7718431 0.04806052 -0.21196932 -0.12927791 -0.11741435 -0.044531953 0.35476384 -0.35537922 0.08059507 0.33393285 -0.19856513 -0.32999593 0.20972848 -0.038718496 0.42026016 0.20190859 0.027591607 0.6356072 -0.035433628 0.23535532 0.028175611 -0.15333511 0.16762637 -0.0465855 -0.20491058 -0.57985437 -0.15521239 0.06463949 0.32746062 -0.25268295 -0.27214915 0.21370023 0.54215163 0.10160937 -0.28616884 0.07776977 -0.22008021 0.11420634 -0.3007294 -0.44408643 -0.38646454 0.22413513 -0.15848905 -0.21506028 -0.2604984 0.2766686 -0.11160137 0.10058257 0.5268103 0.023214541 0.04749398 0.048245233 -0.025166525 0.5046027 -0.1340556 -0.21489784 -0.06038517 -0.18449555 -0.004167986 -0.5809241 -0.056399293 0.2356206 0.37796465 -0.15913656 -0.37043783 0.15639067 -0.21346454 -0.20544848 -0.13409075 0.051730208 -0.093788594 0.11488084 0.0706448 -0.10276532 0.34851325 -0.28737006 0.18928576 -0.26569334 -0.15933861 0.039585084 -0.18815091 -0.15269265 -0.05058238 -0.0438321
1478 0.2037515 -0.22664161 -0.057318445 -0.26831922 -0.61734086 0.14018312 -0.32218325 0.35520634 0.0465187 -0.23164096 0.592995 0.5077382 -0.28744075 -0.32710174 -0.061068285 -0.023019683 0.021545546 -0.3006158 0.22129396 0.10987634 -0.06839564 0.39982703 -0.10491222 -0.039839838 -0.30678213 -0.06683976 -0.044278495 -0.28799602 -0.15683377 -0.3822764 -0.34167764 -0.30729026 -0.08063439 -0.015393386 0.11331125 -0.18228471 0.123820886 -0.05937446 0.33418858 -0.08793274 0.045353275 0.4357883 0.317266 -0.2290677 -0.016164228 0.22043328 -0.32026854 0.21899173 -0.29198253 -0.018383745 0.07189335 0.3130501 -0.39769053 -0.2708909 0.24168381 -0.2034937 0.056175828 -0.010980893 -0.20022507 0.17960876 -0.16387902 -0.058212865 0.045726962 0.038112313 0.27547902 0.07840373 -0.054073747 -0.124873154 -0.0051474213 0.29064888 -0.3626621 0.25135237 -0.19197342 -0.2781485 -0.45518672 -0.070619114 -0.15205729 0.31223795 -0.3222488 0.2669023 0.0015697333 -0.31972784 -0.2798535 -0.17145202 0.20609826 -0.23913683 -0.3557359 0.031602807 -0.10825106 0.2742609 0.10963079 -0.047150515 -0.01460844 0.4841254 -0.059724573 0.65139556 -0.284883 0.414942 -0.3838778 0.16204202 -0.06788974 0.2090149 -0.38373545 -0.29965863 0.41642788 -0.15477768 0.041516736 0.08242282 0.049771003 -0.13573125 -0.17378573 0.11024454 -0.63249195 0.44856426 0.22745958 0.17089902 0.09062865 -0.31185466 -0.37748405 -0.4237095 0.11697546 -0.35315514 0.38355866 0.18403399 -0.15705204 -0.02110247 -0.16165656 -0.1112387
2159 -0.10167083 -0.3928573 0.043923005 -0.25747573 0.033106618 0.48495865 -0.10096232 0.25624827 -0.26045096 -0.28106448 -0.2312841 -0.110346 -0.22525935 0.22341153 -0.1055856 -0.058441184 0.3896182 -0.020151908 -0.4001335 -0.24717799 -0.07551348 0.057000197 0.49386784 -0.059798256 -0.038095146 0.11101415 0.123804994 0.09340084 -0.16612148 -0.3747987 0.21772368 -0.41655296 -0.17157175 0.07959146 -0.20109291 -0.0033955406 -0.163027 0.13908035 0.0018656093 0.2774276 0.24707685 -0.03904981 -0.0870836 0.0041238726 0.19990191 0.57850873 0.33970374 0.22784935 -0.14670867 0.12089642 0.48251203 -0.22412655 0.35768956 0.13599373 -0.2079652 -0.47210687 0.76267636 -0.4357583 0.4291814 0.4049823 0.14396402 0.067430995 -0.37018466 0.15939818 0.08073935 0.28500777 0.10589022 0.22951354 -0.35307536 -0.401517 -0.3664915 0.12086454 -0.09799401 -0.64036006 -0.11725561 -0.007924401 0.19488029 0.2397242 -0.41760603 0.08520872 -0.009166766 0.06804231 0.51464516 -0.014773554 -0.07723781 0.08088935 0.1327261 -0.12056498 0.14855228 0.2613612 0.3084695 0.114994235 0.041553162 0.4676221 0.22295155 -0.21372041 0.2546966 0.47072604 -0.25827515 -0.19221658 0.090989284 0.12649707 -0.21555604 -0.026130404 0.2523644 -0.09943064 0.2740608 -0.065279245 -0.13032149 -0.19075948 0.20168963 0.09093847 -0.29704228 -0.111184776 -0.23787124 0.23797898 0.092578195 -0.01892842 0.4497393 -0.05971254 0.12789293 -0.06678458 0.1288238 0.0881403 0.1804606 -0.48690453 -0.3746436 -0.024573572
1430 0.22379167 0.15187532 -0.21528345 -0.51118124 -0.15187274 0.24851032 -0.29696676 0.006576784 -0.16669397 -0.16142212 0.41700506 0.40368852 -0.29273453 -0.08624458 0.0746242 0.19079506 0.06410387 -0.28379318 0.23913988 -0.08766557 -0.00034570083 0.5102394 -0.3320095 -0.23677343 -0.40770426 -0.008659087 0.17840263 -0.58619505 -0.16475342 -0.53338134 -0.060073256 -0.18043351 -0.21209061 0.21935718 0.54883516 -0.024294559 -0.041447297 0.013084329 0.17995402 -0.1487006 0.46448234 0.5409992 0.30021995 -0.17524515 0.05100046 0.14426279 -0.058026493 0.12702872 -0.16481529 0.11039184 0.3614099 0.35239312 -0.46777135 -0.0085762525 -0.06301308 -0.27179837 0.07208959 -0.22457938 0.03014494 0.32404727 -0.47440773 0.069451205 -0.036349066 0.46128115 0.12860787 0.22588892 -0.16753407 -0.017927835 0.02257115 0.101258464 -0.15698324 0.32757083 -0.42954224 -0.19982038 -0.18022934 -0.10875931 0.25038603 0.04098987 -0.25065047 0.32240775 0.4448772 -0.01483529 -0.17109974 -0.15861154 0.080474906 -0.12891686 -0.36807165 0.12690288 -0.17071813 0.09039057 0.2800135 -0.04839983 -0.14970058 0.87437785 0.018079707 0.16581619 -0.54216677 0.22681889 -0.1576644 -0.010639661 -0.36121222 0.24543066 -0.23686127 -0.31340486 0.23720549 -0.36268124 0.20596741 0.109441474 -0.07912802 -0.25157493 0.03989315 -0.07835924 -0.09178954 0.34575522 0.0545486 0.16962153 0.089305595 -0.025722304 -0.034145277 -0.4331983 -0.1503033 -0.4118512 0.3612649 -0.1544678 -0.16803625 -0.09969002 -0.06725211 -0.36961254
1330 0.16063851 -0.13939194 -0.01788744 -0.47861853 -0.16171938 -0.14171733 0.08674255 0.16122048 -0.47549987 -0.21315166 -0.54915714 0.37698552 -0.13162102 -0.19097787 0.13795593 0.026699586 -0.033783067 0.25944075 -0.40897077 0.24720919 -0.18083355 -0.22191471 0.0065551233 0.044071604 -0.011397203 -0.13934812 0.3143253 0.095383145 -0.25915617 -0.36817086 -0.11043093 -0.17419504 0.030509908 -0.21804783 -0.11974858 -0.15805472 0.07282946 -0.29941306 0.13967076 0.47450224 -0.18465222 0.0600078 -0.028309962 -0.22505839 -0.2116337 -0.06267284 0.08788937 0.14117889 0.20528878 0.33192682 0.1909757 -0.20060551 0.14783405 0.03092738 -0.45637232 -0.16703166 0.12084168 0.37569422 0.20484367 0.05867164 -0.33140063 0.07560195 -0.45286664 -0.10072663 -0.020646531 -0.3714727 -0.5656462 -0.28097242 -0.20438416 -0.11481706 -0.07637608 0.014913605 0.0049936986 -0.28937414 -0.300144 0.08192129 0.23299217 0.31538054 -0.33195624 0.4425661 0.18031427 0.51566297 -0.06050609 -0.26807597 -0.22159848 0.48476225 -0.024238415 -0.144024 0.07052942 0.009692359 0.04493704 -0.19407639 -0.28462395 0.124768585 -0.40577045 0.12487917 -0.4162733 -0.33262444 -0.18426014 -0.21907994 -0.43896973 0.17515633 -0.19044119 -0.30317464 -0.057943996 0.036872163 0.9040518 0.37753704 -0.1839424 0.17944036 -0.11244334 -0.1700125 0.2426096 0.20287378 0.16830674 0.011767523 -0.11715486 -0.10653779 0.25462615 -0.1534328 -0.41671923 -0.31971723 -0.059586268 -0.31703803 -0.35463902 -0.26538706 0.027478337 0.109333836
1446 0.1913682 -0.1420206 -0.062337548 -0.54443973 -0.37211248 -0.21587066 -0.24732117 0.14742917 0.084335186 -0.2775378 0.61032844 0.2913502 -0.00041101535 -0.08300561 0.20500198 -0.0028137278 -0.1556406 -0.11213346 0.14873822 0.050868135 -0.06294758 0.5072844 -0.3612558 -0.010412578 -0.4014138 -0.3266622 0.07679972 -0.4385812 -0.08982365 -0.31160134 -0.0032048866 -0.07603111 0.032357965 -0.08148611 0.3089243 -0.18246399 -0.04165485 -0.22008048 0.4732338 -0.13976225 0.201043 0.54550993 0.19788791 -0.009736227 0.13511518 0.24616843 -0.09129006 0.17758672 -0.30173364 0.03928001 0.4025095 0.3802495 -0.33804736 -0.10226486 0.119624205 -0.3375212 0.106864065 -0.22235064 -0.08327088 0.2058544 -0.4017065 0.20425121 -0.18545017 0.24677528 0.11687301 0.19755329 -0.336248 0.028091604 0.2704209 0.017935429 -0.14556846 0.31316966 -0.37177384 -0.3603954 -0.33434203 -0.15514362 -0.15024441 -0.096555024 -0.31485367 0.24471855 0.3993187 -0.14303848 -0.11647173 -0.09552347 -0.07291248 0.0006442077 -0.37575865 0.0997351 -0.3424596 0.19553386 0.18364309 0.047523934 0.0452327 0.45216113 -0.029396443 0.45925257 -0.49475083 0.37368774 -0.14192012 0.04847133 0.050040655 0.066338055 -0.5140351 -0.23483697 0.3059654 -0.25502226 0.17500645 0.28508553 0.066092774 -0.2750447 0.063746095 0.28864667 -0.24737458 0.34885886 0.110509 0.19563873 0.26325935 -0.04421657 -0.18734095 -0.4011522 -0.007405921 -0.23637666 0.11156262 -0.00844392 -0.32160905 0.0069431853 -0.074162364 -0.15171827
399 0.05284718 -0.49887085 0.35690305 -0.5873777 0.13032582 -0.1298027 -0.28427052 0.39670256 -0.273426 -0.09781803 0.2076634 0.16799222 0.0813019 0.56984186 0.00641516 -0.12088116 0.1530244 -0.15888865 0.091737136 0.015948903 0.086799204 0.2174754 -0.062352963 -0.32901335 0.16474824 0.30895463 -0.035003096 0.28564176 0.06284156 -0.2770948 0.105346106 -0.26854816 -0.31032178 0.38079017 -0.22603106 0.28690055 0.10857235 -0.4349424 -0.059264008 -0.055141777 0.13120219 -0.20233153 -0.3230893 0.29253957 0.21788909 -0.31496087 0.13972493 -0.5011775 -0.13935016 0.03770201 -0.0531882 -0.121364966 0.3453284 0.16715936 -0.2906375 1.0705902e-05 0.4106402 -0.014399037 -0.12761876 -0.16652606 0.04515683 0.21365005 -0.22125909 0.1371257 0.34311274 0.43762386 -0.052547637 0.056118194 -0.31268883 -0.08232945 0.30293342 0.03170108 -0.27983993 0.036032077 -0.6451391 0.2508786 0.30106413 -0.39969796 -0.0630658 -0.041888557 0.069177 0.13671374 -0.24554713 -0.107372954 -0.35959435 0.07118403 0.20842452 0.14651102 0.08015809 0.14332025 -0.20583254 -0.2841277 0.33349746 0.2625313 0.15496479 0.5033249 -0.37217626 0.44223475 0.08535283 -0.57808244 -0.07901904 0.42826822 0.17861964 -0.1385736 0.41911092 0.08317538 0.2502955 -0.06993223 -0.35999578 -0.06297966 0.013494893 0.019987743 -0.105872676 -0.06141732 0.089765236 0.19793604 0.33167455 -0.22463703 0.17193857 0.20640253 0.11008799 -0.28558183 -0.21469174 0.15868874 0.0023523406 0.4165193 0.047777347 0.00555734
1646 0.22034244 -0.48147184 0.4099171 0.1524734 -0.11338137 0.19428013 -0.50354934 0.068180785 0.22518721 0.3723733 -0.2372141 -0.010378739 -0.33031192 0.025375918 -0.42375585 0.11267894 -0.23942283 0.23123007 0.047225013 0.3115353 0.0025536967 -0.29922992 -0.23843619 -0.285276 0.102840446 0.025569184 -0.066966645 -0.05691233 -0.23207499 0.0285558 0.09401312 -0.53666806 -0.26670155 0.12635699 -0.15272127 0.50991046 0.24237798 -0.1652755 0.34093127 0.07968657 0.2813848 0.0039653494 -0.0056347866 -0.75135666 0.32185563 -0.27889368 -0.033056375 -0.010907205 -0.28773686 0.0052138097 0.32325995 0.077105656 -0.124535255 0.038200777 0.020815069 -0.23635979 0.17047143 -0.117455006 -0.011361588 0.37213042 0.051488347 0.031754363 -0.1497712 -0.17783175 0.14319888 -0.022652475 0.18535389 0.5589244 -0.022194263 -0.34166032 -0.18546939 -0.24744631 0.058246933 -0.49434128 -0.41686928 0.29538834 0.04968995 0.06761362 -0.2021912 0.2570176 0.5116797 0.09394001 0.4069563 0.17909285 -0.19343106 -0.1631811 -0.022963712 -0.31540722 -0.49007395 0.28563425 0.2237681 -0.016739225 -0.17220096 0.07694925 -0.293726 0.49378568 -0.25937128 0.23471722 -0.0576073 -0.07534259 0.3955736 -0.41218728 0.023906348 -0.20703208 0.2248578 0.43312764 0.0978307 -0.028392239 -0.43122396 -0.08901193 -0.16590989 0.09530665 -0.19647038 -0.2736968 -0.3012699 0.2260105 -0.31773257 -0.23199126 0.021302737 -0.28618914 -0.07436267 -0.28361437 -0.23904142 0.55768347 0.15707302 0.023742942 -0.0059049902 -0.22723964
568 -0.02542794 -0.008469418 -0.016598368 -0.58620673 -0.44572496 -0.22599463 -0.13003458 0.006352039 0.23094353 -0.038155213 0.32536322 0.6246166 0.10470272 0.13425744 0.221172 0.06376832 -0.2694526 -0.039693907 -0.06290519 0.26082507 0.28588504 0.05173426 0.11550328 -0.51447165 -0.29665294 0.2887535 0.22261588 -0.27377045 -0.11834252 -0.119636066 -0.011504594 -0.6215669 -0.048173975 -0.022552488 0.046300013 0.04263946 -0.20837408 0.34938872 -0.0030836866 0.34543353 0.48022476 0.6918709 -0.11454661 -0.3901108 0.37182602 0.009883769 -0.16152374 -0.08296932 -0.12849575 0.0741936 0.26643914 0.27031675 -0.15004304 -0.022141133 0.17828327 -0.15858431 0.076711945 0.17699121 0.5963521 0.2851966 -0.20143121 0.2551573 0.29101256 -0.23290114 0.18353844 -0.20933475 -0.4733157 -0.07036855 -0.060905904 0.4514325 -0.18004529 0.09778267 -0.12070291 -0.18091035 -0.31575492 -0.51450807 0.031064112 0.12535834 -0.18160686 0.06640714 -0.07477018 0.399437 -0.56759906 -0.20923369 -0.49375498 -0.05477935 0.042778615 -0.023619814 -0.051317863 0.36433202 -0.07564212 0.4221811 -0.3216467 0.1326886 -0.093954675 0.9085491 0.028747162 0.6020969 -0.2861643 -0.11338501 0.1444554 0.034768175 0.17634505 -0.5578986 0.15437247 0.14737178 0.3391654 0.7328037 -0.057995606 0.06543884 -0.21261524 -0.1361053 0.10192351 0.46011323 0.2898063 -0.32638723 -0.3997195 0.29353678 -0.014252548 0.12125988 0.14140157 -0.29249147 -0.18233931 -0.12089291 -0.13854834 -0.2454022 -0.52468944 0.2565983
1573 -0.056840435 -0.6094595 0.04626504 -0.15595771 -0.3918235 0.27983084 -0.15137444 -0.059921972 -0.021203969 -0.009212165 0.13385555 0.2725724 -0.15063289 0.09194131 0.0065068454 0.056123372 0.010526704 -0.38826662 0.3606695 0.084809095 0.3025387 0.28831288 0.26966536 0.21964327 0.17911716 0.2726195 -0.35960385 -0.20578584 -0.6246801 -0.10587527 0.12300801 -0.26106542 0.11348047 -0.10440744 0.18040134 0.08456912 -0.034673672 -0.2738424 0.024379203 -0.010062975 0.13720594 -0.10330654 0.55577236 -0.30612323 -0.30640575 -0.33806902 -0.21492678 0.28560513 -0.102270454 0.46526226 0.1541698 0.33157673 -0.21090136 0.11046629 -0.25371155 0.19422519 0.06766132 -0.5400513 0.053770576 0.4292057 0.012705649 0.35326788 -0.06594416 -0.27649954 0.24884708 -0.20435347 -0.109598845 -0.07918275 0.29134253 0.2785915 -0.29197633 0.16139655 0.23222362 -0.2980905 -0.07791501 0.1473063 -0.061377835 -0.33334422 -0.27643412 0.4329904 -0.06418724 -0.3976024 0.14415272 0.23167047 -0.33927146 0.10835994 -0.33750734 -0.12732507 0.013059878 0.3862848 0.2599075 -0.13159934 -0.24922691 0.469053 0.09251828 0.33746842 -0.35404527 0.32099056 0.09424095 0.20970123 -0.19531219 0.048630152 -0.16696852 -0.4427099 0.35863814 0.14467333 -0.295463 0.33439222 -0.043707985 -0.06583067 0.07614084 -0.35797817 -0.5453339 0.52109075 0.33335075 0.29242054 0.10137608 -0.052941088 0.10262587 -0.23984724 0.43129042 0.012565178 -0.20845759 -0.30726713 -0.07856809 0.05467229 0.22717695 0.25093135
1417 0.11773262 0.10907998 -0.1744521 -0.53975093 -0.2494816 0.05180213 -0.15871058 0.19914606 0.023089565 -0.45902956 0.5492931 0.2840151 -0.06156699 -0.28711835 0.17440982 -0.017527495 -0.098643474 -0.1676388 0.20221677 0.046405267 0.0023283046 0.3676461 -0.12944561 -0.0028076908 -0.39041507 0.06741146 0.14130113 -0.38373396 -0.18940465 -0.3292254 -0.100532785 -0.2877649 -0.16024214 -0.08987525 0.42507753 -0.18593435 -0.026758697 -0.2874924 0.42078137 -0.12600346 0.19450903 0.4295362 0.15851454 -0.09503553 0.32056278 0.01281963 -0.02092387 0.107615516 -0.2543213 -0.13864282 0.31520507 0.35744986 -0.33242518 0.13665946 0.03554671 -0.2298125 0.19704102 -0.18238746 -0.03584082 0.29532284 -0.4327947 0.06371493 -0.31394172 0.2216143 0.0046399715 0.35232395 -0.26358393 -0.098553225 0.18846427 -0.051693976 0.0607542 0.23782414 -0.28811565 -0.19278735 -0.26831698 -0.06910295 -0.106816486 -0.19786206 -0.115121715 0.4912327 0.07251227 -0.36667454 -0.061531246 -0.39949745 -0.19895087 -0.22147454 -0.3395366 0.02621686 -0.0066183666 0.19356729 0.1374745 -0.12637232 -0.13486393 0.6138725 -0.053805254 0.2613788 -0.4546395 0.20810148 -0.22248785 -0.020372726 0.10517927 0.11972728 -0.49343672 -0.34682897 0.35701185 -0.41830453 -0.0022591553 0.13625887 0.16011478 -0.075322315 0.04953868 0.18949124 -0.35190305 0.403645 -0.057726283 0.16034813 0.24171714 -0.086533435 -0.26756147 -0.37597588 0.026743699 -0.44072482 -0.0433723 0.20766182 -0.3111141 0.10416963 -0.1683598 -0.32275692
1423 0.05423608 0.043505646 -0.11708965 -0.48186228 -0.3904258 -0.23347457 -0.19323145 0.21695845 -0.017988142 -0.33160394 0.5387528 0.2440894 -0.111228734 -0.30867085 0.21458505 0.16767046 -0.08042522 -0.19549619 0.10013951 -0.007558077 0.19780388 0.43829843 -0.022823686 -0.15900488 -0.2958224 -0.07728587 -0.0019607318 -0.31658518 -0.12386079 -0.20738508 -0.15174787 -0.16553655 0.0642615 0.1961425 0.28493655 -0.2452733 0.057066616 -0.13930927 0.30119208 -0.27224398 0.20259155 0.45369092 0.25654894 0.043476406 0.36139205 -0.040946368 -0.07718604 0.2676129 -0.06885438 0.13183531 0.4548795 0.4248304 -0.5015013 -0.057655264 0.124967925 -0.033505134 0.108823635 -0.21089575 -0.19654752 0.22752066 -0.3531681 0.11071422 -0.27352083 0.3301557 0.100347914 0.44018605 -0.12757462 -0.17779696 0.06909862 -0.074212335 -0.06452483 0.16780421 -0.41164067 -0.2767401 -0.467605 -0.10793885 0.06519289 0.014450903 -0.2303462 0.5327098 0.18938994 -0.0862921 0.027313694 -0.24099682 -0.2228463 -0.10493902 -0.37780055 -0.0033709118 -0.14121544 0.13242833 0.20052119 -0.17085288 -0.04792258 0.47832605 -0.16159488 0.17777635 -0.40320662 0.3403858 -0.19154604 -0.12068044 0.099095106 0.17382075 -0.487698 -0.25118807 0.46142706 -0.2520897 -0.12763406 0.1873222 0.18414937 -0.032957125 0.28510833 0.062301464 -0.39992082 0.54980594 -0.062925786 0.15139714 0.10511822 -0.02833445 -0.07962363 -0.40613374 0.1149979 -0.21975356 -0.06544066 -0.07015629 -0.22188438 0.21147308 -0.20288025 -0.30875093
1654 -0.031667188 -0.5633399 0.11088189 -0.043688208 -0.10853225 0.20050606 -0.15778896 -0.15234654 -0.024071936 -0.13704152 -0.091868155 0.07344282 -0.2715138 0.29672813 -0.23665762 0.26429808 -0.01711611 0.1681128 -0.024105873 0.20544466 0.11429242 -0.1924518 -0.30353206 -0.27578008 0.061936166 -0.11170401 0.14463447 -0.34808996 -0.35659942 0.09705692 0.13420965 -0.39983597 -0.4293718 -0.08092046 -0.015110201 0.33873266 0.13594885 -0.090357736 0.17931391 -0.25422266 0.25185513 -0.18331902 -0.2268993 -0.57357776 0.08790172 -0.110323615 0.07076702 0.14220674 -0.14642142 0.1869096 0.4820753 -0.0020905016 0.39662808 0.2399198 0.0032438356 -0.28083104 0.21913297 0.02018603 -0.1067914 0.26156974 0.2422536 0.038264446 -0.36867288 -0.07723144 0.25478616 0.1647008 0.10911442 0.5495571 -0.14654705 -0.47150996 -0.25765902 0.16848415 -0.21834838 -0.55004364 -0.2490467 -0.099274464 0.17412658 -0.13297887 -0.2648896 0.26756343 0.17135164 -0.10848689 0.32938868 -0.13269776 -0.28425518 0.060211357 -0.15664084 -0.2801699 -0.67717016 0.15140411 0.12674037 -0.018817456 0.20104674 0.015022408 -0.038456313 0.38945824 -0.1451566 -0.07334047 0.06545899 -0.1412431 0.47338352 -0.46104726 0.17666876 -0.38055974 0.14381413 0.5600669 -0.008929508 0.34569976 0.06250641 0.017674241 0.31172532 0.09692828 -0.33591592 0.056395534 -0.31663033 0.038505916 -0.35784444 0.2365556 -0.17417097 -0.0019704602 -0.04268657 -0.30960342 -0.07887101 0.117829725 -0.13733277 -0.35157102 -0.044060796 0.17804381
3 -0.15368755 -0.23103528 0.17070799 -0.057277046 0.06333893 0.049712203 -0.1478201 0.17907988 0.18780479 0.2700461 0.014891602 0.07040619 -0.32383057 0.35411683 -0.22797646 0.26477098 -0.18382339 0.42737725 -0.061976977 0.39999846 0.11650124 0.0093593495 -0.32750192 -0.34202257 -0.03214977 -0.013459794 0.00063281757 -0.24012448 -0.5441306 0.004132824 -0.05633414 -0.32139924 -0.40007997 -0.23751974 0.1763355 0.43945915 0.10394774 -0.052113574 0.1989002 -0.027273929 0.35220465 -0.024460377 -0.21315725 -0.27201453 0.2654937 -0.2560963 0.03099369 -0.26288936 -0.34882066 0.1694193 0.45026976 -0.2610325 0.40655318 0.22361478 0.06672588 -0.4584528 0.049322058 0.13026743 -0.20554599 0.30895165 0.12657177 0.27037707 -0.39875516 -0.014965936 -0.045273166 0.11265561 0.17373593 0.42157844 -0.32240006 -0.48497885 0.0117869945 0.14224991 -0.16786583 -0.4652912 -0.17239301 0.059898023 -0.06843074 0.040889803 -0.29728082 0.3500369 0.2140033 -0.23051701 0.20685613 0.06687723 -0.124169104 -0.10492561 -0.004309552 -0.22584964 -0.59460133 -0.039825268 0.050932992 -0.30541152 -0.13043787 0.25977752 -0.09176703 0.12832451 -0.20493613 0.013119332 0.12574174 -0.15661868 0.5257146 -0.23058729 0.04088357 -0.28370532 0.2849364 0.3425169 0.33056337 0.19652125 -0.121226855 0.013088515 0.28064892 -0.16154538 0.0117525 -0.37893546 -0.13714361 0.23491496 -0.4268443 -0.008200811 -0.15584117 -0.3153505 0.008968817 -0.39736268 -0.49022818 0.19436368 -0.0021133858 -0.10846973 -0.37258106 0.16414094
